68 10
14 -0.652782 -0.797554 0.974426 -1.831348 0.499218 -0.017753 -0.451262 0.050916 -0.180776 0.293364
11 -0.687178 -0.850510 0.963514 -1.850159 0.463088 0.051258 -0.532592 0.090497 -0.124780 0.290282
13 -0.447251 -0.711282 0.872418 -1.976409 0.433636 -0.101575 -0.546773 0.043612 -0.105536 0.260935
18 -0.565165 -0.776924 0.931311 -1.641801 0.577197 -0.077667 -0.403732 0.057332 -0.064064 0.203438
3 -1.259062 -1.576438 1.829064 -0.486526 -0.656091 0.437899 1.079551 -0.120619 -0.661909 -0.071584
4 0.465542 -0.870138 1.025757 -0.344074 0.025686 -1.744098 0.477583 0.724283 0.817671 -1.286395
12 -0.388648 -1.314279 0.219361 -0.109605 0.030578 -1.074721 0.015245 0.260949 0.867131 0.743744
1 -0.433959 -1.481256 0.073137 -0.108123 -0.306737 -1.054673 -0.009254 0.384105 1.037383 0.990727
10 0.649281 -0.724377 1.004794 -0.390856 0.182996 -1.594601 0.359898 0.634158 0.825163 -1.456965
7 -0.257539 -1.328644 0.151110 -0.228272 -0.278484 -0.860617 0.076263 0.267725 0.917045 0.715617
6 -0.201933 -1.145676 0.303660 -0.132028 0.220549 -1.050905 0.008992 0.324699 0.889865 0.436592
5 -0.402974 -1.456804 0.063081 -0.090610 -0.057058 -1.024302 0.103227 0.273805 1.045193 0.851350
15 0.594323 -0.432048 -0.466384 -2.216118 -2.039001 0.053737 0.520613 0.691349 0.545645 -0.808789
23 0.460427 -0.515688 -0.523489 -2.005798 -2.059153 0.123585 0.683090 0.733769 0.582453 -0.698363
2 0.442626 -0.550561 -0.579412 -2.018300 -1.890349 0.204159 0.929334 0.719203 0.536389 -0.674489
19 -0.683587 -0.777495 0.853969 -1.753068 0.601530 0.030524 -0.310436 0.054873 -0.102290 0.273831
38 1.007980 -1.253243 0.949111 -0.012549 -3.399610 -0.549069 -1.186747 -0.350362 0.027263 0.035497
17 1.017209 -0.797273 0.821928 -0.338094 -2.818138 -0.720857 -1.421589 -0.073748 -0.048594 0.009220
21 0.477834 -0.477397 -0.687925 -2.134587 -2.151427 0.175132 1.054580 0.636817 0.654839 -0.813759
60 0.566759 -0.588751 -0.731127 -2.172615 -2.157953 0.174704 0.550709 0.749955 0.633838 -0.504379
43 0.306955 -0.486925 -0.375144 -1.809699 -1.712778 0.211932 0.546287 0.517135 0.442918 -0.490906
54 -0.701330 -0.816644 0.895847 -1.818743 0.477277 0.045004 -0.538755 -0.064081 -0.133056 0.384629
56 -0.689524 -0.793494 0.918207 -1.710796 0.509310 -0.096170 -0.560914 0.037193 -0.225339 0.355902
52 -0.513153 -0.580491 0.794616 -1.893583 0.594731 -0.192298 -0.664000 0.071343 -0.068549 0.244069
53 -0.518570 -0.701119 0.766205 -1.987305 0.512672 -0.041217 -0.597152 0.133698 -0.131169 0.241937
42 -0.478853 -0.671016 0.709216 -1.977641 0.467173 -0.198169 -0.548336 0.199849 0.014617 0.243522
27 -0.381996 -0.664103 0.682248 -1.873316 0.588340 -0.180807 -0.540969 0.168085 -0.025601 0.173212
39 -0.758408 -0.844388 0.942432 -2.015886 0.520506 0.059673 -0.498901 0.088114 -0.161939 0.367962
26 0.456750 -0.689965 0.950769 -0.380387 0.236613 -1.498919 0.441125 0.505274 0.576211 -1.153057
66 1.455839 -0.277558 0.255257 -1.205290 -2.376039 -1.843583 -1.757853 0.867828 0.078285 -0.250386
55 0.537466 -0.694978 0.991007 -0.494835 0.241881 -1.601793 0.441062 0.602802 0.736474 -1.336482
61 1.485572 -0.203008 0.272876 -1.340174 -2.149208 -2.168932 -1.964100 0.983349 0.217356 -0.338752
65 0.540228 -0.705079 0.874045 -0.356182 0.164565 -1.724935 0.429861 0.627773 0.748317 -1.307062
49 0.508590 -0.685850 0.926647 -0.471837 0.100621 -1.426928 0.484139 0.511158 0.630647 -1.295559
37 -0.969142 -1.420073 1.753867 -0.090212 -0.662833 0.099698 0.778098 -0.113811 -0.437104 -0.104976
46 -0.977413 -1.285785 1.696306 -0.528802 -0.568074 0.342823 0.557698 -0.070388 -0.675656 -0.065789
34 -0.758678 -1.200201 1.703128 -0.249315 -0.561348 0.109397 0.583151 -0.089965 -0.575569 -0.307966
59 -1.010898 -1.529232 1.666617 -0.002262 -0.865040 0.270588 0.969123 -0.169842 -0.493349 0.010622
41 -1.035450 -1.449290 1.746204 -0.193679 -0.710497 0.331510 0.886583 -0.179269 -0.583777 -0.185935
30 -0.917171 -1.426708 1.784946 -0.242677 -0.493702 0.120005 0.655082 -0.180761 -0.572490 -0.101753
20 -0.391958 -1.316098 0.301549 -0.066857 -0.044965 -1.171336 0.128836 0.357052 0.782626 0.689921
68 -0.291851 -1.316155 0.398652 0.023008 -0.196375 -1.188209 0.109093 0.306122 0.844060 0.581087
57 -0.457048 -1.258220 0.201896 -0.272331 0.029852 -0.882983 -0.015538 0.251360 0.773686 0.842496
58 -0.437563 -1.330948 0.443813 0.036727 -0.056754 -0.948359 0.147904 0.271993 0.727859 0.651504
44 -0.392176 -1.233105 0.388090 -0.084513 0.060106 -0.921093 0.029848 0.217983 0.713581 0.683288
36 -0.360437 -1.326587 0.298787 -0.045084 -0.220523 -0.943340 0.279194 0.302804 0.801551 0.714939
47 -0.375400 -1.335461 0.156969 -0.087563 -0.267010 -0.954591 0.112134 0.299772 0.818983 0.785439
40 -0.376345 -1.282838 0.298087 0.037978 -0.056339 -1.058056 -0.023289 0.323570 0.820606 0.672859
32 -0.459625 -1.399557 0.216221 -0.127582 -0.059139 -1.017340 0.214753 0.310221 0.854135 0.766732
50 -0.417412 -1.337998 0.204640 -0.097006 -0.029709 -1.160259 0.180153 0.407413 0.912502 0.690743
67 -0.410056 -1.240432 0.244965 -0.117260 0.067197 -1.006667 0.094152 0.257556 0.893923 0.735814
35 -0.391611 -1.225970 0.124247 -0.099761 0.032766 -1.023928 0.030475 0.261088 0.850885 0.801428
64 -0.374463 -1.304416 0.491114 -0.058590 -0.075626 -1.027980 -0.019531 0.285477 0.724462 0.697968
24 -0.254437 -1.173488 0.097098 -0.200862 -0.113370 -0.920448 0.022091 0.321054 0.932106 0.747440
63 -0.195578 -1.131618 0.317468 -0.038596 -0.023336 -1.070426 0.084902 0.337716 0.829924 0.563296
62 -0.418724 -1.315875 0.376399 0.001884 -0.140876 -0.918761 0.008881 0.242757 0.736656 0.727310
48 -0.330565 -1.351799 0.263961 -0.047509 -0.006124 -1.126908 -0.025104 0.269582 0.977067 0.719193
16 -0.487909 -1.188738 1.185212 -0.607316 -0.374755 -0.452543 0.344785 -0.115706 -0.010302 0.306113
45 -0.440748 -1.329361 0.306899 -0.059785 -0.234377 -0.763696 0.354600 0.261004 0.745173 0.662624
51 -0.411577 -1.173877 0.268219 -0.265809 0.048448 -0.944924 -0.103403 0.232182 0.708533 0.815268
29 0.438845 -0.700722 -0.232018 -1.383624 -2.100436 0.006895 0.855534 0.276169 0.270639 -0.721621
8 0.613531 -0.687720 -0.139882 -1.065828 -2.158775 -0.149221 0.714393 0.290991 0.280653 -0.708544
25 -0.466291 -1.220217 0.278627 -0.103691 0.046290 -0.929780 0.095152 0.218555 0.770433 0.669967
28 -0.284036 -1.024549 1.184915 -0.666676 -0.407480 -0.370459 0.136414 -0.091193 -0.087597 0.037271
31 -0.378230 -1.192590 1.227881 -0.527109 -0.698707 -0.344009 0.292983 -0.128995 -0.122152 0.176516
22 -0.152972 -0.665868 0.318055 -0.230182 -0.659766 -0.101179 0.476642 0.031430 0.022926 -0.067900
9 0.103274 -0.514922 -0.108808 -0.631112 -0.837800 -0.204258 0.554834 0.285278 0.400376 -0.290849
33 0.552979 -0.302043 0.068826 -0.310322 -1.420479 -0.362016 -0.378062 0.198224 0.104267 -0.167597
