68 128
64 0.204612 -0.147562 0.102194 0.180843 -0.160669 -0.121068 -0.198639 0.170505 -0.197245 -0.113467 0.085967 -0.274961 0.017562 -0.070426 0.426792 0.128401 -0.152629 -0.378781 0.270166 0.065639 0.145359 0.009785 -0.137014 -0.034329 0.279988 0.011803 -0.010170 0.311920 -0.166313 -0.345996 0.101325 -0.275862 0.310545 -0.031800 0.278240 -0.118111 0.271052 0.085100 0.009928 -0.107484 0.053428 0.374388 -0.321752 -0.318413 0.175300 0.032071 -0.164244 -0.133272 0.130970 0.130358 -0.178839 -0.018482 0.187728 -0.088441 0.057458 0.040246 0.050558 0.052985 0.030507 -0.203435 0.006454 0.245546 -0.160763 -0.087417 -0.114179 0.062940 -0.121200 0.382170 0.063725 0.023996 -0.149025 0.167626 0.119269 0.084445 0.325744 -0.231955 0.020856 -0.084731 0.167989 -0.103911 -0.158414 -0.093331 -0.081687 -0.050352 0.178714 0.024174 0.113698 -0.144199 -0.124345 0.103341 -0.167675 -0.175852 0.117895 -0.132121 0.018834 0.017444 0.217501 0.134435 -0.008701 -0.001985 -0.109463 0.018897 0.200181 -0.161902 -0.187883 0.005896 0.028119 -0.019083 0.041747 -0.095780 0.256840 -0.025467 -0.011542 -0.133274 -0.249711 -0.052411 -0.068949 0.255823 0.102407 -0.101607 0.031168 -0.138273 -0.054641 -0.028597 -0.033767 0.083043 0.179549 0.071274
15 0.187661 -0.157949 0.055282 0.140882 -0.124352 -0.235507 -0.257419 0.178195 -0.291856 -0.107382 -0.013522 -0.275270 -0.038026 -0.043882 0.390799 0.199266 -0.175246 -0.416905 0.231392 0.058637 0.068117 0.028876 -0.103605 -0.013390 0.107543 -0.015949 -0.052737 0.348690 -0.106007 -0.317894 0.090299 -0.309349 0.367448 -0.102360 0.242217 -0.049300 0.194201 0.108708 0.052815 -0.079559 -0.105324 0.243887 -0.227599 -0.412626 0.124743 0.025419 -0.104833 -0.091917 0.068763 0.109689 -0.130541 -0.027012 0.176764 -0.092800 0.048803 -0.001036 0.019944 0.071645 0.067630 -0.185965 0.014817 0.225664 -0.065293 -0.075350 -0.038631 0.003804 -0.147640 0.345153 0.021721 0.057412 -0.113381 0.188773 0.188099 0.059033 0.335026 -0.201432 0.016161 -0.191292 0.202671 -0.088392 -0.101835 -0.083048 -0.124376 -0.019112 0.146129 -0.100292 0.081081 -0.180518 -0.202224 0.101734 -0.099605 -0.183046 0.106006 -0.072165 0.057106 0.055665 0.211932 0.161885 0.075378 -0.050313 -0.193264 0.045576 0.156754 -0.203661 -0.186887 -0.068572 0.059064 0.021155 0.126303 -0.078432 0.253837 0.112816 -0.088227 -0.147840 -0.167305 0.013975 -0.023947 0.308488 0.146500 -0.004613 0.071788 -0.094759 -0.039872 -0.077029 -0.065145 0.157858 0.185243 0.106251
46 0.142614 -0.128120 0.105342 0.149624 -0.161950 -0.084977 -0.159714 0.150875 -0.200037 -0.078870 0.021987 -0.290056 0.022920 -0.100423 0.491205 0.026196 -0.124063 -0.375828 0.260682 0.073742 0.084017 -0.016162 -0.234132 -0.059929 0.144026 0.116795 -0.007039 0.244829 -0.129200 -0.311356 0.078023 -0.259393 0.400986 -0.170776 0.215484 -0.073394 0.287392 0.002609 0.081594 -0.230809 -0.026796 0.333431 -0.342671 -0.345407 0.120947 0.062535 -0.121425 -0.124349 0.071118 0.205880 -0.087767 -0.101105 0.209132 -0.112926 0.022787 -0.000325 0.005747 0.050090 0.072842 -0.077958 -0.062185 0.281887 -0.093153 -0.035935 -0.046145 0.053802 -0.098257 0.369420 0.004758 0.132258 -0.106486 0.167880 0.206287 0.083930 0.298108 -0.165693 0.050837 -0.150334 0.228086 -0.046782 -0.146283 -0.164938 -0.037391 -0.071295 0.068914 0.036932 -0.019224 -0.193259 -0.206606 0.033535 -0.245162 -0.236372 0.199594 -0.086565 0.076089 0.052729 0.230669 0.138876 0.027049 -0.017758 -0.132788 -0.016286 0.216700 -0.267232 -0.149761 -0.090621 -0.022426 0.072216 0.082319 -0.102598 0.274360 0.033061 -0.084496 -0.251054 -0.196816 -0.066839 -0.084014 0.303606 0.137629 -0.154048 0.060033 -0.139733 -0.132267 -0.052641 -0.067867 0.087438 0.075635 0.031134
61 0.247373 -0.216961 0.122507 0.193554 -0.131934 -0.238262 -0.179205 0.245648 -0.185480 -0.139720 0.076849 -0.268946 -0.027314 -0.039527 0.358382 0.114101 -0.099707 -0.430361 0.206424 0.000867 0.065195 -0.035637 -0.181227 -0.081699 0.240168 0.080266 -0.004181 0.282288 -0.134304 -0.362206 0.096278 -0.301982 0.355055 -0.076873 0.239693 -0.046677 0.184964 0.169715 -0.040188 -0.179516 0.138926 0.384675 -0.332483 -0.347418 0.093455 0.045592 -0.052276 -0.063364 0.077524 0.072526 -0.059302 -0.048218 0.216311 -0.119761 0.028599 -0.035187 -0.020532 0.041801 0.076168 -0.106257 -0.047951 0.243176 -0.136511 -0.060581 -0.094608 0.037918 -0.135935 0.382990 0.038541 0.032343 -0.083716 0.072551 0.111325 0.087015 0.254474 -0.191542 -0.012289 -0.057196 0.247289 -0.102034 -0.081983 -0.065323 -0.101953 -0.020077 0.208944 0.081138 0.056059 -0.117635 -0.041902 0.133228 -0.049642 -0.159167 0.204704 -0.126982 -0.032861 0.042258 0.283890 0.131336 -0.019966 0.045664 -0.198874 0.022911 0.209684 -0.212694 -0.126353 -0.062274 0.014564 -0.075260 0.165680 -0.084503 0.219097 -0.024568 -0.078493 -0.257831 -0.211859 -0.093473 0.023664 0.351240 0.156859 -0.053155 0.021219 -0.153215 -0.069271 -0.046088 -0.100953 0.052072 0.172842 0.046474
47 0.284200 -0.158196 0.090744 0.205326 -0.186229 -0.040514 -0.207652 0.142077 -0.161378 -0.106810 0.012323 -0.311007 -0.037619 -0.062857 0.403580 0.023585 -0.104672 -0.361915 0.195639 0.088276 0.146096 0.012949 -0.144962 -0.060536 0.149135 0.004847 0.012103 0.252742 -0.088392 -0.356696 0.156587 -0.224935 0.329645 -0.066761 0.162787 0.002060 0.255045 0.012665 0.018283 -0.226021 0.007529 0.358602 -0.370688 -0.417293 0.111388 0.085539 -0.049361 -0.183410 0.064865 0.220333 -0.114851 -0.075773 0.151355 -0.050336 0.018438 0.004863 -0.021376 0.120994 0.058125 -0.103568 -0.035517 0.271901 -0.138126 -0.059426 -0.086836 0.043831 -0.129583 0.255829 0.005385 0.072878 -0.029048 0.154291 0.160931 0.063697 0.250976 -0.200485 0.057537 -0.176828 0.184819 -0.071096 -0.164182 -0.110545 -0.061826 -0.075225 0.073128 0.003605 0.061987 -0.194151 -0.121610 0.027674 -0.125962 -0.204930 0.213262 -0.136576 0.027327 0.003596 0.272317 0.134066 0.041830 -0.065175 -0.122299 -0.033330 0.125321 -0.216744 -0.154302 -0.024738 -0.000783 0.058526 0.061541 -0.107520 0.255107 0.091414 -0.079717 -0.251924 -0.291494 -0.001679 -0.089755 0.263050 0.136824 -0.182282 0.021194 -0.137730 -0.040952 -0.117667 -0.075659 0.053654 0.144941 0.088371
66 0.272236 -0.152373 0.095935 0.185956 -0.150433 -0.102349 -0.114433 0.075378 -0.151280 -0.055491 0.050592 -0.199530 0.056565 -0.176590 0.450371 0.097457 -0.080906 -0.305157 0.258743 0.037364 0.134532 -0.030494 -0.224305 -0.111975 0.229063 0.034361 0.010080 0.247496 -0.238997 -0.352675 0.077699 -0.192498 0.402122 -0.139673 0.116598 -0.032997 0.242218 0.091146 0.102874 -0.101764 -0.071200 0.308357 -0.238314 -0.314821 0.100683 0.071646 -0.080919 -0.133153 0.051120 0.124222 -0.058389 -0.106924 0.191841 -0.111095 0.053272 -0.010678 0.059140 0.028874 -0.033047 -0.092333 -0.073992 0.273098 -0.066053 -0.065362 -0.106674 0.037619 -0.108958 0.405120 -0.032875 0.083454 -0.039713 0.232417 0.240532 0.060855 0.261408 -0.233718 0.046194 -0.143347 0.232123 -0.134345 -0.153668 -0.196690 -0.058618 -0.108342 0.087275 0.041923 0.022124 -0.226907 -0.232842 0.092490 -0.165150 -0.185464 0.215105 -0.070822 0.057935 0.078982 0.279104 0.192614 -0.002900 0.046629 -0.127261 0.029085 0.213785 -0.212687 -0.228039 -0.078541 -0.018032 0.001349 0.095494 -0.131250 0.260585 0.023389 -0.054384 -0.194168 -0.279930 -0.110571 -0.067718 0.342158 0.130516 -0.192377 0.057610 -0.111946 -0.150581 0.058871 -0.080158 0.113179 0.142624 0.000964
19 0.188203 -0.196575 0.134934 0.162997 -0.097953 -0.194195 -0.320205 0.234223 -0.167440 -0.113312 0.113253 -0.268031 -0.010376 -0.074093 0.515764 0.128742 -0.087329 -0.396324 0.249385 0.021079 0.023823 0.003387 -0.228270 -0.101014 0.207878 0.047231 -0.002798 0.246114 -0.164425 -0.396218 0.206544 -0.270045 0.297906 -0.039105 0.197858 -0.044011 0.185011 0.089493 0.012940 -0.085396 -0.093579 0.304891 -0.323352 -0.317631 0.134682 0.027382 -0.025698 -0.089583 0.071560 0.091213 -0.135874 -0.014932 0.182342 -0.123015 0.006520 0.010386 -0.042374 0.008052 0.043632 -0.152816 -0.022912 0.234450 -0.094985 -0.064648 -0.044188 0.004680 -0.077770 0.300183 0.015129 0.092170 -0.064693 0.161261 0.144435 0.005925 0.281696 -0.242115 0.017126 -0.103282 0.189365 -0.104255 -0.097861 -0.099447 -0.106278 -0.065428 0.143656 0.020067 0.072645 -0.167232 -0.110965 0.051846 -0.041780 -0.175871 0.228758 -0.104409 0.072188 0.053892 0.334062 0.172860 -0.003011 -0.032067 -0.105239 0.044020 0.195438 -0.113788 -0.143885 -0.055634 -0.058664 0.033695 0.053761 -0.110794 0.239086 0.048308 -0.090293 -0.197633 -0.263414 -0.013558 -0.046395 0.349105 0.147424 -0.108168 0.006972 -0.127721 -0.084859 -0.056927 -0.085676 0.052941 0.191015 0.061820
21 0.159638 -0.160561 0.077582 0.132906 -0.239728 -0.209094 -0.168048 0.197810 -0.179331 -0.008603 0.094813 -0.335473 -0.028039 -0.143410 0.355319 0.069381 -0.141240 -0.384210 0.294694 -0.016169 0.154398 0.016007 -0.190563 -0.050706 0.280879 0.022526 0.016878 0.193118 -0.086592 -0.436576 0.175886 -0.306842 0.426148 -0.143790 0.260929 -0.040701 0.294295 0.194170 0.057564 -0.161225 0.053690 0.397829 -0.326462 -0.398073 0.148740 0.007242 -0.112119 -0.093528 0.154738 0.233225 -0.053921 -0.051296 0.246174 -0.080407 0.133889 -0.009015 -0.014369 0.112827 -0.000670 -0.163459 -0.016402 0.221160 -0.186660 -0.107335 -0.158940 0.082088 -0.116935 0.332955 0.092256 0.018971 -0.143791 0.119525 0.167478 0.013544 0.293043 -0.227566 0.014830 -0.143314 0.145393 -0.097022 -0.114357 -0.114354 -0.136165 -0.034255 0.152288 0.054766 0.065919 -0.105083 -0.048394 0.020179 -0.089674 -0.179425 0.259422 -0.131015 0.007468 -0.003395 0.154753 0.142623 0.079101 0.018981 -0.024182 -0.054370 0.192484 -0.127426 -0.092154 -0.023723 0.013943 0.028865 0.084932 -0.132291 0.298248 -0.062436 -0.085788 -0.186941 -0.297458 -0.018457 0.056202 0.290044 0.061894 -0.116443 0.004459 -0.102124 -0.006416 -0.075366 -0.051000 0.105714 0.077196 0.010130
23 0.228311 -0.185396 0.125191 0.158278 -0.138753 -0.091592 -0.181910 0.172372 -0.198669 -0.115748 0.047546 -0.290879 -0.038638 -0.042206 0.424087 0.111217 -0.194691 -0.423909 0.154614 0.031107 0.083958 0.051567 -0.164366 -0.029698 0.170789 0.040064 0.030552 0.340278 -0.097699 -0.352854 0.076193 -0.264999 0.356070 -0.024255 0.207344 -0.031098 0.223582 0.076558 0.023924 -0.163033 0.025834 0.351945 -0.368348 -0.373114 0.136279 0.046362 -0.098001 -0.139945 0.032989 0.172753 -0.073952 -0.073432 0.179192 -0.091982 0.048782 -0.065464 0.043994 0.089960 0.093176 -0.113161 -0.065005 0.262235 -0.076112 -0.114221 -0.132610 0.050493 -0.095451 0.285735 0.011597 0.099324 -0.057614 0.124804 0.152945 0.034030 0.277563 -0.190906 0.020337 -0.089843 0.203012 -0.114235 -0.117509 -0.071008 -0.084753 -0.020176 0.159321 0.001133 0.019090 -0.183494 -0.164706 0.051280 -0.071383 -0.189816 0.214801 -0.081116 0.026395 0.118758 0.287838 0.203152 0.059981 0.074497 -0.110319 0.004133 0.220941 -0.220914 -0.158941 -0.063229 0.009025 -0.039442 0.117016 -0.176124 0.216273 0.074572 -0.058510 -0.210985 -0.241653 -0.010743 0.001389 0.291072 0.184251 -0.037616 -0.006289 -0.177971 -0.064289 -0.089951 -0.052675 0.079849 0.177946 0.102711
16 0.146295 -0.089001 0.094981 0.189690 -0.126344 -0.087272 -0.182800 0.146799 -0.217986 -0.048602 0.062434 -0.352232 0.014461 -0.101653 0.445099 0.131988 -0.110707 -0.452263 0.244655 0.100535 0.083655 -0.010836 -0.100384 -0.061915 0.118263 0.069154 0.036910 0.272727 -0.136305 -0.360267 0.103125 -0.211602 0.371420 -0.101065 0.206447 -0.081528 0.260836 0.106199 0.044378 -0.191396 -0.011490 0.261800 -0.317862 -0.299551 0.123648 0.062404 -0.060291 -0.069861 0.070244 0.133063 -0.070847 -0.015301 0.128691 -0.121764 0.010541 -0.067188 -0.042260 0.029886 0.054731 -0.111146 -0.069046 0.269813 -0.009812 -0.020488 -0.030722 -0.026644 -0.089067 0.364480 -0.023986 0.083840 -0.097656 0.127591 0.162885 0.084157 0.284069 -0.258951 0.082101 -0.156756 0.192153 -0.070892 -0.112006 -0.143821 -0.058490 -0.008158 0.105044 -0.035907 0.031232 -0.166087 -0.190116 0.037387 -0.149324 -0.134001 0.115891 -0.036161 0.068762 0.020453 0.257597 0.187368 0.039221 0.055204 -0.140107 0.024508 0.179046 -0.131726 -0.195852 -0.066668 0.033421 0.026178 0.071549 -0.092540 0.230743 0.057424 -0.089350 -0.250618 -0.252467 0.043781 -0.058415 0.327638 0.114466 -0.038375 -0.045024 -0.174784 -0.090001 -0.100651 -0.047790 0.090786 0.056473 0.054660
5 0.384682 -0.002891 -0.085279 -0.205393 -0.271724 0.301820 -0.242714 0.101601 -0.112819 -0.124604 -0.301684 0.139993 0.243041 -0.299423 0.016143 0.010950 -0.001577 0.013509 0.132309 -0.100541 0.170751 -0.193744 -0.072857 -0.016172 -0.106912 0.028425 0.112906 0.030951 0.026348 -0.139188 -0.077019 -0.157174 0.042309 -0.058393 -0.213602 0.036384 -0.072733 -0.158654 -0.065049 -0.037618 -0.142773 -0.489677 0.037351 0.424122 0.061172 0.117825 0.036104 0.031251 -0.014578 -0.174669 -0.053267 0.105507 0.122039 -0.064818 0.066287 0.057726 -0.042564 -0.366418 -0.226687 0.035833 0.031796 0.034636 -0.034756 0.190347 -0.011884 0.269551 0.023409 -0.230159 -0.000620 0.006884 -0.231593 0.011453 0.315237 -0.120546 0.016959 -0.114834 0.244839 -0.119341 0.148387 0.094013 -0.230171 0.038595 -0.116415 0.053395 -0.018310 -0.040201 -0.124384 0.115145 0.048142 -0.126137 -0.229483 -0.220647 -0.010724 -0.071206 -0.083366 -0.076953 0.107522 0.091274 -0.140549 -0.017713 -0.064635 0.056435 -0.098263 -0.056484 -0.028608 0.199597 -0.106508 -0.036059 -0.001544 -0.051330 -0.108103 -0.084132 -0.163428 -0.015748 -0.161184 0.055569 -0.072368 -0.220310 0.119932 0.128537 -0.281285 0.271307 -0.067067 -0.002812 -0.114541 -0.217609 0.025510 0.050988
56 0.209957 -0.102445 -0.184585 -0.068214 -0.052363 -0.050673 -0.116916 0.135492 0.031000 0.262010 -0.010085 0.406875 0.235762 0.047860 0.114821 0.068409 0.226592 -0.052127 0.179240 0.044655 -0.203035 -0.005240 0.260847 0.043453 0.147517 -0.058368 -0.083543 0.200174 0.578190 -0.509696 -0.230728 0.277966 0.055573 -0.070920 0.033935 -0.005170 -0.161531 0.099919 0.229257 -0.162706 0.057409 -0.354860 0.146778 0.091815 -0.133393 0.206470 0.255348 -0.184157 0.198827 -0.070763 -0.206182 0.048722 0.191559 0.367002 0.014173 0.338983 0.207623 0.207950 0.083411 -0.009319 0.174650 0.010817 0.151324 -0.011886 -0.194544 0.163682 -0.116007 0.056087 0.220876 -0.269619 -0.112250 0.284823 0.133689 0.028298 -0.141694 -0.284058 0.069225 0.199362 0.260625 -0.160466 0.157556 -0.254308 -0.224708 -0.064610 0.022440 -0.120962 -0.097945 0.275596 0.143054 0.067370 -0.149474 -0.335321 0.206393 -0.087428 -0.246862 0.296459 -0.206859 -0.012994 0.240722 0.079013 -0.003328 0.138747 -0.170687 -0.183690 -0.072856 0.111850 -0.129037 -0.204851 0.139472 0.195840 0.232645 0.191998 -0.153475 -0.522520 -0.167576 0.200437 -0.068199 0.421763 0.230529 0.136218 -0.212827 0.140649 0.154519 0.125233 -0.178149 -0.077860 0.277515 0.131391
53 0.340311 -0.073951 -0.104219 -0.189462 -0.239829 0.277328 -0.237986 0.185108 -0.094724 -0.190335 -0.248834 -0.077753 0.243395 -0.305698 -0.080476 0.007830 -0.042132 -0.012820 0.219612 -0.135159 0.200659 -0.151902 0.057453 0.036975 0.007789 -0.031956 0.136561 0.053180 0.047883 -0.077190 -0.256879 -0.236445 -0.082605 0.030777 -0.310273 -0.054058 -0.047749 -0.135088 -0.131034 -0.108830 -0.085454 -0.494041 0.079219 0.247796 0.042961 0.184702 0.024496 0.002981 0.046776 -0.147378 -0.116199 0.051268 0.127061 -0.051349 0.036461 -0.008712 0.002495 -0.321111 -0.263105 0.111666 0.060229 -0.032601 0.015762 0.105356 -0.055971 0.278110 0.045020 -0.237797 0.100052 -0.098082 -0.256050 0.046743 0.255191 -0.003223 0.042617 -0.088268 0.206295 -0.164832 0.136709 0.054562 -0.218204 0.028960 -0.074059 0.131783 0.031223 -0.075210 -0.152093 0.148250 0.026547 -0.126791 -0.252540 -0.126723 0.018811 -0.114928 -0.131466 -0.038158 0.062105 0.102864 -0.118402 -0.000767 -0.084703 0.098959 -0.142159 0.012961 -0.096468 0.214309 -0.007640 -0.046495 -0.034183 -0.052617 -0.139305 -0.137783 -0.143464 -0.006404 -0.213350 -0.019421 -0.131928 -0.212392 0.155158 0.149649 -0.225608 0.260012 -0.082764 0.026541 -0.064787 -0.121064 0.006419 0.023378
11 0.355636 -0.046123 -0.096136 -0.116282 -0.329066 0.285996 -0.323057 0.139239 -0.144910 -0.102615 -0.257932 0.047132 0.317403 -0.251197 -0.103518 0.057672 0.049405 0.031219 0.099155 -0.033676 0.184283 -0.259161 0.037153 0.096491 0.034399 0.039972 0.089837 0.044303 -0.084141 -0.132188 -0.245024 -0.202712 -0.081469 -0.000576 -0.187291 0.096063 -0.023897 -0.149870 -0.132102 -0.142540 -0.116711 -0.461600 0.008667 0.313663 0.014788 0.162817 0.038724 -0.004983 0.046673 -0.120339 -0.170445 0.088653 0.138811 0.023022 0.005533 0.097384 -0.045461 -0.327316 -0.248558 0.045798 0.105172 0.005562 -0.058074 0.150789 -0.088399 0.278555 0.112211 -0.288403 0.066556 -0.105489 -0.225049 0.009711 0.259894 -0.046064 -0.059228 -0.109566 0.162849 -0.092096 0.164676 0.057544 -0.225060 0.081772 -0.103603 0.130479 0.072305 0.001897 -0.140041 0.142725 0.083883 -0.155168 -0.288803 -0.194109 -0.107704 -0.119275 -0.153006 -0.050741 0.111330 0.044331 -0.040955 0.043712 -0.037884 0.069235 -0.096546 -0.062789 -0.061422 0.212359 -0.048546 0.000568 -0.071095 -0.097502 -0.109618 -0.158383 -0.148173 -0.062585 -0.153537 0.086285 -0.095836 -0.209435 0.175367 0.110674 -0.295921 0.239582 -0.085264 -0.007437 -0.103920 -0.201969 -0.026413 0.179792
7 0.324246 -0.085405 -0.061622 -0.238773 -0.248492 0.289450 -0.331421 0.109693 -0.176903 -0.106780 -0.380401 0.061526 0.159469 -0.244895 -0.036580 0.060070 -0.084849 -0.012454 0.215693 -0.045695 0.218718 -0.077103 0.139448 0.053182 -0.090652 -0.036019 0.034123 -0.064157 0.026313 -0.092138 -0.164273 -0.303736 -0.061758 0.035349 -0.163622 0.053972 -0.008121 -0.159448 -0.139258 -0.082461 -0.199071 -0.616772 0.023911 0.219480 0.133384 0.121743 -0.038493 -0.034808 -0.018636 -0.235723 -0.073123 0.098557 0.114576 -0.036105 0.046826 -0.003016 0.056364 -0.361116 -0.283055 0.097541 0.111115 -0.027495 -0.024172 0.152683 -0.076526 0.148310 0.041366 -0.155258 -0.024648 -0.066719 -0.273427 0.074465 0.242748 -0.022280 0.062970 -0.175376 0.236898 -0.232658 0.148529 0.104624 -0.254013 0.093015 -0.090238 0.103250 0.028745 -0.108302 -0.142159 0.179570 0.088263 -0.189262 -0.246570 -0.149312 -0.073055 -0.079270 -0.035108 -0.038904 0.156320 0.153889 -0.025897 -0.012448 -0.077390 0.157094 -0.191664 0.037104 -0.037068 0.316366 0.013472 0.047579 -0.165804 -0.181696 -0.111388 -0.032502 -0.077620 -0.009090 -0.112670 0.136074 -0.154573 -0.172368 0.146072 0.254948 -0.200960 0.240373 -0.042431 -0.002450 -0.000719 -0.110160 -0.005553 0.104473
29 0.053205 -0.228986 -0.186756 -0.020410 -0.044465 -0.126813 -0.232530 0.084316 -0.071598 0.266818 0.066605 0.237504 0.248571 0.033685 0.063727 -0.009500 0.360919 -0.105968 0.229624 -0.023804 -0.248358 -0.060065 0.306124 0.028874 0.171784 0.023889 -0.001942 0.016510 0.658557 -0.474220 -0.220782 0.119119 -0.018731 -0.121578 -0.138311 -0.120658 -0.242296 0.144466 0.224427 -0.092179 0.060482 -0.443834 0.140756 -0.161319 -0.137868 0.130632 0.294715 -0.173516 0.031077 -0.037505 -0.188193 0.022343 0.269504 0.353034 0.025702 0.365801 0.139783 0.218420 -0.028889 0.128242 0.203402 0.076128 0.081773 0.134669 -0.191952 0.272955 -0.013446 0.106314 0.172451 -0.248513 -0.159057 0.296038 0.076668 0.001115 -0.074057 -0.294831 0.204705 0.114263 0.222953 -0.103510 0.191886 -0.200460 -0.142959 -0.014625 0.067944 -0.091738 -0.156885 0.246904 0.099265 -0.015814 -0.143793 -0.333456 0.184023 -0.092323 -0.068067 0.286836 -0.144522 0.036838 0.166213 0.103788 0.063075 0.138751 -0.076834 -0.163387 0.055255 0.110314 -0.173171 -0.117763 0.153026 0.256504 0.165695 0.212810 -0.193612 -0.659410 -0.135768 0.186068 -0.074993 0.386002 0.354242 0.072929 -0.178044 0.117127 0.013790 0.164341 -0.165312 -0.161660 0.254895 0.034224
63 0.326267 0.004220 -0.002673 -0.209507 -0.386533 0.180256 -0.315302 0.254788 -0.143905 -0.209255 -0.317516 0.050139 0.248869 -0.214462 -0.146067 0.053682 -0.060955 0.036879 0.229099 -0.102075 0.183474 -0.095668 -0.034257 0.017584 0.095106 0.019463 0.060628 -0.042176 0.096129 -0.067744 -0.191851 -0.294722 -0.019536 -0.009295 -0.246320 -0.005656 -0.019866 -0.122985 -0.180627 -0.045696 -0.107660 -0.485638 0.076039 0.143049 -0.038044 0.121961 0.011291 -0.043148 0.032774 -0.176248 -0.082778 -0.006258 0.146799 -0.037682 0.058447 0.032555 0.006323 -0.367974 -0.304953 0.059472 0.087483 -0.041302 -0.100092 0.128675 -0.075908 0.230387 -0.000382 -0.234529 0.133987 -0.107457 -0.169660 0.059470 0.220348 -0.090885 0.012388 -0.154200 0.149908 -0.202799 0.138404 0.102515 -0.205084 0.054571 -0.150076 0.066523 0.069824 -0.033840 -0.167067 0.193514 0.139751 -0.148509 -0.214904 -0.248606 -0.027254 -0.184717 -0.130362 -0.088758 0.008947 0.019016 -0.115987 -0.161629 -0.051138 0.058804 -0.173494 0.072062 -0.005593 0.206034 -0.043880 -0.037908 -0.002461 -0.033379 -0.109365 -0.157323 -0.180406 0.000510 -0.187147 -0.013719 -0.040464 -0.216092 0.188754 0.175851 -0.190247 0.259176 -0.111080 0.030405 -0.048511 -0.109226 -0.003867 -0.006940
55 0.460027 -0.083438 -0.066213 -0.164994 -0.271489 0.299218 -0.222970 0.030391 -0.154486 -0.129211 -0.299750 0.022597 0.232933 -0.230335 -0.083086 0.091751 -0.101736 0.030958 0.192590 -0.024603 0.294458 -0.118513 0.200440 0.115445 0.010652 0.019212 0.049489 -0.001640 0.014781 0.004402 -0.247765 -0.261728 0.036641 0.121178 -0.258901 -0.087194 0.018225 -0.179304 -0.115586 -0.164248 -0.099245 -0.448393 0.026435 0.226568 0.072619 0.133766 0.029798 0.057812 0.133688 -0.193818 0.018140 0.066289 0.111714 -0.020815 0.045045 -0.027842 0.011590 -0.363286 -0.301306 0.084743 -0.005179 -0.041684 -0.046762 0.151386 -0.117050 0.330685 -0.029492 -0.311844 0.040214 -0.019753 -0.220945 0.046838 0.225208 -0.090446 -0.025135 -0.140121 0.255266 -0.128874 0.138460 0.057408 -0.264903 0.022231 -0.126453 0.098107 0.061704 -0.040716 -0.169404 0.180466 0.017201 -0.192892 -0.188912 -0.255712 -0.059322 -0.144786 -0.039724 -0.036582 0.066938 0.136201 -0.037228 -0.066724 -0.115850 0.105938 -0.234853 0.045169 -0.054928 0.256440 0.004945 -0.015015 -0.124194 -0.051393 -0.182388 -0.041367 -0.069261 -0.102861 -0.247891 0.083835 -0.043010 -0.250914 0.112824 0.304123 -0.244407 0.127015 -0.096358 0.011403 -0.027378 -0.126570 0.006838 0.042213
6 0.383859 -0.226490 -0.060967 -0.255926 -0.293231 0.220838 -0.206086 0.107891 -0.149259 -0.158999 -0.273855 -0.025671 0.164881 -0.252796 -0.038501 0.007817 -0.088948 0.076232 0.161015 -0.017172 0.173873 -0.023130 0.114069 0.057725 -0.097606 0.030103 0.167446 -0.046892 0.012867 -0.118889 -0.233715 -0.196963 -0.051657 -0.028930 -0.208470 0.046196 -0.116907 -0.239412 -0.098110 -0.095590 -0.202314 -0.505924 -0.008033 0.225428 0.043163 0.113486 0.062689 0.043538 0.024193 -0.231681 -0.045764 0.043583 0.198434 -0.032058 0.009156 0.068870 0.067380 -0.413555 -0.247868 0.019606 0.092293 -0.007355 -0.042750 0.138182 -0.123916 0.235664 0.011900 -0.275564 0.038044 -0.037425 -0.098063 0.071853 0.290832 -0.096672 -0.004700 -0.080943 0.276703 -0.176998 0.151367 0.028701 -0.217560 0.106191 -0.121196 0.055574 0.046622 -0.062175 -0.108610 0.155159 0.048994 -0.139529 -0.166915 -0.222852 -0.061757 -0.075083 -0.097629 -0.071555 0.104436 0.081702 -0.103008 0.011582 -0.078787 0.084805 -0.177270 0.019217 -0.095460 0.244539 -0.014163 -0.017770 -0.101110 -0.117344 -0.151705 -0.039960 -0.163794 -0.046726 -0.231750 0.115945 -0.058398 -0.249938 0.156345 0.167426 -0.181141 0.271516 -0.110095 -0.017687 -0.100817 -0.238105 -0.017896 0.060445
50 0.332765 -0.120890 -0.067032 -0.285750 -0.150798 0.202898 -0.305901 0.037450 -0.124166 -0.160287 -0.268536 0.017892 0.304278 -0.228260 -0.120790 -0.001964 0.009581 0.183299 0.150461 -0.082692 0.152704 -0.141700 0.063824 0.052754 -0.002851 0.004350 0.161053 -0.136376 0.046700 -0.063489 -0.175753 -0.330672 0.033531 0.061888 -0.194625 -0.058427 -0.055622 -0.152378 -0.120372 -0.138357 -0.142720 -0.462067 0.048724 0.260656 0.076042 0.132490 0.118405 0.020625 0.175531 -0.212725 -0.016715 0.056620 0.288254 -0.104581 0.046542 -0.002710 0.114902 -0.392618 -0.242844 0.065816 -0.022521 -0.072983 -0.017780 0.242224 -0.210386 0.288486 -0.152736 -0.210560 0.038999 -0.042131 -0.117405 0.078350 0.192911 -0.054790 0.010980 -0.068274 0.303320 -0.168248 0.154971 0.030598 -0.228533 0.095385 -0.102135 0.065655 0.060056 -0.040425 -0.201817 0.121142 0.051805 -0.111737 -0.202476 -0.157186 -0.007679 -0.034024 -0.092214 -0.091087 0.127558 0.112992 -0.128142 -0.052069 -0.187262 0.024143 -0.192132 -0.004967 -0.065199 0.356312 0.093231 -0.058067 -0.036991 -0.050699 -0.225450 -0.202403 -0.164012 -0.063913 -0.200443 0.031804 -0.057075 -0.219132 0.207737 0.140748 -0.171033 0.220896 -0.116379 -0.040342 -0.120850 -0.205961 0.017914 0.060393
22 0.052610 0.133389 0.031535 -0.187922 -0.237743 0.190784 -0.252311 0.236562 -0.027743 -0.061255 -0.377001 -0.171376 0.246819 -0.188316 -0.020934 0.188881 0.069648 -0.311440 0.148097 -0.103490 0.097427 0.158684 -0.269495 0.018909 0.148880 -0.048497 -0.109795 0.269059 0.124466 -0.207374 -0.110692 -0.110197 0.032116 -0.040133 -0.376218 0.079141 0.070953 -0.094795 -0.308341 -0.116761 0.092618 -0.138776 0.259171 0.029319 -0.242047 0.210517 0.138729 -0.237892 -0.023668 -0.000427 -0.206550 0.023361 0.230773 -0.036013 0.119952 0.088479 0.040771 -0.210613 0.012510 0.049428 0.088101 -0.040448 0.005557 -0.092155 -0.149639 0.162422 0.145410 -0.192990 -0.000482 -0.014630 -0.159969 0.040682 0.279997 -0.066414 -0.021363 0.040226 0.112257 0.047532 0.122256 0.046024 -0.005303 0.090653 -0.086580 0.200234 0.000844 -0.057040 -0.057114 0.075454 -0.141121 0.072347 -0.282340 -0.101283 0.049833 0.076258 -0.010756 -0.015200 -0.027704 0.059058 -0.069400 0.044932 0.042186 0.031419 -0.196465 -0.033012 0.028515 0.111126 0.000909 -0.038804 -0.071324 -0.043865 -0.280898 -0.234363 0.108110 -0.074292 -0.314385 0.175416 -0.135732 0.024922 0.023436 0.079763 -0.253080 0.105161 0.039718 -0.127596 -0.136430 -0.092552 -0.000183 0.076353
18 0.006233 0.161757 -0.087834 -0.062688 -0.308868 0.261410 -0.348397 0.317826 -0.004459 -0.120248 -0.399289 -0.160162 0.277675 -0.159578 -0.015407 0.145258 0.075107 -0.261656 0.282062 -0.047429 0.158167 0.116289 -0.187050 -0.033703 0.203970 -0.063560 -0.112804 0.264317 0.316536 -0.301411 0.001360 -0.208904 -0.000928 -0.020333 -0.243739 0.142192 0.035729 -0.090839 -0.261719 -0.017498 0.236140 -0.106935 0.214026 -0.039316 -0.089831 0.162511 0.074979 -0.196237 -0.041858 -0.125480 -0.086474 0.082936 0.099981 -0.075511 0.150958 0.042218 0.164071 -0.309281 -0.005566 0.026917 0.127546 0.008194 0.000293 -0.008826 -0.203306 0.149705 0.127085 -0.080078 -0.057858 -0.099132 -0.109476 -0.004618 0.191292 -0.009940 -0.049784 -0.017743 0.098857 0.066212 0.132743 -0.034728 0.048166 0.153693 -0.019949 0.195091 0.034958 -0.011726 -0.080399 -0.001498 -0.247074 0.084065 -0.419921 -0.077632 0.078143 0.052759 -0.019626 0.075434 -0.128221 0.085002 -0.213084 0.095458 0.101870 0.054241 -0.145658 -0.018864 0.067588 0.184246 -0.045119 -0.110266 -0.045728 0.037248 -0.338286 -0.152123 0.140102 0.051815 -0.299630 0.163776 -0.069440 -0.065136 0.112364 0.089942 -0.184855 0.189648 0.029082 -0.005823 -0.087305 -0.109122 0.082797 0.073713
31 0.226317 -0.180925 -0.105718 -0.073012 -0.021403 -0.089640 -0.260031 0.073576 -0.064786 0.364447 -0.044222 0.372515 0.214085 0.022761 0.171246 0.005098 0.374970 -0.035748 0.116465 -0.020416 -0.195295 -0.011705 0.295681 -0.085730 0.157719 0.026399 -0.044901 0.099938 0.550848 -0.588626 -0.179455 0.144565 0.069014 -0.024724 -0.215968 -0.044138 -0.199009 0.167634 0.182817 -0.083013 0.030239 -0.394020 0.217853 -0.059157 -0.097824 0.239058 0.239573 -0.211154 0.106612 0.058881 -0.282185 0.100542 0.225584 0.453948 0.104687 0.455553 0.172112 0.254931 -0.024301 0.058708 0.173059 0.058772 0.076752 -0.031831 -0.251514 0.269112 -0.100124 0.052383 0.204279 -0.210751 -0.171880 0.278595 0.170470 0.039249 -0.107264 -0.187500 0.205690 0.192454 0.248383 -0.158252 0.169629 -0.217329 -0.149557 0.039693 -0.010157 -0.033546 -0.104707 0.273438 0.110381 0.069619 -0.099360 -0.354916 0.269285 -0.080546 -0.188842 0.364191 -0.108471 -0.028987 0.248480 0.160058 0.019462 0.110936 -0.062388 -0.145754 -0.003902 0.119717 -0.160586 -0.189765 0.166317 0.182733 0.183333 0.106321 -0.075140 -0.585794 -0.074929 0.173154 -0.102088 0.398331 0.247833 0.132225 -0.225014 0.134579 0.151996 0.155643 -0.149800 -0.151113 0.237228 0.105331
65 0.221250 -0.082438 -0.160308 -0.037871 -0.068381 -0.171510 -0.239800 0.081605 -0.008168 0.329331 0.001847 0.303816 0.231244 0.032791 0.263635 -0.036772 0.350302 0.012910 0.161651 -0.075377 -0.135598 -0.007303 0.333983 0.047738 0.233954 0.036477 0.064791 0.056347 0.653766 -0.570193 -0.197268 0.073871 -0.032508 -0.038813 -0.120944 -0.182825 -0.104909 0.132783 0.211744 0.012373 0.067437 -0.361835 0.176502 0.005263 -0.186079 0.202901 0.144757 -0.230452 -0.006717 0.003402 -0.285075 0.092616 0.259161 0.429160 0.041565 0.320887 0.337944 0.235367 0.071979 0.122135 0.153440 0.085705 0.116914 -0.014062 -0.301787 0.191891 -0.001082 0.111794 0.230748 -0.164005 -0.019183 0.298739 0.154668 0.027982 -0.066953 -0.221402 0.184262 0.103500 0.223780 -0.140810 0.115636 -0.290709 -0.092933 -0.014508 0.018403 -0.114828 -0.200832 0.296136 0.089804 0.087957 -0.124224 -0.338797 0.266888 -0.026814 -0.200724 0.384297 -0.178462 0.024527 0.179968 0.215670 0.032032 0.163961 -0.142950 -0.127259 -0.085470 0.111166 -0.151854 -0.244839 0.194602 0.098480 0.157520 0.167160 -0.075573 -0.595514 -0.211796 0.124261 -0.058705 0.408026 0.282470 0.124454 -0.171762 0.080853 0.055815 0.169095 -0.191719 -0.203343 0.219368 0.024730
10 0.191134 -0.182401 -0.233667 -0.161197 -0.139826 -0.175947 -0.132008 0.097721 0.050652 0.231377 -0.009936 0.168470 0.343041 0.053176 0.189942 0.040539 0.334366 -0.061463 0.157354 -0.069502 -0.101039 0.036000 0.446645 0.111876 0.149838 -0.098908 0.007416 0.035923 0.675900 -0.395994 -0.282703 0.141560 0.157556 -0.060667 -0.095199 -0.081754 -0.148216 0.162749 0.137986 -0.017377 -0.017081 -0.201134 0.139139 -0.161724 -0.113335 0.290913 0.181951 -0.072336 0.039669 0.048972 -0.178998 0.103354 0.293162 0.422469 -0.006748 0.310539 0.305504 0.214712 -0.060846 -0.013178 0.172858 -0.083932 0.048432 -0.033823 -0.291508 0.234554 -0.107757 0.033640 0.253429 -0.267403 -0.041999 0.322343 0.111299 0.055212 0.054840 -0.212148 0.161075 0.100322 0.119668 -0.146765 0.137608 -0.270311 -0.086877 0.074724 0.047067 -0.190438 -0.189372 0.322010 0.050941 0.104425 -0.120759 -0.389742 0.262691 -0.067894 -0.135690 0.313466 -0.323623 -0.061417 0.238411 0.155493 0.022194 0.141011 -0.189030 -0.068767 -0.018577 0.138143 -0.024932 -0.183747 0.163036 0.114136 0.223635 0.215890 -0.127327 -0.558567 -0.323798 0.184793 -0.075882 0.441753 0.292153 0.135974 -0.110743 0.124828 0.121577 0.085787 -0.116378 -0.191691 0.194440 -0.006160
49 -0.075714 0.142020 0.124205 -0.243802 -0.203087 0.275019 -0.317231 0.216672 0.011170 -0.069469 -0.307000 0.048025 0.455872 -0.237388 -0.015956 0.286330 0.164342 -0.279184 0.119476 -0.103577 0.050150 0.229955 -0.284457 -0.078973 0.138610 -0.129919 -0.194158 0.337565 0.060106 -0.183054 -0.151981 -0.092177 -0.015912 -0.070434 -0.195905 0.055570 0.008834 -0.122064 -0.261494 -0.112528 0.142911 -0.228533 0.152312 0.024647 -0.170979 0.092858 0.038237 -0.204056 -0.068566 -0.029237 -0.176965 0.061038 0.219618 -0.117223 0.203535 0.074449 0.025691 -0.235294 -0.024858 0.035289 0.064071 0.023441 -0.048149 -0.004231 -0.213085 0.138108 0.201187 -0.099673 -0.088942 -0.077755 -0.174826 -0.003678 0.242479 -0.081168 -0.092521 -0.028233 0.161672 0.053750 0.111708 -0.010793 0.012971 0.111607 -0.097564 0.127061 0.006081 0.012939 -0.081481 0.074387 -0.147817 -0.026540 -0.317720 -0.124736 0.055546 0.071249 -0.011429 0.036880 -0.066488 0.028262 -0.034276 0.139528 0.069066 0.068084 -0.170952 -0.007062 0.028215 0.114611 -0.030199 -0.023333 -0.126280 -0.121862 -0.215431 -0.267509 0.021522 -0.051363 -0.283924 0.133323 -0.084222 0.031304 0.049275 0.044086 -0.247276 0.090592 0.072474 -0.116557 -0.086732 -0.125217 -0.012286 0.093585
40 0.090740 0.072634 0.165342 -0.021239 -0.270471 0.252388 -0.247923 0.264382 -0.005378 -0.044657 -0.348734 -0.071350 0.158344 -0.171508 -0.030628 0.193217 0.164726 -0.333455 0.102777 -0.070531 0.159383 0.137262 -0.278022 -0.116071 0.158945 -0.020597 -0.140977 0.296373 0.085197 -0.272682 -0.149131 -0.045373 0.059487 -0.025401 -0.279056 0.152874 -0.040663 -0.055772 -0.214564 -0.046819 0.150033 -0.250667 0.152401 0.019998 -0.171848 0.162705 0.108932 -0.262088 -0.042732 -0.001962 -0.196608 0.071238 0.160187 -0.070817 0.194127 0.061490 0.020397 -0.197775 -0.068896 0.051957 0.083434 -0.010205 0.016946 -0.102199 -0.115552 0.182596 0.098301 -0.243959 -0.062780 -0.067186 -0.090899 -0.072109 0.258101 -0.074623 -0.087858 -0.050177 0.140487 0.052978 0.092833 0.001866 -0.049934 0.076651 -0.011446 0.116734 -0.017975 -0.028718 -0.128232 0.065544 -0.142176 0.007996 -0.306769 -0.140981 0.108001 0.019337 -0.059833 0.019256 -0.039305 0.131988 -0.023462 0.108006 0.085802 -0.068712 -0.177090 -0.044240 -0.001435 0.168956 0.001982 -0.061851 0.040600 -0.003249 -0.255872 -0.194988 0.107333 0.002226 -0.323801 0.105069 -0.023145 -0.024175 0.080018 0.056693 -0.252134 0.097221 -0.017852 -0.055590 -0.092307 -0.143621 0.041476 0.077226
58 0.013653 0.000976 -0.162851 -0.184064 -0.146823 -0.146285 -0.322616 0.177589 -0.077690 0.370552 0.000807 0.286049 0.175060 0.078653 0.308996 -0.134558 0.258572 -0.100983 0.258938 -0.080917 -0.135285 0.027362 0.263862 0.082384 0.163596 0.012152 0.069659 0.092759 0.567984 -0.615396 -0.147813 0.166503 -0.038307 -0.053374 -0.114407 -0.019697 -0.142258 0.118174 0.213859 -0.058746 -0.095023 -0.408971 0.092792 -0.077086 -0.135989 0.296489 0.289711 -0.244737 0.004312 0.039730 -0.278551 0.145817 0.188300 0.406245 0.039302 0.349414 0.202227 0.352190 -0.002221 0.091529 0.114129 0.014351 0.112573 -0.013339 -0.186658 0.223446 -0.016888 -0.021408 0.244859 -0.127419 -0.056368 0.344074 0.217847 -0.007640 0.025460 -0.190840 0.167853 0.170423 0.131850 -0.158539 0.142558 -0.268705 -0.138633 0.064561 -0.040656 -0.222748 -0.136568 0.212391 0.063634 0.123027 -0.106734 -0.299102 0.290017 0.004158 -0.161419 0.253592 -0.180553 0.060872 0.283692 0.072328 0.012628 0.130284 -0.220002 -0.102077 -0.106001 0.157324 -0.055031 -0.204701 0.126902 0.182997 0.207551 0.270209 -0.118404 -0.566705 -0.216607 0.175218 -0.079170 0.392869 0.272864 0.153508 -0.168564 0.109730 0.124287 0.145393 -0.180043 -0.118488 0.277285 -0.047948
44 0.151754 -0.199774 -0.286117 -0.238976 -0.826977 0.055937 0.139561 0.773181 0.491368 -0.360663 -0.016797 0.276152 0.030012 -0.604218 -0.467183 0.668459 0.094640 0.644612 0.349091 0.144872 -0.567993 -0.403441 0.435181 -0.389837 -0.340331 0.166015 -0.642662 0.153852 0.107618 0.040606 -0.084776 -0.182364 0.593937 0.286535 0.211818 0.146623 0.087132 0.069532 0.227922 -0.045923 0.111235 -0.129662 -0.492088 0.121556 0.027875 0.049113 -0.323034 0.078500 0.207238 0.071241 -0.752277 0.108509 0.040208 -0.443887 0.044660 -0.133535 -0.027853 0.089380 -0.239665 0.084360 0.148332 -0.070085 -0.193038 0.416386 0.148237 0.063686 0.250064 0.019550 -0.077106 0.350773 0.074574 0.035237 0.314392 -0.067866 0.226147 0.392079 0.394185 -0.235339 0.030108 -0.070103 -0.145069 0.015968 -0.293033 0.123436 0.094722 -0.161523 0.114265 0.218419 -0.037484 0.083732 0.034824 -0.173289 0.383121 -0.006274 -0.010214 0.029583 0.889580 0.259787 -0.325797 0.058943 -0.070056 0.138236 0.002752 -0.242074 -0.354176 -0.005278 -0.120732 -0.364453 -0.159331 -0.527242 -0.051869 0.182636 -0.326285 -0.166656 -0.031664 0.261345 0.006785 -0.088534 -0.283416 0.401092 -0.347585 -0.106440 -0.407438 -0.168194 -0.498526 -0.283456 0.392707 0.413705
62 0.052360 0.199082 0.087657 -0.080675 -0.299954 0.320521 -0.320990 0.300363 0.052232 -0.049258 -0.326219 -0.069866 0.316706 -0.233380 -0.091231 0.137976 0.042899 -0.344001 0.165930 0.033222 0.103801 0.001972 -0.124093 0.147634 0.173158 -0.008226 -0.037439 0.231213 0.198874 -0.280917 -0.092428 -0.254317 -0.010097 -0.064258 -0.270254 0.197710 0.090827 -0.107878 -0.270507 -0.185892 0.085923 -0.304863 0.277353 0.092579 -0.214475 0.136712 0.013220 -0.143119 -0.020915 -0.014349 -0.141751 0.089669 0.166173 -0.060659 0.060802 -0.072769 -0.008733 -0.228837 0.024663 0.126217 0.095288 0.052469 0.057286 -0.061611 -0.143218 0.085367 0.043985 -0.143960 -0.095360 -0.091509 -0.137896 -0.081638 0.172775 0.022059 -0.096215 -0.059473 0.108014 -0.031430 0.137280 -0.012336 -0.078800 0.196300 -0.049427 0.104257 -0.028787 -0.075544 -0.153428 0.011712 -0.112759 -0.060160 -0.280308 -0.101423 0.039160 0.024156 -0.078238 0.051582 -0.008675 0.127490 -0.057613 0.071807 0.082248 0.015686 -0.130551 -0.079049 0.046213 0.177740 -0.004245 -0.054262 -0.061392 0.021703 -0.266992 -0.130997 0.003083 -0.044720 -0.338396 0.026333 -0.123271 -0.090148 0.074015 0.070604 -0.203852 0.128268 0.016310 -0.090253 -0.124240 -0.027824 0.024654 0.140417
57 -0.021267 -0.252392 -0.372844 -0.081015 -0.779918 -0.075104 0.161407 0.813550 0.366022 -0.183688 -0.148382 0.128804 -0.101738 -0.497457 -0.607395 0.495061 0.021680 0.700999 0.373000 0.089340 -0.496727 -0.463928 0.454818 -0.429081 -0.363136 0.158779 -0.546257 0.036079 0.140587 0.066277 -0.083574 -0.226561 0.741284 0.300555 0.243316 0.108013 0.091242 0.088189 0.228266 -0.027714 0.182690 -0.311630 -0.564453 0.204799 0.003610 0.072311 -0.302928 0.051529 0.176683 0.129973 -0.688233 0.008147 -0.020901 -0.371574 0.092226 -0.104905 0.038146 0.149743 -0.282260 0.162901 0.187756 -0.091973 -0.251376 0.398086 0.135904 0.069055 0.274493 0.072569 -0.060618 0.312720 -0.010687 0.078583 0.372657 -0.009732 0.289117 0.387619 0.403926 -0.127025 -0.019905 -0.127173 -0.125248 0.005354 -0.275727 0.132922 0.129589 -0.198400 0.254044 0.147170 -0.039528 0.181794 -0.055419 -0.146635 0.476476 0.012275 -0.098654 -0.121169 0.904052 0.369577 -0.445764 -0.005809 -0.183435 0.186599 -0.013806 -0.319015 -0.446829 0.029715 -0.051578 -0.304241 -0.205386 -0.454982 -0.112864 0.120363 -0.288840 -0.220669 -0.089472 0.335382 0.052654 -0.055112 -0.225389 0.433092 -0.342652 -0.033023 -0.384568 -0.145390 -0.475226 -0.279784 0.354893 0.329781
25 0.083558 -0.315388 -0.365804 -0.282996 -0.713187 0.073287 0.176321 0.718607 0.365855 -0.275913 -0.043615 0.045334 -0.026005 -0.522235 -0.533145 0.608841 0.036808 0.677163 0.488198 0.129766 -0.557889 -0.279530 0.292642 -0.497926 -0.355959 0.136424 -0.500485 0.073516 0.065429 0.137056 -0.058263 -0.138049 0.781585 0.335383 0.133435 -0.043938 -0.020405 0.016291 0.344709 -0.068165 -0.031558 -0.226376 -0.476192 0.128886 0.037035 0.082892 -0.418942 0.202823 0.161222 0.133186 -0.630273 -0.034382 0.057302 -0.368919 0.068089 -0.069068 -0.036662 0.099172 -0.281191 0.039409 0.175101 -0.036792 -0.197869 0.422872 0.122771 0.235682 0.320308 0.072541 -0.042196 0.273827 -0.014616 -0.000668 0.295940 -0.091011 0.367107 0.419502 0.513908 -0.371865 -0.065570 -0.169831 -0.059333 0.080849 -0.438516 0.113060 0.092701 -0.123256 0.252865 0.338706 -0.088183 0.091452 -0.004255 -0.167460 0.470929 -0.080478 0.010115 -0.054994 0.763986 0.230607 -0.386351 -0.033242 0.031876 0.047323 -0.036632 -0.248302 -0.217996 -0.040454 -0.039192 -0.280271 -0.159661 -0.330543 -0.106050 0.069530 -0.204044 -0.262222 -0.069423 0.247726 -0.085452 -0.122376 -0.388813 0.368345 -0.382140 -0.114190 -0.411597 -0.116218 -0.452517 -0.264601 0.417865 0.309517
13 0.115611 0.045492 0.041092 -0.113370 -0.266024 0.263887 -0.237335 0.311121 -0.127053 -0.067604 -0.420923 -0.177483 0.238529 -0.114671 0.059774 0.179016 0.074016 -0.152961 0.181610 -0.109401 0.297710 0.157462 -0.169945 0.006496 0.205326 -0.003819 -0.073160 0.151332 0.045365 -0.235916 -0.185068 -0.031730 0.135606 -0.032389 -0.352800 0.078545 0.027867 -0.049317 -0.165517 0.006667 0.050394 -0.204633 0.278075 0.038972 -0.202390 0.161356 0.081196 -0.254682 0.050877 -0.023410 -0.211110 0.056357 0.079092 0.004183 0.138643 0.114154 0.032750 -0.208920 -0.124334 0.031844 0.184735 -0.017575 -0.035237 0.004574 -0.078930 0.266470 0.136601 -0.222107 -0.061289 -0.122427 -0.188855 0.101532 0.212998 -0.026509 -0.090022 -0.071895 0.101386 0.091440 0.062830 -0.059216 -0.037083 0.061903 -0.040715 0.139313 -0.012901 -0.021123 -0.124843 0.091541 -0.128189 -0.010786 -0.340480 -0.138608 0.030670 0.008963 0.042424 0.026795 -0.049881 0.103281 -0.147485 0.094339 0.098322 0.053462 -0.157024 -0.046107 -0.015675 0.115884 -0.061987 -0.158103 -0.160721 -0.005792 -0.307696 -0.272771 0.113708 0.003960 -0.302567 0.125952 -0.215107 0.019004 0.042982 -0.017316 -0.303111 0.131253 0.029640 -0.021325 -0.152657 -0.079537 0.069634 0.066477
26 0.073705 -0.105947 -0.147694 -0.228752 -0.979897 0.018688 0.075136 0.870076 0.465229 -0.223909 -0.133005 0.274449 -0.106630 -0.443778 -0.563322 0.579898 0.065348 0.653076 0.469592 0.189646 -0.552412 -0.508501 0.389275 -0.388681 -0.381901 0.204381 -0.508907 0.076723 0.022132 0.046872 -0.021013 -0.279294 0.804704 0.364830 0.097822 0.026850 0.114432 0.087100 0.240415 -0.064299 -0.008885 -0.180486 -0.450911 0.239450 -0.052439 0.162169 -0.389012 0.175623 0.202314 0.081002 -0.759997 0.129352 0.074630 -0.316547 -0.026090 -0.128303 -0.094818 0.140124 -0.277113 0.075052 0.167371 -0.006774 -0.239830 0.466287 0.154861 0.108407 0.224144 0.069225 -0.062376 0.378154 0.090878 -0.024225 0.366086 -0.049415 0.384808 0.418490 0.456041 -0.348786 -0.101360 -0.096990 -0.149385 0.050492 -0.365686 0.223984 0.057859 -0.173650 0.196302 0.239422 -0.053793 0.150862 0.041093 -0.286917 0.366702 -0.064793 -0.033508 -0.127981 0.903653 0.307776 -0.464440 -0.090867 -0.042313 0.049017 -0.020032 -0.139904 -0.321428 0.082409 -0.010487 -0.308215 -0.110361 -0.256334 -0.155750 0.109660 -0.285368 -0.258404 -0.082262 0.256057 -0.122766 -0.157098 -0.229946 0.360553 -0.364630 -0.162043 -0.450509 -0.232165 -0.575598 -0.312571 0.464118 0.301100
54 -0.089029 -0.023077 0.086492 -0.062120 -0.279293 0.150622 -0.195552 0.167149 -0.013884 -0.052060 -0.423896 -0.067720 0.151235 -0.272430 -0.000721 0.160561 -0.004577 -0.292050 0.058579 0.074036 -0.010947 0.152673 -0.131620 0.037955 0.007791 -0.091307 -0.207268 0.394779 0.238406 -0.093789 -0.164943 -0.194401 0.073634 -0.187132 -0.247938 0.103700 0.026262 -0.166629 -0.251322 -0.137746 0.283756 -0.199307 0.146495 0.077905 -0.213067 0.082528 0.200460 -0.270107 -0.016587 -0.061278 -0.285004 -0.113325 0.137059 0.006293 0.133635 0.020127 0.161676 -0.277414 0.176136 0.083369 0.105712 -0.029081 -0.022061 0.032791 -0.217115 0.053024 -0.078849 -0.203256 0.024206 0.058495 -0.175284 0.023941 0.249779 -0.026313 -0.204656 -0.183563 0.073919 0.101001 0.221227 0.135525 0.012162 0.041890 -0.026223 0.158868 0.026513 -0.032056 -0.148789 0.054093 -0.088559 0.055747 -0.286438 -0.181156 -0.044393 0.043193 0.030191 -0.000512 0.061389 0.110649 -0.030064 0.157615 0.000017 -0.017606 -0.146351 0.075121 -0.065881 0.200355 -0.184821 -0.109917 -0.088983 -0.049070 -0.237955 -0.261434 0.061749 0.003167 -0.199566 0.206123 -0.104040 0.000604 0.275919 0.093269 -0.199593 0.134244 0.227542 -0.131525 -0.026261 -0.175043 0.009343 0.179215
20 -0.083957 -0.002562 0.054126 0.006706 -0.180541 0.270926 -0.224028 0.070490 -0.046517 0.093417 -0.235082 -0.223493 0.275234 -0.284593 0.146010 0.067008 -0.091378 -0.078376 0.191325 0.070704 0.010787 0.211674 -0.212594 -0.164945 -0.003150 -0.110682 -0.034353 0.372198 0.213166 -0.136293 -0.209509 -0.268161 0.059544 -0.090790 -0.278372 0.092881 -0.011180 -0.090192 -0.139586 -0.168998 0.218561 -0.361761 0.177669 0.119826 -0.145306 0.127015 0.109325 -0.085581 -0.059577 -0.165712 -0.169449 -0.176918 0.116919 -0.004809 0.167974 -0.043758 0.222065 -0.247107 0.140780 0.120820 0.046594 -0.032147 0.002090 -0.001746 -0.289274 0.072086 0.049078 -0.127202 0.130906 -0.093158 -0.174247 0.073802 0.343488 -0.010828 -0.162461 -0.093428 0.019380 0.063728 0.160037 0.133030 0.099487 0.014208 -0.127147 0.129153 -0.037238 -0.012543 -0.079922 -0.023594 -0.132002 0.102245 -0.289057 -0.095670 0.160966 0.110088 -0.028219 0.013066 0.029324 0.135822 -0.112873 0.153163 0.167259 -0.000163 -0.198831 -0.017727 0.027622 0.196854 -0.000086 -0.042267 -0.006406 -0.093482 -0.364642 -0.286789 0.125828 -0.097065 -0.223667 0.211280 -0.146537 -0.014172 0.229051 0.032933 -0.213999 0.108926 0.177087 -0.060819 0.007321 -0.133976 0.114557 0.062676
45 0.017283 -0.102052 -0.143254 -0.027975 0.175028 -0.235960 -0.021453 0.063140 -0.062245 0.174327 0.137136 0.046649 0.275158 -0.067110 0.164698 0.055874 0.186642 0.050480 0.289293 -0.135229 -0.311462 -0.125607 0.263911 0.066553 -0.025537 -0.018318 -0.039755 0.074883 0.763745 -0.332717 -0.174744 0.139258 0.034399 0.023592 -0.070956 0.095569 -0.131239 0.065822 0.300651 -0.306631 -0.063327 -0.437912 0.033743 0.066476 -0.084746 0.131147 0.341517 -0.033651 0.234809 -0.076289 0.009174 0.077495 0.090983 0.316273 -0.006670 0.232873 0.136285 0.105434 0.170967 0.106546 0.350859 -0.023082 0.231359 0.116117 -0.256363 0.251071 -0.034352 0.249281 0.151257 -0.215675 -0.206119 0.266709 0.157357 -0.096109 0.021443 -0.269792 0.133043 -0.030187 0.168632 0.049083 0.122628 -0.215641 -0.194713 -0.012376 0.035356 -0.114519 -0.062352 0.331841 0.073608 -0.081781 -0.251209 -0.363520 0.229996 -0.051179 -0.158135 0.150859 -0.281699 0.005752 0.076037 -0.004730 0.080118 0.045269 -0.170006 -0.219777 0.046805 0.195576 -0.261795 -0.082377 -0.066318 0.313881 0.167363 0.248010 -0.114144 -0.597136 -0.013460 0.260880 0.015178 0.238829 0.355208 0.148773 -0.121585 0.099373 -0.015959 0.049010 -0.142394 -0.191526 0.145571 0.100431
28 0.200065 -0.151900 -0.136726 0.007825 0.051935 -0.221806 -0.126419 -0.042296 0.058279 0.156767 0.021413 0.094478 0.253030 0.025650 -0.021850 0.061334 0.256797 0.147939 0.199235 -0.152465 -0.328536 -0.168585 0.246210 0.126569 0.081979 -0.230273 -0.184301 -0.012079 0.658740 -0.253844 -0.103524 0.123632 0.038382 -0.041970 -0.105709 -0.057040 -0.328827 0.013986 0.276661 -0.189163 -0.064790 -0.451358 0.025592 0.056964 -0.092295 0.074870 0.324787 -0.112579 0.098804 -0.081141 -0.192765 0.093892 0.231375 0.328395 0.012414 0.289664 0.233232 0.092786 0.171368 0.114846 0.342305 0.073432 -0.033593 0.170801 -0.317893 0.230367 -0.208104 0.232124 0.077895 -0.269391 -0.182050 0.262886 0.105259 0.053371 -0.017785 -0.336912 0.189310 0.048883 0.110769 -0.123957 0.091292 -0.156848 -0.155965 -0.198745 0.079049 -0.127616 -0.054025 0.219947 0.127034 0.035426 -0.208765 -0.348633 0.121969 -0.100730 -0.118806 0.159835 -0.284520 0.013166 0.120093 0.053103 -0.090642 0.067049 -0.194136 -0.200514 -0.125228 0.188726 -0.190738 -0.194861 -0.042962 0.335609 0.198330 0.185665 -0.013983 -0.515950 -0.285833 0.085698 -0.019524 0.238445 0.315367 0.019001 -0.070692 0.194689 0.055226 0.158523 -0.066127 -0.223178 0.214346 0.063727
8 -0.026732 0.037012 -0.049052 -0.030318 -0.223046 0.473381 -0.239953 0.029373 -0.008575 -0.052456 -0.432219 -0.177801 0.215029 -0.337581 0.021233 0.095050 0.004573 -0.174258 0.219054 0.031933 0.083068 0.212992 -0.118067 0.024588 0.028672 -0.064413 -0.140161 0.267015 0.351876 -0.253840 -0.122128 -0.083968 0.128429 -0.221185 -0.264043 0.138227 0.047330 -0.002071 -0.117041 -0.041412 0.283602 -0.244250 0.163524 -0.016383 -0.214476 -0.044016 0.037282 -0.140356 0.066855 -0.058037 -0.120430 -0.079393 0.147423 -0.001743 0.191994 0.075070 0.164767 -0.283579 -0.070079 0.043227 0.067531 -0.128990 0.007352 0.093242 -0.272519 0.035552 -0.005486 -0.154621 0.089111 -0.041179 -0.230224 0.018757 0.223695 -0.034611 -0.315133 -0.144274 0.181951 -0.067836 0.133858 0.205912 0.031909 -0.068693 -0.080477 0.084036 -0.054637 0.036537 -0.134564 -0.004760 -0.102071 -0.050280 -0.151361 -0.109628 0.030508 0.152152 0.029584 -0.009036 0.066288 0.065750 -0.034030 0.050082 0.061871 -0.001334 -0.182807 0.007860 -0.019908 0.122199 -0.076403 -0.012271 0.005892 -0.096939 -0.313664 -0.266889 0.033340 -0.131604 -0.185567 0.257979 -0.127864 -0.020354 0.222739 -0.044715 -0.112507 0.135284 0.196591 -0.183777 -0.069664 -0.118733 -0.036878 0.129494
43 -0.092540 0.054372 0.161030 -0.090232 -0.156033 0.301215 -0.145218 0.209530 0.063070 -0.046986 -0.394489 -0.128232 0.186405 -0.132624 0.031380 0.128458 -0.073333 0.014602 0.264650 0.141448 -0.059717 0.050210 -0.271414 0.062829 0.021599 -0.010391 -0.041295 0.333180 0.177786 -0.032929 -0.189743 -0.177485 0.069310 -0.173039 -0.217607 0.140689 0.004254 0.007662 -0.143446 -0.042547 0.298935 -0.207085 0.157720 0.158431 -0.222241 0.113139 0.090938 -0.110533 -0.007255 -0.223460 0.007312 -0.119945 0.181761 0.068116 0.195381 -0.015835 0.077873 -0.338872 0.062172 0.139157 0.088674 -0.065454 0.180103 0.046408 -0.214836 0.049215 0.002673 -0.089479 0.012733 0.038231 -0.137319 0.056479 0.443366 -0.137332 -0.190397 -0.172630 0.115622 -0.059023 0.258493 0.084799 0.063928 -0.026348 -0.154975 0.187708 -0.094500 0.038679 -0.098169 0.128823 -0.067871 -0.041543 -0.274019 -0.268464 0.190993 0.077109 -0.048873 0.100786 0.068246 0.220627 -0.118539 0.129240 0.164857 -0.116245 -0.056119 0.123337 -0.010841 0.152195 -0.075924 -0.042358 -0.020483 0.052950 -0.330412 -0.194378 0.126363 -0.084269 -0.085194 0.145618 -0.057924 0.000470 0.297239 0.007290 -0.099519 0.137990 0.142820 -0.148675 -0.132039 -0.204823 -0.023229 0.161478
60 -0.042672 -0.100235 0.087106 -0.110675 -0.119813 0.387283 -0.231880 0.070067 0.058539 -0.102021 -0.412138 -0.234460 0.196109 -0.269262 0.135208 0.111830 -0.089839 0.052030 0.213600 -0.077633 -0.034592 0.114223 -0.364084 -0.021822 0.041134 -0.086459 -0.136539 0.197668 0.282176 -0.120705 -0.165108 -0.061042 0.163559 -0.109832 -0.193733 0.212082 -0.083660 0.040396 -0.095231 0.098298 0.209994 -0.179890 0.000117 0.135005 -0.205754 0.000437 0.152848 -0.038380 -0.095102 -0.022222 -0.086014 -0.120166 0.168578 0.098627 0.177378 0.007168 0.163518 -0.270455 0.017119 0.037649 0.050554 -0.177057 -0.019841 -0.007346 -0.281384 0.082217 0.010269 -0.231073 0.141905 0.000705 -0.210716 0.042797 0.261792 -0.136789 -0.236123 -0.161326 0.052807 0.074025 0.152662 0.141301 0.083098 -0.017371 -0.068282 0.211030 -0.010410 0.061148 -0.169586 0.075584 0.041916 -0.052245 -0.096964 -0.168430 0.204006 0.087157 -0.043780 0.095823 0.090655 0.156564 -0.046145 0.145130 0.212707 -0.101273 -0.034333 0.062879 0.005220 0.180719 -0.219263 -0.057584 -0.017494 -0.148671 -0.195585 -0.202944 0.090384 -0.035616 -0.128208 0.188775 0.027508 0.037694 0.323357 0.008618 -0.123146 0.201400 0.194051 -0.116723 -0.018303 -0.213224 -0.011108 0.166044
51 -0.137583 -0.296694 0.743819 -0.293821 -0.462818 0.104281 -0.063758 -0.352015 -0.022566 0.089410 0.269951 -0.261167 0.218896 -0.400991 0.065090 -0.164164 0.196117 0.331404 0.685094 0.146654 0.105481 -0.182404 0.235162 0.292373 -0.354559 -0.624847 -0.202067 -0.186793 0.463924 -0.098160 -0.294854 0.229520 0.438898 -0.301642 0.169042 0.182554 0.035743 -0.219427 -0.215459 0.111449 0.389325 -0.324598 0.010439 0.696284 -0.077945 0.456744 0.276795 -0.031739 -0.018324 -0.253390 -0.187595 -0.342082 0.030089 -0.197772 0.346472 0.211626 0.044255 -0.331060 0.112559 -0.118179 0.218044 0.044543 0.025323 0.672665 -0.424523 0.430117 0.000568 -0.060843 0.309230 -0.325794 -0.494216 0.088657 0.275942 -0.173925 -0.054741 -0.345257 0.180838 0.013897 -0.211573 0.086793 -0.098193 -0.239296 -0.158651 0.355392 0.040160 -0.054792 -0.274143 0.209820 0.345034 -0.218133 0.121442 -0.431620 -0.268932 -0.086883 -0.085616 0.074870 -0.222298 0.169213 -0.039056 -0.445185 -0.211808 -0.042150 -0.172461 -0.273952 -0.150396 0.340930 -0.198578 -0.153935 0.279199 0.349286 0.077529 0.064163 -0.025635 -0.447612 -0.074717 -0.216455 -0.130429 0.168560 0.046863 0.349970 0.198298 -0.299261 0.220696 -0.283182 -0.195541 -0.115834 0.146359 0.343511
33 0.039131 -0.318262 0.749920 -0.241846 -0.242094 -0.069303 0.169510 -0.379869 0.071500 0.046404 0.273408 -0.203652 0.124167 -0.432044 0.016717 -0.193921 0.088110 0.288104 0.823757 0.111938 0.170479 -0.017749 0.240834 0.148995 -0.343852 -0.647339 -0.237322 -0.131712 0.505329 -0.139760 -0.373307 0.372978 0.320667 -0.388489 0.095122 0.209206 0.033799 -0.334300 -0.261303 0.014754 0.468566 -0.462651 0.021468 0.658128 -0.002664 0.450981 0.242936 -0.201653 0.041355 -0.191051 -0.092298 -0.378223 0.056075 -0.275751 0.451274 0.264914 0.028151 -0.258205 0.120697 -0.157960 0.264988 0.131312 0.043023 0.637194 -0.310222 0.404096 -0.004218 -0.008818 0.199057 -0.362055 -0.578527 0.211284 0.358597 -0.061412 -0.137582 -0.356291 0.216623 -0.002459 -0.198980 -0.017655 -0.124590 -0.245898 -0.132526 0.240533 -0.024534 -0.103032 -0.289331 0.182952 0.340099 -0.347555 0.000614 -0.469475 -0.227982 -0.067954 -0.049380 0.047299 -0.189603 0.265476 -0.101268 -0.406890 -0.264083 0.078858 -0.222213 -0.306649 -0.309770 0.271021 -0.201850 -0.117606 0.237667 0.260663 0.021928 0.186889 -0.053533 -0.327784 -0.092288 -0.235290 -0.151526 0.195722 -0.111784 0.384173 0.241950 -0.230810 0.162498 -0.363394 -0.168983 0.029290 0.021551 0.398326
14 -0.218358 -0.055343 0.290423 -0.120281 -0.070402 0.343821 -0.119440 0.114471 0.018450 0.013429 -0.387452 -0.132363 0.059071 -0.240137 0.023766 0.016268 -0.065798 0.024431 0.170779 0.085312 0.042002 0.152612 -0.138003 -0.132186 -0.040504 -0.154422 -0.259362 0.341254 0.276842 -0.097751 -0.145735 -0.174407 0.136911 -0.113635 -0.186281 0.001472 -0.106451 -0.017035 -0.171318 -0.243692 0.479683 -0.342835 0.082960 0.054102 -0.138267 0.051321 0.242204 -0.230015 0.224335 -0.160989 -0.033818 -0.129738 0.097586 -0.115104 0.270395 0.034439 0.071706 -0.314916 -0.073205 0.117961 -0.034258 -0.089631 0.017171 0.043994 -0.162894 0.073494 -0.096287 -0.073672 0.006287 -0.005584 -0.286333 0.165041 0.328301 -0.014503 -0.218689 -0.116425 0.172566 -0.003619 0.327886 0.204975 0.060734 -0.036547 -0.059239 0.146050 -0.053526 0.030130 -0.077865 0.066084 0.018428 -0.033768 -0.157885 -0.167616 0.157400 0.005887 -0.053044 0.006539 0.037037 0.244220 -0.095003 0.122251 0.032792 -0.038452 -0.125846 0.093492 0.048644 0.222808 -0.079845 0.099030 -0.077126 0.082967 -0.241087 -0.238999 0.061663 -0.043301 -0.158030 0.163002 -0.051278 -0.086649 0.162730 -0.021444 -0.201221 0.158881 0.190237 -0.165726 -0.069957 -0.163333 -0.006076 0.054850
41 -0.090457 0.059639 0.073737 -0.069189 -0.243621 0.318296 -0.023292 0.064195 0.035792 -0.074176 -0.467346 -0.153547 0.277511 -0.162728 -0.000615 0.124389 -0.123830 -0.116069 0.205118 0.097319 -0.013133 0.141635 -0.167255 -0.173695 -0.049985 -0.075772 -0.183374 0.260424 0.106440 -0.097164 -0.203895 -0.184070 0.099411 -0.156359 -0.189994 0.069788 0.004936 -0.114472 -0.205667 -0.205646 0.183970 -0.282715 -0.005558 0.096798 -0.317510 0.118286 0.076070 -0.193093 -0.073607 -0.113810 -0.189031 -0.130334 0.070336 0.001848 0.053071 -0.111748 0.093320 -0.373859 0.257677 0.104873 0.028237 0.031376 -0.057000 0.061455 -0.218571 -0.033231 -0.128389 -0.195135 0.038014 -0.029655 -0.197201 -0.082628 0.209382 -0.092627 -0.222463 -0.287325 0.116351 0.159182 0.206056 0.160894 0.144881 -0.038233 -0.019463 0.243480 -0.094010 0.008746 -0.202005 -0.020812 -0.066726 -0.008475 -0.314495 -0.149483 0.254354 -0.021733 -0.031688 0.037642 0.029497 0.148609 -0.088172 0.047119 0.112431 -0.073291 -0.134396 0.082487 0.049788 0.133791 -0.200980 0.029731 -0.026101 -0.040963 -0.191625 -0.293423 0.048190 -0.163270 -0.357370 0.210514 -0.086829 0.065448 0.264814 0.057090 -0.273690 0.077697 0.224732 -0.095772 0.067538 -0.170278 0.087604 0.029801
42 0.268247 -0.626406 0.763789 -0.252784 -0.568219 0.276405 0.026894 0.053853 0.064343 -0.328364 0.523772 -0.427777 -0.118293 -0.646167 0.046935 -0.455863 0.157941 0.394645 0.688325 0.155732 0.152228 -0.264949 0.264149 0.019866 -0.527106 -0.714354 -0.298336 -0.123194 0.350283 -0.207480 -0.269292 0.481127 0.591261 -0.167695 0.274911 0.334618 -0.040916 -0.207401 -0.162460 -0.142823 0.376922 -0.566508 0.302060 0.580243 -0.159169 0.528071 0.318036 -0.057282 0.007203 -0.316974 0.059608 -0.240638 -0.082034 -0.378768 0.204675 -0.001339 0.077577 -0.295504 0.203241 0.004267 -0.152306 -0.116755 0.196249 0.472687 -0.593475 0.590400 0.115514 0.061916 0.075741 -0.371912 -0.671181 0.207841 0.116369 -0.188367 -0.100312 -0.153630 0.069194 0.395831 -0.162830 0.028252 -0.154710 -0.232006 0.030023 0.424220 0.081123 -0.123976 -0.640543 -0.016042 0.226313 -0.226246 0.084086 -0.372305 -0.251352 0.079590 -0.071301 0.242686 -0.131208 0.167517 -0.204410 -0.393686 -0.455416 0.214923 -0.125837 -0.335566 0.043663 0.254254 -0.090556 -0.232123 0.106788 0.192782 0.317680 -0.027490 -0.280703 -0.513943 -0.102682 -0.242679 -0.090716 0.212875 0.058714 0.226704 0.190963 -0.307961 0.125633 -0.274001 -0.132749 -0.101567 -0.093612 0.018488
34 0.281839 -0.654647 0.777700 -0.376473 -0.519381 0.125060 0.066830 -0.025904 0.136456 -0.256114 0.505169 -0.294289 -0.303880 -0.598384 0.101388 -0.332610 0.199007 0.329623 0.748274 0.105993 0.285785 -0.183122 0.221063 0.040259 -0.633102 -0.701866 -0.253073 -0.002246 0.331602 -0.226837 -0.149024 0.556309 0.519314 -0.315446 0.137390 0.410880 -0.020009 -0.218382 -0.176490 -0.143994 0.235875 -0.525766 0.369182 0.616575 -0.076476 0.638186 0.223288 -0.098420 -0.073587 -0.321732 0.003404 -0.186293 -0.059695 -0.338108 0.178697 0.023822 0.045073 -0.291532 0.155117 0.037879 -0.217007 -0.075818 0.162781 0.494837 -0.544078 0.591014 0.100910 0.100423 0.079939 -0.322739 -0.631142 0.263714 0.225722 -0.166490 -0.034186 -0.099565 0.102681 0.235195 -0.143125 0.092573 -0.118599 -0.170465 -0.059040 0.469168 0.073188 -0.099994 -0.599988 0.038909 0.252092 -0.231903 0.115384 -0.371467 -0.254919 0.060498 -0.044092 0.290735 -0.195819 0.119986 -0.107886 -0.370616 -0.446591 0.210222 -0.136154 -0.328793 0.015477 0.154540 -0.105571 -0.263220 0.216503 0.124290 0.358758 0.022246 -0.296295 -0.441530 -0.094691 -0.231857 -0.047232 0.208403 -0.012108 0.286172 0.152019 -0.248853 0.164408 -0.240537 -0.148880 0.001078 -0.000043 0.053166
17 0.088032 -0.685789 -0.458156 -0.019618 -0.784722 -0.096798 -0.251293 0.954210 0.144093 -0.342928 0.130693 0.309403 -0.240502 -0.472346 -0.396501 0.628910 -0.016446 0.431479 0.413690 0.183466 -0.370386 -0.356870 0.451731 -0.023684 -0.409135 0.020197 -0.195707 -0.053234 -0.196649 0.273609 0.031272 -0.254735 0.532820 0.116728 0.474797 -0.042588 -0.000398 -0.029455 -0.056719 0.077294 0.212605 -0.714038 -0.436955 0.182499 -0.083567 0.258700 -0.547120 0.012765 0.022714 0.114565 -0.612375 -0.081786 0.111388 -0.499901 0.095895 0.302008 -0.267984 -0.203035 -0.104724 0.062536 0.194140 -0.283638 0.009348 0.223783 0.019104 0.292028 -0.081504 -0.222825 0.062878 0.027971 -0.353203 -0.421432 0.090632 -0.311874 0.215164 0.077848 0.521168 -0.019624 -0.020014 -0.149752 -0.269522 0.028288 -0.402290 -0.233662 -0.247778 -0.334266 0.300770 0.177661 -0.042447 0.005274 -0.092648 -0.047100 0.462761 -0.048430 -0.120877 -0.120032 0.589619 0.124078 -0.128890 -0.447613 -0.402942 0.168041 -0.204039 -0.369398 -0.308049 0.046599 -0.113828 -0.124920 -0.180653 -0.419292 0.084496 -0.195188 0.016316 -0.260158 -0.079369 -0.009344 -0.058413 0.010470 -0.713198 0.573863 -0.167562 -0.137714 -0.050173 -0.104081 -0.360289 -0.099198 0.267908 0.159431
39 0.440163 -0.209189 0.056512 -0.442140 0.001047 0.193671 -0.165503 0.072413 0.384101 -0.054330 -0.301758 -0.073161 0.245760 -0.140805 0.223517 -0.016916 -0.594679 0.398381 0.169191 -0.239236 -0.155362 0.116281 0.045986 0.022777 -0.179569 -0.022386 -0.043024 -0.307103 0.002846 -0.051432 -0.395789 -0.158529 0.238978 0.071214 -0.206320 0.072974 -0.271854 0.067583 -0.279418 -0.149802 0.529751 -0.357545 -0.072773 0.157583 -0.022099 0.311553 0.188008 -0.150581 -0.072345 -0.197899 -0.124961 -0.024607 0.098004 -0.293064 0.112286 0.218847 -0.084977 -0.223193 -0.251902 -0.244970 -0.078630 -0.075583 -0.143937 0.302173 -0.094596 0.038409 -0.016987 -0.281295 -0.130286 0.087325 -0.174947 0.084141 0.174393 0.014331 -0.144114 0.214103 0.325234 -0.021015 0.218363 0.065490 -0.076297 -0.007020 0.022140 0.289414 -0.082321 -0.169177 -0.183201 0.205385 0.025701 -0.119130 0.035007 -0.212959 -0.143569 -0.005886 0.114557 0.008431 -0.036191 0.244443 -0.109978 0.159328 0.058329 0.123008 -0.043673 -0.013178 0.130766 0.253005 -0.222500 0.145697 -0.027965 0.030119 0.143127 0.098989 0.101031 -0.139986 -0.019618 0.136114 -0.007451 -0.176050 -0.304759 0.253739 -0.419153 0.175736 -0.148916 -0.213085 -0.251642 -0.243117 0.187253 0.188296
52 0.187396 -0.633274 -0.418930 0.058546 -0.822589 -0.062622 -0.280689 0.829760 0.107850 -0.331241 0.215264 0.283842 -0.157766 -0.509021 -0.259613 0.646432 0.042733 0.453550 0.442345 0.256258 -0.450715 -0.345043 0.407835 -0.037665 -0.403371 0.119655 -0.179100 -0.007319 -0.084959 0.312684 0.042844 -0.251896 0.501635 0.139768 0.517137 0.013694 0.054643 -0.113639 -0.149311 0.050933 0.269532 -0.685489 -0.493451 0.256258 -0.104719 0.221942 -0.579583 -0.060544 0.040057 0.078449 -0.542621 -0.074843 0.052325 -0.585474 0.091921 0.255809 -0.359768 -0.145445 -0.035124 0.122631 0.140088 -0.256507 0.118113 0.235623 0.032151 0.321026 0.075050 -0.258292 -0.012789 0.095943 -0.317514 -0.416166 0.032125 -0.340290 0.109573 0.062233 0.409203 0.064488 0.006103 -0.242590 -0.233770 0.032914 -0.373271 -0.242053 -0.267012 -0.372649 0.213086 0.199611 0.012889 -0.110648 -0.073482 -0.038519 0.432850 -0.005977 -0.083381 -0.015614 0.487645 0.178021 -0.157043 -0.313318 -0.283124 0.187035 -0.177929 -0.435280 -0.374186 -0.147871 -0.197898 -0.252525 -0.255264 -0.431238 0.053452 -0.088215 0.003263 -0.307053 -0.037454 -0.007623 -0.003445 0.042785 -0.765112 0.609390 -0.201478 -0.246997 -0.111719 -0.178359 -0.369707 -0.069329 0.262276 0.182008
9 -0.204397 -0.068635 0.287181 -0.094859 -0.309883 0.265219 -0.042322 0.099753 0.157075 0.009035 -0.408663 -0.018765 0.095887 -0.165951 0.151446 0.137321 -0.096530 -0.146712 0.241892 0.049076 0.189022 0.230730 -0.298998 -0.061008 -0.084745 -0.026239 -0.120225 0.364813 0.250533 -0.190986 -0.098012 -0.260226 0.179049 -0.156811 -0.147598 0.138474 0.039600 -0.206137 -0.246186 -0.240230 0.169908 -0.359029 0.197975 0.062690 -0.211456 0.111793 -0.006815 -0.197023 0.008340 -0.193273 -0.117995 -0.050964 0.073851 0.027965 0.117300 -0.057409 0.130604 -0.302003 0.067614 0.083158 -0.025745 -0.014403 -0.127319 -0.020843 -0.235188 0.041656 -0.052036 -0.083151 0.118775 0.034789 -0.178676 0.100093 0.264713 -0.065434 -0.144341 -0.124327 -0.070052 0.185565 0.239834 0.167218 0.142623 0.049819 -0.061494 0.221226 -0.003970 0.146322 -0.218629 0.038446 -0.011249 -0.012657 -0.239832 -0.138378 0.211797 0.077967 -0.010609 0.154502 -0.050177 0.183521 -0.036167 0.156443 0.126540 -0.022041 -0.089022 0.077969 0.031100 0.110075 -0.176027 -0.202281 -0.014153 -0.080319 -0.309067 -0.293492 -0.035543 -0.049168 -0.167422 0.116015 -0.067099 -0.058110 0.284481 -0.008796 -0.223878 0.117366 0.208870 0.010855 -0.124861 -0.004213 0.251279 -0.030013
2 0.402525 -0.114956 0.032740 -0.310962 0.010061 0.123903 -0.150325 0.222733 0.431021 0.002954 -0.460842 -0.053794 -0.001110 -0.128269 0.261579 -0.032852 -0.582995 0.363136 0.224673 -0.340220 -0.099802 0.117938 -0.085928 0.112961 -0.189044 -0.001046 0.040633 -0.234337 0.037370 -0.155075 -0.427788 -0.132583 0.266655 -0.043443 -0.115550 0.132670 -0.185746 0.028740 -0.296676 -0.114265 0.549206 -0.424980 -0.074479 0.212439 -0.099358 0.312857 0.210669 -0.094624 -0.187930 -0.056573 -0.170336 0.005913 0.108866 -0.238653 0.119937 0.218670 -0.129974 -0.142340 -0.257753 -0.193933 -0.105033 -0.137546 -0.173830 0.286026 -0.099672 0.055132 0.011865 -0.149212 0.016457 0.101674 -0.214053 0.032656 0.130152 0.103046 -0.130442 0.177251 0.315530 -0.175819 0.132564 0.104928 -0.059230 -0.001120 0.009947 0.252877 -0.101715 -0.115032 -0.160899 0.183882 0.104497 -0.112188 0.076366 -0.142917 -0.145441 0.110474 0.027969 -0.050387 -0.043991 0.218390 -0.068063 0.079445 -0.074218 0.139521 -0.182929 -0.010369 0.036461 0.267852 -0.171459 0.060626 -0.009793 0.008837 0.049639 0.023876 0.131944 -0.270102 0.030453 0.091758 -0.026164 -0.192509 -0.365261 0.267213 -0.289663 0.082545 -0.081601 -0.173640 -0.323965 -0.172814 0.108810 0.077666
59 0.327358 0.048769 0.073989 -0.253011 -0.080796 0.347277 -0.240193 0.299739 0.291211 -0.035194 -0.418153 0.038881 0.139625 -0.072109 0.224330 -0.117275 -0.633853 0.353513 0.196297 -0.191306 -0.153402 -0.019823 -0.044668 0.063619 -0.094585 -0.030288 0.000611 -0.287840 0.107627 -0.071871 -0.306187 -0.275176 0.217554 -0.071473 -0.115274 0.104592 -0.175711 0.124967 -0.138517 0.053644 0.440317 -0.319213 -0.081290 0.233813 -0.112873 0.124146 0.123763 -0.226308 -0.051315 -0.199209 0.024519 0.020065 0.199882 -0.202942 0.167531 0.147116 -0.022175 -0.146179 -0.226105 -0.077530 -0.009968 -0.125679 -0.198631 0.345851 -0.206680 0.033936 -0.017148 -0.118540 -0.040326 0.171838 -0.187353 0.154914 0.240151 -0.003762 -0.133113 0.096833 0.159451 -0.048326 0.060152 0.096821 -0.037770 -0.061050 -0.078300 0.218085 -0.123636 -0.168026 -0.220182 0.057187 0.175265 -0.087848 0.077511 -0.247040 -0.104961 0.105111 0.058149 -0.062815 -0.055999 0.320855 -0.179133 0.064441 0.063311 0.101569 -0.065373 0.123829 -0.092784 0.250819 -0.089543 -0.006953 -0.120655 0.059432 0.027510 0.005541 0.066048 -0.064045 -0.024652 0.218102 0.046333 -0.233770 -0.088593 0.174815 -0.304616 0.253256 -0.101827 -0.292001 -0.247038 -0.275626 0.112401 0.060580
4 0.325157 -0.200316 0.108649 -0.173537 -0.142331 0.348608 -0.194591 0.260788 0.373477 0.058495 -0.373212 0.006975 0.143203 -0.156084 0.269643 -0.126092 -0.548082 0.350773 0.071774 -0.235706 -0.148996 -0.047788 -0.058290 0.128947 -0.072728 -0.078713 -0.060716 -0.150509 0.137307 -0.034044 -0.509400 -0.126418 0.144045 0.042404 -0.167246 0.137391 -0.140612 0.036107 -0.342184 -0.123290 0.497475 -0.267899 -0.082708 0.227167 -0.053562 0.095946 0.183521 -0.144304 0.064229 -0.143931 0.038515 0.031783 0.257719 -0.207406 0.129026 0.074793 -0.038148 -0.203166 -0.223173 -0.024853 -0.062599 -0.156548 -0.137326 0.123886 -0.208555 -0.009521 0.122321 -0.054024 -0.019469 0.066088 -0.089659 0.180311 0.190268 0.059205 -0.083917 0.071432 0.217971 -0.162657 0.121948 0.085886 -0.028372 0.075499 -0.027403 0.167860 0.019589 -0.106833 0.021524 0.153632 0.217149 -0.108376 0.159455 -0.233972 -0.158238 0.016108 -0.021699 0.004217 -0.072911 0.263251 -0.187035 0.135012 0.078479 0.148870 -0.053632 0.097771 0.033617 0.289604 -0.083076 0.088631 -0.144206 0.009678 -0.000009 -0.010969 0.036979 -0.138720 -0.102629 0.163206 0.064879 -0.217966 -0.167638 0.164870 -0.238406 0.141186 -0.032397 -0.261177 -0.243738 -0.215928 0.147940 0.078096
68 0.175012 0.093158 -0.077903 0.189359 -0.065658 -0.045210 -0.091470 0.218477 -0.096843 -0.213260 0.131777 -0.340550 -0.036160 0.106967 0.306495 0.087938 0.090622 -0.432194 0.249349 0.190271 -0.075754 0.177080 -0.258063 0.057739 0.280322 -0.057566 0.105746 0.240275 -0.120677 -0.351553 0.089238 -0.385170 0.285081 -0.139417 0.231837 0.113457 0.148210 -0.139861 -0.000882 -0.184475 -0.131146 0.188112 -0.240720 -0.019419 0.001779 0.088953 0.079136 -0.173226 0.111929 0.197027 0.135547 -0.345919 0.231533 -0.185054 -0.089725 0.131880 -0.007277 -0.031345 -0.219077 -0.162262 -0.074454 0.135426 0.056761 -0.044090 0.029424 0.070987 0.013896 0.275119 -0.085077 0.220678 -0.232764 0.140880 0.117464 0.090678 0.205959 -0.119561 0.136041 -0.078090 0.036230 -0.027549 -0.112229 0.022595 -0.175278 -0.098964 0.264690 0.096046 0.159384 -0.020444 0.001328 0.032409 0.094802 -0.179873 0.086831 -0.157091 0.005804 0.071558 0.393012 0.200002 0.136327 -0.064424 -0.175472 -0.029176 0.105219 -0.279903 -0.143923 -0.208807 0.129199 0.303383 -0.118025 0.032942 0.159560 0.022079 0.092074 -0.163092 -0.164527 -0.159936 0.038916 0.212029 0.087782 0.036064 -0.026775 -0.078398 -0.344765 -0.049091 0.095843 0.081547 0.070406 0.151907
3 0.576608 -0.091298 0.253174 -0.094291 -0.106354 0.219656 -0.378466 0.150752 0.498294 0.008730 -0.312530 0.045931 0.120508 -0.171743 0.292750 0.086486 -0.496863 0.309174 0.160265 -0.283708 -0.267950 0.054955 0.026494 -0.042906 -0.291294 -0.014568 -0.061698 -0.279307 0.123234 -0.099813 -0.471388 -0.219262 0.240868 0.060440 -0.318537 0.115162 -0.239582 0.100882 -0.243580 -0.082055 0.552750 -0.326939 -0.044825 0.186863 -0.023900 0.288263 0.235068 -0.153467 -0.168445 -0.198838 -0.182891 -0.006134 0.148448 -0.315836 0.078460 0.128372 -0.153491 -0.164925 -0.206804 -0.085373 -0.051339 -0.162093 -0.178358 0.286459 -0.153726 -0.024832 -0.024739 -0.207725 -0.014495 0.117346 -0.123451 -0.001526 0.174606 0.130603 -0.213853 0.218178 0.229311 -0.304593 0.128398 0.178103 -0.094587 -0.015570 -0.082133 0.190550 -0.172847 -0.178208 -0.202120 0.206072 0.095756 -0.156187 0.098475 -0.331863 -0.155892 0.009241 0.113917 -0.032441 -0.165147 0.172361 -0.069142 0.033755 0.053781 0.158603 -0.280851 0.108128 0.030377 0.266963 -0.266595 -0.016946 0.019050 0.001168 0.079843 0.134565 0.107370 -0.181750 -0.041452 0.189413 0.005811 -0.195268 -0.283165 0.299317 -0.352252 0.188527 -0.051714 -0.270584 -0.269893 -0.262632 0.153912 0.138397
38 0.550754 0.011924 0.094987 -0.209790 -0.133096 0.205771 -0.274502 0.221449 0.601971 -0.019532 -0.415439 0.078910 0.132564 -0.094004 0.197488 -0.001273 -0.604046 0.550899 0.167170 -0.208582 -0.144546 0.064220 -0.033091 0.053232 -0.121833 -0.127336 0.047956 -0.239944 0.054876 -0.083276 -0.363425 -0.229162 0.323536 0.007632 -0.151926 0.162723 -0.246383 0.087744 -0.257251 -0.078622 0.515614 -0.375369 0.049749 0.145942 -0.190097 0.290980 0.157877 -0.122076 -0.161853 -0.138992 -0.150027 -0.036184 0.139309 -0.199162 0.114259 0.221860 -0.118082 -0.181131 -0.252556 -0.292527 -0.124328 -0.074168 -0.301261 0.309891 -0.198080 -0.024289 -0.024591 -0.183088 -0.094928 0.036178 -0.190558 0.030751 0.162527 0.041653 -0.255093 0.124621 0.234756 -0.227549 0.203409 0.024040 -0.059568 0.046438 -0.156329 0.240142 -0.119252 -0.200850 -0.144157 0.176409 0.100392 -0.155349 0.136523 -0.325684 -0.169919 -0.046949 0.079408 -0.049198 -0.069307 0.230309 -0.106107 0.057793 0.073168 0.180870 -0.176054 0.106197 0.104212 0.237655 -0.300321 0.174248 -0.130538 0.042123 0.136175 0.074396 0.049398 -0.191599 -0.106714 0.127306 -0.037425 -0.240585 -0.357184 0.192140 -0.376549 0.160269 -0.003015 -0.269041 -0.324114 -0.178771 0.188849 0.132974
27 0.334076 -0.012285 -0.222938 0.198411 -0.087373 0.093083 -0.313152 0.155005 -0.086111 -0.267817 0.018669 -0.407554 0.087573 0.019878 0.254780 0.203107 0.043251 -0.636661 0.428672 0.223870 -0.070545 0.194550 -0.051398 0.017333 0.036137 -0.221141 0.088450 0.180076 -0.308552 -0.214344 0.124816 -0.530580 0.279801 -0.256076 0.005168 -0.220541 0.180090 -0.186685 0.149561 -0.252084 -0.108163 0.253645 -0.233612 0.127475 0.131972 0.046074 0.085604 -0.473945 0.119027 0.162706 0.122912 -0.247628 0.129407 -0.053104 -0.162308 -0.023091 -0.124298 0.212297 -0.152716 0.103792 0.067538 0.210677 0.059341 -0.005203 -0.008115 0.098437 -0.154999 0.172930 -0.100281 0.233807 -0.303268 0.175342 0.139839 0.156465 0.302401 0.082713 0.139863 0.016449 -0.074769 -0.063093 -0.105071 -0.175014 0.090886 0.017389 -0.046165 0.030568 0.040028 -0.237529 0.070509 0.013173 0.047120 -0.081808 0.086955 -0.039432 0.092819 0.081900 0.068528 0.101959 0.022791 -0.153270 -0.286767 -0.061439 0.127832 -0.208381 -0.203998 -0.313462 0.145955 0.017216 0.066954 0.193576 0.242704 0.013272 0.081838 -0.067453 -0.065153 -0.143683 0.042114 0.194233 0.188704 -0.158401 -0.047457 -0.064135 -0.428378 -0.106191 -0.060709 0.030805 0.311856 0.049265
36 0.040046 -0.151385 -0.023144 0.148668 0.227534 0.372611 0.345981 -0.307023 0.200091 -0.441049 0.195710 -0.620483 0.097397 -0.030804 0.129634 0.046650 -0.167040 -0.257239 0.191263 0.205466 -0.206974 -0.033073 -0.165301 -0.130540 0.103679 -0.146429 0.176231 0.030931 0.032243 -0.026356 -0.146781 -0.494511 0.242723 0.015810 0.110827 -0.085191 0.177041 -0.119249 -0.046615 0.045780 -0.271737 0.247194 -0.243154 0.130691 0.269024 0.028347 -0.167271 -0.509821 -0.074399 -0.004159 0.059373 -0.230520 0.152069 -0.008369 -0.124594 0.096477 0.016708 -0.060157 -0.188164 0.177660 -0.086706 0.019196 -0.005155 0.162497 -0.171556 0.159903 -0.001446 0.421733 -0.218014 0.136783 -0.331286 0.016514 -0.042962 -0.026959 0.192579 -0.146868 0.248143 -0.347041 0.088827 0.015583 -0.249700 -0.014991 -0.210924 -0.176215 0.363306 0.162605 0.112839 0.025926 0.104493 -0.112300 0.048895 -0.092573 0.202770 -0.233560 -0.120810 0.157751 0.034926 0.103080 -0.085931 -0.471011 -0.388653 -0.073436 0.053858 -0.259374 -0.283631 -0.200567 0.052541 0.036753 -0.111538 0.099793 0.268179 -0.151742 -0.257164 -0.166210 -0.105941 -0.145781 0.035980 -0.007505 0.307725 0.019070 -0.069874 0.198922 -0.262561 -0.016539 0.039476 -0.092617 0.155580 0.212030
30 -0.147088 0.059286 -0.039260 0.057824 0.204993 0.365624 0.091689 -0.029248 0.091951 -0.283909 0.219111 -0.508897 0.272218 -0.028645 0.439525 -0.084894 -0.230808 -0.379913 0.159064 0.092128 -0.196256 0.077323 -0.034067 -0.087246 0.117854 -0.099921 -0.217738 0.025704 -0.169584 -0.260249 -0.126705 -0.480505 0.454329 0.013351 0.231974 0.275828 0.209949 -0.260531 0.059354 -0.121356 -0.394931 -0.190402 -0.075187 0.019049 0.133279 -0.122824 -0.100945 -0.273450 0.070296 0.058835 0.263128 -0.147059 -0.158491 -0.083269 -0.070627 0.084288 0.088876 -0.154967 -0.089235 -0.047259 -0.006549 0.126148 0.145696 0.073780 -0.166405 -0.048487 0.077110 0.438964 -0.313117 0.240771 -0.160658 0.179226 0.083847 -0.045261 0.177503 -0.105427 0.455399 -0.397553 0.047480 0.104782 -0.236096 0.040529 -0.206646 -0.265455 0.363072 0.139154 0.306407 -0.031250 -0.120132 -0.025328 0.091953 -0.245288 0.061282 -0.133825 -0.142333 0.103596 0.262456 0.007964 0.016753 -0.531939 -0.350451 -0.040568 0.032149 -0.238926 -0.131502 -0.055911 0.139498 0.187510 -0.097120 0.258788 0.166651 -0.094371 -0.247030 -0.025716 -0.051026 -0.144132 0.138344 -0.019897 0.255391 0.126265 0.064793 0.169124 -0.270277 0.017303 0.096699 0.058930 0.150277 0.366113
48 0.233515 0.114355 0.014978 -0.183839 -0.123929 -0.061867 -0.212205 -0.036510 -0.158017 -0.080426 -0.329413 -0.021267 0.075293 -0.519126 0.248548 -0.024724 -0.435931 0.261131 0.164779 -0.234937 -0.033861 0.042466 -0.015171 0.073992 0.036844 -0.052186 0.197256 0.239084 -0.082902 -0.022951 -0.134527 -0.145777 -0.053090 0.049708 -0.185181 0.168023 -0.237250 0.177895 -0.113071 -0.207537 0.120096 -0.434530 -0.232491 0.296754 0.128148 0.040169 -0.022747 0.076035 0.129529 -0.399353 -0.254048 0.132628 0.020197 -0.188732 0.074302 0.083669 -0.095672 -0.167652 -0.264163 0.009554 0.107651 -0.205042 0.100792 0.233591 -0.144686 0.362636 0.044110 -0.129934 -0.067336 -0.090274 -0.272276 -0.007218 0.152917 -0.165226 -0.098561 -0.097959 0.003166 -0.012475 0.135027 0.021383 -0.211978 -0.025966 -0.043049 -0.035318 0.106365 -0.123100 -0.142431 0.064090 0.104960 -0.143909 0.013795 -0.215219 -0.130682 -0.023948 -0.088955 -0.181596 0.039591 0.220987 -0.163412 0.118181 -0.087257 0.123155 -0.062773 -0.015704 -0.113929 0.313946 -0.040703 0.018237 -0.071023 -0.008614 -0.013920 -0.059577 -0.097306 -0.023961 -0.008581 0.052045 -0.092018 -0.219875 0.229624 -0.058818 -0.159212 0.248976 -0.247248 -0.183920 -0.137932 -0.443686 0.002330 0.092484
32 0.258637 0.187286 -0.120921 -0.225202 -0.137551 -0.087195 -0.081830 0.001458 -0.045400 0.090673 -0.380365 -0.059004 -0.031829 -0.530783 0.074228 -0.046252 -0.403332 0.216451 0.424810 -0.268984 0.045047 -0.089648 -0.012690 0.081047 -0.037773 0.064550 0.042851 -0.019310 -0.280038 -0.080975 -0.182614 0.018354 0.044279 -0.084715 -0.266784 0.267089 -0.035658 0.131802 -0.195312 -0.109896 0.229354 -0.317983 -0.086265 0.272640 0.120233 0.088186 0.015939 -0.030166 0.069256 -0.274931 -0.119928 -0.031305 0.247872 -0.132142 0.056933 -0.071847 -0.145133 -0.075604 -0.243423 0.345894 0.001546 -0.172825 -0.004247 0.291194 -0.017872 0.254534 0.009440 -0.252805 -0.091134 -0.030236 -0.190471 0.067722 0.133375 -0.034616 -0.159170 0.005951 0.198355 0.081122 0.108168 -0.111997 -0.222478 0.168784 -0.180368 0.058279 0.195051 -0.026095 0.028935 0.113066 0.141174 -0.107362 -0.144348 -0.263894 -0.018273 -0.182024 -0.070766 -0.261753 0.152215 0.227634 -0.024709 -0.038680 -0.120155 0.156446 -0.115982 0.011794 -0.127011 0.356992 0.036684 -0.038355 -0.160879 -0.018789 -0.026771 -0.009107 -0.279683 0.006539 -0.254548 0.114438 0.108884 -0.091272 0.208786 0.042068 -0.160335 0.493904 -0.043858 -0.075112 -0.063370 -0.309371 -0.087922 0.207088
35 0.153602 -0.177403 -0.094071 -0.058442 0.129068 0.219452 0.225921 -0.201734 0.134525 -0.463157 0.224022 -0.366976 -0.046508 0.087555 0.378446 0.088702 -0.243484 -0.221251 0.274074 0.225810 -0.137205 0.142716 0.036971 -0.186223 0.320871 -0.134368 -0.008314 0.138472 -0.015266 -0.311725 0.078815 -0.522109 -0.031326 -0.035168 0.091005 -0.005220 0.190017 0.023321 0.010119 0.002406 -0.399053 0.143694 -0.145719 0.232198 0.285041 -0.052653 -0.031538 -0.355967 0.131446 0.027924 0.095138 -0.038968 0.022551 -0.004091 -0.023481 0.159774 0.077725 -0.006025 -0.083913 0.004990 0.052455 0.137435 -0.022167 0.200312 -0.223328 0.314877 -0.147701 0.477488 -0.422383 0.106849 -0.460412 -0.063374 0.035609 -0.114656 0.094655 -0.205335 0.366510 -0.285592 -0.012454 0.131456 -0.213660 0.016228 -0.287495 -0.177069 0.354149 0.169022 0.201552 0.027760 0.231691 -0.031157 0.191673 -0.237862 0.087093 -0.207343 -0.073255 0.132899 0.281647 -0.006681 -0.028059 -0.310293 -0.289212 -0.072492 0.002885 -0.160818 -0.194560 -0.112446 0.102452 0.144811 -0.180883 0.103830 0.034916 -0.176294 0.025893 -0.001753 0.051614 -0.292592 0.002482 -0.073147 0.095073 0.320326 -0.024684 0.057449 -0.172345 -0.069096 0.231024 -0.026865 0.100426 0.294051
24 0.231663 -0.077665 -0.102887 -0.057480 0.239199 0.192259 0.293198 -0.183818 0.057795 -0.506686 0.220910 -0.518080 0.118088 -0.008952 0.458886 0.189389 -0.189183 -0.334528 0.267563 0.078387 -0.206304 0.130260 0.052430 -0.034824 0.190275 -0.127800 -0.154431 0.089129 -0.188445 -0.154185 -0.099468 -0.481073 0.130373 -0.053582 0.199908 0.058443 0.142524 -0.095434 -0.043647 -0.056037 -0.302806 0.038867 -0.233505 0.097479 0.150488 -0.038284 -0.069842 -0.290501 0.027497 -0.084763 0.111717 -0.101809 0.000760 -0.070955 -0.186854 0.174777 0.056252 -0.144713 -0.116837 -0.005024 0.052807 -0.020064 0.029839 0.226199 -0.210860 0.207164 -0.047713 0.396548 -0.190395 0.116853 -0.289570 0.037847 -0.077799 -0.029430 0.157692 -0.160745 0.276951 -0.300775 0.013941 0.261627 -0.193934 -0.012161 -0.185748 -0.244486 0.375525 0.178174 0.168693 0.031625 0.145416 0.029264 0.157050 -0.187362 0.040784 -0.115205 -0.100194 0.030435 0.205164 -0.067188 -0.027604 -0.364302 -0.345690 0.002610 -0.095124 -0.179530 -0.166139 -0.072042 0.170565 0.129805 -0.083862 0.117384 0.043658 -0.239281 -0.071795 -0.114726 0.000100 -0.142508 -0.025490 0.036296 0.257387 0.148808 0.009159 0.121973 -0.255650 -0.076793 0.099771 -0.147740 0.061771 0.224818
67 0.088506 0.314331 0.153954 0.130806 -0.414720 0.041871 -0.183986 0.455934 0.135116 -0.184017 -0.342567 -0.154410 0.228728 -0.138985 0.020205 0.222608 0.284992 -0.133768 -0.185891 -0.148037 0.209655 0.209555 -0.291611 -0.082883 0.225143 -0.146029 0.073632 0.249088 0.043731 -0.502473 -0.215979 0.047718 0.046344 0.212755 -0.290625 -0.057072 -0.014580 0.053909 -0.086032 0.256088 0.229097 -0.042584 0.521301 -0.182219 -0.229631 -0.009506 0.291552 -0.292571 -0.181773 -0.001550 -0.155173 0.097884 0.285690 -0.094946 0.373577 0.061364 0.122741 -0.327437 0.033679 -0.081384 0.198091 0.219520 0.084998 -0.183866 -0.193491 0.081024 0.204349 -0.106916 -0.082391 -0.090274 -0.244418 -0.052530 0.304573 -0.166494 -0.028816 0.061031 0.193208 0.338425 0.076470 -0.002089 -0.008520 0.114858 0.038109 0.220861 0.076003 0.048589 -0.014492 -0.187444 -0.444228 0.069716 -0.161978 -0.173119 0.113172 0.175995 -0.003448 0.262108 0.130353 0.295992 -0.058566 0.013240 -0.139841 0.129582 -0.038051 -0.062485 0.097732 0.385700 0.016777 -0.034851 0.036281 -0.080751 -0.403096 -0.110476 0.115865 -0.041820 -0.254769 0.150343 0.042123 -0.043130 0.181494 0.188273 -0.321164 0.107531 -0.040361 -0.127353 -0.242187 -0.149636 -0.115153 0.124542
12 0.081192 0.023638 0.233626 0.160106 -0.533612 -0.073946 -0.207756 0.139245 0.354696 0.004888 -0.306528 -0.164140 0.534917 -0.300952 0.055806 0.166987 0.358771 -0.131730 -0.064362 -0.000731 0.184031 0.243426 -0.140663 -0.185760 0.229035 -0.287718 0.067952 0.353561 0.085560 -0.458117 -0.164065 -0.108627 -0.056468 0.113910 -0.357894 -0.034155 0.047174 0.004085 -0.119817 0.138137 0.015174 0.001677 0.421217 -0.009551 -0.052699 -0.067348 0.498754 -0.401012 -0.107537 0.165060 -0.146168 0.191753 0.025754 -0.074451 0.372274 -0.021337 0.083904 -0.157925 -0.047302 -0.030810 0.221355 0.172850 0.101269 -0.210021 -0.220750 0.147500 0.198246 -0.041427 -0.269981 -0.086933 -0.267673 0.093318 0.357185 -0.144417 -0.029950 -0.038484 0.248362 0.103886 0.074760 0.012217 0.069634 0.057810 0.178184 0.173826 -0.016937 -0.020381 0.083088 -0.270974 -0.386487 -0.019606 -0.195719 -0.225247 0.216427 0.216632 0.079209 0.209945 -0.095324 0.266786 -0.171479 0.094881 -0.075681 0.141283 -0.099006 0.102145 0.063061 0.380008 -0.089313 -0.016289 -0.005583 0.011182 -0.522729 -0.119537 0.102962 0.069953 -0.247397 0.107584 0.000708 -0.105804 0.129727 0.158737 -0.228947 0.125548 0.071644 -0.106489 -0.200175 -0.133801 -0.070163 0.060325
1 1.054689 -0.226172 0.564281 -0.576154 -0.502978 -0.021045 -0.476458 0.418186 0.228282 -0.039768 -0.305363 -0.235884 0.190752 -0.655189 0.300273 -0.100459 0.165027 0.602214 0.259427 0.183550 0.135985 -0.054282 -0.429217 -0.072181 0.008279 -0.229495 -0.016267 0.202316 0.073879 -0.004005 -0.737715 0.689688 0.094852 0.092122 -0.037822 -0.119250 0.082655 0.080894 -0.313355 0.181116 0.832807 0.050992 0.338907 0.291618 -0.138537 0.173316 0.045431 -0.276419 -0.103816 -0.419028 -0.551211 0.029978 0.613277 -0.261537 0.636490 0.166632 -0.171375 -0.019425 0.336440 0.128080 0.142255 0.224162 -0.315498 0.313683 -0.329585 0.054201 -0.161387 0.170938 0.184937 -0.364521 0.101888 -0.181553 0.182668 -0.163015 0.241135 0.268047 0.091910 0.311683 -0.023451 0.036663 -0.078363 -0.167435 0.102417 0.076057 0.017970 0.047557 -0.120080 0.260401 0.301672 0.109426 0.280756 -0.106224 -0.335311 -0.010406 -0.148311 0.220852 -0.467747 0.001984 0.355213 -0.389247 -0.106168 -0.141576 -0.163974 -0.180924 0.104462 0.739855 0.110276 0.248936 -0.225825 0.142657 0.775977 0.208127 0.049734 -0.388287 0.050381 -0.202823 0.314283 -0.115843 -0.421987 0.600343 -0.233633 -0.210511 -0.469907 -0.171875 -0.468694 -0.179102 0.117707 0.184488
37 1.027975 -0.524301 0.324906 -0.511980 -0.445656 -0.071316 -0.349273 0.539153 0.276379 -0.040052 -0.381715 -0.498051 0.025575 -0.678176 0.219779 -0.268641 -0.089928 0.205225 0.164663 0.080954 0.498462 0.082712 -0.335889 -0.214556 -0.132354 -0.062664 0.249788 0.057820 0.151317 -0.096788 -0.629698 0.798816 0.430356 -0.074301 -0.048640 0.146236 0.021352 0.252851 -0.228327 0.196000 0.808623 -0.074433 0.308401 0.317588 -0.147071 0.048913 -0.045039 -0.081383 -0.411798 -0.196213 -0.446054 0.227849 0.336090 -0.181214 0.628856 -0.035798 -0.206443 0.236626 0.261934 -0.001414 0.122480 0.192237 -0.456795 0.393530 -0.394271 0.175158 -0.095911 0.227723 -0.014085 -0.412457 -0.117204 -0.197522 0.110871 -0.177843 0.276410 0.204301 0.091297 0.617406 -0.330513 0.022380 0.010475 -0.147600 0.307378 0.278500 0.193116 -0.033267 -0.267590 0.076682 0.246907 0.087539 0.346683 -0.017574 -0.399950 0.214925 0.041094 0.060148 -0.424657 0.173403 0.208638 -0.277166 -0.087253 -0.024615 -0.026344 -0.163486 0.103862 0.818610 0.107271 0.213544 -0.180165 0.091801 0.883738 0.291561 -0.129606 -0.424764 -0.006186 0.027549 0.486566 0.001515 -0.380990 0.836895 -0.445764 -0.204989 -0.484404 -0.293522 -0.383103 -0.099600 0.122914 0.229693
