68 128
66 0.017893 0.073597 0.039893 0.036327 0.023539 0.161970 0.189384 0.102883 -0.104218 0.238860 0.071099 0.103719 -0.167049 0.218793 0.258442 0.118851 -0.057345 0.040027 0.197491 0.127600 0.002862 -0.072375 -0.175415 0.212219 0.296116 -0.367301 -0.129986 -0.188746 -0.250800 0.016551 0.131153 0.029012 0.050182 -0.013448 0.038301 0.048496 0.178648 -0.178551 0.063591 0.078189 0.034641 0.281362 0.262821 0.008515 0.207966 -0.086264 0.084827 -0.048317 -0.271340 0.002188 0.519534 -0.062051 0.119003 0.111328 0.163175 0.006226 -0.219749 -0.179025 0.026969 -0.299229 0.146761 -0.199985 -0.007481 -0.069335 0.139006 -0.032959 -0.232052 -0.086278 0.193513 -0.049686 0.024818 -0.189298 0.137944 -0.025010 -0.104131 -0.122216 -0.002144 0.228371 -0.335490 -0.019498 -0.062102 0.034351 -0.140791 0.024247 0.006525 0.091757 0.110244 0.025486 0.145289 0.264007 0.008657 0.273956 0.001872 0.143424 -0.152600 0.135201 0.069558 -0.075985 -0.143362 -0.167855 -0.008576 0.052654 -0.029143 -0.247942 -0.147948 -0.216863 -0.094558 -0.133905 0.056487 0.181441 0.139571 0.044615 0.068539 -0.209486 -0.102083 0.252323 0.049073 0.314883 -0.090276 0.427158 -0.031571 0.078520 0.126400 0.173450 -0.128977 -0.129277 0.079144 0.309668
46 -0.052481 0.054897 0.057393 0.020469 0.007869 0.132811 0.205753 0.120701 -0.124359 0.323326 0.053859 0.203618 -0.173004 0.244249 0.239193 0.104116 -0.030409 0.073347 0.248109 0.191136 -0.040078 -0.146636 -0.176639 0.232294 0.316571 -0.383051 -0.081176 -0.103847 -0.204211 0.030102 0.130160 0.069986 0.041738 0.033606 0.027657 0.042106 0.128643 -0.133609 0.182394 0.108544 -0.019025 0.288683 0.289982 0.012702 0.118789 -0.097726 0.080409 0.006611 -0.288669 0.015963 0.549699 -0.081472 0.087583 0.089341 0.099408 0.001388 -0.188387 -0.194113 -0.032379 -0.309848 0.093322 -0.212971 -0.033885 -0.012638 0.090609 -0.072900 -0.245964 -0.094954 0.243487 -0.008970 -0.024673 -0.180961 0.179112 -0.091909 -0.108554 -0.131168 0.037657 0.173018 -0.253907 0.010506 -0.014226 -0.053856 -0.177638 -0.037383 -0.006834 0.121655 0.093239 -0.008280 0.096648 0.232224 -0.000808 0.250572 -0.040562 0.173639 -0.089276 0.145842 0.067731 0.007342 -0.215761 -0.247520 -0.020698 0.070155 -0.009704 -0.249457 -0.126829 -0.229433 -0.100474 -0.128906 0.037614 0.162817 0.175886 0.083943 0.052755 -0.145092 -0.075548 0.208607 -0.006896 0.317537 -0.205764 0.480662 -0.087313 0.101166 0.119923 0.239756 -0.053853 -0.104863 0.068290 0.319671
47 -0.005369 0.077652 0.006934 0.035074 0.019851 0.215766 0.200521 0.100221 -0.149519 0.243952 -0.001011 0.132704 -0.132135 0.153446 0.286114 0.122579 -0.094301 0.063233 0.188941 0.216406 0.011720 -0.074722 -0.201123 0.226358 0.329426 -0.355183 -0.131030 -0.198578 -0.316481 -0.066592 0.105603 0.063340 0.070923 0.004077 0.048813 0.092706 0.136317 -0.135985 0.104484 0.106839 0.020281 0.312409 0.227388 -0.020660 0.214424 -0.159579 -0.000772 -0.005440 -0.277374 0.008623 0.454451 -0.054631 0.157483 0.086347 0.164554 -0.028541 -0.276264 -0.252253 0.063064 -0.317189 0.147777 -0.224627 0.031100 -0.093778 0.146887 -0.054451 -0.258748 -0.109148 0.223999 0.018411 -0.027848 -0.181685 0.140025 -0.036014 -0.158236 -0.127126 -0.069604 0.280204 -0.308045 0.011373 -0.071566 0.002964 -0.132677 0.014196 0.063489 0.143714 0.039236 -0.029861 0.139435 0.254937 -0.009870 0.251482 0.006332 0.082267 -0.129261 0.118852 0.069449 -0.026114 -0.198332 -0.192301 0.012095 0.065976 -0.048590 -0.256113 -0.179393 -0.269491 -0.049717 -0.114385 -0.017314 0.222305 0.143550 -0.008863 0.010548 -0.186815 -0.147552 0.219603 0.021321 0.327300 -0.089669 0.530815 -0.007160 0.144440 0.110947 0.250826 -0.123993 -0.089124 0.110016 0.372336
15 -0.093515 0.073535 0.050503 0.012587 0.089361 0.134673 0.329461 0.132065 -0.095456 0.329951 0.029329 0.187930 -0.166370 0.194040 0.248734 0.068685 -0.085176 0.053141 0.188049 0.140792 0.013314 -0.109698 -0.178884 0.248334 0.363144 -0.371411 -0.143158 -0.167662 -0.256335 -0.003105 0.123059 0.067633 0.072572 0.013294 0.059385 0.053702 0.089758 -0.109681 0.153759 0.101344 0.004027 0.314713 0.260427 -0.018811 0.154800 -0.160537 0.021166 0.017700 -0.244790 -0.020902 0.478026 -0.059246 0.154070 0.094219 0.147895 0.012664 -0.266535 -0.303593 0.033775 -0.258261 0.125922 -0.213355 0.022819 -0.064756 0.140851 -0.043487 -0.216654 -0.083969 0.213265 -0.014827 -0.005242 -0.178635 0.161951 -0.057838 -0.167246 -0.136221 0.003144 0.222702 -0.341839 0.020213 -0.066125 -0.005515 -0.170426 -0.013019 0.011555 0.094956 0.050262 -0.009543 0.161724 0.301213 0.042119 0.242538 0.007034 0.098351 -0.121184 0.099531 0.057313 -0.023510 -0.199171 -0.167876 -0.001196 0.050751 -0.051411 -0.260179 -0.118870 -0.276536 -0.049005 -0.121567 -0.017748 0.232846 0.186783 0.015014 0.013519 -0.230061 -0.177434 0.237058 0.021116 0.372459 -0.139954 0.591192 -0.026878 0.139292 0.171455 0.270449 -0.122318 -0.097624 0.138685 0.430983
16 -0.092518 0.055586 0.028188 0.047407 0.144149 0.109023 0.293483 0.188887 -0.056219 0.293304 -0.031033 0.143589 -0.148039 0.163104 0.242459 0.050258 -0.098024 -0.024732 0.211022 0.123863 0.036573 -0.090079 -0.126797 0.225099 0.356663 -0.382494 -0.144431 -0.182198 -0.272276 0.024490 0.132095 0.029813 0.021232 -0.093212 0.062841 0.085918 0.176775 -0.114924 0.094085 0.061879 -0.010736 0.379048 0.319573 -0.029948 0.167207 -0.217709 0.035478 0.038436 -0.250778 0.030477 0.511338 -0.004296 0.185865 0.157818 0.163642 -0.038952 -0.235350 -0.240080 0.072244 -0.227289 0.135561 -0.261684 0.009549 -0.068749 0.168873 -0.090628 -0.215847 -0.032201 0.162489 -0.051120 0.086153 -0.157831 0.169864 -0.050358 -0.165156 -0.213987 0.014519 0.214976 -0.310020 0.092024 -0.117235 -0.043647 -0.127268 -0.025715 0.015397 0.160323 -0.010067 -0.003316 0.136371 0.211936 -0.029722 0.223444 -0.034458 0.128261 -0.112631 0.092164 0.135929 -0.044707 -0.223470 -0.284417 0.027443 0.114113 0.022805 -0.313810 -0.154321 -0.271296 -0.171424 -0.184012 0.067660 0.178924 0.214619 0.032264 -0.049729 -0.268285 -0.031442 0.260465 0.032353 0.381038 -0.155651 0.546683 -0.037111 0.212173 0.137300 0.266911 -0.113362 -0.078870 0.106490 0.437631
23 -0.018895 0.045103 0.035857 0.008457 0.077242 0.100041 0.189582 0.149121 -0.002618 0.204088 -0.061070 0.179887 -0.118907 0.097411 0.192607 0.060848 -0.120280 0.017693 0.224194 0.188807 0.030159 -0.030163 -0.180280 0.330608 0.291539 -0.322697 -0.111630 -0.191592 -0.356189 -0.014824 0.115995 0.046267 0.012465 -0.074803 0.008011 0.027709 0.152435 -0.200455 0.068074 0.019029 0.003778 0.339965 0.293822 -0.044590 0.243835 -0.147584 0.051564 0.021264 -0.269214 0.061818 0.425653 -0.011090 0.145784 0.105106 0.173430 -0.024863 -0.235683 -0.209395 0.043887 -0.348812 0.115011 -0.322892 0.055089 -0.037020 0.187851 -0.122119 -0.255210 -0.056240 0.160884 -0.004572 0.025464 -0.172463 0.219850 -0.024216 -0.209248 -0.230106 0.050615 0.261575 -0.334588 0.060483 -0.039526 -0.036150 -0.086353 -0.079339 0.023985 0.187990 0.029197 0.032649 0.086852 0.240924 -0.007844 0.269147 -0.024977 0.158919 -0.162717 0.193916 0.087158 -0.048649 -0.235545 -0.257961 0.002955 0.110242 0.008131 -0.382824 -0.164597 -0.267974 -0.116474 -0.172700 0.082325 0.244500 0.187171 -0.025080 -0.049674 -0.239273 -0.106516 0.193332 0.004574 0.371324 -0.089906 0.609578 -0.020764 0.203618 0.061490 0.151822 -0.055374 -0.095480 0.066127 0.338114
19 0.051072 0.051179 0.013364 0.014913 0.118036 0.119852 0.199399 0.199703 -0.003751 0.228242 0.012998 0.260070 -0.175861 0.201915 0.249987 0.073568 -0.116631 0.091180 0.240484 0.214967 0.011683 -0.113353 -0.140970 0.312451 0.261524 -0.307635 -0.057348 -0.178129 -0.307824 0.015570 0.128695 0.071417 0.055326 0.002161 0.031247 0.072312 0.128188 -0.217765 0.084289 0.080343 0.027772 0.256774 0.206642 -0.024784 0.243529 -0.092820 0.043783 -0.023628 -0.179683 0.022645 0.393007 -0.109584 0.136651 0.106126 0.153712 0.045154 -0.168955 -0.233293 0.046340 -0.304453 0.119039 -0.215658 0.011828 -0.012408 0.199361 -0.057289 -0.257671 -0.146299 0.199702 -0.004661 -0.041595 -0.186977 0.222557 -0.083281 -0.185880 -0.167861 0.031519 0.212742 -0.361907 0.033244 -0.060636 0.045579 -0.159647 0.002715 0.007588 0.147770 0.027185 -0.037661 0.068230 0.223044 0.038759 0.213633 0.035750 0.153051 -0.132016 0.206198 0.040110 -0.039599 -0.192118 -0.248895 -0.019460 0.071166 -0.006698 -0.252478 -0.169936 -0.303179 -0.133545 -0.135404 0.063648 0.203360 0.224325 0.010964 -0.039681 -0.187328 -0.110063 0.139001 0.019506 0.347235 -0.134394 0.618795 -0.048720 0.240905 0.049304 0.175872 -0.059383 -0.077280 0.112310 0.285188
64 -0.019294 0.123786 0.009924 0.010962 0.079278 0.029779 0.287962 0.160647 -0.005136 0.302029 0.071446 0.239018 -0.168487 0.283698 0.219178 0.072126 -0.074497 0.068151 0.201816 0.121834 -0.008260 -0.145797 -0.106325 0.199937 0.285762 -0.321749 -0.075118 -0.101826 -0.214754 0.157089 0.169901 0.124034 0.079113 0.016893 0.078553 0.061250 0.114726 -0.195753 0.130192 0.064646 0.082381 0.257907 0.193804 -0.019456 0.212997 -0.130654 0.067660 0.015506 -0.236113 0.021188 0.541470 -0.151544 0.079640 0.054455 0.215937 0.073035 -0.144096 -0.254193 0.030685 -0.313701 0.084366 -0.159546 -0.044060 -0.042277 0.202871 -0.014382 -0.234577 -0.085798 0.128496 0.018965 0.033903 -0.168069 0.199844 -0.086925 -0.127661 -0.130677 0.004340 0.204377 -0.312563 0.067912 -0.023754 0.024128 -0.151538 0.016589 0.022631 0.108439 0.060039 -0.019797 0.098184 0.223794 0.019890 0.212958 -0.001545 0.123193 -0.120698 0.146483 0.084310 0.054482 -0.252434 -0.229765 0.008677 0.085789 0.021133 -0.252925 -0.100204 -0.326517 -0.121255 -0.127701 0.061185 0.211081 0.273879 0.047807 0.003845 -0.201407 -0.106770 0.175501 -0.041938 0.350429 -0.179653 0.578601 -0.086349 0.171574 0.106729 0.277997 -0.037481 -0.097848 0.100399 0.370663
61 -0.000359 0.040094 0.051049 0.026606 0.082105 0.144950 0.249530 0.236148 0.055380 0.265030 -0.014761 0.191625 -0.175130 0.147206 0.282410 0.089425 -0.052413 0.047836 0.168423 0.091306 0.008757 -0.015451 -0.226280 0.297576 0.294085 -0.343660 -0.050774 -0.204918 -0.311573 -0.033411 0.127510 0.013777 0.027885 -0.060038 0.116854 0.050433 0.134012 -0.259980 0.106961 0.042394 0.046284 0.293043 0.250970 0.008966 0.247868 -0.145638 0.006754 0.069009 -0.206723 0.084929 0.516188 -0.033132 0.152070 0.131337 0.206447 0.060628 -0.204751 -0.213184 -0.002504 -0.292507 0.094711 -0.234911 0.061400 -0.081009 0.152182 -0.072911 -0.234999 -0.073785 0.150086 0.014398 -0.001585 -0.171365 0.190351 0.015266 -0.129744 -0.171563 -0.072684 0.227013 -0.357250 0.004407 -0.055632 0.026419 -0.143770 0.000025 -0.013356 0.069174 0.035820 0.000139 0.142279 0.306611 0.053808 0.241096 -0.005293 0.135253 -0.150629 0.147748 0.111074 -0.111936 -0.173936 -0.138407 -0.012239 0.049971 -0.047478 -0.280388 -0.090343 -0.258557 -0.069006 -0.133499 0.075551 0.337508 0.211676 0.043477 0.056081 -0.251619 -0.198553 0.217436 0.052412 0.337434 -0.111128 0.566114 -0.007905 0.230022 0.116857 0.168148 -0.095543 -0.124291 0.082536 0.379584
21 0.023425 0.175991 0.035798 0.018406 0.079458 0.046483 0.227980 0.114678 -0.090653 0.315981 0.029618 0.124199 -0.165844 0.192381 0.201878 0.098836 -0.092698 0.084906 0.307759 0.185743 -0.012816 -0.121058 -0.125440 0.326124 0.348904 -0.353746 -0.045572 -0.158561 -0.283713 0.115812 0.139784 0.091672 0.003304 -0.018901 0.049975 0.020435 0.131673 -0.193764 0.144204 0.036441 0.019640 0.327235 0.219609 -0.009349 0.206657 -0.204519 0.011696 0.075113 -0.251507 0.020423 0.509371 -0.106608 0.130978 0.137416 0.208990 0.060188 -0.188665 -0.291726 0.015363 -0.339924 0.074939 -0.274488 -0.000125 -0.060731 0.233472 -0.051764 -0.274549 -0.124547 0.147823 -0.039183 0.011962 -0.226853 0.209493 -0.096839 -0.193980 -0.193194 -0.005628 0.184313 -0.352860 0.061278 -0.080957 -0.023229 -0.151059 -0.002265 0.009282 0.148405 0.057744 0.001679 0.113461 0.238459 -0.030548 0.203624 -0.003620 0.175336 -0.155714 0.143013 0.029457 -0.022006 -0.214580 -0.299715 -0.024171 0.105494 0.018888 -0.284891 -0.154336 -0.244029 -0.097652 -0.185496 0.018218 0.186686 0.228927 -0.001771 -0.025061 -0.169954 -0.069171 0.150874 -0.017455 0.356290 -0.095002 0.613851 -0.035398 0.182324 0.102003 0.154827 -0.061155 -0.081470 0.145553 0.325630
5 -0.266102 -0.080709 -0.035555 -0.099825 0.275800 -0.206963 0.271937 0.060181 0.188528 -0.059958 -0.108814 0.188616 0.094195 0.087570 -0.110052 -0.250629 0.019652 -0.231032 0.029159 0.315736 0.224547 -0.049055 0.103798 0.172495 0.171875 -0.216345 -0.383597 -0.021352 -0.213643 0.082773 0.179215 0.107563 0.057678 -0.086728 -0.194377 -0.065235 0.119213 0.021343 -0.244528 -0.041968 -0.249229 0.150221 0.011469 -0.110753 -0.023279 0.267427 0.166614 0.002172 -0.042485 0.121175 -0.069630 0.218132 0.163439 0.004555 -0.205055 -0.249978 0.102718 0.006110 -0.128717 -0.243261 0.077375 0.050355 -0.079083 0.131089 -0.048293 -0.045466 -0.083372 -0.031147 0.089140 -0.022684 -0.076336 -0.033689 -0.089686 0.137256 0.238449 -0.077075 -0.266650 0.058258 -0.011293 0.042866 -0.012654 0.044416 0.077452 -0.063026 0.105288 0.073986 0.138409 -0.018998 -0.190463 0.092147 -0.005357 0.218534 -0.009043 0.009330 -0.208225 0.094792 0.001094 -0.081206 0.202499 0.033292 -0.067913 0.084043 -0.282560 -0.114952 0.004120 0.076040 0.270930 0.068314 0.029479 0.167459 -0.035202 -0.056687 0.050860 0.101563 -0.242678 0.106093 0.162939 -0.006658 0.154454 -0.139743 0.117247 -0.069227 -0.119411 -0.157253 -0.123048 -0.037727 -0.049614 -0.075348
11 -0.271802 -0.181171 -0.007782 -0.042939 0.246713 -0.128912 0.214488 0.081054 0.162193 -0.128316 -0.124918 0.176618 0.101302 0.032261 -0.057839 -0.206197 -0.026897 -0.260706 0.009298 0.212722 0.235845 -0.067431 0.085751 0.177300 0.133761 -0.174277 -0.418977 -0.075016 -0.199369 -0.034390 0.097018 0.034491 0.016397 -0.059132 -0.193108 -0.046481 0.166260 0.018783 -0.224703 -0.094709 -0.284030 0.164758 0.158268 -0.081349 -0.040641 0.340109 0.190038 -0.024410 0.001063 0.144048 -0.054960 0.190938 0.111986 -0.017097 -0.215374 -0.280732 0.144729 0.032441 -0.177458 -0.257327 0.159470 0.060954 -0.115296 0.180447 -0.110336 -0.070132 -0.198725 -0.001581 0.156949 0.051676 -0.068541 -0.031288 -0.053228 0.161721 0.268026 -0.060647 -0.206218 0.102737 -0.002117 0.139292 0.029812 0.022087 0.037240 -0.118404 0.129255 0.113361 0.143152 -0.089981 -0.202181 0.089167 0.000953 0.245910 -0.055174 -0.025900 -0.149727 0.157074 0.050442 -0.154113 0.182850 -0.008484 -0.094339 0.061920 -0.214795 -0.121219 0.011932 0.072173 0.297756 0.141264 0.088634 0.233278 -0.017977 -0.047891 0.001024 0.095720 -0.297039 0.100733 0.124176 0.013432 0.088294 -0.114666 0.100097 -0.061501 -0.047871 -0.166954 -0.090887 -0.021823 -0.024278 -0.032794
63 -0.275227 -0.052225 -0.014186 -0.096028 0.227873 -0.158275 0.313564 -0.011267 0.197504 -0.016293 -0.009943 0.159880 0.058691 0.147199 -0.037388 -0.184290 -0.033100 -0.242618 0.009458 0.155207 0.244689 -0.092044 0.087924 0.056416 0.161492 -0.178698 -0.373324 -0.065683 -0.178975 0.032896 0.157310 0.080203 0.105861 -0.042107 -0.173570 -0.048555 0.140288 0.076175 -0.240384 -0.020139 -0.171878 0.206096 0.074081 -0.142804 -0.046809 0.225442 0.209313 -0.058855 0.004321 0.064016 -0.065149 0.177934 0.223192 -0.029721 -0.108523 -0.191732 0.060087 -0.034353 -0.053667 -0.211184 0.196728 0.010113 -0.137505 0.127019 -0.023976 0.003098 -0.063992 -0.038402 0.040092 0.006100 0.029185 -0.030916 -0.052533 0.165697 0.249299 -0.040365 -0.215519 0.135041 -0.098320 0.108619 -0.062963 0.080311 0.057308 0.036895 0.098016 0.109415 0.211203 -0.012723 -0.053215 0.086402 0.022163 0.267487 -0.036730 -0.043975 -0.180794 0.049232 0.017747 -0.222513 0.269032 0.008593 -0.040285 0.026864 -0.258517 -0.085229 0.074287 0.026315 0.316216 0.056141 0.019999 0.172429 -0.094088 -0.092127 0.043435 0.033779 -0.248550 0.199141 0.124126 0.064024 0.150963 -0.227526 0.140188 -0.122280 -0.017516 -0.141959 -0.179262 -0.067817 0.028095 -0.059571
53 -0.215062 0.005169 -0.056639 -0.035963 0.215023 -0.100167 0.230725 0.069289 0.062672 -0.033645 -0.072191 0.161638 0.044215 0.153497 -0.026714 -0.155848 -0.071140 -0.161132 0.129403 0.352993 0.180908 -0.190455 0.045604 0.177690 0.216213 -0.218608 -0.348034 -0.067551 -0.164334 -0.016966 0.097154 0.052943 0.052538 -0.042733 -0.192775 -0.018691 0.108856 0.045283 -0.172422 -0.013211 -0.257682 0.132434 0.047913 -0.122000 0.017829 0.221361 0.145890 -0.029234 -0.067408 -0.006653 0.048736 0.154778 0.121966 0.020672 -0.173322 -0.180093 0.062200 -0.087150 -0.092434 -0.188248 0.131781 0.063239 -0.074786 0.164535 -0.085293 -0.045053 -0.187847 -0.047665 0.150756 -0.060568 -0.064847 -0.075768 -0.046110 0.035456 0.231590 -0.027821 -0.177766 0.032253 0.002142 0.090401 -0.012806 0.042645 0.022800 -0.083980 0.108332 0.075805 0.196999 -0.046914 -0.163095 0.127883 -0.029922 0.252984 -0.047931 0.040823 -0.127582 0.126660 -0.027907 -0.256207 0.321621 -0.006751 -0.178977 0.073357 -0.288667 -0.025410 -0.020713 0.162011 0.298314 0.150609 -0.048010 0.117587 -0.044488 -0.102383 0.049180 0.192291 -0.271963 0.149964 0.197913 0.035095 0.235424 -0.194369 0.228496 -0.088281 -0.136019 -0.264969 -0.191101 0.009952 0.050323 -0.104926
22 -0.064423 -0.080709 0.177725 0.006627 0.030431 -0.056479 -0.031150 0.034041 0.023766 -0.092982 0.020792 0.006786 0.091434 -0.081111 -0.098465 -0.010420 -0.278707 -0.197051 0.255578 0.117975 0.285252 -0.331638 0.314108 0.312712 0.285104 -0.083379 -0.340419 -0.138659 -0.044355 0.064665 -0.057848 0.122156 -0.012018 0.041563 -0.138915 -0.162563 0.147708 0.046547 -0.050086 -0.034742 -0.233980 0.197886 0.232988 0.041138 -0.159077 0.204201 0.084563 -0.011141 0.036064 0.097277 -0.194233 -0.100072 0.183860 0.106859 -0.178322 -0.230930 0.086144 -0.131095 -0.196888 -0.301274 0.271387 -0.078213 -0.309001 0.151738 -0.047549 0.037676 -0.109753 -0.110620 0.219322 0.168006 -0.040645 -0.150394 0.200118 0.012272 0.170652 -0.037294 0.170556 -0.056271 -0.092851 0.139224 -0.062452 -0.124842 -0.159000 -0.202284 0.012262 0.246150 0.261908 -0.238988 -0.092673 0.012404 0.030953 0.074157 -0.091823 -0.020178 -0.147705 0.159547 -0.110294 -0.293266 0.211468 -0.146718 -0.090475 0.025121 -0.079170 0.010121 0.065017 0.012558 0.387812 0.132838 0.018820 0.265787 0.003778 -0.098497 0.050045 0.104989 -0.159778 -0.029679 0.050614 0.193651 -0.085121 -0.074504 0.105322 0.034208 -0.074799 -0.218112 -0.151143 0.013903 0.033860 -0.052185
55 -0.399007 -0.130142 0.049736 -0.068248 0.302822 -0.231881 0.347231 0.084284 0.186581 -0.044850 -0.146175 0.264757 0.108995 0.101551 -0.150029 -0.290556 0.033198 -0.190837 0.046714 0.263932 0.201821 -0.156295 0.108625 0.080894 0.217974 -0.198515 -0.406546 0.021074 -0.165732 0.067827 0.191408 0.096360 0.073677 -0.058216 -0.186200 -0.068309 0.132264 0.044157 -0.176323 0.005240 -0.269758 0.150124 0.047612 -0.091024 -0.094894 0.258943 0.160453 -0.026359 -0.015496 0.093408 -0.082841 0.217468 0.232345 0.002293 -0.262359 -0.214051 0.031312 -0.008685 -0.145290 -0.186861 0.063015 0.023738 -0.020977 0.132192 -0.012566 -0.054033 -0.031147 -0.015366 0.118298 -0.011015 -0.122977 -0.031339 -0.125321 0.189310 0.223489 -0.038239 -0.261323 0.067834 0.015624 0.105595 0.028806 -0.004639 0.052255 -0.074487 0.113699 0.119623 0.159634 0.001253 -0.179342 0.136071 -0.006420 0.245816 -0.060056 -0.040532 -0.226730 0.076499 -0.066190 -0.132191 0.262029 0.059289 -0.076805 0.091768 -0.309581 -0.108331 0.016890 0.097815 0.313790 0.075754 -0.049967 0.142556 -0.048931 -0.037143 0.107452 0.131607 -0.297159 0.090087 0.123758 0.044580 0.130620 -0.179101 0.123099 -0.080030 -0.070675 -0.219173 -0.199678 -0.039322 0.080026 -0.022085
50 -0.246719 -0.091583 0.010703 -0.041752 0.288782 -0.115313 0.309516 0.125156 0.182237 -0.000607 -0.069983 0.217213 0.071235 0.165055 -0.061645 -0.223047 0.035353 -0.180048 0.128325 0.312277 0.199509 -0.082953 0.089090 0.227015 0.172077 -0.271472 -0.320945 -0.043924 -0.207667 0.125943 0.193933 0.055535 0.065060 -0.062139 -0.171975 -0.023118 0.085464 0.050245 -0.284820 -0.091793 -0.219019 0.120044 -0.030595 -0.164517 -0.017842 0.274918 0.159722 0.016985 0.051123 0.089636 -0.073037 0.215429 0.134195 -0.011262 -0.191457 -0.184578 0.166897 -0.024464 -0.108328 -0.140882 0.052951 0.108797 -0.051353 0.150826 -0.050181 -0.031727 -0.134185 -0.057735 0.048108 -0.035628 -0.037907 -0.052532 -0.061699 0.101550 0.239919 -0.090490 -0.300258 0.073269 -0.000048 0.053665 -0.125169 0.098973 0.080159 0.001840 0.128805 0.031585 0.177745 -0.066201 -0.201408 0.125007 -0.006887 0.230512 0.002093 0.020874 -0.215568 0.124397 -0.034087 -0.185581 0.331154 0.038067 -0.111241 0.094926 -0.316562 -0.032433 0.029489 0.169175 0.321495 0.150609 -0.017407 0.187643 0.016866 -0.097383 0.089929 0.156340 -0.260540 0.146437 0.192570 0.011921 0.178589 -0.187848 0.202537 -0.098188 -0.110033 -0.224615 -0.154788 -0.018027 -0.014890 -0.114343
6 -0.206145 -0.187763 -0.050649 0.002998 0.259292 -0.128478 0.301071 0.124269 0.217619 -0.039841 -0.099200 0.233553 0.112958 0.146654 -0.067050 -0.219567 0.024546 -0.248978 0.035648 0.241591 0.193963 -0.110016 0.122074 0.103258 0.157014 -0.200274 -0.393722 -0.085118 -0.188356 0.121657 0.182655 0.075382 0.108656 -0.055610 -0.179117 -0.012193 0.108821 0.099154 -0.260301 -0.061026 -0.228994 0.114136 0.055243 -0.160878 -0.099203 0.232818 0.154967 -0.021423 0.064298 0.131327 -0.084576 0.190798 0.123406 -0.013220 -0.155284 -0.257097 0.138184 -0.016030 -0.065293 -0.202338 0.138076 0.069256 -0.106625 0.156290 -0.093923 -0.020811 -0.143613 -0.024776 0.066204 0.012237 -0.070296 -0.015072 -0.078674 0.114442 0.282518 -0.082814 -0.242002 0.083994 -0.041967 0.090092 -0.098558 0.061559 0.072313 -0.027922 0.154589 0.068268 0.163098 -0.088126 -0.174031 0.071645 0.002448 0.193863 -0.004021 0.000166 -0.152250 0.111597 0.050480 -0.225150 0.256268 -0.006820 -0.057602 0.025659 -0.238195 -0.107903 0.008834 0.079580 0.269703 0.122450 0.044112 0.237997 -0.018702 -0.068204 0.048086 0.070643 -0.222591 0.131129 0.209573 0.051569 0.076288 -0.138639 0.149385 -0.040914 -0.047543 -0.146706 -0.176711 -0.014510 -0.019610 -0.054580
49 -0.136835 -0.018041 0.149051 -0.029488 0.104739 -0.144099 0.017027 0.058712 0.045359 -0.085756 0.096184 0.116871 0.075058 -0.030776 -0.158102 -0.117853 -0.218227 -0.138610 0.141012 0.236361 0.274883 -0.307635 0.286722 0.206231 0.203494 -0.035370 -0.270184 -0.069368 0.015264 -0.034349 -0.060021 0.083903 -0.060336 0.057640 -0.125577 -0.111056 0.206758 0.022770 -0.025280 0.046453 -0.203849 0.168681 0.198899 0.146340 -0.091145 0.212797 0.112469 -0.020648 -0.067947 0.059572 -0.070498 -0.137903 0.199400 0.025215 -0.175051 -0.209206 0.071620 -0.048886 -0.216475 -0.333883 0.229685 -0.037708 -0.227200 0.157740 -0.107689 0.024432 -0.085784 -0.135484 0.337455 0.164805 -0.077067 -0.129553 0.246167 -0.079914 0.195301 -0.048758 0.152720 -0.053887 -0.026467 0.092643 0.009815 -0.082495 -0.166080 -0.172033 -0.058044 0.273452 0.309114 -0.165138 -0.112238 0.080372 -0.002230 0.126029 -0.150728 0.016758 -0.175581 0.159129 -0.114738 -0.191465 0.239097 -0.079111 -0.081407 0.094768 -0.081361 0.090953 0.052406 -0.051696 0.332552 0.080647 0.000529 0.188669 -0.055420 -0.086051 0.084612 0.192354 -0.179918 0.012908 0.002122 0.206310 0.009831 -0.139137 0.131447 0.016356 -0.171302 -0.213380 -0.148271 0.015675 0.062648 -0.078704
40 -0.135097 -0.018887 0.055991 -0.091834 0.134182 -0.177295 -0.064960 0.086640 0.079033 -0.138668 0.134779 0.177744 0.142462 -0.042335 -0.191099 -0.119912 -0.209772 -0.072975 0.161578 0.069050 0.143992 -0.262855 0.212199 0.240416 0.152373 0.063109 -0.309829 -0.058367 0.012752 0.055084 -0.051416 0.102081 -0.068831 0.148151 -0.116902 -0.199918 0.166306 0.058965 -0.011086 0.024113 -0.296994 0.142337 0.235817 0.112213 -0.172550 0.111562 0.090634 0.030573 -0.006927 0.130668 -0.110980 -0.152127 0.142013 0.112915 -0.152082 -0.281147 0.021424 -0.118961 -0.191070 -0.408660 0.254259 -0.070418 -0.310142 0.196681 -0.072165 0.041295 -0.151263 -0.079570 0.316935 0.130389 -0.132422 -0.141631 0.202197 -0.072575 0.169269 -0.049483 0.210574 -0.080432 -0.101978 0.094930 0.028316 -0.116570 -0.152252 -0.227171 -0.001172 0.294939 0.346815 -0.183098 -0.075522 0.115488 -0.039188 0.102395 -0.153101 0.025589 -0.202398 0.259431 -0.056475 -0.249616 0.158594 -0.107190 -0.114941 0.036531 -0.006864 0.023801 0.029329 0.014837 0.284825 0.057722 -0.007586 0.270700 -0.014296 -0.069028 0.031858 0.094097 -0.138810 -0.003798 0.013297 0.239585 -0.043587 0.025513 0.132704 0.087061 -0.077739 -0.240769 -0.130922 0.058512 0.056157 -0.006256
18 -0.132162 -0.063770 0.024876 -0.008664 0.189068 -0.091349 -0.036720 0.095446 0.119336 -0.115827 0.152232 0.161893 0.085217 -0.008508 -0.143038 -0.114274 -0.259549 -0.145170 0.109863 0.135063 0.170010 -0.280477 0.289308 0.183372 0.178166 0.030074 -0.293951 -0.097249 0.029897 0.064856 -0.117727 0.102347 -0.062159 0.118583 -0.142536 -0.160408 0.189785 0.054119 -0.050585 0.048073 -0.294125 0.143152 0.225480 0.119375 -0.101964 0.163053 0.138396 -0.036758 -0.028711 0.081729 -0.053027 -0.173350 0.116187 0.048564 -0.182907 -0.273585 0.095729 -0.120741 -0.166928 -0.323488 0.254349 -0.003844 -0.402294 0.229215 -0.076495 0.033625 -0.088350 -0.085839 0.317010 0.170281 0.005023 -0.128440 0.274594 -0.147196 0.152327 -0.027508 0.281829 -0.024446 -0.048565 0.118040 -0.013843 -0.084049 -0.206955 -0.203144 -0.080322 0.331541 0.302063 -0.212089 -0.125799 -0.009603 -0.020094 0.121106 -0.179363 0.041311 -0.158052 0.209881 -0.049921 -0.341686 0.187606 -0.130512 -0.154304 -0.010415 -0.023399 0.019354 0.009132 -0.113473 0.282641 0.119162 0.019532 0.199522 -0.057494 -0.083479 -0.006189 0.112387 -0.110563 0.077105 0.047738 0.223455 -0.072779 -0.027432 0.104262 0.060568 -0.170255 -0.140411 -0.062209 0.080862 -0.049575 -0.048052
7 -0.360310 -0.171791 -0.088894 -0.101108 0.352956 -0.144001 0.215517 0.100534 0.224514 -0.122295 -0.103922 0.242136 0.140682 0.116609 -0.109754 -0.285469 0.102199 -0.224712 -0.010955 0.266757 0.142026 0.022863 -0.006613 0.069098 0.029963 -0.168101 -0.366521 0.010661 -0.162329 -0.028716 0.177648 0.015754 0.066590 -0.053446 -0.177094 0.016202 0.138826 0.078876 -0.280616 -0.057513 -0.304560 0.162109 0.075459 -0.145692 -0.052514 0.211061 0.205233 0.027608 0.020667 0.110727 -0.064863 0.273391 0.168942 0.036286 -0.256110 -0.293291 0.148733 0.056097 -0.125179 -0.211850 0.114720 0.104082 -0.115820 0.187461 -0.115372 -0.054472 -0.168342 0.004385 0.112122 -0.022224 -0.065975 -0.003195 -0.122864 0.182134 0.237242 -0.055941 -0.322187 0.113532 0.014136 0.125506 -0.066664 0.043869 0.094971 -0.002622 0.157870 0.097367 0.160301 -0.031276 -0.176502 0.084819 -0.083657 0.273309 -0.050155 -0.017010 -0.164674 0.089618 0.082055 -0.176536 0.207048 -0.022503 -0.092590 0.099466 -0.277472 -0.157631 -0.036310 0.089296 0.254877 0.070708 0.033829 0.216121 -0.004593 -0.076265 0.025062 0.088671 -0.256591 0.180145 0.194771 0.016097 0.151967 -0.108734 0.167767 -0.049130 -0.074669 -0.078457 -0.150644 -0.069026 -0.047168 -0.018588
56 -0.002609 0.128768 -0.168853 0.117510 0.413904 -0.167967 0.141920 0.228264 0.134733 0.096423 0.237413 0.187186 -0.023172 0.352691 -0.033827 -0.032146 0.075209 0.196302 0.337660 -0.166036 -0.291774 -0.415851 0.111498 -0.294711 0.123372 0.023050 -0.106868 0.076887 0.114903 0.552135 0.270515 0.217579 0.121916 0.299699 0.241542 0.124762 0.286014 -0.035089 -0.108366 0.013833 -0.041329 0.067371 0.027972 0.051350 -0.132462 -0.373105 0.083971 0.006357 0.388025 -0.016337 -0.085407 -0.271487 0.325909 0.286731 -0.162057 0.016459 0.339458 -0.124184 -0.075782 -0.233003 0.178036 0.238318 -0.496550 0.129865 0.260238 0.233136 -0.076774 -0.170084 -0.129375 -0.023944 -0.118354 0.017958 -0.104912 0.114904 -0.033022 0.273701 -0.183369 -0.030804 -0.247215 0.412459 -0.259463 0.098111 -0.126290 0.504086 0.106631 0.136123 0.121242 -0.104961 0.054117 -0.113747 -0.120844 -0.064832 -0.022642 -0.244196 -0.037523 -0.182843 -0.095821 -0.367830 0.097559 -0.207111 -0.060124 -0.028866 0.025639 0.003387 -0.159660 -0.275108 0.090549 -0.095291 -0.110185 0.200655 0.338996 -0.015531 0.068719 0.110718 -0.024884 -0.062191 0.006523 0.240387 0.035788 0.188075 0.138279 0.268355 0.027691 0.113353 -0.259837 -0.040791 0.310304 0.188232
29 -0.064014 0.149456 -0.183326 0.105332 0.449944 -0.187502 0.149589 0.135688 0.067783 0.051959 0.119355 0.171915 -0.009608 0.281009 -0.016441 -0.070592 0.042368 0.151474 0.342891 -0.015125 -0.263583 -0.335568 0.070486 -0.233037 0.118403 -0.020173 -0.091731 0.125331 -0.013374 0.411168 0.234945 0.285250 0.092828 0.342305 0.227075 0.161729 0.259198 -0.035849 -0.028072 -0.016969 -0.030626 0.080931 -0.002747 -0.022457 -0.082200 -0.360915 0.032090 -0.101994 0.334854 -0.031073 -0.129160 -0.231017 0.245996 0.236041 -0.210366 0.005725 0.353859 -0.143418 -0.071639 -0.308458 0.101360 0.200199 -0.508247 0.108431 0.235664 0.160689 -0.108008 -0.181529 -0.133828 0.035345 -0.176014 0.088510 -0.162271 0.143738 -0.035959 0.308288 -0.176816 0.090953 -0.184636 0.517829 -0.174849 0.104474 -0.121242 0.416478 0.140908 0.201336 0.066675 -0.099807 -0.053588 -0.224727 -0.114560 -0.066161 -0.055325 -0.333125 0.035027 -0.174920 -0.146901 -0.297304 0.043095 -0.268108 -0.108875 -0.062108 0.012815 -0.089282 -0.204431 -0.391735 0.072988 -0.113951 -0.144776 0.032379 0.322829 -0.064516 -0.050263 0.219605 -0.031803 -0.140104 -0.105027 0.142009 0.106473 0.233338 0.057458 0.181891 -0.007043 0.132503 -0.177475 0.015216 0.352276 0.093640
62 -0.088173 -0.068716 0.092800 -0.071095 0.142283 -0.119687 -0.055374 0.082756 0.019158 -0.096791 0.029633 0.072267 0.051908 -0.065032 -0.115730 -0.116496 -0.210526 -0.144080 0.162605 0.183995 0.226480 -0.181372 0.268960 0.321757 0.201234 -0.072569 -0.284306 -0.063655 -0.075084 0.068903 -0.048062 0.065383 -0.060367 0.061871 -0.174490 -0.124441 0.208652 0.032107 -0.173136 -0.021609 -0.269680 0.121248 0.216614 0.047979 -0.106373 0.219690 0.146663 -0.064213 -0.003863 0.060278 -0.156379 -0.047260 0.162066 0.117263 -0.216994 -0.265901 0.075411 -0.071401 -0.181970 -0.300423 0.227046 -0.038922 -0.273635 0.218281 -0.048446 -0.005876 -0.120033 -0.112539 0.271659 0.047986 -0.055151 -0.113606 0.160830 -0.013677 0.158855 -0.073804 0.173195 -0.033048 -0.089970 0.106007 -0.041486 -0.069387 -0.133302 -0.202163 0.038671 0.255145 0.273721 -0.158372 -0.141636 0.083218 0.028833 0.112848 -0.076172 0.019533 -0.196312 0.286771 -0.163643 -0.219245 0.242392 -0.107993 -0.173556 0.088410 -0.145503 -0.019162 -0.035980 0.099508 0.265615 0.139174 0.022604 0.152226 0.026131 -0.096486 0.026531 0.099682 -0.147649 -0.002131 0.069677 0.123486 0.052163 -0.035750 0.132997 -0.026320 -0.112196 -0.243338 -0.160390 0.027020 0.067457 -0.055291
13 -0.172781 -0.046324 0.119227 -0.048312 0.101724 -0.093343 0.038593 0.057139 0.022216 -0.068412 0.031431 0.067701 0.124938 -0.052674 -0.121842 -0.075077 -0.181434 -0.154544 0.189345 0.172254 0.235095 -0.223184 0.190214 0.262041 0.239952 -0.073448 -0.328526 -0.083141 -0.083801 -0.003113 -0.037405 0.144532 -0.016986 0.084660 -0.098156 -0.134871 0.124405 0.098915 -0.035976 -0.009362 -0.263356 0.205940 0.193714 0.039064 -0.161735 0.093407 0.047663 0.039891 -0.013939 0.095640 -0.162030 -0.029928 0.196954 0.113698 -0.169482 -0.281325 0.049324 -0.113071 -0.178952 -0.359392 0.254935 -0.075280 -0.298688 0.122768 -0.132496 0.015308 -0.108957 -0.087251 0.222705 0.145436 -0.080548 -0.106423 0.141338 0.015003 0.184474 -0.044151 0.056055 -0.047493 -0.045647 0.090820 -0.052688 -0.140106 -0.099825 -0.170826 0.028070 0.221660 0.265146 -0.166197 -0.084892 0.048408 -0.022920 0.088451 -0.120946 -0.039513 -0.125956 0.113093 -0.049057 -0.246081 0.187771 -0.093904 -0.076862 0.031396 -0.090626 0.006100 0.061996 0.029098 0.389573 0.085916 -0.025340 0.265230 -0.061006 -0.128316 0.061076 0.125658 -0.138739 0.023216 0.055201 0.150038 0.001221 -0.111428 0.150050 -0.000194 -0.083816 -0.159858 -0.133781 0.011197 -0.010604 -0.054775
65 -0.045325 0.224687 -0.106539 0.023269 0.373685 -0.143971 0.208140 0.152019 -0.050243 0.059527 0.131830 0.161553 -0.032177 0.261848 -0.003665 -0.009644 0.029409 0.261940 0.362106 0.023189 -0.252403 -0.332712 0.003978 -0.042548 0.220640 -0.102035 -0.156516 0.122749 -0.055086 0.389280 0.236079 0.319352 0.102999 0.403968 0.207248 0.099960 0.267369 -0.091706 -0.030562 0.032730 0.020599 0.025226 -0.048901 -0.031722 -0.117259 -0.368494 0.014776 -0.120105 0.343993 -0.097398 -0.154168 -0.305873 0.318543 0.209164 -0.218153 0.021314 0.309316 -0.285457 -0.083624 -0.363751 0.076021 0.211057 -0.541220 0.067958 0.347688 0.237750 -0.068212 -0.240727 -0.173449 -0.000762 -0.245813 0.013704 -0.170956 0.112431 -0.139373 0.318788 -0.206798 -0.019115 -0.263220 0.427946 -0.100245 0.125088 -0.173771 0.519274 0.192359 0.124391 0.029781 -0.136167 0.008621 -0.229986 -0.091476 -0.062160 0.084189 -0.311905 -0.056893 -0.241354 -0.214902 -0.200294 -0.037669 -0.210356 -0.121193 -0.072848 0.031677 -0.016735 -0.240928 -0.431847 -0.019250 -0.166482 -0.206876 0.052819 0.358729 -0.016821 -0.004617 0.127202 -0.053392 -0.151082 -0.115800 0.200806 0.049572 0.346846 0.047751 0.219897 0.019426 0.164426 -0.214497 0.046779 0.370036 0.103950
31 -0.025685 0.229490 -0.121570 0.036152 0.363705 -0.220639 0.133968 0.105187 0.057898 0.019493 0.186184 0.128421 -0.006208 0.262702 -0.048292 -0.000429 0.022569 0.227427 0.314168 -0.139310 -0.281975 -0.308648 0.003451 -0.146808 0.104168 0.046929 -0.098565 0.173690 0.033647 0.451606 0.212471 0.290999 0.074526 0.334025 0.225311 0.082007 0.274948 -0.187360 -0.053893 -0.067484 0.060014 0.029047 -0.005807 -0.011152 -0.012496 -0.371616 0.094749 -0.077184 0.317951 -0.051092 -0.053564 -0.275253 0.286677 0.216865 -0.142538 0.093495 0.327491 -0.182230 -0.115382 -0.366950 0.109664 0.184727 -0.522746 0.088778 0.394400 0.215774 -0.118309 -0.182200 -0.261091 -0.012014 -0.109199 -0.015172 -0.131217 0.165981 -0.141636 0.306997 -0.166426 0.015634 -0.278716 0.485638 -0.070434 0.104899 -0.125620 0.512486 0.155978 0.135190 0.051853 -0.074755 0.074112 -0.203794 -0.135283 0.000223 0.044716 -0.272032 -0.070202 -0.193717 -0.147488 -0.187568 -0.016463 -0.216031 -0.125423 -0.010155 0.020617 -0.064796 -0.141918 -0.394017 0.082742 -0.125770 -0.092526 0.180480 0.368945 -0.041406 -0.032268 0.098380 -0.111848 -0.129353 -0.102657 0.181610 0.066918 0.303369 0.090716 0.227777 -0.017995 0.137843 -0.152497 0.010050 0.264675 0.106108
10 0.036546 0.139653 -0.152367 0.109257 0.341201 -0.086465 0.122911 0.165868 0.090856 0.039027 0.199125 0.161694 -0.083706 0.273560 0.043332 -0.018108 0.015624 0.203548 0.236065 -0.063732 -0.210156 -0.280411 0.004431 -0.150223 0.086589 -0.017877 -0.083046 0.045084 0.019841 0.333959 0.157223 0.159054 0.061896 0.334027 0.194409 0.091240 0.319794 -0.151080 -0.075726 -0.003277 -0.019104 0.053499 -0.008365 0.070534 0.019224 -0.243416 0.101497 -0.079223 0.310224 -0.053380 -0.003044 -0.305516 0.282868 0.181683 -0.153296 0.065531 0.316923 -0.184222 -0.092019 -0.309945 0.136952 0.226378 -0.482635 0.125387 0.273007 0.215481 -0.118305 -0.217729 -0.065663 -0.008469 -0.157581 -0.007980 -0.052410 0.057832 -0.016129 0.322878 -0.136001 0.008153 -0.246862 0.415703 -0.138100 0.173954 -0.183977 0.467974 0.025091 0.181483 0.122321 -0.144132 0.016538 -0.157527 -0.054452 -0.005103 -0.026625 -0.246176 -0.047876 -0.155113 -0.108116 -0.378354 0.095508 -0.173313 -0.139584 -0.100219 0.025174 0.047641 -0.169928 -0.406764 0.039369 -0.122090 -0.120595 0.086061 0.283882 -0.013752 0.010753 0.145750 -0.077760 -0.028300 -0.061084 0.211916 0.085995 0.211585 0.083539 0.244028 -0.026123 0.068990 -0.136604 0.013773 0.271044 0.084385
58 0.041701 0.135354 -0.162196 0.031825 0.350291 -0.194669 0.100478 0.138465 0.051018 0.067540 0.155721 0.133562 -0.047030 0.209076 -0.058402 -0.089162 0.056274 0.210567 0.260587 -0.035920 -0.196230 -0.333869 0.119347 -0.140642 0.165649 -0.043226 -0.114141 0.074331 0.030654 0.418776 0.229015 0.195507 0.038379 0.312074 0.183790 0.125069 0.304784 -0.067296 -0.091076 0.063622 -0.037280 0.057250 -0.024090 0.044901 -0.164836 -0.329454 0.058611 -0.028373 0.384781 -0.050983 -0.176245 -0.277485 0.410272 0.223680 -0.188108 0.003847 0.302530 -0.196468 -0.068852 -0.257491 0.100261 0.179865 -0.439469 0.111347 0.318635 0.217948 -0.043753 -0.270903 -0.078490 -0.046109 -0.221655 0.025751 -0.106982 0.070762 -0.042301 0.232575 -0.206310 -0.070824 -0.231874 0.403570 -0.183748 0.100731 -0.158995 0.489241 0.093587 0.206458 0.053304 -0.165929 0.006858 -0.175051 -0.088935 -0.099448 0.058293 -0.241211 -0.091724 -0.181109 -0.168229 -0.215326 0.036433 -0.263171 -0.107141 0.004298 0.032367 0.015921 -0.232016 -0.336578 -0.054435 -0.208425 -0.100410 0.045348 0.292703 0.029719 -0.021683 0.075293 -0.011245 -0.140886 -0.084400 0.209516 0.032705 0.289459 0.050252 0.310832 0.023370 0.082878 -0.241795 0.010815 0.385104 0.136692
54 -0.348934 -0.027026 0.073160 -0.100105 0.243257 -0.170329 0.111967 0.128371 0.065083 -0.100342 0.170559 0.209053 0.084768 0.002483 -0.123619 -0.074973 -0.293827 -0.096822 0.073715 0.071216 0.152779 -0.291723 0.298974 0.190448 0.207121 0.027529 -0.349321 -0.019829 -0.032931 0.020825 -0.075366 0.243144 -0.075490 0.116771 -0.101762 -0.185244 0.115445 0.031896 -0.013062 0.106455 -0.251309 0.071479 0.225536 0.130540 -0.088058 0.245092 0.102816 -0.081080 -0.109834 0.071163 -0.102318 -0.144917 0.058096 -0.084331 -0.161962 -0.309404 0.006541 -0.091274 -0.159640 -0.342186 0.243038 0.028130 -0.353814 0.143588 -0.037359 0.004800 -0.015319 -0.046817 0.296582 0.317723 0.026551 -0.090373 0.302456 -0.108014 0.089823 -0.063005 0.229958 0.011896 -0.041826 0.056875 0.203083 -0.076705 -0.190544 -0.264839 -0.040481 0.256807 0.186157 -0.217295 -0.148608 0.020246 0.037152 0.194495 -0.133994 0.007169 -0.191550 0.217408 -0.029632 -0.172272 0.125049 -0.019235 -0.118328 -0.024481 -0.052766 0.033056 0.040712 -0.153008 0.283324 0.157300 0.019899 0.177472 -0.065310 -0.038296 0.018954 0.100909 -0.195102 0.034143 -0.056283 0.209595 -0.108204 -0.071255 0.057923 0.006702 -0.113133 -0.100016 -0.093412 0.091001 -0.008653 -0.000996
20 -0.310743 -0.082082 0.203232 -0.009466 0.268344 -0.151409 0.058396 0.162327 0.036024 -0.140643 0.114187 0.246151 0.117349 -0.032205 -0.145950 -0.075724 -0.310837 -0.064837 0.156114 0.068942 0.207548 -0.329917 0.338957 0.173860 0.134378 0.077464 -0.303067 -0.050200 0.032406 0.062114 -0.102022 0.154289 -0.054212 0.141089 -0.128900 -0.197750 0.131716 0.024864 -0.018122 0.050422 -0.244706 0.082161 0.075215 0.114491 -0.075163 0.209106 0.076206 -0.056982 -0.028048 0.088349 -0.089905 -0.235607 0.058221 -0.005935 -0.133084 -0.234587 -0.015865 -0.144842 -0.116591 -0.260572 0.172010 0.032522 -0.202572 0.140612 0.133993 0.046912 -0.062854 -0.097981 0.250341 0.220883 -0.029984 -0.142514 0.244441 -0.149864 0.055395 -0.016782 0.225454 0.019772 -0.069076 0.119205 0.034914 -0.036563 -0.147932 -0.160577 -0.065494 0.332916 0.225194 -0.262721 -0.132049 0.002168 0.021282 0.120246 -0.151988 -0.022992 -0.252900 0.200254 -0.128897 -0.223583 0.232701 -0.105260 -0.067290 -0.050612 -0.030179 0.072825 0.041459 -0.114422 0.268499 0.062865 -0.047317 0.096328 -0.012615 -0.028345 0.015586 0.167910 -0.080030 0.017549 -0.083528 0.273325 -0.100572 -0.017844 0.039308 0.036321 -0.090912 -0.218979 -0.089517 0.113952 0.124818 -0.034501
43 -0.407749 0.004379 0.248445 0.071650 0.325276 -0.153983 0.224471 0.237838 -0.048624 -0.076337 0.087446 0.238473 0.161036 0.075579 -0.183221 -0.106402 -0.223651 -0.100872 0.186267 0.241889 0.122810 -0.371336 0.299690 0.087981 0.140988 0.054274 -0.302192 0.037312 0.080235 0.033447 -0.060014 0.122645 -0.053202 0.098703 -0.145268 -0.131590 0.130012 0.126752 0.016909 0.066846 -0.189865 -0.002850 0.108469 0.122245 -0.077977 0.148127 0.054323 -0.048363 -0.135810 0.020573 -0.017382 -0.160307 -0.024066 -0.077138 -0.137080 -0.198653 -0.052344 -0.014174 -0.094985 -0.159450 0.111196 0.048109 -0.091546 0.101550 0.002564 -0.010750 -0.087109 -0.012174 0.286546 0.201544 -0.005350 -0.120326 0.209166 -0.190318 0.046035 -0.042862 0.211133 0.040986 0.048919 0.093564 0.088095 -0.086338 -0.098338 -0.175559 0.010734 0.257136 0.266130 -0.162171 -0.096495 0.076815 -0.086443 0.177913 -0.201679 0.047460 -0.195530 0.203417 -0.119480 -0.141518 0.265748 -0.049495 -0.089271 0.052121 -0.071243 0.084589 0.041904 -0.008995 0.270715 0.143983 -0.104084 0.123077 -0.018297 -0.086378 0.059444 0.221710 -0.157038 0.061089 -0.050030 0.264229 -0.074651 -0.103421 0.148766 -0.058539 -0.139756 -0.152606 -0.147352 0.105101 0.110328 -0.000543
8 -0.375317 -0.123121 0.207817 0.020143 0.290024 -0.088520 0.184107 0.198904 0.001570 0.009425 0.121173 0.304659 0.090540 0.042550 -0.130668 -0.099608 -0.165953 -0.035180 0.151583 0.115613 0.030921 -0.250759 0.262371 0.183323 0.190813 0.001870 -0.218959 0.065585 0.000259 0.123808 -0.085916 0.171929 -0.088343 0.206847 -0.106904 -0.206759 0.184484 0.065067 0.032391 0.060680 -0.268131 -0.021230 0.113249 0.184008 -0.147904 0.244861 0.085486 -0.079532 -0.039419 0.118612 -0.072639 -0.187324 -0.022758 -0.113585 -0.235971 -0.226553 0.018212 -0.060665 -0.212654 -0.238183 0.035930 0.053362 -0.256424 0.169673 0.016106 -0.012180 0.002697 -0.036101 0.291413 0.257061 -0.087896 -0.081170 0.173924 -0.137782 0.081750 0.022107 0.204862 0.072329 0.070282 0.134977 0.125362 -0.058511 -0.183923 -0.143819 -0.070486 0.321912 0.269955 -0.184069 -0.179717 -0.014031 -0.008700 0.116713 -0.223507 -0.008916 -0.224100 0.192902 -0.165097 -0.169969 0.206150 0.013078 -0.149126 -0.090600 -0.067287 0.087178 0.038877 -0.136961 0.292950 0.152704 -0.127469 0.137851 -0.005520 -0.024035 0.065819 0.235406 -0.185844 0.036114 -0.153096 0.227604 -0.188997 -0.016694 -0.010184 -0.083924 -0.098850 -0.075959 0.006122 0.157775 0.018200 -0.008154
60 -0.401570 -0.144162 0.225853 0.152539 0.352289 -0.107013 0.288531 0.338506 0.016579 -0.055975 0.077940 0.379031 0.121629 0.097515 -0.160407 -0.185686 -0.159051 -0.091087 0.064733 0.222594 0.058356 -0.304532 0.238838 0.091067 0.109478 0.022862 -0.261118 0.061849 0.044830 0.018841 -0.076545 0.109691 -0.100378 0.161459 -0.076538 -0.117802 0.200939 0.055380 0.066507 0.057460 -0.225978 -0.091072 0.118806 0.229738 -0.040482 0.231085 0.053505 -0.068811 -0.126612 0.085111 0.063897 -0.182369 -0.082295 -0.194022 -0.154603 -0.172134 0.025024 0.024029 -0.153132 -0.202121 0.052109 0.097663 -0.118425 0.124100 -0.043801 -0.049955 -0.103874 0.010239 0.374221 0.282633 -0.099685 -0.084277 0.221360 -0.232511 0.082393 -0.017461 0.191320 0.049444 0.106049 0.147695 0.210741 -0.062911 -0.159071 -0.210075 -0.060608 0.277647 0.230698 -0.178457 -0.213854 0.059492 -0.052381 0.153978 -0.245373 0.041639 -0.156210 0.220583 -0.055940 -0.132933 0.191635 0.000433 -0.140892 -0.013874 0.016550 0.105705 -0.000487 -0.184402 0.179979 0.153794 -0.067771 0.105173 0.009170 -0.031739 0.018372 0.231714 -0.205045 0.040581 -0.133992 0.278575 -0.188814 -0.004539 0.024099 0.020003 -0.129224 -0.056963 -0.029859 0.155403 0.059126 0.060981
26 -0.256770 0.459802 -0.151217 -0.535931 0.075362 -0.111304 0.056192 -0.165256 0.021110 0.275353 0.098236 -0.203564 0.250198 0.547762 -0.096553 0.156502 0.137944 -0.117554 0.492341 0.571014 0.111254 -0.201423 0.381763 0.416952 0.118695 -0.558358 -0.191569 0.236863 -0.195316 0.587838 0.473289 0.426229 0.200379 -0.396535 -0.441188 0.036271 -0.292831 0.018395 -0.204400 -0.043561 -0.099676 0.099600 -0.377798 -0.447464 0.200479 0.323733 -0.118463 0.543822 -0.207027 0.267210 0.263055 0.069407 -0.076145 -0.411440 -0.178127 -0.270602 0.437097 -0.285412 -0.261524 -0.035295 -0.184089 0.278944 -0.287341 -0.047269 0.348101 0.060695 -0.261442 -0.191398 -0.270996 0.612737 0.434617 -0.315373 0.458669 -0.161430 -0.209658 -0.578652 -0.770342 0.421918 0.126685 0.110065 -0.258685 0.019483 0.022516 0.224109 0.341674 0.269558 -0.110223 -0.630848 -0.296809 -0.274455 -0.395433 0.435110 0.102522 0.182002 -0.427035 -0.034471 0.193325 0.321715 -0.028395 -0.392162 0.009794 0.360745 -0.251807 -0.018885 0.188075 -0.198766 0.421881 0.215441 0.185964 0.587200 0.191850 -0.185551 0.035514 0.152010 -0.342021 0.261436 0.204182 0.142879 -0.183839 -0.096560 0.229388 0.060486 -0.408764 0.365254 -0.004226 0.190206 -0.508350 -0.110175
57 -0.327689 0.465916 -0.288184 -0.551025 0.160747 -0.174506 0.137136 -0.092372 0.161916 0.243980 0.105880 -0.095846 0.267563 0.595773 -0.136588 0.069235 0.085721 -0.114761 0.369625 0.565229 0.089002 -0.271088 0.453744 0.265619 0.074926 -0.409939 -0.250580 0.354823 -0.123015 0.540203 0.422212 0.545708 0.230699 -0.340372 -0.429079 0.054145 -0.401580 -0.022195 -0.203388 0.113491 -0.086692 0.063102 -0.475278 -0.464015 0.219199 0.387088 -0.031063 0.528365 -0.182200 0.268948 0.130792 0.075244 -0.060724 -0.422662 -0.199724 -0.321652 0.324171 -0.240216 -0.161756 0.000419 -0.238516 0.389212 -0.274277 -0.093904 0.450351 0.059057 -0.192616 -0.206271 -0.294311 0.600976 0.421960 -0.289665 0.496145 -0.212356 -0.128491 -0.482209 -0.726205 0.328876 0.162227 0.070525 -0.049334 0.112836 0.082893 0.232815 0.258647 0.230924 -0.113754 -0.681906 -0.274890 -0.259770 -0.294034 0.486281 0.078450 0.189352 -0.520649 -0.040725 0.261890 0.338205 0.023676 -0.351525 0.024511 0.301049 -0.378182 -0.039446 0.187164 -0.306857 0.391993 0.154108 0.150131 0.534330 0.231105 -0.059670 -0.005710 0.154904 -0.400741 0.254532 0.212595 0.168039 -0.246980 -0.043595 0.231303 0.148935 -0.406473 0.402795 -0.012590 0.098894 -0.420167 -0.072769
44 -0.237416 0.390095 -0.120900 -0.491554 0.053462 -0.219251 0.028525 -0.081319 0.114356 0.145694 -0.034574 -0.169040 0.254243 0.322346 -0.167034 0.096745 0.057055 -0.185106 0.343500 0.562368 0.200687 -0.143227 0.386729 0.447710 0.072247 -0.349821 -0.157721 0.306231 -0.133391 0.444727 0.349036 0.420949 0.100510 -0.376095 -0.368505 -0.025681 -0.304693 -0.035844 -0.147389 -0.074468 -0.168213 0.106150 -0.375206 -0.337725 0.200758 0.313528 -0.097128 0.593897 -0.196379 0.321988 0.118199 0.073541 -0.043658 -0.342662 -0.174844 -0.294695 0.425345 -0.205970 -0.286119 -0.149213 -0.200910 0.278902 -0.256065 -0.055539 0.321745 0.020147 -0.264826 -0.157788 -0.216341 0.613174 0.331125 -0.277137 0.462116 -0.132938 -0.128700 -0.506279 -0.729474 0.251434 0.183353 0.133799 -0.080447 -0.065570 0.051625 0.072420 0.258994 0.235342 -0.130813 -0.604395 -0.366116 -0.248593 -0.340285 0.355623 0.048577 0.151674 -0.431175 0.023591 0.241885 0.446429 -0.093129 -0.362412 0.021427 0.404889 -0.270403 -0.045135 0.234549 -0.213263 0.466382 0.162909 0.209366 0.639465 0.246677 -0.164282 -0.031190 0.213430 -0.380530 0.118449 0.128020 0.119217 -0.206216 -0.012575 0.198516 0.197903 -0.458725 0.349109 0.086115 0.132990 -0.488800 -0.112242
14 -0.461726 0.003608 0.251473 -0.052951 0.263584 -0.210858 0.290570 0.151457 0.015562 0.065834 0.151913 0.245761 0.103051 0.087985 -0.188618 -0.109749 -0.172854 -0.052932 0.124263 0.045784 0.087729 -0.276880 0.298048 0.087833 0.194426 0.032589 -0.254781 0.094122 0.024659 0.164814 -0.022702 0.188246 -0.101333 0.176692 -0.078596 -0.199179 0.154736 0.106892 0.031266 0.052265 -0.189295 0.015431 0.131760 0.168167 -0.146688 0.168117 0.116931 -0.066350 -0.087529 0.087812 -0.060394 -0.183882 0.001048 -0.193273 -0.098972 -0.222249 -0.069163 -0.033891 -0.126034 -0.227664 0.047714 0.026406 -0.158666 0.089385 0.041534 -0.009980 0.048967 0.025091 0.215029 0.266888 0.024681 -0.040538 0.203736 -0.119056 0.103304 -0.047887 0.219439 0.122241 0.052037 0.124321 0.152963 -0.080046 -0.102904 -0.153190 -0.060961 0.333074 0.339198 -0.122826 -0.123522 0.080322 -0.027053 0.217742 -0.247666 -0.028459 -0.330407 0.199335 -0.121540 -0.120731 0.249743 0.044812 -0.086995 -0.009075 -0.073062 0.045937 0.105270 -0.094541 0.297112 0.100392 -0.121760 0.124434 -0.077087 -0.042453 0.095294 0.154920 -0.181237 0.112494 -0.200232 0.309875 -0.135140 -0.115206 0.048569 -0.161107 -0.041600 -0.146731 -0.094569 0.113536 0.097669 0.035938
25 -0.260053 0.443785 -0.212562 -0.519991 0.062237 -0.177891 0.013597 -0.161301 0.104890 0.256664 0.075388 -0.181110 0.258773 0.505463 -0.167813 0.079860 0.120834 -0.130386 0.402761 0.517422 0.092628 -0.238391 0.473574 0.257809 0.097932 -0.417318 -0.166582 0.294589 -0.093949 0.540389 0.377528 0.433733 0.152199 -0.375693 -0.412198 0.028275 -0.356861 0.008443 -0.152394 0.081916 -0.111680 0.093576 -0.369418 -0.378920 0.169804 0.342917 -0.038692 0.507013 -0.210374 0.291844 0.206184 0.068713 -0.107423 -0.345790 -0.183249 -0.317072 0.281582 -0.159760 -0.190533 0.031047 -0.257163 0.306903 -0.208303 -0.066962 0.320873 0.011058 -0.146457 -0.138350 -0.231717 0.508364 0.404140 -0.242802 0.420537 -0.163210 -0.099681 -0.510604 -0.623907 0.371563 0.211712 0.011767 -0.127428 0.023302 0.085966 0.115877 0.233728 0.254363 -0.057928 -0.546546 -0.280563 -0.185310 -0.333361 0.411472 0.005222 0.188969 -0.468304 0.009783 0.199935 0.338417 0.011593 -0.325763 0.039160 0.326798 -0.311141 -0.087908 0.187956 -0.164937 0.382381 0.170176 0.153077 0.468049 0.143793 -0.072471 0.062263 0.177128 -0.314050 0.238092 0.211645 0.122891 -0.206398 -0.115908 0.204914 0.048899 -0.382173 0.287998 -0.016218 0.104044 -0.419903 -0.081344
9 -0.391002 -0.070331 0.135521 -0.041959 0.378268 -0.193978 0.110411 0.205350 0.084628 -0.046933 0.178904 0.295720 0.071998 0.017506 -0.152071 -0.143886 -0.351230 -0.107784 0.139685 0.080145 0.160341 -0.339159 0.415655 0.203809 0.233352 0.024918 -0.319994 -0.044273 -0.026308 0.095323 -0.110427 0.222818 -0.099531 0.085036 -0.092479 -0.192397 0.114222 0.001954 0.019558 0.088589 -0.265220 0.046640 0.140268 0.187427 -0.035366 0.244170 0.057119 -0.067578 -0.115542 0.071644 -0.083981 -0.181931 0.025208 -0.047843 -0.137450 -0.242052 -0.038895 -0.113426 -0.137934 -0.245400 0.169331 -0.008648 -0.245028 0.116063 0.058622 0.009829 -0.018438 -0.067173 0.300167 0.282898 0.007208 -0.093051 0.320920 -0.186494 0.066378 -0.051816 0.247760 0.038568 -0.047358 0.097788 0.132919 -0.071576 -0.191451 -0.268320 -0.133255 0.339586 0.194117 -0.259388 -0.171954 0.022527 0.047477 0.107268 -0.155310 0.014618 -0.210226 0.233710 -0.095607 -0.188077 0.192494 -0.054452 -0.123759 -0.035100 -0.065113 0.068523 0.026114 -0.133461 0.296611 0.160218 -0.016551 0.052062 -0.042195 -0.033099 -0.011318 0.163738 -0.137410 -0.028113 -0.093023 0.177184 -0.098928 -0.066252 0.021091 0.008887 -0.125840 -0.158312 -0.057436 0.117167 0.050877 0.014267
41 -0.472636 -0.046658 0.290697 -0.014520 0.380087 -0.303619 0.272952 0.264179 0.132435 -0.150319 0.167759 0.332876 0.153918 -0.041933 -0.212732 -0.158399 -0.254850 -0.110835 0.019138 -0.014302 0.229972 -0.316170 0.346118 0.128083 0.101439 0.151623 -0.324175 0.031014 0.104859 0.047251 -0.075802 0.146328 -0.075200 0.168491 -0.082399 -0.232462 0.108335 0.066208 0.034310 0.061506 -0.157603 0.050086 0.117796 0.164167 -0.117152 0.178194 0.088415 -0.008317 -0.048806 0.144119 -0.032214 -0.252231 0.040705 -0.100132 -0.063115 -0.208269 -0.024557 -0.096672 -0.129786 -0.272490 0.161760 0.056056 -0.170426 0.127073 0.096215 0.057315 -0.025986 -0.037681 0.262407 0.300752 -0.003879 -0.124978 0.256299 -0.126038 0.091133 -0.058829 0.211668 0.020072 -0.063349 0.087585 0.130388 -0.029290 -0.153296 -0.155592 -0.016866 0.267010 0.261073 -0.212071 -0.059391 0.110766 0.029602 0.168837 -0.170303 -0.017246 -0.297575 0.246361 -0.085748 -0.089940 0.190799 0.020223 -0.041005 -0.014572 -0.018681 0.088346 0.153607 -0.102122 0.283417 0.063091 -0.040679 0.220892 -0.010311 -0.003730 0.050145 0.079660 -0.202008 0.041034 -0.141526 0.324099 -0.130217 0.004180 0.028837 0.021279 -0.013532 -0.182009 -0.128574 0.101988 0.170075 0.078305
39 -0.248733 0.189191 0.281845 0.002194 0.200765 -0.163561 -0.012225 0.153079 -0.011306 -0.107703 -0.210626 -0.177634 0.011217 -0.261938 -0.148709 -0.081188 0.168866 -0.213462 -0.022235 0.160280 0.062642 0.179470 0.117796 0.202333 0.080805 -0.215939 -0.122604 0.214035 0.123523 0.094999 -0.053438 -0.213017 -0.275615 0.037573 -0.078334 -0.279266 0.476572 -0.183250 -0.177302 -0.067979 -0.153746 -0.105035 0.086205 0.230752 0.014082 0.165222 0.357117 -0.140462 -0.085045 0.231484 0.372462 -0.092154 -0.076600 0.018360 -0.385567 -0.113567 0.149286 0.247615 -0.301249 -0.105186 -0.263578 0.289510 -0.203229 0.178614 0.191020 -0.037474 0.106014 0.170296 0.133852 -0.096693 0.012665 -0.017311 -0.299709 0.262284 0.200073 0.153155 -0.079846 0.296329 0.183836 0.180070 0.131346 0.020694 -0.092142 0.034615 0.121334 0.242098 0.374498 0.109078 -0.217749 0.122524 -0.217171 0.292783 -0.284380 0.002543 -0.472615 0.186659 -0.295453 -0.068859 0.240385 0.161914 -0.380904 0.200177 -0.308048 -0.193841 -0.022832 0.007769 0.182672 0.097750 -0.060757 0.174606 0.237229 0.125368 0.282708 0.248978 -0.402751 0.174224 -0.067651 0.090289 0.065944 -0.055445 0.081280 -0.248734 -0.128747 -0.198817 -0.168039 0.072229 0.069042 0.099445
2 -0.193736 0.093282 0.286543 0.038640 0.108102 -0.207082 0.070788 0.083598 -0.145016 -0.166133 -0.273773 -0.149685 0.084421 -0.194212 -0.259162 -0.103242 0.119637 -0.282232 -0.000134 0.267648 0.132221 0.020177 0.232724 0.098917 0.114696 -0.244970 -0.329459 0.163859 0.143980 0.260909 0.027123 -0.152783 -0.192547 0.022638 -0.265228 -0.274091 0.508505 -0.067532 -0.303696 -0.080069 -0.146678 -0.174720 0.092916 0.192208 -0.050733 0.235153 0.459384 -0.278161 -0.131643 0.152246 0.330387 -0.147662 -0.150293 -0.045919 -0.360108 -0.242028 0.099169 0.300203 -0.208659 -0.139538 -0.210096 0.325187 -0.116933 0.204748 0.238440 -0.013020 0.052024 0.132812 0.093663 -0.182505 -0.011970 -0.011697 -0.319059 0.181598 0.139971 0.153646 0.001890 0.255001 0.133443 0.118689 0.114992 0.022748 0.026395 0.072438 0.191064 0.203989 0.339184 0.101700 -0.211357 0.053247 -0.204596 0.297186 -0.214005 -0.013459 -0.465225 0.140692 -0.321550 0.027789 0.225264 0.103931 -0.195616 0.180838 -0.207980 -0.246617 -0.154753 -0.036552 0.093261 0.073396 -0.072873 0.017523 0.229921 0.130222 0.280945 0.261251 -0.243274 0.169055 -0.066234 0.172051 0.080754 -0.070474 0.066310 -0.324909 -0.118015 -0.191075 -0.258584 0.072993 0.195433 0.113372
45 -0.088365 0.251142 -0.041814 0.010205 0.262111 -0.154418 0.095411 0.117488 0.009740 0.082812 0.080647 0.058661 0.060707 0.266472 -0.097162 0.004712 0.202110 0.220337 0.372533 -0.030993 -0.322463 -0.282709 -0.068952 -0.226140 0.032341 0.026130 -0.066498 0.284403 0.147780 0.441549 0.262595 0.226818 0.097234 0.370413 0.236858 0.102173 0.207499 -0.020016 0.026649 -0.041201 0.000420 0.039341 -0.047526 -0.030850 -0.171962 -0.458202 0.052840 0.064083 0.324310 -0.006756 -0.075589 -0.206038 0.258261 0.260039 -0.258808 0.019878 0.335489 -0.073832 -0.157387 -0.266747 -0.010460 0.235981 -0.424009 0.065367 0.237807 0.182262 -0.084575 -0.107979 -0.228095 -0.030869 -0.171644 0.052258 -0.222449 0.186724 -0.059651 0.325678 -0.230297 -0.007643 -0.115046 0.437202 -0.130676 -0.010248 -0.058634 0.482751 0.158634 0.114357 0.177056 -0.035410 0.051557 -0.134804 -0.182947 0.030169 -0.097000 -0.280407 -0.090762 -0.229507 -0.132156 -0.193331 0.046725 -0.186299 -0.080107 0.034965 -0.047178 -0.084126 -0.087934 -0.251761 0.155558 -0.154701 -0.165308 0.219009 0.348502 0.014557 0.115877 0.202330 -0.068242 -0.055027 -0.067230 0.167296 0.017977 0.181287 0.135845 0.130086 0.005868 0.150529 -0.183365 -0.062999 0.267954 0.113586
4 -0.188821 0.194397 0.173018 0.051342 0.044482 -0.173870 0.123699 0.071288 -0.145830 -0.040005 -0.146741 -0.091662 0.107362 -0.030979 -0.203477 -0.038757 0.013849 -0.228764 0.151326 0.241927 -0.024399 -0.148620 0.140494 0.092193 0.199987 -0.131066 -0.340101 0.198429 0.112432 0.266018 0.007849 -0.037281 -0.120763 0.102068 -0.204308 -0.223691 0.428702 0.059139 -0.169254 -0.075456 -0.144484 -0.191181 0.155257 0.114217 -0.098036 0.102041 0.342536 -0.213638 -0.134764 0.076531 0.198515 -0.103225 -0.159164 -0.116313 -0.317362 -0.222383 0.085468 0.209516 -0.167051 -0.167278 -0.086943 0.201315 -0.203775 0.206129 0.059948 -0.036125 -0.016759 0.233670 0.035626 -0.086666 0.000999 0.036887 -0.240930 0.081734 0.160832 0.137231 0.155625 0.184136 0.172683 0.218967 0.210210 -0.081347 0.041025 -0.033111 0.202312 0.217793 0.403219 0.113350 -0.163628 0.027714 -0.231234 0.305144 -0.281810 0.003221 -0.327026 0.161125 -0.224102 -0.098731 0.256014 0.088085 -0.284536 0.165689 -0.182499 -0.181736 -0.068058 0.035480 0.230731 0.195845 -0.121216 0.182912 0.154873 0.007698 0.186579 0.277628 -0.304930 0.172073 -0.065302 0.219914 0.036634 -0.146536 0.188112 -0.306798 -0.183320 -0.198716 -0.221379 0.160382 0.087832 0.073093
59 -0.222079 0.029010 0.291538 0.131118 0.043915 -0.079931 0.191389 -0.014747 -0.160300 -0.126067 -0.123905 -0.133300 0.112367 -0.043438 -0.280222 -0.031257 0.020477 -0.307720 0.022847 0.262593 0.128289 -0.129365 0.280977 -0.003252 0.198678 -0.177403 -0.333308 0.082370 0.078926 0.228359 -0.012984 -0.015991 -0.077748 -0.000785 -0.236324 -0.213166 0.507978 0.037084 -0.312951 -0.166313 -0.132737 -0.087333 0.199724 0.181518 -0.058400 0.253373 0.471580 -0.294884 -0.160994 0.066138 0.224086 -0.108326 -0.126445 -0.201507 -0.218301 -0.193894 0.130579 0.263893 -0.243745 -0.256000 -0.040344 0.226488 -0.228532 0.236510 0.087781 -0.054135 0.030210 0.123798 0.102756 0.006230 0.145632 -0.067792 -0.155504 0.127495 0.085179 0.107979 0.060197 0.252994 0.162134 0.214798 0.111716 -0.006646 0.005271 0.125100 0.177408 0.189582 0.398238 0.188662 -0.160271 0.004111 -0.266209 0.279537 -0.198004 0.051186 -0.267117 0.033807 -0.243733 -0.020309 0.240876 0.123136 -0.114117 0.137497 -0.127002 -0.099081 -0.075106 -0.084775 0.228995 0.180844 -0.117741 0.115390 0.104009 -0.118009 0.216959 0.232642 -0.256794 0.175422 -0.119776 0.193493 0.114766 -0.161406 0.129106 -0.420335 -0.133917 0.016128 -0.162283 0.054255 0.009618 0.067903
28 -0.183167 0.242528 0.097800 0.056606 0.409504 -0.130502 0.165081 0.173945 -0.034223 0.160054 0.134366 0.038269 -0.032840 0.321540 0.000022 0.031302 0.081911 0.132398 0.460690 -0.126050 -0.270356 -0.309826 0.024667 -0.188550 0.082198 -0.083426 -0.049375 0.218029 0.113345 0.418992 0.217718 0.228521 0.097023 0.284180 0.226772 0.112479 0.251812 -0.074656 -0.076682 -0.069241 0.025244 0.020360 0.018008 0.003273 -0.064856 -0.359156 0.060698 -0.040429 0.316830 -0.105879 -0.098220 -0.157983 0.294802 0.282572 -0.253560 0.111994 0.320578 -0.034565 -0.133452 -0.102610 0.119293 0.219631 -0.434871 0.049367 0.319679 0.171548 -0.073080 -0.128359 -0.255655 -0.074738 -0.031016 -0.010428 -0.168437 0.223564 -0.136757 0.298484 -0.194676 0.054896 -0.241256 0.446358 -0.199586 0.016685 -0.079610 0.491592 0.137289 0.083717 0.058365 -0.057809 0.108388 -0.132677 -0.125377 0.035420 -0.062783 -0.294338 -0.007647 -0.250586 -0.153122 -0.233336 0.071034 -0.251210 -0.058713 0.029279 -0.050102 -0.078911 -0.100266 -0.237293 0.155782 -0.042384 -0.079172 0.084319 0.363364 -0.034886 0.047215 0.150989 -0.056593 -0.033243 -0.011762 0.093162 0.011368 0.054258 0.134351 0.093513 0.030744 0.189734 -0.215350 -0.108935 0.245214 0.130656
48 -0.110761 -0.173973 -0.090383 0.140354 0.110013 -0.031049 0.178036 0.050673 0.176927 -0.035588 -0.086778 0.245254 0.122278 0.337559 -0.032296 -0.073031 0.115013 -0.142720 0.117043 0.178346 -0.083651 -0.196922 0.055554 -0.225455 0.075292 -0.018243 -0.239470 -0.033139 -0.082844 0.257142 0.150493 0.059399 0.149522 -0.047792 -0.222690 -0.086454 0.289390 -0.073659 -0.265606 -0.038186 -0.319488 0.009577 0.104343 0.033142 0.048233 0.304705 0.259975 -0.058935 -0.058221 0.156220 0.186879 0.103411 -0.036634 0.020160 -0.134615 -0.172385 0.013586 0.237136 -0.149875 -0.276800 0.098110 0.125845 -0.083757 0.224868 -0.046967 -0.060949 -0.189748 0.048105 0.154842 -0.025698 -0.069326 -0.131093 -0.141523 0.190836 0.248413 0.104621 -0.216928 0.180272 0.016762 0.083598 0.026104 0.061216 0.100208 0.007784 0.099526 0.060207 0.300490 0.125746 -0.051438 0.168361 -0.105759 0.273877 -0.233705 0.083351 -0.100358 0.130804 0.021554 -0.301037 0.306633 0.081803 -0.026585 -0.086025 -0.197205 -0.143241 -0.056893 0.082192 0.281521 0.202636 -0.114118 0.277832 -0.007639 -0.091562 0.198896 0.202893 -0.295067 0.186065 0.171068 0.103801 0.087918 -0.108169 0.172832 -0.160370 -0.040747 -0.096771 -0.099972 -0.094783 0.019528 0.029415
17 0.435065 0.519073 -0.518895 -0.356857 -0.396416 -0.340384 -0.236359 -0.333171 0.218169 0.262310 0.149734 -0.379018 0.253278 0.538458 -0.176403 0.228066 0.156476 -0.069103 0.251588 0.604693 0.296638 -0.589218 0.816426 -0.140629 0.077208 -0.117167 -0.165393 0.117847 -0.030999 0.898681 0.504044 0.591956 0.266023 -0.374999 -0.256777 0.121029 -0.164070 -0.222662 -0.221513 0.159512 -0.162867 0.237098 -0.653941 -0.029829 0.304570 0.260258 -0.050284 0.880490 -0.086298 0.555572 0.249027 -0.286496 0.216576 -0.274682 0.114277 -0.375293 0.399767 -0.066525 -0.227720 -0.520054 -0.009392 0.488618 -0.253783 -0.085028 0.375071 0.221528 -0.338289 -0.522702 -0.053316 0.699819 0.090271 -0.307758 0.594758 -0.235047 0.186712 -0.397119 -1.150190 0.185361 0.088781 -0.030801 -0.267025 0.112402 0.123189 0.414259 0.061414 0.383477 -0.017522 -0.759581 -0.199355 -0.103612 -0.319029 0.153532 0.038054 0.102045 -0.447191 -0.119814 0.416940 0.495270 0.050401 -0.457434 0.316187 0.378618 -0.236175 0.189518 0.244694 -0.467401 0.671845 -0.047374 0.190075 0.940075 0.165940 -0.110999 0.177912 0.374537 -0.389399 -0.004018 0.153851 0.327046 -0.097473 0.035383 0.280342 0.582698 -0.457866 0.338825 -0.078971 -0.000077 -0.227678 0.061232
52 0.379633 0.658381 -0.407754 -0.511747 -0.542609 -0.308457 -0.117425 -0.400600 0.110249 0.298619 0.064128 -0.382094 0.157163 0.597493 -0.111111 0.193654 0.162649 0.056471 0.315280 0.620224 0.346283 -0.560360 0.655877 -0.068665 0.070610 -0.206403 -0.136088 0.161102 -0.125092 0.810848 0.565863 0.601074 0.297825 -0.272900 -0.179698 0.143534 -0.150061 -0.231739 -0.197139 0.084190 -0.124214 0.273318 -0.672767 -0.014426 0.324753 0.320314 -0.095202 0.834025 -0.086158 0.422367 0.202618 -0.341017 0.220209 -0.361062 0.136893 -0.260876 0.476866 -0.173847 -0.285989 -0.535706 -0.042912 0.565418 -0.252198 -0.120033 0.266812 0.207305 -0.268886 -0.407094 -0.085641 0.755046 0.043999 -0.250827 0.588693 -0.168852 0.130537 -0.432194 -1.134643 0.220617 0.100847 0.016521 -0.173679 0.042958 0.076768 0.330190 0.149253 0.346690 0.025096 -0.635970 -0.320059 0.009126 -0.215806 0.182267 -0.023046 -0.070282 -0.441696 -0.141747 0.306579 0.492865 -0.035424 -0.349536 0.343366 0.402807 -0.164438 0.184635 0.289830 -0.489352 0.712785 0.040379 0.074627 0.922569 0.157592 -0.160003 0.237933 0.359420 -0.436566 0.031052 0.020931 0.365548 -0.128706 0.021802 0.216419 0.439204 -0.503689 0.305287 0.004396 0.050602 -0.165504 0.027994
3 -0.221536 0.138683 0.216094 0.030980 0.229812 -0.201157 0.039261 0.141444 -0.104738 -0.088596 -0.110566 -0.167769 -0.007127 -0.155101 -0.145973 -0.126456 0.090088 -0.281204 -0.052445 0.176395 0.126050 0.122188 0.267277 0.103088 0.086623 -0.243157 -0.222064 0.181531 0.102975 0.254924 -0.023728 -0.117483 -0.232179 0.090849 -0.122931 -0.191624 0.438555 -0.063409 -0.320564 -0.074441 -0.087259 -0.202101 0.071561 0.214905 0.052665 0.184448 0.405924 -0.277285 -0.148035 0.137868 0.334125 -0.157923 -0.195383 -0.084927 -0.294642 -0.201640 0.157600 0.285937 -0.160619 -0.093230 -0.163143 0.377770 -0.226081 0.173655 0.217946 -0.016932 0.075393 0.131550 0.081521 -0.094569 0.123841 0.045035 -0.215028 0.137560 0.161273 0.116566 0.009734 0.337145 0.160047 0.152746 0.073797 0.091079 -0.014604 0.074872 0.173306 0.222624 0.315925 0.039882 -0.243722 0.050093 -0.176651 0.275576 -0.205538 -0.064826 -0.430484 0.203368 -0.289766 0.016579 0.247345 0.088357 -0.288675 0.164201 -0.214706 -0.167375 -0.121622 -0.047213 0.086239 0.149711 -0.022802 -0.027571 0.231695 0.057147 0.193375 0.227959 -0.235319 0.181901 -0.101841 0.102728 0.121270 -0.118868 0.072220 -0.338155 -0.128774 -0.090562 -0.208689 0.094229 0.108395 0.118817
32 -0.196856 -0.150857 -0.046770 0.026166 0.028650 -0.158168 0.134629 0.078581 0.196018 -0.049163 -0.155336 0.214258 0.145366 0.171513 -0.175419 -0.140228 0.270039 -0.128663 0.064058 0.234236 -0.059308 -0.112294 0.015522 -0.155009 0.054838 -0.062521 -0.317721 0.153425 0.036258 0.314694 0.259294 0.033252 0.139612 0.041368 -0.164694 -0.119400 0.177079 0.086365 -0.197025 0.024166 -0.308603 0.069843 0.096765 -0.049057 -0.186106 0.168980 0.305846 0.034282 -0.066228 0.227884 0.152499 0.146294 -0.009476 0.094783 -0.284262 -0.305813 0.022657 0.234389 -0.178834 -0.302353 -0.072385 0.171090 -0.027610 0.233523 -0.099732 -0.095694 -0.068991 0.112960 0.128275 -0.122926 -0.170685 0.006343 -0.233614 0.229552 0.278951 0.024677 -0.213052 0.115266 0.100478 -0.026638 0.013861 -0.010980 0.153302 -0.060784 0.163713 0.018359 0.324736 0.168845 -0.153206 0.249258 -0.089601 0.286912 -0.198884 0.079630 -0.241215 0.188485 0.023461 -0.070313 0.162446 0.090467 0.010620 0.051128 -0.291649 -0.265709 0.010409 0.237886 0.208710 0.048807 -0.091171 0.314912 0.089983 0.053582 0.332443 0.156676 -0.202444 0.189584 0.179272 0.126283 0.041163 -0.043340 0.129312 -0.148831 -0.029568 -0.112014 -0.161468 -0.159759 -0.028739 0.064890
38 -0.272154 0.138464 0.280986 0.074778 0.197004 -0.186363 0.095889 0.177729 -0.005144 -0.088796 -0.206452 -0.115935 0.060425 -0.096139 -0.189291 -0.073102 0.116156 -0.248765 0.016940 0.147283 0.064159 0.003299 0.250977 0.005027 0.067524 -0.194225 -0.236734 0.187879 0.152830 0.263166 0.025580 -0.129886 -0.193493 0.014049 -0.100426 -0.217763 0.463151 -0.125864 -0.230312 -0.044569 -0.097294 -0.163713 0.083790 0.200143 0.015284 0.219188 0.379445 -0.216666 -0.105887 0.185324 0.353892 -0.136744 -0.155993 -0.063789 -0.308214 -0.168158 0.116189 0.341334 -0.177970 -0.061673 -0.216822 0.346354 -0.133724 0.131811 0.200003 -0.032520 0.114527 0.230069 0.089203 -0.052463 0.085118 0.016997 -0.258024 0.207112 0.179522 0.138953 0.007840 0.344721 0.161891 0.138580 0.160683 0.008595 -0.002982 -0.026252 0.139639 0.211796 0.371572 0.113693 -0.229391 0.137010 -0.176030 0.334393 -0.323845 -0.018833 -0.469977 0.197642 -0.234450 -0.029075 0.249541 0.154856 -0.220629 0.190038 -0.246000 -0.251807 -0.042059 -0.052120 0.154731 0.154832 -0.027698 0.105305 0.222242 0.143713 0.318651 0.243011 -0.315700 0.203172 -0.059586 0.144752 -0.011447 -0.168019 0.086502 -0.324155 -0.099549 -0.176465 -0.223061 0.036895 0.129397 0.128142
30 0.192817 -0.025298 -0.038079 0.199030 0.162341 -0.284681 0.560553 0.160048 0.061842 0.637145 -0.278719 0.114135 -0.257504 0.199303 0.126380 -0.240683 0.157170 -0.136227 -0.006548 0.175739 0.122497 -0.017840 0.265922 0.001139 0.433053 -0.356139 0.193538 -0.134375 -0.469228 0.485041 0.200094 0.042529 -0.113170 -0.243943 0.220975 0.354412 0.330295 -0.242336 -0.181378 -0.308043 0.049210 0.220412 0.176933 0.240510 0.291389 -0.110920 0.095282 0.089831 -0.025528 0.196582 0.408457 0.092763 0.107236 -0.075893 0.392132 0.115384 0.075483 0.151338 -0.033491 -0.233373 -0.056608 -0.087461 0.281457 0.032835 -0.042545 -0.295035 -0.246676 -0.000765 0.071089 -0.072415 -0.009636 0.170721 -0.057307 0.129613 0.102800 -0.321027 -0.412464 0.420733 -0.028680 0.282409 -0.176630 -0.036310 0.127424 0.044290 0.110137 0.138169 -0.111081 0.327073 -0.176730 0.435010 0.014709 -0.135100 -0.071817 -0.075588 0.074483 0.202876 0.033712 0.508474 -0.202223 -0.076527 0.122052 0.321543 -0.024157 -0.309847 -0.110049 -0.066086 0.066011 0.144319 0.114340 0.238389 0.200911 -0.209761 -0.160790 -0.059029 -0.236720 -0.109853 -0.144350 -0.032739 0.175234 0.491275 -0.088231 0.013897 0.110633 0.271436 0.124836 -0.013815 0.213044 0.504149
33 -0.270923 0.373340 0.243307 0.069413 0.535854 -0.257686 -0.166506 0.268354 -0.078681 0.143491 -0.139362 -0.296711 -0.273964 0.015246 0.309459 -0.021339 0.264132 -0.087257 0.189038 0.006894 0.153744 0.036768 0.351070 -0.482804 -0.183669 -0.327390 -0.000246 0.249107 0.127799 0.259140 0.204930 0.065719 -0.215076 0.292752 0.392103 0.104476 0.377164 -0.348611 -0.200841 0.235379 -0.223241 0.159007 -0.169153 0.384656 0.262552 -0.001921 0.139234 -0.098503 0.077369 0.227933 0.353479 -0.243178 0.187524 0.525309 -0.445628 -0.176395 0.253858 0.488427 -0.156346 -0.092650 -0.035882 0.818074 -0.304367 -0.092177 0.466124 0.065464 0.113322 -0.277452 0.244800 -0.024387 -0.072802 0.172298 -0.259285 0.479351 0.295062 0.453218 -0.667648 0.579038 -0.118531 0.214442 -0.244028 0.234872 -0.119190 0.287535 -0.102393 0.265856 0.053534 -0.275761 -0.195820 0.206879 0.154281 0.234251 -0.457305 -0.627066 -0.293750 -0.010074 -0.117757 -0.208166 0.283850 -0.295110 0.009178 -0.088436 -0.395912 -0.268673 -0.142142 -0.440468 0.124540 -0.237748 0.103714 -0.375289 0.338509 0.362351 0.404318 0.504582 -0.019119 0.184163 -0.029903 -0.139543 0.123116 -0.263534 -0.086582 0.010934 0.143058 0.099210 -0.359258 -0.414221 0.597480 0.183526
51 -0.165278 0.381642 0.193283 0.075073 0.338134 -0.226213 -0.273218 0.125287 -0.082497 0.070782 -0.180174 -0.272507 -0.192933 -0.063582 0.124639 -0.015817 0.281525 -0.091356 0.303895 0.046861 0.101528 -0.029633 0.349607 -0.352287 -0.042976 -0.405867 0.042888 0.154605 0.193551 0.292459 0.200027 0.041414 -0.164354 0.200351 0.321267 0.083239 0.361048 -0.318608 -0.164205 0.276450 -0.138242 0.140780 -0.226631 0.291030 0.156857 -0.041801 0.232838 -0.150411 0.141681 0.225278 0.354761 -0.302564 0.156975 0.563501 -0.512689 -0.282198 0.308181 0.410456 -0.097165 -0.116685 -0.079994 0.770686 -0.357589 -0.033391 0.382447 0.219755 0.082003 -0.152296 0.123241 -0.166796 -0.140990 0.111396 -0.415938 0.467145 0.307697 0.378409 -0.570112 0.522603 -0.159925 0.017898 -0.306537 0.173770 -0.048949 0.153916 0.067996 0.184556 0.113310 -0.144164 -0.293702 0.169171 -0.071204 0.222185 -0.393490 -0.512696 -0.433012 -0.100117 -0.239162 -0.154256 0.139201 -0.249902 0.053675 0.126356 -0.332709 -0.468207 -0.268193 -0.373133 0.138304 -0.190203 0.027928 -0.398354 0.459061 0.432724 0.472201 0.621288 0.077155 0.168546 0.104334 -0.047495 0.074338 -0.195152 -0.045139 -0.081750 0.054178 -0.080587 -0.510406 -0.362365 0.610170 0.175851
36 0.361692 -0.033131 -0.045633 0.243936 0.111171 -0.196954 0.445603 0.211330 0.227215 0.476277 -0.237275 0.016185 -0.250715 0.082635 0.162096 -0.138818 0.064829 -0.219473 -0.086829 0.011011 0.131620 0.117190 0.152460 0.147583 0.342734 -0.231463 0.193723 -0.253325 -0.450914 0.405201 0.094753 -0.088475 -0.165797 -0.334854 0.231578 0.241511 0.425670 -0.419827 -0.250610 -0.453556 0.123293 0.222022 0.287053 0.272634 0.454323 -0.101922 0.170010 0.150833 -0.003369 0.273972 0.528307 0.050019 0.070423 -0.039753 0.474954 0.191093 0.184239 0.162412 -0.109177 -0.330082 0.039538 -0.134315 0.160965 0.080706 -0.027110 -0.252870 -0.338245 0.056108 -0.003620 -0.052517 0.105102 0.079781 0.054449 0.168268 0.077443 -0.306541 -0.316228 0.396406 -0.150058 0.314191 -0.162414 0.018528 0.096288 0.086176 0.064022 0.100079 -0.069565 0.324215 -0.059831 0.391619 -0.016350 -0.085705 -0.060622 0.016849 0.062599 0.218504 0.118577 0.307985 -0.214337 -0.031108 0.035173 0.305209 0.052721 -0.310554 -0.024315 -0.124260 0.116351 0.170386 0.259741 0.547587 0.266688 -0.255062 -0.188717 -0.155117 -0.374941 -0.058845 -0.058414 0.036645 0.213642 0.545275 0.017738 0.147280 0.024027 0.212213 0.197116 -0.004468 -0.002320 0.489322
42 -0.302828 0.520700 0.363366 0.013615 0.530103 -0.325736 -0.263536 0.236506 -0.001314 0.024852 -0.296512 -0.353888 -0.199247 -0.142309 0.266201 0.065462 0.066787 -0.187610 0.391680 -0.116496 0.144654 0.034739 0.398543 -0.329955 -0.207924 -0.095566 0.142623 0.251149 0.033492 0.134551 0.048334 0.269761 -0.289904 0.213517 0.550782 0.000520 0.199098 -0.561215 0.038925 0.134957 -0.209493 0.124261 -0.264728 0.481433 0.461853 -0.036821 -0.031407 -0.081453 0.153992 0.402474 0.229725 -0.332436 -0.019751 0.681282 -0.378621 -0.221855 0.287367 0.539367 -0.207713 -0.291491 -0.077540 0.883559 -0.369025 -0.216066 0.454885 0.083642 0.047732 -0.135124 0.068449 0.110545 -0.155021 0.163630 -0.224446 0.546132 0.227959 0.403026 -0.575157 0.673808 -0.240230 0.151431 -0.081139 0.168678 -0.033206 -0.052964 -0.145897 0.166347 -0.068031 -0.259311 -0.301046 0.185383 0.121194 0.164924 -0.592816 -0.732569 -0.322112 -0.011723 -0.058662 -0.118017 0.101303 -0.301481 0.154512 -0.070829 -0.315172 -0.557577 -0.018432 -0.577775 0.389497 -0.155003 0.136337 -0.251741 0.433610 0.326431 0.318991 0.785921 -0.086083 0.014219 -0.028316 -0.152542 0.041459 -0.167020 -0.134939 0.093252 -0.036630 -0.014158 -0.264054 -0.363935 0.555998 0.082160
35 0.125495 -0.025192 0.052098 0.211174 0.147019 -0.301298 0.504419 0.176543 0.123814 0.639525 -0.212463 0.120444 -0.230500 0.214963 0.076639 -0.187154 0.124367 -0.158071 0.068242 0.053983 0.030665 -0.020644 0.263216 0.013327 0.407845 -0.296320 0.266835 -0.088658 -0.395708 0.545580 0.166520 0.017515 -0.151760 -0.277232 0.232888 0.275845 0.347497 -0.286066 -0.149079 -0.370415 0.092153 0.145615 0.277824 0.284501 0.329361 -0.115619 0.131256 0.097044 -0.069168 0.212656 0.481057 0.061266 -0.005621 -0.139583 0.405551 0.174720 0.107889 0.238755 -0.094390 -0.211577 -0.072818 -0.129642 0.232916 0.062699 -0.059278 -0.318879 -0.225583 0.103677 0.014730 0.002792 0.110037 0.155207 0.021197 0.165441 0.036705 -0.341818 -0.286796 0.497251 0.001538 0.314654 -0.143133 -0.088451 0.129702 -0.005299 0.103810 0.149277 -0.064201 0.380998 -0.144537 0.414776 -0.046502 -0.079926 -0.154797 -0.026576 0.072833 0.226445 0.035098 0.439227 -0.226476 -0.037247 0.086893 0.314630 0.041712 -0.367667 -0.049799 -0.042493 0.099471 0.234725 0.142471 0.328374 0.214834 -0.262540 -0.113831 -0.069746 -0.289136 -0.081289 -0.161500 0.017058 0.133032 0.438095 -0.058000 -0.039499 0.074651 0.251928 0.161439 -0.010179 0.084632 0.527961
34 -0.308459 0.501586 0.350634 0.022353 0.556670 -0.356068 -0.199027 0.170527 -0.104314 0.099011 -0.344643 -0.378609 -0.214663 -0.174572 0.222081 -0.032001 0.107982 -0.202216 0.364181 0.023079 0.232306 0.010552 0.548293 -0.346599 -0.124540 -0.208121 0.164777 0.209181 -0.021730 0.142040 0.077864 0.267257 -0.363779 0.201441 0.549593 0.112647 0.235232 -0.473350 0.015934 0.175919 -0.241994 0.171142 -0.313337 0.523058 0.402744 -0.016737 -0.045540 -0.101220 0.181890 0.398240 0.178120 -0.335473 0.034840 0.609396 -0.382437 -0.302508 0.313564 0.520921 -0.174638 -0.246761 -0.134116 0.927241 -0.302616 -0.217933 0.408501 0.053832 0.051618 -0.202807 0.170873 0.125463 -0.200814 0.225565 -0.256553 0.487623 0.278528 0.303876 -0.673766 0.748272 -0.157216 0.156881 -0.169669 0.160182 -0.020677 -0.078850 -0.116550 0.257080 -0.111667 -0.282130 -0.438910 0.196415 0.084395 0.104040 -0.574646 -0.780045 -0.357574 -0.011523 -0.122614 0.030509 0.097177 -0.340417 0.176787 0.020288 -0.319636 -0.547051 -0.096693 -0.571809 0.371773 -0.164347 0.115170 -0.388302 0.373211 0.315611 0.256189 0.849488 -0.043138 -0.018878 -0.080208 -0.163620 0.068260 -0.153623 -0.186970 0.040280 -0.028094 -0.017527 -0.304764 -0.296343 0.666176 0.089734
68 0.019056 0.070964 0.186277 0.160503 0.154079 -0.090707 0.320643 0.203468 -0.051208 0.307473 -0.162457 0.162389 -0.090544 -0.036832 0.084210 -0.087655 0.049026 -0.024824 0.120075 0.283554 0.102776 0.053521 -0.015101 0.341011 0.333805 -0.358232 0.051415 -0.107437 -0.282686 0.204233 0.103734 -0.059528 -0.019394 -0.057706 0.061942 0.039451 0.147395 -0.118902 0.028463 -0.124642 0.101253 0.215112 0.062953 0.043861 0.162335 -0.227231 0.035506 0.101315 -0.158443 0.159837 0.440499 -0.025252 0.086294 0.063676 0.220707 0.127713 -0.167866 -0.171868 0.022779 -0.215125 -0.108983 -0.238342 0.244879 0.001058 0.140817 -0.103391 -0.235250 -0.067243 0.136924 -0.158251 -0.132400 -0.105617 -0.072242 0.023174 -0.016989 -0.195576 -0.205451 0.265445 -0.136918 0.070661 -0.232721 -0.018328 -0.000189 0.042481 0.179813 0.146339 0.080108 0.119502 0.038327 0.378526 -0.046240 -0.016180 0.033498 0.104215 -0.128357 0.239204 -0.108505 0.296756 -0.186466 -0.096562 -0.028670 0.242600 -0.086810 -0.203332 -0.084572 0.054144 0.020289 -0.025295 -0.085543 0.263157 0.250582 -0.093751 -0.026711 -0.113297 -0.196263 -0.006836 -0.032326 0.125425 0.043348 0.587683 -0.022452 0.107411 0.073356 0.116511 -0.009048 0.015934 0.107019 0.377079
27 0.089304 -0.113602 0.161329 0.086270 0.008954 0.100773 0.215858 0.203794 -0.088028 0.294992 -0.058234 0.193543 -0.147046 0.120235 0.155513 -0.006509 0.035431 0.017994 0.136193 0.177354 0.069050 -0.004103 -0.063340 0.323029 0.277343 -0.342300 0.029714 -0.116928 -0.316987 0.075250 0.096005 -0.022375 -0.046390 -0.073400 0.061429 0.079223 0.254015 -0.217063 -0.013957 -0.123447 0.006484 0.168956 0.190298 0.158129 0.191010 -0.006191 0.070133 0.042184 -0.155419 0.132060 0.396774 -0.017676 0.106609 0.011091 0.198277 0.074141 -0.092235 -0.030949 -0.074937 -0.275247 0.004936 -0.207741 0.152503 -0.006945 0.067096 -0.156867 -0.261509 -0.091628 0.204407 0.000011 -0.103565 -0.108746 0.114868 -0.015066 -0.079147 -0.236080 -0.132972 0.198163 -0.176936 0.078833 -0.087394 -0.043799 -0.072240 0.046156 0.024193 0.146188 0.058002 0.075239 -0.006609 0.296208 0.000841 0.042319 0.019212 0.124668 -0.085634 0.218531 0.002507 0.215692 -0.162251 -0.126147 0.008424 0.153848 0.018446 -0.160820 -0.086435 -0.108016 -0.039517 -0.042496 0.067305 0.298132 0.183113 -0.052916 -0.020480 -0.176584 -0.164351 0.015388 -0.089713 0.195266 -0.101954 0.521217 -0.111091 0.131465 0.074037 0.190705 0.058671 -0.006791 0.042687 0.323822
24 0.163927 -0.053813 0.067320 0.287325 0.153993 -0.247531 0.497489 0.218211 0.109570 0.478266 -0.297126 0.123354 -0.173981 0.171906 0.118414 -0.135100 0.079108 -0.156355 0.050688 0.111758 0.058552 -0.032171 0.200105 0.003362 0.319083 -0.152378 0.180449 -0.117737 -0.442683 0.429186 0.126428 0.071069 -0.091638 -0.249959 0.231085 0.256211 0.371280 -0.362346 -0.158959 -0.383310 0.046277 0.176293 0.200467 0.297247 0.409700 -0.057432 0.088747 0.125508 -0.057869 0.262138 0.425485 0.058430 0.000111 -0.034883 0.404641 0.142680 0.091576 0.259062 -0.114740 -0.377134 -0.012694 -0.077564 0.261851 0.035002 -0.029571 -0.298007 -0.334345 0.066109 0.032861 0.018681 -0.024394 0.102669 -0.026184 0.194357 0.060307 -0.251015 -0.388767 0.421359 -0.067552 0.308441 -0.054038 -0.036873 0.169215 0.009926 0.109119 0.093563 -0.086266 0.358643 -0.138322 0.423370 -0.017582 -0.082525 -0.152879 -0.062784 0.091084 0.226654 0.079675 0.438178 -0.203946 -0.049646 0.151848 0.270780 0.010836 -0.349172 -0.044042 -0.084485 0.222654 0.208924 0.110761 0.442176 0.255474 -0.273810 -0.128099 0.036487 -0.341916 -0.153249 -0.141404 0.014615 0.172493 0.494154 -0.036103 0.040244 0.048887 0.227642 0.194698 -0.040077 0.135685 0.473911
67 -0.189293 -0.072169 0.163695 -0.059070 0.117481 -0.103000 -0.155303 -0.073356 0.197877 0.016953 0.122107 -0.006953 0.045693 -0.176614 -0.154492 -0.066297 -0.208686 -0.183072 0.304518 -0.094004 0.081414 -0.275697 0.192550 0.298159 0.336002 -0.054563 -0.044870 -0.091130 0.063722 -0.052567 -0.140834 0.015267 -0.089982 -0.051846 -0.099264 -0.162881 0.066046 0.048320 0.148083 -0.063617 -0.295139 0.381776 0.450393 0.058137 -0.239809 -0.024821 0.109464 0.095267 0.117982 0.124464 -0.127309 0.045683 0.298657 0.217960 -0.335029 -0.152133 0.179301 -0.186778 -0.377250 -0.197372 0.263496 -0.245039 -0.489975 0.282747 -0.135534 -0.005684 -0.090622 -0.123885 0.187236 0.166468 0.067586 -0.167969 0.275797 0.098297 0.048801 -0.130462 0.200050 -0.021664 -0.058302 0.284231 -0.216813 -0.226619 -0.283939 -0.160897 -0.068164 0.324356 0.163720 -0.177733 0.005219 -0.077767 -0.120050 0.084525 -0.156719 0.065067 0.000873 0.030851 -0.033298 -0.436691 0.050553 -0.251900 -0.162200 0.076248 -0.030393 -0.085802 0.092159 0.034097 0.439785 0.097830 0.026825 0.287771 -0.045418 -0.143433 -0.049167 0.099410 -0.168993 0.007050 0.146449 0.136925 -0.063481 0.000987 0.102229 0.176242 -0.138094 -0.115582 -0.090479 0.033893 -0.154193 -0.012068
12 -0.247379 -0.120464 0.100386 -0.018635 0.143200 -0.095627 -0.030042 -0.131571 0.048015 0.188341 0.264947 0.041136 0.023422 0.021479 -0.118519 -0.127049 -0.211942 -0.167035 0.247165 -0.122878 0.071232 -0.313110 0.247333 0.059876 0.315386 -0.070710 -0.014666 -0.110430 0.048661 -0.042920 -0.105625 0.004052 -0.121528 -0.019933 -0.033355 0.045056 0.146611 0.207788 0.103352 -0.076001 -0.247505 0.389710 0.533323 0.137298 -0.215626 -0.020223 0.113894 0.031347 0.058963 0.024024 -0.110504 0.014309 0.276036 -0.005437 -0.195122 -0.178001 0.188410 -0.104853 -0.276640 -0.163351 0.380221 -0.223528 -0.447916 0.260444 -0.299301 -0.041215 -0.145141 -0.073054 0.305100 0.280654 0.161705 -0.046817 0.324949 0.006752 0.099536 -0.185531 0.226143 0.167314 0.037785 0.411408 -0.279399 -0.235663 -0.255952 -0.138075 -0.046420 0.461635 0.241725 -0.131289 -0.043999 -0.030495 -0.202194 0.100577 -0.245800 -0.065967 0.070421 0.023952 -0.003718 -0.420436 0.126373 -0.257217 -0.128658 0.127031 0.065878 -0.020857 0.037901 -0.022855 0.459609 0.183366 0.011284 0.201154 -0.177012 -0.286231 -0.112515 0.124511 -0.157764 0.103476 0.020279 0.223563 -0.021031 -0.161265 0.129102 -0.003155 -0.075162 -0.019755 -0.122807 0.076723 -0.095333 0.079810
1 -0.714947 0.198278 0.939179 0.052071 0.681071 -0.443720 -0.211283 0.430045 0.151172 0.053615 -0.244457 -0.343957 0.023039 -0.368667 -0.179966 -0.067156 0.230521 -0.479905 0.606907 -0.230160 0.045093 0.190863 0.376203 0.261078 0.037886 -0.462039 0.310792 0.426630 0.324876 0.167530 -0.070536 -0.026731 -0.240557 -0.139645 0.133248 -0.253093 -0.012974 -0.227281 0.121304 -0.108014 -0.021296 -0.023104 0.274767 0.148411 -0.024533 -0.253634 0.083748 -0.071984 0.041159 0.371427 0.312129 0.114807 -0.114273 0.643100 -0.674818 -0.014062 0.266391 0.504908 -0.410137 0.290269 -0.198040 0.187142 -0.489449 -0.049691 0.320102 -0.004393 0.249757 0.133833 -0.280396 -0.034094 0.337816 -0.119808 -0.178176 0.688695 -0.106562 -0.023800 -0.183551 0.493497 -0.004071 0.109578 -0.333919 -0.219774 -0.104924 -0.100241 0.204435 0.048702 -0.037887 -0.065813 -0.064343 0.003333 -0.233803 0.209198 -0.334026 -0.141119 -0.251057 -0.017701 -0.246929 -0.101057 0.028550 -0.279239 -0.127825 0.306402 -0.263786 -0.621458 0.090924 0.054226 0.301763 0.122381 0.199743 -0.069927 0.509361 0.138248 0.374384 0.350159 -0.059904 0.013409 0.252762 -0.170974 -0.249648 -0.277546 -0.013200 -0.130682 -0.056303 0.098646 -0.401932 -0.299925 -0.019351 0.145435
37 -0.722194 0.274048 0.903622 0.118792 0.667572 -0.317312 -0.218471 0.384905 0.181791 -0.008244 -0.170136 -0.333527 0.067066 -0.469161 -0.200081 0.010679 0.156093 -0.503786 0.462625 -0.240583 0.033814 0.243384 0.423608 0.284864 -0.003701 -0.424266 0.304436 0.321167 0.404252 0.050309 -0.093999 -0.133338 -0.319037 -0.242498 0.228597 -0.252666 0.160413 -0.263537 0.065608 -0.018484 0.079837 0.077231 0.223600 0.174494 -0.037794 -0.139920 0.101239 0.067919 -0.006074 0.298115 0.390479 -0.008316 -0.048077 0.540029 -0.608069 0.033130 0.395473 0.426522 -0.441624 0.306291 -0.280400 0.263524 -0.482461 -0.028588 0.274053 0.052812 0.278771 0.158217 -0.221084 0.116601 0.392219 -0.030754 -0.208238 0.679152 0.055431 0.026760 -0.313499 0.504856 -0.003106 0.199754 -0.325069 -0.192072 -0.179956 -0.018466 0.220611 0.116775 0.024772 -0.075103 -0.106201 -0.059858 -0.310454 0.123049 -0.396245 -0.124423 -0.212652 -0.119416 -0.222592 -0.122986 -0.039217 -0.233206 -0.079998 0.228207 -0.349308 -0.551375 0.162109 -0.045948 0.431291 0.163747 0.174448 0.098521 0.539982 0.150182 0.440741 0.307979 -0.160083 0.049352 0.219508 -0.246614 -0.220286 -0.367294 0.054389 -0.208535 -0.015280 0.066850 -0.340668 -0.300747 -0.077573 0.115968
