68 128
15 -0.412157 -0.141220 -0.078450 0.101450 0.042092 -0.139095 -0.067358 -0.042608 0.407027 0.062404 0.179354 -0.012952 -0.010325 -0.057165 -0.385764 0.167516 -0.199309 -0.046666 -0.223187 -0.253171 0.074951 -0.191103 -0.019378 0.118653 -0.012796 -0.086212 -0.267502 0.252586 0.136909 0.013919 -0.043125 0.190893 0.217163 -0.172489 -0.429466 -0.148784 0.132201 -0.324678 -0.070289 0.359900 -0.029220 -0.101175 0.107790 0.055803 0.075685 0.074497 -0.313813 -0.071106 -0.243514 -0.015163 -0.283000 -0.196997 0.170671 -0.000371 -0.100120 -0.096838 -0.040821 0.189506 0.056590 -0.072974 0.060407 -0.029192 -0.101562 -0.188146 0.198820 -0.130867 -0.097413 0.110659 -0.189626 -0.053092 -0.021384 -0.073719 0.185086 -0.137143 0.117650 0.039793 -0.292404 -0.131621 -0.185470 0.130160 0.154101 0.062254 -0.023684 0.039340 0.121433 -0.039146 -0.030674 -0.093672 0.041167 -0.043361 0.188447 0.147655 -0.148192 -0.178772 -0.136945 0.084166 0.139120 -0.005527 -0.020782 0.077761 -0.156987 -0.109290 -0.056915 0.137370 -0.055070 0.005827 0.026571 -0.087347 -0.027692 0.165645 -0.159672 0.071877 -0.084139 -0.307175 -0.024858 -0.102957 0.132536 0.121278 0.149076 -0.061612 -0.129586 -0.154568 0.056659 0.034536 -0.042888 0.083121 -0.071471 -0.017637
23 -0.510145 -0.140467 -0.074398 -0.003210 0.088157 -0.128766 -0.014689 -0.081881 0.434142 0.099622 0.164019 -0.081890 0.000562 -0.129745 -0.318826 0.051694 -0.215707 -0.091828 -0.135161 -0.198405 0.121149 -0.119097 -0.069275 0.078103 0.009024 -0.105147 -0.173226 0.241167 0.226663 0.010899 -0.090137 0.227647 0.282489 -0.161122 -0.371027 -0.223767 0.079143 -0.407674 -0.037265 0.344434 -0.031852 -0.113484 0.070540 0.078656 0.110028 0.096384 -0.306326 -0.143977 -0.373338 0.014788 -0.272642 -0.251320 0.067611 0.011213 -0.041021 -0.167363 -0.046014 0.200652 0.041945 -0.068004 0.085831 -0.024220 -0.124824 -0.158451 0.150526 -0.089827 -0.078530 0.004973 -0.119081 0.027128 0.032149 -0.007035 0.198280 -0.210201 0.085544 0.023675 -0.194703 -0.131588 -0.085731 0.111077 0.145844 0.067376 -0.022940 0.069462 0.150929 -0.003782 -0.025882 -0.121187 -0.005937 -0.029401 0.096123 0.122587 -0.150692 -0.235415 -0.042499 0.065041 0.158906 0.035274 -0.054239 0.086593 -0.174775 -0.059654 0.007307 0.158176 -0.043214 0.019439 0.047469 -0.065786 -0.096214 0.099584 -0.198442 0.103825 -0.066321 -0.246084 0.010677 -0.137012 0.106860 0.136294 0.081346 -0.061605 -0.114269 -0.075734 -0.003101 0.007424 -0.030794 0.080736 -0.088183 -0.002200
47 -0.507538 -0.072330 -0.004862 -0.017319 0.041871 -0.157614 -0.005354 0.036929 0.490925 0.001785 0.104922 -0.047944 -0.033174 -0.065129 -0.286792 0.105742 -0.191724 -0.141609 -0.185915 -0.096948 0.170282 -0.072657 -0.101064 0.158026 0.090047 -0.195223 -0.209634 0.216213 0.127602 0.025125 -0.068156 0.237299 0.269119 -0.235136 -0.403425 -0.131500 0.192780 -0.405167 -0.064092 0.291657 -0.067803 -0.151530 0.115715 -0.027267 0.086841 0.119540 -0.312700 -0.215502 -0.270494 -0.052166 -0.261262 -0.344867 0.136099 -0.016558 -0.106657 -0.059017 0.095462 0.173272 0.143504 -0.044368 0.118020 0.051636 -0.122988 -0.210664 0.191337 -0.067630 -0.174899 -0.065072 -0.209292 0.009577 0.010496 -0.011168 0.217141 -0.209616 0.099845 -0.041639 -0.203453 -0.152941 -0.144878 0.182472 0.211938 0.010065 -0.048876 0.121982 0.105876 0.008155 -0.090318 -0.109830 0.007793 0.018024 0.210098 0.096651 -0.139562 -0.261023 -0.001566 -0.018890 0.201652 -0.072360 -0.086331 0.051529 -0.154676 -0.152337 0.024002 0.130114 -0.036568 -0.021505 -0.020165 -0.091902 -0.098105 0.051741 -0.143496 0.100002 -0.042646 -0.247407 0.024640 -0.097635 0.199433 0.159560 0.088078 -0.070264 -0.126691 -0.052994 0.000432 0.079362 -0.049452 0.069100 -0.049860 0.017166
61 -0.447832 -0.123286 -0.066581 0.042725 0.074184 -0.119144 -0.100939 -0.134982 0.371883 0.003577 0.204714 -0.121636 -0.029733 -0.087384 -0.341260 0.150645 -0.222278 -0.205359 -0.136561 -0.155409 0.025966 -0.136159 -0.139787 0.118503 -0.020442 -0.035532 -0.167783 0.226699 0.158142 0.051740 -0.089013 0.242992 0.225816 -0.233545 -0.357629 -0.134213 0.130787 -0.305359 -0.069124 0.393582 0.087606 -0.156224 0.073468 0.061409 0.083902 0.138334 -0.302252 -0.122681 -0.274056 0.002726 -0.279055 -0.293026 0.055611 0.017053 -0.024535 -0.123888 -0.044907 0.199468 0.078431 -0.064286 0.140019 0.017484 -0.136593 -0.173500 0.175396 -0.052571 -0.124105 0.033644 -0.132250 -0.023381 0.020916 0.010116 0.201039 -0.174611 0.099778 -0.029276 -0.213927 -0.122969 -0.150989 0.165312 0.142011 0.045869 0.003052 0.029208 0.136061 -0.001519 0.005716 -0.125420 -0.000776 0.024306 0.160474 0.109276 -0.144184 -0.233164 -0.018845 0.060572 0.150940 0.048784 -0.026130 0.092522 -0.210156 -0.067330 -0.034330 0.201709 -0.052390 -0.010659 0.135455 -0.051316 -0.017335 0.138134 -0.176604 0.094256 -0.064070 -0.287338 0.030163 -0.119603 0.176275 0.124802 0.157164 -0.108636 -0.105143 -0.021081 -0.009671 0.013314 -0.042106 0.127349 -0.079620 -0.028651
16 -0.524430 -0.211736 -0.083960 0.017154 0.000047 -0.029455 -0.004264 -0.024574 0.430989 0.081918 0.181350 -0.015626 -0.006417 -0.090181 -0.313696 0.077230 -0.296142 -0.016845 -0.147442 -0.226546 0.027364 -0.076050 -0.121025 0.137755 0.029248 -0.111870 -0.269827 0.237990 0.104292 0.142917 0.006508 0.191435 0.287330 -0.237387 -0.462641 -0.110113 0.097129 -0.360060 -0.030513 0.287664 -0.035333 -0.173249 0.082019 0.050289 0.162275 0.021393 -0.258572 -0.093936 -0.283361 -0.001252 -0.209736 -0.230569 0.131037 0.023685 -0.124050 -0.151468 -0.007113 0.232018 0.077415 -0.094918 0.074652 -0.068528 -0.080999 -0.199011 0.289498 -0.116786 -0.094403 0.035666 -0.140769 0.061776 0.025307 -0.021020 0.157552 -0.291602 0.132818 0.006895 -0.279577 -0.181931 -0.120025 0.131852 0.235345 0.078642 0.024560 0.131606 0.070699 0.019861 -0.109664 -0.100711 0.022087 -0.086794 0.126846 0.139383 -0.151920 -0.205964 -0.045806 0.076775 0.150414 0.038376 -0.129372 0.088486 -0.127878 -0.122332 0.003154 0.144569 -0.051917 0.050063 0.038395 -0.053501 -0.040249 0.138765 -0.157162 0.051342 -0.066609 -0.254547 -0.093534 -0.154169 0.150067 0.145794 0.086087 -0.055119 -0.123086 -0.112031 0.066075 0.033097 -0.065609 0.072196 -0.046876 -0.003253
21 -0.475295 -0.202884 -0.080601 0.034841 0.040926 -0.106765 -0.014371 -0.058704 0.415986 0.026909 0.250561 -0.039294 0.030349 0.004908 -0.354825 0.206361 -0.248199 -0.124915 -0.201206 -0.160565 0.062969 -0.136088 -0.148464 0.115631 0.043703 -0.197915 -0.222688 0.267824 0.246086 0.040720 -0.022762 0.268497 0.220850 -0.147151 -0.456719 -0.090976 0.006223 -0.252797 -0.005099 0.342437 -0.078035 -0.151172 0.129160 0.037503 0.149972 0.094935 -0.289688 -0.106596 -0.271619 -0.066109 -0.319433 -0.261496 0.129762 -0.000407 -0.107935 -0.071707 0.018641 0.205054 0.127725 -0.002995 0.106745 0.008236 -0.023502 -0.235915 0.267053 -0.042807 -0.150218 0.044335 -0.189035 -0.066801 0.006594 0.016185 0.185476 -0.128611 0.098658 -0.076671 -0.237696 -0.194453 -0.161065 0.177278 0.184396 0.049512 0.028977 0.083338 0.042055 0.040447 -0.075158 -0.073086 -0.002416 0.008600 0.169774 0.048140 -0.120541 -0.203648 -0.088962 0.028396 0.170873 -0.051363 0.007086 0.035444 -0.166159 -0.101216 0.051809 0.190811 -0.000135 -0.043603 0.102895 -0.014205 -0.016864 0.164836 -0.163816 0.064895 -0.065968 -0.259401 -0.039740 -0.185969 0.119271 0.125702 0.079218 -0.089993 -0.111632 -0.034080 0.011506 0.094610 -0.024780 0.088677 -0.096140 -0.026651
19 -0.444635 -0.161186 -0.087983 0.045199 0.065412 -0.055331 -0.020181 -0.114186 0.407858 0.031471 0.180113 -0.081163 0.007791 -0.040546 -0.392124 0.160105 -0.236113 -0.114705 -0.195163 -0.205096 0.046003 -0.166473 -0.129067 0.116793 0.005494 -0.057502 -0.198475 0.277136 0.105577 0.050211 -0.074176 0.273262 0.298919 -0.147799 -0.382853 -0.148671 0.094452 -0.289957 -0.081864 0.266719 0.003412 -0.168707 0.103355 0.026910 0.096908 0.055868 -0.287425 -0.153604 -0.239195 0.035573 -0.294566 -0.230959 0.103234 0.002571 -0.045772 -0.081943 -0.045699 0.193697 0.025342 -0.053237 0.074843 0.025091 -0.115857 -0.195013 0.215676 -0.138137 -0.151297 -0.028373 -0.141472 0.044915 -0.016012 0.007865 0.223321 -0.264872 0.113350 -0.058797 -0.277475 -0.166534 -0.151309 0.145786 0.198434 0.070394 0.036808 0.096823 0.096640 0.034444 -0.032236 -0.152757 -0.006546 0.041329 0.114821 0.088713 -0.141753 -0.216166 -0.056863 0.076465 0.173779 -0.029301 -0.031054 0.044379 -0.146674 -0.112992 0.084407 0.145893 -0.026707 -0.010233 0.073399 -0.047245 -0.005796 0.091814 -0.168617 0.080933 -0.054440 -0.265119 -0.012574 -0.168145 0.115931 0.118143 0.065770 -0.016555 -0.123707 -0.083501 0.065848 0.034576 -0.050562 0.094548 -0.084340 0.012742
64 -0.527034 -0.238861 -0.046075 -0.007135 0.092886 -0.120592 -0.056799 -0.145035 0.373631 0.037209 0.162261 0.032636 0.042635 -0.053967 -0.390127 0.107847 -0.230529 -0.156605 -0.114736 -0.149044 0.126884 -0.128755 -0.153556 0.085939 0.059843 -0.127607 -0.181676 0.167114 0.162049 0.066115 -0.070833 0.247761 0.278770 -0.170776 -0.381086 -0.152893 0.060386 -0.342943 0.019434 0.308035 -0.034451 -0.145764 0.157067 -0.063901 -0.021994 0.064465 -0.296870 -0.197723 -0.281266 -0.064828 -0.279644 -0.253569 0.117334 0.044612 -0.061064 -0.079652 -0.005396 0.224385 0.085711 -0.076512 0.113157 0.035049 -0.068853 -0.183845 0.223220 0.012963 -0.159089 -0.033499 -0.116112 0.016574 0.057958 0.046783 0.257031 -0.193861 0.109412 -0.026632 -0.244123 -0.121155 -0.140985 0.151088 0.207033 -0.004238 0.060093 0.045090 0.127143 0.057042 -0.061858 -0.091764 -0.017166 0.035108 0.122802 0.126053 -0.153853 -0.188741 -0.052203 0.086149 0.250606 -0.033963 -0.012577 0.049510 -0.143551 -0.091016 0.011314 0.147152 -0.094918 -0.004821 0.116049 -0.093500 -0.035701 0.044580 -0.202302 0.089788 -0.000800 -0.238452 0.017153 -0.084371 0.131773 0.109585 0.086091 -0.086805 -0.116383 0.014724 0.028539 0.003507 -0.048451 0.117134 -0.138076 0.024679
46 -0.481966 -0.222451 -0.110030 -0.009057 -0.007577 -0.143920 -0.085434 -0.089176 0.404156 0.023499 0.237628 -0.055539 -0.119713 -0.097061 -0.300076 0.114104 -0.231716 -0.148509 -0.145260 -0.147053 0.103839 -0.131889 -0.085101 0.170358 0.031122 -0.060439 -0.208076 0.225134 0.150389 0.029862 -0.144014 0.313605 0.271626 -0.118320 -0.469544 -0.132172 0.108868 -0.234907 0.023652 0.369884 0.027577 -0.180751 0.151881 0.033987 0.108469 0.105460 -0.273441 -0.095844 -0.228227 0.006686 -0.314094 -0.327969 0.031866 0.028154 -0.079116 -0.068879 -0.109597 0.229753 0.012178 -0.074498 0.129552 0.084660 -0.200598 -0.175350 0.178901 -0.114166 -0.063496 -0.011159 -0.128979 -0.075778 -0.018296 -0.051931 0.252305 -0.214168 0.002558 -0.028434 -0.209702 -0.136679 -0.179219 0.160789 0.203938 0.060403 -0.001859 0.009227 0.071503 0.011108 -0.006883 -0.131327 0.001688 0.014610 0.108756 0.062874 -0.134992 -0.209768 -0.059618 0.061655 0.163147 0.038106 -0.002207 0.057111 -0.174323 -0.054376 0.016100 0.141848 -0.069752 -0.003818 0.155898 -0.021344 -0.022391 0.110733 -0.111744 0.044034 -0.098017 -0.308852 0.049546 -0.095325 0.055448 0.049859 0.060553 -0.123472 -0.083444 -0.092266 -0.030563 0.002547 0.008127 0.126014 -0.087473 -0.096088
66 -0.512887 -0.145335 -0.121980 0.057479 0.028824 -0.119609 -0.036792 -0.038364 0.396475 0.092091 0.110326 -0.093069 -0.043134 -0.113285 -0.317838 0.164604 -0.267353 -0.093511 -0.147003 -0.172509 0.056654 -0.088905 -0.129628 0.116641 -0.010153 -0.173778 -0.275530 0.214551 0.134820 0.112145 0.025455 0.188270 0.262778 -0.175393 -0.488736 -0.136279 0.051625 -0.328590 0.043762 0.284902 -0.082593 -0.121225 0.044273 -0.021735 0.159906 0.113476 -0.288310 -0.070946 -0.335210 -0.018927 -0.225739 -0.232190 0.080498 0.027639 -0.105540 -0.100081 -0.006908 0.186371 0.077134 -0.064244 0.122315 -0.037737 -0.110496 -0.262023 0.144050 -0.138688 -0.140622 0.056304 -0.078810 -0.011226 -0.033403 -0.031647 0.217111 -0.128927 0.150453 -0.044433 -0.317036 -0.150375 -0.092782 0.167492 0.207327 0.060607 -0.007992 0.061755 0.153386 0.013803 -0.028785 -0.083762 -0.040079 0.012819 0.161949 0.118559 -0.144970 -0.230681 -0.135540 0.047695 0.204255 0.003644 -0.051247 0.038443 -0.167779 -0.139152 0.018769 0.185962 0.051385 -0.025622 -0.006881 -0.060633 -0.009252 0.073790 -0.170186 0.127197 -0.052732 -0.314366 -0.010476 -0.095607 0.105748 0.111877 0.102456 -0.132628 -0.059212 -0.087141 0.048881 0.004747 -0.066744 0.067400 -0.019283 0.023826
11 0.027391 -0.112631 -0.134407 -0.095199 0.042214 0.151285 -0.276549 0.220279 0.060107 -0.042737 0.086980 0.017208 -0.126846 0.016713 -0.034472 -0.110156 -0.105542 -0.256490 0.039263 -0.569210 0.026102 0.299937 0.081269 -0.128899 0.020917 0.045919 0.087406 0.272350 -0.086754 -0.195384 -0.110491 0.199918 -0.064265 -0.242055 0.214778 -0.146485 0.066734 -0.191175 -0.115742 0.189967 0.117715 -0.026054 -0.010480 -0.268669 0.198218 0.037951 -0.119654 0.133729 -0.124463 -0.077557 0.063799 -0.092397 -0.146849 0.183093 -0.015051 -0.000261 -0.119390 0.180140 0.138770 0.019288 -0.004495 -0.082192 0.057490 0.084198 0.164106 -0.053040 0.291936 -0.151561 0.094794 -0.045833 0.182737 0.197049 -0.297242 0.083934 -0.004558 -0.377197 -0.088201 0.204118 -0.038523 -0.230734 -0.272628 0.002273 0.097189 0.121697 -0.051664 0.004374 -0.122329 0.215995 0.215060 0.115969 0.171795 -0.307353 -0.162344 0.213643 0.075335 -0.076718 -0.063892 -0.039162 0.046232 -0.030832 -0.011812 0.205584 -0.070541 -0.208636 0.043708 -0.086847 0.004118 0.224430 0.058583 -0.061285 -0.010880 0.155197 0.113244 0.024352 0.129699 0.044164 -0.003465 -0.058642 0.014827 -0.012348 0.004382 -0.126611 -0.042957 0.052217 0.036909 0.193529 0.075933 0.051612
53 0.185312 -0.074356 -0.090706 -0.147538 -0.015031 0.173114 -0.262726 0.173632 0.030989 -0.077722 0.133880 0.043193 -0.211127 0.095408 -0.079024 -0.026401 -0.060525 -0.192685 0.077046 -0.498521 0.052000 0.346934 0.164743 -0.131099 0.022228 0.033321 -0.056567 0.250723 0.004881 -0.245840 -0.035875 0.166794 0.025238 -0.226588 0.179993 -0.112872 0.008800 0.000723 -0.112307 0.234240 0.068307 -0.030900 -0.000537 -0.258074 0.137370 0.152747 -0.069731 0.134409 -0.131820 -0.025998 0.015198 -0.127661 -0.171341 0.104025 -0.126987 -0.012964 -0.019334 0.238503 0.274178 -0.039049 -0.034544 -0.078213 0.068189 -0.017617 0.148697 -0.018478 0.274447 -0.173250 0.012468 -0.009131 0.159068 0.122248 -0.354329 0.076986 0.069080 -0.259185 -0.160449 0.216571 -0.102671 -0.175120 -0.210135 0.043342 -0.009544 0.147173 -0.024548 -0.062501 -0.089319 0.163581 0.242886 0.111330 0.157910 -0.220648 -0.069007 0.194123 0.036212 -0.089120 -0.022243 -0.094627 -0.010451 -0.039066 0.065746 0.186736 -0.164383 -0.143346 0.060512 -0.043423 -0.059386 0.164761 -0.059641 -0.039044 0.010905 0.178278 0.163614 0.021804 0.129270 0.101781 -0.018536 -0.072098 0.041636 -0.024450 -0.050527 -0.167761 -0.054989 0.122251 0.041638 0.181247 0.073502 0.061163
5 0.139365 -0.034239 -0.059552 -0.125701 0.096058 0.073749 -0.199401 0.196711 0.085203 -0.033327 0.085465 0.042376 -0.140554 0.026195 -0.026377 -0.088000 -0.044395 -0.221953 0.018134 -0.499036 0.080428 0.280388 0.048020 -0.155129 0.006129 0.010086 0.007971 0.238547 -0.018887 -0.237004 -0.023068 0.032404 0.001717 -0.057782 0.211482 -0.192682 0.055464 -0.124173 -0.097123 0.208450 0.194984 0.115052 0.011248 -0.271850 0.211869 0.116053 -0.120881 0.110339 -0.134450 -0.076594 0.018461 -0.179934 -0.172885 0.144367 -0.006895 -0.072254 -0.028696 0.229999 0.138563 -0.132662 -0.066386 -0.098215 0.154088 -0.018303 0.184961 -0.033716 0.284103 -0.208720 0.036690 0.038095 0.150443 0.101824 -0.226249 0.109991 0.011427 -0.346683 -0.201974 0.172994 -0.055677 -0.143512 -0.267413 0.036989 0.106565 0.148090 -0.080010 0.034888 -0.056801 0.201140 0.177278 0.111923 0.157593 -0.286096 -0.116774 0.212040 -0.002821 -0.058857 -0.044996 -0.103655 0.030865 -0.040064 0.044496 0.155831 -0.072758 -0.134198 0.154830 -0.155457 -0.022452 0.130280 0.007296 -0.106333 -0.014854 0.240367 0.132010 -0.001752 0.128036 -0.000955 0.001384 -0.054766 -0.006554 -0.004108 -0.035640 -0.189706 0.021098 0.115121 0.031389 0.116130 0.122592 0.055396
63 0.104795 -0.116002 -0.050809 -0.123806 0.021721 0.082725 -0.181501 0.174212 0.137425 -0.028528 0.113495 0.123850 -0.107442 0.116566 -0.039956 -0.166337 -0.061908 -0.252733 -0.047960 -0.522266 0.078627 0.244446 0.107243 -0.075084 0.058894 0.010428 -0.019763 0.223887 -0.072907 -0.320565 -0.068333 0.138849 -0.024996 -0.131835 0.336690 -0.171551 0.133985 -0.067463 -0.195495 0.162151 0.016072 0.039550 -0.060339 -0.149322 0.150492 0.111023 -0.097897 0.034570 -0.061447 0.040425 -0.087761 -0.131141 -0.186122 0.116913 -0.066346 -0.028313 -0.031584 0.229482 0.177780 -0.167861 -0.037022 -0.021294 0.077061 0.003270 0.184899 -0.037063 0.271739 -0.204226 0.061428 -0.008606 0.088654 0.079939 -0.162309 0.013816 -0.017864 -0.370385 -0.125893 0.193057 -0.108880 -0.172863 -0.243501 0.082914 0.065003 0.060619 -0.111806 0.036106 -0.109577 0.270539 0.227920 0.199374 0.180042 -0.216357 -0.146768 0.307059 0.007114 -0.047279 -0.060695 -0.128898 0.013555 -0.006526 0.038583 0.205322 -0.069608 -0.189148 0.079912 -0.122440 -0.123159 0.127254 -0.032178 -0.123096 -0.012796 0.166717 0.069097 -0.029758 0.152198 0.054731 -0.060400 -0.089618 -0.036981 -0.037692 0.000936 -0.247239 0.051026 0.073832 0.043900 0.152118 0.146064 0.001387
55 0.127009 -0.152459 -0.127460 -0.155302 -0.033677 0.086292 -0.209770 0.189475 0.036264 -0.133124 0.209563 0.030371 -0.128435 0.050278 -0.153281 -0.231067 -0.084566 -0.230883 0.063408 -0.443654 0.149673 0.323510 0.173008 -0.155343 0.014279 -0.004818 -0.053398 0.216219 -0.034425 -0.279970 -0.151919 0.242176 -0.025854 -0.096775 0.248046 -0.041570 0.145859 -0.076192 -0.050545 0.254657 0.132406 0.007861 -0.004884 -0.284610 0.130303 0.050826 -0.079736 -0.019681 -0.034393 -0.046300 0.105967 -0.256814 -0.185647 0.122624 -0.170605 0.051477 -0.032703 0.125924 0.256392 -0.141501 0.013684 -0.082097 0.011895 -0.077036 0.209995 -0.015085 0.298369 -0.225628 0.070370 0.041740 0.234327 0.162462 -0.229786 0.068405 0.004042 -0.374998 -0.159079 0.192303 -0.009344 -0.158387 -0.223065 0.007403 0.167244 0.114605 -0.051383 0.014351 -0.095797 0.239070 0.217241 0.097727 0.107857 -0.276192 -0.097600 0.219035 0.017754 -0.042666 -0.109236 0.020822 0.045632 -0.035498 -0.037059 0.148970 -0.096656 -0.101018 0.110750 -0.084755 -0.018836 0.183905 0.044572 -0.208072 -0.008230 0.192587 0.175464 0.061178 0.112751 0.035763 0.012368 -0.097507 -0.046425 -0.038328 -0.077049 -0.164237 0.069854 0.065840 0.085254 0.125836 0.118371 0.032095
7 0.102693 0.016016 -0.130998 -0.097195 -0.033328 0.166290 -0.358614 0.121976 0.041905 -0.008203 0.140356 0.135343 -0.138720 -0.014593 -0.034102 -0.154349 -0.053865 -0.141168 0.072329 -0.511835 0.214545 0.247202 0.083091 -0.227772 0.062816 0.047280 0.005241 0.238830 0.021806 -0.241370 -0.025912 0.141552 0.022175 -0.047561 0.146844 -0.102249 0.167593 -0.118070 -0.068464 0.108628 0.138040 -0.014760 0.023615 -0.223235 0.091462 0.071822 -0.120158 -0.014946 -0.122284 -0.083205 -0.021392 -0.218151 -0.138642 0.131004 -0.074710 -0.008511 -0.006891 0.200842 0.225089 -0.107482 -0.080503 -0.078589 0.140347 0.000440 0.260196 0.002309 0.317691 -0.201896 0.048909 -0.019721 0.197459 0.121102 -0.296058 -0.001856 0.014080 -0.317107 -0.159638 0.214289 -0.089013 -0.193294 -0.225776 0.005223 0.186717 0.179964 -0.030968 -0.001842 -0.087712 0.222965 0.226198 0.107147 0.119304 -0.294133 -0.167482 0.179993 0.037833 -0.087164 -0.067526 -0.155480 0.092251 -0.016841 -0.031237 0.249592 -0.032177 -0.182792 0.072943 -0.134468 -0.074490 0.245355 0.012823 -0.084190 -0.018249 0.150652 0.164977 0.120968 0.091844 -0.056608 -0.072878 -0.056411 -0.028034 0.025939 -0.051302 -0.269022 0.057649 0.157390 0.116053 0.109735 0.058739 0.004800
18 -0.018058 -0.246639 -0.071015 -0.095641 -0.010227 -0.037097 0.021775 -0.170811 -0.000624 0.079796 0.106859 0.067565 -0.009015 0.009522 -0.229690 -0.029076 0.059381 -0.143647 -0.101587 -0.463664 -0.028695 0.111820 0.164485 -0.027686 0.085186 0.283494 -0.107134 -0.093584 -0.193632 0.044913 -0.130124 0.151584 0.033799 0.050080 0.273178 -0.079479 -0.042401 -0.176123 -0.067949 0.092126 0.256332 0.133492 -0.084546 -0.274791 0.076135 0.157886 0.106622 0.232744 -0.104181 0.075173 0.151122 -0.125705 -0.109428 0.127873 -0.143391 -0.126514 0.038580 0.257474 0.088589 0.018656 0.167485 -0.146675 -0.034082 0.031601 0.216050 -0.079699 0.127330 -0.126731 0.029885 0.031251 -0.063701 -0.033255 -0.238641 0.063840 0.109485 -0.310262 -0.245286 0.038043 0.117087 -0.136704 -0.144847 -0.029761 -0.170314 0.265230 -0.051600 0.070832 -0.116908 0.238390 -0.011464 0.239095 0.177806 0.024802 0.009206 0.102532 0.042012 -0.026176 0.053946 -0.148664 0.024505 -0.141706 0.074548 0.030514 -0.136540 -0.093549 -0.049970 0.017963 -0.062070 0.059463 -0.023509 0.027484 0.208716 0.029488 -0.020938 -0.048589 -0.166781 0.291470 -0.089509 -0.199099 -0.055204 -0.079771 0.268585 -0.113301 -0.128400 -0.009015 -0.046000 0.012291 0.083900 0.197336
56 -0.420882 -0.318077 -0.046761 -0.128954 -0.298114 -0.209278 -0.249904 0.023857 0.226515 0.164492 -0.365294 -0.281507 -0.263837 0.215049 -0.483874 0.241115 -0.028051 -0.003804 0.376540 -0.199210 -0.033892 -0.256677 0.171366 -0.430979 0.161720 0.077359 -0.151461 -0.180510 0.087322 -0.256757 -0.075511 -0.220145 -0.041508 0.193751 0.250731 0.075478 -0.126929 0.153534 -0.372050 0.110496 -0.016680 -0.132530 -0.124284 -0.067615 -0.003762 0.229100 0.008470 -0.297093 -0.308471 0.149584 -0.149473 -0.386525 -0.146700 0.042989 -0.181527 -0.066082 -0.088001 -0.024550 0.445734 -0.033842 0.081780 -0.350707 -0.048702 -0.189072 0.110547 -0.142213 0.061849 -0.201630 0.088261 0.183922 0.153819 0.111072 -0.143546 -0.065642 -0.071897 -0.078449 0.052331 0.108106 -0.032692 0.129216 0.078298 0.057656 0.113332 0.102292 -0.099801 -0.139447 -0.158283 0.147933 0.126919 0.222235 -0.013794 -0.338036 -0.059437 0.101900 0.123477 -0.245735 0.146935 0.085885 -0.063916 0.265998 -0.008359 -0.133297 0.261927 0.211490 0.130575 0.002377 0.034569 0.057108 -0.137648 0.173624 -0.315167 -0.130271 0.062134 -0.201376 0.270834 -0.107368 0.129603 0.114348 0.041342 -0.152047 0.221887 -0.030204 -0.123546 -0.407621 -0.133743 -0.141521 -0.013834 0.085145
6 0.185769 -0.079727 -0.158165 -0.224672 -0.045715 0.182855 -0.126982 0.206787 0.080046 0.026451 0.180712 0.092438 -0.017645 0.220532 0.064739 -0.161275 -0.124404 -0.222459 0.032967 -0.549656 0.075576 0.269507 0.149198 -0.249865 -0.006985 0.058247 0.047025 0.251208 0.005164 -0.316186 -0.076100 0.165770 0.004038 -0.015754 0.243017 -0.260889 0.112858 -0.151560 -0.194453 0.123676 0.109286 0.044007 0.032170 -0.303442 0.196042 0.114512 -0.092872 0.094611 -0.174553 -0.040128 -0.003429 -0.124132 -0.187858 0.168400 -0.077779 0.045382 -0.028292 0.285622 0.199782 -0.120639 -0.026454 -0.103040 0.136563 -0.064985 0.167829 -0.074038 0.307138 -0.218954 0.149280 0.017950 0.243497 0.145278 -0.194936 0.025725 0.051363 -0.310524 -0.185267 0.210351 -0.101387 -0.142738 -0.219068 0.068780 0.191095 0.121063 -0.066987 0.018364 -0.044609 0.213491 0.184961 0.099978 0.018819 -0.289582 -0.095281 0.183655 0.002570 -0.045169 -0.094789 -0.043861 0.036064 -0.041229 -0.027002 0.187291 -0.060291 -0.169744 0.046761 -0.092459 -0.054799 0.145636 -0.011398 -0.108388 0.003769 0.170736 0.150255 0.045083 0.132455 -0.020399 -0.004872 -0.037070 -0.049467 0.063989 -0.054778 -0.220204 0.057945 0.105324 0.116147 0.119344 0.087381 -0.034908
50 0.141329 -0.020646 -0.148998 -0.069630 -0.000372 0.031233 -0.233988 0.096584 0.064261 -0.047659 0.204520 -0.029542 -0.044710 -0.000540 0.004636 -0.221703 -0.124057 -0.119628 0.035438 -0.563089 0.067763 0.324118 0.116681 -0.140121 0.098630 0.017002 0.016150 0.285660 0.000620 -0.346056 -0.073605 0.190633 -0.032419 -0.020687 0.207810 -0.167249 0.117393 -0.066546 -0.090621 0.200300 0.069639 -0.029118 -0.048799 -0.220902 0.179162 0.079254 -0.125786 -0.018098 -0.199421 -0.065010 0.001808 -0.289193 -0.091306 0.092041 -0.130489 -0.016243 0.023584 0.130241 0.236349 -0.105862 -0.027542 -0.111444 0.149857 0.076400 0.159664 -0.038299 0.202147 -0.184933 0.022630 -0.093214 0.182056 0.113939 -0.243465 0.141846 0.032441 -0.415988 -0.182979 0.192283 -0.039814 -0.181423 -0.261313 0.084247 0.147231 0.131210 -0.059201 0.042739 -0.064930 0.239200 0.224794 0.186504 0.184248 -0.205226 -0.130427 0.264284 0.001141 -0.070025 -0.121344 -0.149425 0.075058 0.005012 -0.000249 0.237762 -0.043313 -0.177723 0.096082 -0.107988 -0.130893 0.144219 -0.003307 -0.095632 0.108548 0.102859 0.107512 0.081501 0.073419 -0.017444 0.040203 -0.066187 0.027016 -0.025967 -0.073862 -0.226767 0.043435 0.058133 0.076173 0.107711 0.134016 0.020722
29 -0.397469 -0.227682 0.064040 -0.019134 -0.293218 -0.294060 -0.303850 0.091865 0.294013 0.108166 -0.331183 -0.245266 -0.283444 0.237988 -0.344873 0.308672 -0.038015 0.071223 0.422736 -0.244384 0.068324 -0.182137 0.118384 -0.319873 0.247043 0.010596 -0.223865 -0.173721 0.074848 -0.310974 -0.057831 -0.275196 0.078399 0.118678 0.304652 0.054060 -0.233643 0.168873 -0.186526 0.117633 0.051323 -0.176126 -0.110072 -0.020882 0.102258 0.261467 -0.038567 -0.237089 -0.248665 0.053095 -0.181519 -0.433884 -0.052795 0.060735 -0.235141 -0.024037 -0.056235 -0.006359 0.406579 0.013745 0.049585 -0.304413 -0.019183 -0.138803 0.109230 -0.241231 0.029959 -0.111830 0.173013 0.183716 0.139437 0.088594 0.003468 -0.037602 -0.141490 -0.020344 0.011132 0.025133 -0.033701 0.161254 0.118394 0.081731 0.124731 0.124943 -0.251505 -0.107952 -0.079222 0.235587 0.120167 0.246372 0.107587 -0.381086 -0.020620 0.153437 0.188899 -0.306453 0.133250 -0.078030 -0.050004 0.341085 0.066352 -0.182971 0.299432 0.224700 0.175846 -0.009790 0.032091 0.167926 -0.042862 0.319476 -0.249935 -0.137111 0.070122 -0.237610 0.128939 -0.175820 0.180128 0.029682 0.069659 -0.269510 0.284894 -0.088259 -0.171977 -0.394159 -0.164199 -0.167035 -0.015694 0.035202
65 -0.504278 -0.162216 -0.111374 -0.056136 -0.204060 -0.269464 -0.261296 0.094802 0.223236 0.181999 -0.336027 -0.327799 -0.223169 0.242157 -0.406032 0.260211 -0.024849 -0.008107 0.251861 -0.027160 -0.088712 -0.326069 0.107221 -0.392463 0.199656 0.039113 -0.187880 -0.198926 0.002276 -0.177402 -0.061754 -0.300625 0.026472 0.162496 0.132578 -0.074287 -0.209793 0.100310 -0.402652 0.073819 -0.053554 -0.054739 -0.208061 -0.052089 -0.015490 0.250670 -0.013020 -0.233682 -0.320918 0.268599 -0.092695 -0.439398 -0.123663 0.046325 -0.132567 0.014733 -0.183304 -0.042737 0.373627 0.072325 0.065884 -0.336066 -0.153047 -0.152047 0.060266 -0.149544 0.099360 -0.231207 0.143672 0.138182 0.190197 0.088539 -0.179030 -0.028960 -0.051513 -0.137350 -0.099422 0.048232 -0.117241 0.152452 0.125197 0.031123 0.191532 0.105276 -0.055219 -0.174021 -0.173768 0.159252 0.094879 0.260471 -0.016119 -0.266009 -0.073202 0.105939 0.093307 -0.254264 0.100016 0.017771 0.032487 0.204372 -0.074423 -0.114777 0.220474 0.096718 0.223411 -0.100174 -0.040588 0.105416 -0.188406 0.088168 -0.289160 -0.266897 0.107141 -0.261838 0.148072 -0.180272 0.070773 -0.071401 0.090062 -0.189104 0.225584 -0.041959 -0.040761 -0.366715 -0.203757 -0.114057 0.127962 0.112585
40 -0.092374 -0.144316 -0.140562 -0.258221 0.005012 -0.106848 -0.067807 -0.137619 0.057815 -0.032692 0.068642 -0.043686 -0.073113 -0.047319 -0.331824 -0.127640 0.115805 -0.066156 0.025303 -0.335617 0.081947 0.119825 0.205918 -0.057814 0.131779 0.165729 -0.127499 -0.046555 -0.039288 -0.013382 -0.033487 0.206362 0.146319 -0.070868 0.325360 0.040002 -0.010191 -0.274413 -0.019387 0.059639 0.370976 0.098925 -0.091635 -0.258868 0.052518 0.146481 0.058851 0.107550 -0.025422 0.051250 0.117537 -0.166675 0.000726 0.112986 -0.125136 -0.109054 0.088042 0.175923 0.096328 -0.033278 0.152869 -0.130953 0.030759 0.007746 0.188216 -0.011516 0.149677 -0.175584 0.025970 -0.031307 -0.111108 0.000973 -0.316099 0.023957 0.084502 -0.283230 -0.212274 -0.025926 0.103462 -0.182304 -0.209696 -0.055066 -0.132107 0.228006 -0.139839 0.080350 -0.157957 0.216102 0.030486 0.224982 0.239927 0.078722 -0.022840 0.095443 0.056554 -0.062497 0.048272 -0.149944 0.032885 -0.082720 0.099910 0.016256 -0.212741 -0.138341 -0.038431 -0.014073 -0.092489 0.115334 -0.116036 -0.064731 0.179031 0.023492 -0.082891 0.056448 -0.172798 0.239861 -0.185997 -0.109884 -0.089617 -0.031820 0.161984 -0.142321 -0.051342 0.056121 0.038955 0.057669 0.152621 0.151991
22 0.085064 -0.143756 -0.081525 -0.103267 0.010811 -0.091221 -0.061605 -0.130675 -0.043075 0.095668 0.060356 0.024701 -0.005503 -0.040091 -0.220044 0.148055 0.126593 -0.120594 -0.104036 -0.500603 0.027866 0.120227 0.121201 -0.034285 0.022648 0.266591 -0.199815 -0.060180 -0.115875 -0.117300 -0.065633 0.225948 0.050447 -0.050112 0.298999 -0.073470 -0.126397 -0.210059 -0.114030 0.106298 0.237721 0.066331 -0.107243 -0.273747 -0.007053 0.170120 0.076152 0.144771 -0.065172 0.000812 -0.000942 -0.129482 -0.012102 0.076643 -0.154889 -0.111841 0.108710 0.181161 0.085303 -0.036868 0.183724 -0.127766 0.007520 0.027163 0.196193 -0.056787 0.111634 -0.194067 0.025073 0.043503 -0.067448 -0.007321 -0.275865 0.132528 0.165265 -0.274574 -0.260314 0.064177 0.094990 -0.130313 -0.201248 -0.094109 -0.136292 0.284380 -0.134111 0.060565 -0.052745 0.201736 -0.050513 0.378473 0.274635 -0.018934 0.034902 0.166226 0.095371 -0.112277 0.126108 -0.167626 0.001718 -0.051925 0.182588 -0.016949 -0.162663 -0.134957 -0.037403 -0.029084 -0.023079 0.071102 -0.064673 0.020798 0.210074 0.034089 -0.006449 0.035780 -0.048905 0.301252 -0.024648 -0.070473 -0.033151 -0.019396 0.239772 -0.029779 -0.146432 0.010980 -0.066997 0.027977 0.080072 0.184456
31 -0.453988 -0.332829 -0.000632 -0.154367 -0.287575 -0.339620 -0.262369 0.055983 0.142283 0.156083 -0.335069 -0.330980 -0.215833 0.239538 -0.520063 0.121715 0.027414 0.025987 0.285831 -0.082712 -0.113040 -0.244121 0.301765 -0.415868 0.253385 0.082741 -0.181480 -0.109906 0.096014 -0.177191 -0.057411 -0.223889 -0.008753 0.199314 0.180139 0.046290 0.016193 0.094997 -0.387271 0.157562 -0.019067 -0.040136 -0.163073 -0.049190 -0.028075 0.210549 -0.014137 -0.326546 -0.418139 0.145510 -0.059699 -0.489405 -0.002916 -0.000311 -0.200111 0.055473 -0.131777 -0.045191 0.427636 0.013862 0.074605 -0.399108 -0.048372 -0.048995 0.008329 -0.126216 -0.002965 -0.127072 0.217512 0.161196 0.101871 0.062622 -0.130156 0.043273 -0.082770 -0.124315 -0.044251 0.030206 -0.039638 0.115577 0.072899 -0.001231 0.106396 0.125508 -0.064542 -0.139609 -0.163692 0.182827 0.125144 0.200040 -0.062204 -0.328097 -0.016378 0.068898 0.016905 -0.158819 0.133975 0.014318 0.078512 0.191457 0.066063 -0.100982 0.259595 0.077368 0.143829 -0.114041 0.004350 0.074737 -0.050861 0.203990 -0.282732 -0.177442 0.119317 -0.406810 0.208274 -0.172196 0.103798 -0.033588 0.121754 -0.108095 0.298946 -0.086149 -0.157271 -0.432215 -0.151372 -0.050758 -0.017103 0.168836
49 -0.018804 -0.187181 -0.121428 -0.132199 -0.015737 -0.062781 -0.052642 0.027289 -0.018913 0.141734 0.033510 -0.004785 0.038903 -0.006815 -0.167534 -0.023542 0.068543 -0.064145 0.008796 -0.508562 0.067142 0.140182 0.163173 -0.045133 -0.001307 0.257122 -0.081569 -0.054233 -0.185300 -0.000883 -0.109847 0.198888 0.075176 -0.000079 0.235024 -0.087399 -0.102725 -0.291201 0.025299 0.084065 0.213339 0.032477 -0.049250 -0.352132 0.149536 0.103570 0.049902 0.221909 0.017368 0.017314 0.053803 -0.161982 -0.031102 0.115704 -0.211374 -0.025672 0.032388 0.251806 0.031883 -0.031861 0.165992 -0.075259 -0.034368 0.067838 0.112189 -0.127620 0.099952 -0.264882 0.117118 0.047181 -0.046951 -0.002530 -0.204743 0.004568 0.139115 -0.269510 -0.239129 0.018085 -0.005931 -0.100861 -0.120092 -0.060462 -0.169202 0.346447 -0.156884 0.045453 -0.168246 0.194676 -0.037372 0.266759 0.262896 0.003566 -0.018211 0.073793 0.057557 -0.116006 0.098209 -0.146451 -0.053156 -0.158236 0.165503 0.011810 -0.221184 -0.174820 0.015004 0.026843 -0.112626 0.105718 -0.012527 0.005140 0.240423 0.030308 -0.035218 0.058259 -0.078363 0.244772 -0.104733 -0.124320 -0.115968 -0.089887 0.331928 -0.104717 -0.176672 0.045362 -0.004983 0.042209 0.099687 0.160859
58 -0.459099 -0.400924 -0.062489 -0.000569 -0.319212 -0.270299 -0.267902 0.135959 0.177305 0.170846 -0.288170 -0.283445 -0.283708 0.060324 -0.424840 0.303452 -0.066837 0.045634 0.293388 -0.057371 0.036409 -0.181252 0.096796 -0.468632 0.225433 -0.015999 -0.303221 -0.241929 -0.023519 -0.158125 -0.077323 -0.205760 0.047097 0.139857 0.115021 -0.001413 -0.161432 0.120089 -0.265904 0.026455 -0.070203 0.091401 -0.297741 -0.028016 -0.032366 0.229372 -0.099899 -0.288544 -0.337681 0.121713 -0.028097 -0.424484 -0.043154 0.106952 -0.204591 -0.037420 -0.079444 -0.036254 0.373995 -0.043452 0.086088 -0.382077 -0.036560 -0.135808 0.061098 -0.233715 0.039500 -0.111205 0.246068 0.184142 0.115498 0.069753 -0.001206 0.008123 -0.087328 -0.145281 -0.108081 0.068558 0.061740 0.177726 0.053896 0.168148 0.037072 0.115203 -0.056907 -0.110628 -0.010665 0.279058 0.050455 0.213459 0.009371 -0.330956 -0.114483 0.140850 0.061778 -0.250049 0.224870 -0.086027 -0.037012 0.283703 0.058469 -0.034913 0.370864 0.128322 0.253363 -0.195274 0.029259 0.094443 -0.168078 0.080162 -0.274790 -0.109156 0.175666 -0.322000 0.155416 -0.172745 0.109171 -0.053080 0.043727 -0.298029 0.283045 -0.168806 -0.066108 -0.394850 -0.217988 -0.142541 0.059869 0.221902
10 -0.454760 -0.319410 -0.086842 -0.029449 -0.317101 -0.198799 -0.274053 0.036242 0.132241 0.177250 -0.356152 -0.251183 -0.074795 0.137339 -0.473463 0.255159 -0.055753 0.052375 0.315369 -0.111823 -0.086893 -0.164708 0.264769 -0.507529 0.295477 0.110226 -0.233324 -0.146073 -0.045402 -0.151905 -0.038070 -0.217023 0.022313 0.082945 0.152023 -0.013442 -0.101373 0.211816 -0.405874 0.165955 -0.043919 -0.083224 -0.254932 0.047632 0.010605 0.120244 -0.111572 -0.184591 -0.296320 0.188214 -0.075525 -0.329253 -0.054736 0.003164 -0.264949 0.096629 -0.151613 -0.021626 0.420755 0.013135 0.061598 -0.468219 -0.093807 -0.056380 0.011588 -0.239103 0.024447 -0.068632 0.177043 0.133488 0.118945 0.099414 -0.222388 0.009854 0.007067 -0.096173 -0.127391 0.017050 -0.075122 0.106750 0.106455 0.114569 0.064851 0.210234 -0.134556 -0.177270 -0.198402 0.194869 0.086780 0.171538 -0.004037 -0.318323 -0.034271 0.091159 -0.001755 -0.210760 0.155764 0.033698 -0.088404 0.247423 0.109953 -0.118798 0.198941 0.156038 0.165279 -0.082600 -0.059165 0.118726 -0.133799 0.211957 -0.382359 -0.252724 0.080382 -0.355506 0.072970 -0.283937 0.070015 -0.112372 0.159214 -0.286415 0.250986 -0.144222 -0.126241 -0.431939 -0.173316 -0.044680 0.027340 0.152888
13 0.027265 -0.055367 -0.032207 -0.044389 -0.091787 -0.007689 -0.131604 -0.170870 -0.050681 0.034970 0.071734 0.026816 -0.136617 0.113424 -0.172610 0.119381 0.030772 -0.214932 -0.015253 -0.501613 0.060384 0.070746 0.177994 -0.113644 0.047160 0.320311 -0.137253 -0.102283 -0.147268 -0.063086 -0.094131 0.074525 0.154872 -0.135962 0.180170 -0.117770 -0.080642 -0.224007 -0.054100 0.105672 0.213430 0.087630 -0.136732 -0.356870 0.027373 0.260434 -0.026149 0.158958 0.039903 0.031538 0.039164 -0.169408 -0.124690 0.201489 -0.002821 -0.074284 0.103343 0.205118 0.170423 -0.042329 0.191740 -0.086023 0.072419 -0.057417 0.050261 -0.058478 0.155237 -0.103980 0.047104 -0.065161 -0.019764 -0.021669 -0.200066 0.063100 -0.000114 -0.353213 -0.197931 0.132330 0.081835 -0.190910 -0.194280 -0.062368 -0.057090 0.144642 -0.096873 0.015483 -0.126809 0.209203 0.099544 0.291197 0.277907 -0.050954 0.018499 0.102495 0.045917 -0.108736 0.009092 -0.212956 0.021676 -0.020315 0.069656 0.041412 -0.161187 -0.173249 -0.041570 0.025652 -0.042267 0.076718 0.006603 -0.079801 0.085719 0.063669 -0.010532 -0.011674 -0.078288 0.249471 -0.125546 -0.172058 -0.068871 -0.042228 0.186308 -0.151793 -0.058565 0.078959 -0.096859 0.090456 0.204551 0.165524
62 -0.023742 -0.160014 -0.164703 -0.151335 -0.090277 -0.036939 -0.093080 -0.060831 0.097848 -0.007996 -0.007820 0.140132 0.122179 0.061631 -0.097622 0.009985 -0.006725 -0.352379 -0.072501 -0.368379 0.010950 0.147441 0.128721 -0.127767 0.112884 0.211047 -0.010484 -0.041627 -0.217884 -0.123426 -0.098934 0.210424 -0.004553 -0.155983 0.295670 -0.084469 0.023581 -0.259084 -0.102187 0.135045 0.157105 0.088503 -0.022958 -0.311024 0.089183 0.142748 0.069905 0.276816 -0.089857 -0.004280 0.005758 -0.028160 -0.054396 0.113882 -0.135472 -0.012504 0.011160 0.278992 0.116468 0.027957 0.132878 -0.062303 -0.033563 0.024057 0.213461 -0.005694 0.133061 -0.161439 0.088267 -0.059268 -0.102476 0.026147 -0.284589 0.051521 0.112113 -0.375541 -0.160681 0.038461 0.053560 -0.156094 -0.238009 -0.031100 -0.145349 0.206150 -0.103154 0.045582 -0.136221 0.310169 0.048523 0.287169 0.282797 -0.037592 -0.037765 0.132319 -0.010810 -0.104455 0.057715 -0.184035 0.137513 -0.149310 0.057368 0.019901 -0.038926 -0.135663 0.024571 -0.047042 -0.112421 0.069531 -0.073045 -0.073355 0.096256 0.074324 -0.018882 0.005076 -0.065921 0.324038 -0.155341 -0.127783 -0.048601 -0.023094 0.178335 -0.143245 -0.050048 0.010395 0.055636 0.026521 0.110851 0.134679
45 -0.204895 -0.247801 -0.184980 -0.209854 -0.163771 -0.303846 -0.309415 0.218393 0.398149 0.162724 -0.159102 -0.335878 -0.027714 0.182667 -0.226981 0.107124 -0.218184 0.023606 0.465857 -0.251325 0.126668 -0.149958 0.249624 -0.514792 0.363976 -0.003718 -0.422507 -0.088804 -0.007521 -0.343092 -0.027077 -0.215866 0.032311 0.378229 0.254515 -0.030453 0.062796 0.217741 -0.362332 -0.006471 -0.145372 -0.112195 -0.094202 0.202370 0.052852 0.185588 -0.057818 -0.201131 -0.351388 0.284928 0.075562 -0.176725 -0.169786 0.163587 -0.175912 0.120933 0.139963 -0.108862 0.334933 0.004117 -0.070914 -0.302182 -0.061201 -0.147447 0.172492 -0.179782 0.193036 -0.027135 0.070735 0.173837 0.133849 -0.033186 0.045092 -0.061913 -0.013277 -0.150726 -0.100992 -0.038823 0.018002 0.010280 0.164017 0.067111 0.086010 0.065468 -0.190882 -0.048711 -0.158212 0.172742 0.025182 0.110932 -0.001121 -0.498051 0.014672 0.125770 0.062996 -0.090558 0.098601 0.037197 -0.136070 0.233126 0.075550 -0.225114 0.293615 0.168126 0.108927 -0.006263 -0.143491 -0.026943 -0.232990 0.177442 -0.277284 0.093539 -0.002814 -0.267657 0.095604 -0.211174 -0.000842 -0.038485 0.151886 -0.061499 0.005261 -0.209095 -0.113487 -0.332536 -0.175579 -0.135852 -0.080714 0.196485
28 -0.275002 -0.033421 -0.074003 -0.213387 -0.313458 -0.275670 -0.223541 0.173331 0.314552 0.302964 -0.220194 -0.364330 0.028341 0.330091 -0.255756 0.212588 -0.170462 0.131335 0.330528 -0.267956 0.211209 -0.207972 0.404441 -0.511689 0.306605 0.087771 -0.279611 -0.085825 -0.105201 -0.328139 -0.121295 -0.224806 0.055047 0.380750 0.233200 -0.083584 0.032134 0.034708 -0.253061 0.069407 -0.144185 -0.100469 -0.057979 0.069585 -0.009942 0.219746 0.017807 -0.271167 -0.336693 0.126169 -0.011587 -0.200832 -0.130180 0.154061 -0.321834 0.078701 0.084927 -0.078029 0.423202 0.037329 -0.027612 -0.352433 -0.068974 -0.235546 0.113761 -0.220301 0.149738 -0.081834 0.054540 0.322898 0.255587 0.058680 -0.006094 -0.032336 -0.029152 -0.007442 -0.034858 0.019434 -0.083855 0.056598 0.177488 0.086411 0.203859 0.130233 -0.167935 -0.060966 -0.149073 0.197826 0.084177 0.122521 0.009867 -0.470677 0.052109 0.004865 0.084212 -0.126805 0.095536 0.047695 -0.016873 0.114574 0.040019 -0.245937 0.246232 0.158050 0.121685 0.092595 -0.156479 -0.003244 -0.179436 0.238913 -0.268934 0.064822 0.062070 -0.199977 0.104229 -0.158220 0.122979 0.069724 0.143999 -0.074602 0.048524 -0.103160 -0.095490 -0.379884 -0.159055 -0.260376 -0.087993 0.137966
25 0.427683 -0.425793 -0.131991 0.425771 -0.103252 0.437806 -0.821271 0.355880 -0.315789 -0.213083 -0.292400 -0.218114 0.262664 0.787851 0.249010 0.310776 -0.043682 -0.239010 -0.047923 -0.745849 -0.276216 0.184784 0.205333 0.007611 0.465260 -0.437801 -0.318901 0.007221 0.075084 0.021799 -0.097746 0.071848 -0.256324 0.187007 -0.207943 -0.270661 -0.184054 -0.242125 0.206376 0.072109 0.355427 -0.029205 -0.070946 0.152914 -0.100500 0.266669 -0.083239 -0.198815 -0.505797 -0.097375 -0.423885 -0.205002 -0.268707 -0.155775 0.078276 -0.507450 0.189885 0.427516 0.370281 -0.241230 0.225449 -0.016320 -0.366023 -0.533404 0.358241 0.103823 0.145100 0.115812 0.234474 0.170119 -0.082357 0.207418 -0.025319 0.260074 0.162843 0.220623 0.042300 0.014602 -0.154950 -0.377611 -0.298296 -0.289912 0.060534 0.323132 0.231238 0.127021 -0.604494 -0.079855 0.300247 0.221364 0.086604 -0.171055 -0.724041 0.224071 0.015794 0.340151 -0.219834 0.452554 -0.087319 -0.200663 -0.107362 -0.345348 0.022025 -0.474540 0.015423 -0.162763 -0.121939 0.482838 -0.049934 0.097241 0.013974 0.138480 -0.155339 -0.352604 0.125320 -0.134170 0.083693 0.111623 -0.203550 0.109809 -0.002618 -0.064531 0.487188 0.024106 0.211451 -0.118840 -0.186687 0.180161
57 0.338045 -0.442569 -0.179526 0.359109 -0.273391 0.419874 -0.913923 0.343017 -0.262961 -0.158510 -0.291391 -0.220305 0.348452 0.759219 0.255771 0.441777 -0.013819 -0.357028 -0.082713 -0.722652 -0.199513 0.291057 0.200289 0.007133 0.392206 -0.364447 -0.156635 -0.045236 0.015342 -0.052133 -0.143623 -0.220586 -0.210050 0.162198 -0.283942 -0.373137 -0.135086 -0.292530 0.143612 0.036266 0.460545 0.005585 0.107851 0.068691 -0.052926 0.357277 -0.111113 -0.122464 -0.582282 -0.056754 -0.336384 -0.141834 -0.200109 -0.283024 0.070430 -0.336742 0.309611 0.418516 0.444143 -0.112824 0.308913 -0.028965 -0.391262 -0.447627 0.143242 0.093375 -0.056545 -0.005948 0.294193 0.044196 -0.119799 0.203351 -0.052387 0.251062 0.021090 0.229989 -0.099996 -0.117168 -0.129292 -0.401232 -0.233816 -0.225603 -0.027645 0.492182 0.152729 0.116732 -0.649887 -0.227482 0.325737 0.351009 0.166343 -0.179220 -0.627822 0.163654 0.005675 0.214230 -0.351739 0.315331 -0.080306 -0.083066 -0.045873 -0.312923 0.186835 -0.528114 0.099109 -0.145509 -0.076945 0.461285 -0.128146 0.118735 -0.094470 0.073864 -0.191863 -0.281028 0.181561 -0.236206 0.086110 0.140313 -0.226273 0.087134 -0.021915 -0.059104 0.405037 0.113392 0.158222 -0.144947 -0.113019 0.229382
20 -0.008652 -0.078566 -0.224977 0.102820 -0.025146 -0.074366 0.091220 -0.090706 0.085423 0.056848 -0.022416 -0.149351 0.093296 -0.002676 -0.083484 -0.052478 0.043490 -0.195772 0.097741 -0.489111 -0.032297 0.047688 0.322871 -0.043829 -0.302692 0.211328 -0.145690 0.051139 -0.092588 -0.067501 -0.076414 0.358636 0.009778 0.037120 0.208896 -0.116316 -0.228430 -0.088619 0.041392 0.018664 0.307511 0.106877 -0.088123 -0.222807 -0.053401 0.237309 0.035808 0.135850 -0.120861 -0.038058 -0.022907 -0.001149 0.057011 0.110580 -0.289630 -0.149699 -0.082902 0.224558 -0.004601 0.015871 0.105850 -0.082014 0.002923 -0.104258 0.118533 -0.161137 0.119600 -0.095954 -0.006905 -0.094662 -0.257502 -0.006501 -0.289813 0.092738 0.164634 -0.138316 -0.074252 0.135724 -0.000072 -0.022256 -0.228617 0.029144 -0.242264 0.086179 -0.079828 -0.031612 -0.061780 0.227696 -0.046250 0.297950 0.274684 -0.057406 -0.135159 0.084205 -0.097787 -0.133912 0.160495 -0.109131 0.077505 -0.108164 0.079084 0.018676 -0.155598 -0.081788 0.062791 -0.033197 -0.161256 0.079293 -0.133840 -0.052099 0.178700 0.056089 -0.102390 0.063145 -0.001408 0.285393 -0.196312 -0.065488 -0.083857 -0.126713 0.174259 -0.142599 -0.060146 0.006805 0.114540 -0.049751 0.067457 0.085366
54 0.006621 -0.112209 -0.143512 -0.012620 -0.018387 0.029214 0.121455 -0.019556 -0.118788 0.127979 -0.032497 -0.097050 0.153984 0.044434 -0.117396 -0.291040 0.069627 -0.308176 0.134895 -0.487853 0.065120 0.098561 0.252075 -0.128208 -0.096727 0.188300 -0.099813 0.017447 -0.157363 0.048885 -0.123480 0.120311 0.131033 -0.044421 0.300166 -0.236573 -0.169618 -0.074571 -0.040171 0.108649 0.345204 -0.016784 -0.071387 -0.361924 -0.100712 0.168208 0.047897 0.129598 -0.048517 -0.033185 -0.083884 -0.160042 0.121938 0.048435 -0.153288 -0.041643 0.053145 0.221033 0.069447 -0.022141 0.129279 -0.148810 0.103708 -0.066829 0.216758 -0.023164 0.252205 -0.165636 -0.062371 0.015560 -0.012951 0.061189 -0.254700 -0.009834 0.168277 -0.141236 0.052499 -0.004475 -0.100202 0.032430 -0.058395 -0.158224 -0.153153 0.155235 -0.165042 -0.038375 -0.268153 0.233118 -0.012452 0.227161 0.200161 -0.105657 -0.049546 -0.025766 0.080853 -0.113804 0.161403 -0.205455 0.173549 -0.162724 0.099300 -0.092812 -0.230061 -0.146115 -0.153701 0.015932 -0.116582 0.119260 -0.011175 0.022782 0.096936 0.070056 -0.069684 0.121755 -0.114790 0.187446 -0.186886 -0.080889 -0.036553 -0.056472 0.234997 -0.052745 -0.134704 0.051703 0.081423 0.019057 0.020432 0.183212
8 0.037837 -0.043822 -0.158057 0.014516 -0.131098 -0.069083 0.049692 -0.082851 -0.107170 -0.075119 -0.126278 -0.171526 0.075226 0.041887 -0.102610 0.083991 0.212073 -0.230335 0.005334 -0.463956 0.148620 0.024992 0.172745 -0.137286 0.068505 0.175065 -0.010065 -0.076326 -0.079347 -0.121871 -0.136166 0.309679 0.069447 0.056735 0.094313 -0.245724 -0.178206 -0.098548 -0.000554 0.020271 0.414288 -0.042534 -0.022556 -0.247690 0.014558 0.072923 -0.104180 0.176299 0.084116 -0.121625 -0.066925 -0.049049 -0.033560 0.031571 -0.242382 -0.044970 -0.034392 0.144619 -0.032527 -0.077617 0.118102 -0.102613 0.069047 -0.094557 0.266504 -0.155081 0.113590 -0.116127 -0.084943 -0.121868 -0.088752 0.066255 -0.220827 0.085705 0.062985 -0.164111 -0.186294 0.122415 0.035137 -0.040936 -0.204760 -0.117440 -0.072986 0.146671 -0.206854 -0.034771 -0.130404 0.206662 0.030832 0.258599 0.208433 -0.021365 0.000608 0.115430 -0.032759 -0.163384 0.156287 -0.118447 0.151046 -0.118902 0.010895 -0.059107 -0.144976 -0.030479 0.053959 -0.038630 -0.010365 0.198174 -0.036546 -0.123931 0.107671 -0.032319 -0.082600 0.033958 0.001219 0.263918 -0.321731 -0.033686 -0.152795 -0.070244 0.192073 -0.224543 -0.041075 -0.020676 0.184939 0.119674 -0.001886 0.012216
14 0.116012 -0.127777 -0.119472 -0.135039 -0.075690 0.028868 0.070155 0.116886 -0.023552 -0.003367 0.019195 -0.208897 0.050845 -0.051355 -0.233663 -0.224271 0.174278 -0.189265 0.017900 -0.583515 0.039947 0.136945 0.324378 -0.083077 0.058151 0.249828 -0.132233 0.034457 -0.017684 0.103666 -0.225177 0.181135 0.038552 0.223538 0.337692 -0.188037 -0.258493 -0.089224 0.130317 0.067653 0.259794 0.020862 0.052648 -0.362787 -0.155761 -0.010382 0.023868 0.075709 -0.059074 -0.002837 0.030630 -0.085879 -0.005710 0.027800 -0.179878 -0.263813 0.105215 0.033696 0.009197 -0.000937 0.152319 -0.130738 0.188333 -0.112977 0.202421 0.001541 0.080115 -0.159357 -0.282539 -0.104161 -0.123583 0.048329 -0.255337 0.058216 -0.016516 -0.226341 -0.059476 0.060264 0.002414 -0.005168 -0.128448 -0.086801 -0.109477 0.034017 -0.122073 0.023160 -0.249366 0.196839 0.056173 0.352754 0.216654 -0.050572 -0.054437 0.042180 0.007778 -0.154656 0.089174 -0.139767 0.235776 -0.211197 -0.060417 0.002508 -0.131803 0.002255 0.094509 -0.039155 0.050017 0.134689 -0.157513 -0.114611 0.200015 0.038397 -0.145611 0.016747 0.163805 0.286878 -0.295408 -0.010495 -0.141635 -0.169259 0.163023 -0.007999 -0.198124 0.044084 0.141884 0.012707 -0.004486 0.093940
26 0.248531 -0.320490 -0.216687 0.346312 -0.202513 0.424063 -0.946885 0.353118 -0.318980 -0.306877 -0.314533 -0.216721 0.475981 0.851498 0.393688 0.264749 -0.142999 -0.405495 -0.022719 -0.556469 -0.211635 0.126636 0.117938 -0.031983 0.385563 -0.380807 -0.147969 -0.098188 0.109700 0.086129 -0.097582 -0.079560 -0.225475 0.278975 -0.186078 -0.351567 -0.226687 -0.302132 0.363861 0.029047 0.503004 -0.080135 0.110364 0.037675 -0.027250 0.291906 -0.159208 -0.164629 -0.607345 -0.070561 -0.287436 -0.260332 -0.264948 -0.113971 0.128110 -0.384769 0.431566 0.426592 0.623244 -0.115495 0.316726 -0.051528 -0.240808 -0.475495 0.164288 0.187918 -0.095124 -0.006019 0.275688 0.006139 -0.131350 0.246598 -0.013023 0.259668 0.044274 0.133199 0.063175 -0.120349 -0.236751 -0.444388 -0.263933 -0.311069 0.078233 0.349525 0.203135 0.212080 -0.695885 -0.189586 0.259174 0.449470 0.211231 -0.320265 -0.699481 0.063268 0.120839 0.216883 -0.236660 0.316666 -0.138847 -0.058286 -0.110192 -0.290564 0.108466 -0.485362 -0.024786 -0.170110 -0.012933 0.513056 -0.131923 0.105732 -0.109786 0.163382 -0.244548 -0.292545 0.229758 -0.228232 -0.020047 0.176829 -0.166460 -0.031259 -0.025073 -0.037671 0.374052 0.062076 0.217251 -0.080298 -0.195310 0.185499
2 0.131514 -0.216163 -0.281559 -0.335359 0.072490 0.225358 0.269931 0.147833 0.254935 -0.145855 -0.139597 0.069250 -0.238912 0.158184 -0.151095 -0.351761 0.020037 -0.164891 0.245831 -0.785259 0.351250 0.067625 0.045435 0.155358 0.107056 -0.014013 -0.022373 0.054279 -0.306531 -0.363842 -0.280545 0.195865 0.021303 0.129738 0.177497 -0.307366 -0.256012 0.132703 0.025152 0.164782 0.275792 -0.026546 0.048485 -0.190931 0.029329 -0.036977 0.023961 -0.116113 -0.217138 -0.020635 0.201682 0.138256 -0.007196 -0.115000 -0.162036 -0.149066 0.064265 0.283356 0.038698 0.002919 -0.126714 -0.026600 0.430806 0.026178 0.180343 -0.125228 0.048894 0.103069 -0.329450 -0.088537 0.197963 0.000799 -0.061811 -0.000087 0.212279 -0.141961 -0.048433 0.101221 0.010048 -0.135811 -0.236628 -0.112346 0.283575 0.315517 -0.113298 0.147200 -0.249913 0.135224 -0.010327 0.167645 0.110120 -0.034245 -0.137575 -0.008945 -0.083166 -0.020980 -0.421865 -0.147973 0.145031 0.097143 -0.053045 0.140824 -0.119982 -0.200740 0.242971 -0.027427 0.054787 0.200084 0.003958 -0.302261 0.212224 -0.026482 0.172660 -0.011405 0.298348 0.070648 0.145840 -0.088543 0.062900 -0.092073 0.164235 -0.091250 0.236383 -0.011984 0.063691 -0.101496 0.086415 0.199002
43 -0.030767 -0.199152 -0.176140 -0.166437 -0.139743 0.074395 0.102244 -0.095868 -0.032645 0.010499 0.113941 -0.078423 0.067542 0.088362 -0.138950 -0.103557 0.188492 -0.229195 0.019439 -0.596449 0.045399 0.099282 0.331090 -0.119955 0.015313 0.171107 -0.064900 -0.112029 -0.134189 -0.014880 -0.276469 0.197719 0.114881 0.157465 0.283057 -0.214723 0.000432 -0.069834 -0.105989 -0.027449 0.357095 0.025813 0.009786 -0.270790 -0.274845 0.108596 -0.133774 0.042822 0.038722 -0.069278 0.054650 -0.001741 0.038983 0.095972 -0.096697 -0.128800 0.008292 0.147550 -0.045192 -0.016449 0.089953 -0.048509 0.089724 -0.039483 0.199142 -0.109022 0.096175 -0.063868 -0.053715 -0.151744 -0.069179 0.136508 -0.307743 0.009754 0.153053 -0.199903 -0.106796 0.096084 0.134351 0.035571 -0.161065 -0.052770 -0.078306 0.154489 -0.140603 0.005602 -0.151580 0.178594 -0.021513 0.228882 0.153605 -0.046528 -0.072775 0.138634 0.065401 -0.127057 0.111291 -0.098545 0.081116 -0.067622 0.072225 -0.079771 -0.100330 -0.030415 -0.010958 0.063234 0.017210 0.082874 -0.073217 -0.011173 0.044321 0.019670 -0.221495 0.060526 -0.041031 0.182428 -0.166736 -0.002526 -0.133700 -0.043231 0.137998 -0.099797 -0.192499 -0.051037 0.027526 0.023554 0.005841 0.104642
44 0.585289 -0.498682 -0.189229 0.363372 0.058554 0.550686 -0.956557 0.273683 -0.045841 -0.135471 -0.437609 -0.117817 0.264450 0.802760 0.435769 0.369837 -0.096317 -0.378139 0.089821 -0.726845 -0.182078 0.228001 0.315039 -0.107044 0.530121 -0.431803 -0.297011 0.018413 0.000064 0.049603 0.033118 -0.046921 -0.234817 0.201695 -0.228176 -0.254574 -0.163013 -0.283206 0.106376 0.006700 0.364570 -0.100590 0.069898 0.064480 -0.096657 0.426878 -0.201944 -0.106210 -0.447876 -0.096804 -0.323126 -0.308146 -0.157957 -0.129719 0.086636 -0.509761 0.228698 0.472611 0.308551 -0.080866 0.153385 -0.006627 -0.269093 -0.467013 0.327824 0.139226 0.038086 0.107865 0.125382 0.184070 -0.144899 0.200967 -0.093415 0.126082 0.175016 0.344995 0.050426 0.112983 -0.121185 -0.306868 -0.228770 -0.401325 -0.142332 0.346667 0.210665 0.063870 -0.605473 -0.177466 0.293858 0.102991 0.178013 -0.215190 -0.731376 0.058576 0.103400 0.236913 -0.076229 0.333744 -0.157048 -0.141968 -0.055509 -0.334117 0.009113 -0.490241 -0.021108 -0.141601 -0.227303 0.345391 -0.128454 0.086158 0.056149 0.121073 -0.065060 -0.295611 0.150626 -0.124677 0.198820 0.121998 -0.120755 0.011573 -0.022521 -0.069858 0.354950 0.151694 0.062127 -0.145919 -0.130003 0.171126
60 0.056088 -0.122489 -0.166091 -0.124987 -0.056070 0.010070 0.068502 0.093447 -0.080412 -0.085473 -0.053098 -0.290988 -0.019793 -0.098325 -0.150997 -0.169468 0.101317 -0.251427 -0.017220 -0.594264 0.039096 0.150792 0.224319 -0.013546 -0.047457 0.095815 0.101311 -0.014302 -0.240842 -0.016230 -0.188777 0.077278 -0.002366 0.170817 0.199819 -0.123693 -0.142513 -0.040941 0.043991 0.033250 0.462678 -0.225993 -0.047123 -0.401023 -0.113826 0.174029 0.091809 0.015853 -0.042554 -0.104333 -0.004640 -0.186125 0.081972 -0.001469 -0.243031 -0.212200 0.053168 0.068299 -0.065432 -0.019949 0.112114 -0.070959 0.088070 -0.179625 0.241780 -0.203084 0.122016 -0.122757 -0.305276 -0.173322 -0.176141 0.027823 -0.198563 -0.073896 -0.046565 -0.259182 -0.076266 0.125008 0.119192 0.127528 -0.015684 -0.128393 -0.129672 0.098582 -0.273654 -0.044122 -0.314041 0.103012 0.091695 0.268076 0.261126 -0.102739 -0.086102 0.159462 -0.051668 -0.175945 0.144365 -0.090087 0.208752 -0.140897 0.141261 -0.100842 -0.071076 -0.087900 0.084150 0.058241 -0.033244 0.079927 -0.097497 -0.185103 0.176315 0.081282 -0.110587 0.203146 0.087521 0.166168 -0.245269 -0.006246 -0.167313 -0.121556 0.090763 -0.042075 -0.085875 -0.000775 0.088267 0.028189 0.016084 0.134639
39 0.177519 -0.228861 -0.287925 -0.155438 0.098865 0.405409 0.151762 0.128446 0.348834 -0.236995 -0.215088 0.181421 -0.149331 0.097181 -0.012311 -0.316197 0.033527 -0.179177 0.339260 -0.776933 0.177781 0.097631 0.050737 0.191560 -0.066312 -0.015410 -0.001256 0.064077 -0.295959 -0.504843 -0.282229 0.127419 0.108082 0.099405 0.225548 -0.214076 -0.246096 0.035575 -0.128825 0.116738 0.256093 0.014162 0.058359 -0.328731 -0.059517 0.001723 0.059551 -0.083850 -0.350426 -0.089726 0.316783 0.229452 -0.044611 0.010691 -0.151530 -0.168137 0.047896 0.369182 -0.068726 0.014078 -0.065306 0.032881 0.418367 -0.096350 0.252761 -0.137488 0.050110 0.057976 -0.179402 -0.069772 0.240027 0.033315 -0.147322 -0.047546 0.258885 -0.218655 -0.152947 0.094531 -0.060213 -0.040977 -0.020629 -0.056154 0.272336 0.357933 -0.093828 0.027429 -0.306838 0.139980 -0.034946 0.064948 0.170503 -0.130958 -0.159721 0.099418 0.047617 -0.071040 -0.399708 -0.059119 0.093017 0.018204 -0.128694 -0.038028 -0.135589 -0.098327 0.300484 0.135138 0.079715 0.215076 -0.023582 -0.221565 0.318605 -0.022742 0.115601 0.076903 0.278977 0.125555 0.200222 -0.095079 -0.025849 -0.030169 0.111519 0.026716 0.121565 0.081093 0.034862 -0.164081 -0.047167 0.105110
3 0.217386 -0.192640 -0.226596 -0.137048 -0.005525 0.290946 0.219379 0.067222 0.335581 -0.177725 -0.184703 0.144683 -0.249461 -0.000509 -0.130342 -0.262803 0.122760 -0.078455 0.399273 -0.761519 0.526464 0.106037 0.063990 0.190127 0.039565 0.099343 0.014793 0.067068 -0.141657 -0.623697 -0.331755 0.208944 0.103666 -0.003609 0.291609 -0.273674 -0.247991 0.063000 0.023075 0.165427 0.322513 -0.057566 -0.026212 -0.204175 -0.041060 0.123068 0.070815 -0.189623 -0.407108 -0.059700 0.197151 0.222051 0.023083 -0.167078 -0.111740 -0.175602 0.117410 0.393731 -0.110047 -0.025539 -0.005481 0.074310 0.308726 0.036513 0.169119 -0.227962 0.076129 -0.031168 -0.339557 -0.275234 0.231397 0.053923 -0.089630 -0.070207 0.050532 -0.195702 -0.100877 0.077893 0.041372 -0.139250 -0.068214 0.000837 0.225264 0.318934 -0.127573 0.126683 -0.192558 0.089040 0.057524 0.171349 0.167634 -0.080051 -0.159258 0.131315 0.047510 -0.080722 -0.464741 -0.065990 -0.016751 0.180149 -0.103109 0.126702 -0.084097 -0.116272 0.139992 0.059742 0.153879 0.321990 -0.062653 -0.285981 0.227822 -0.032327 0.159042 0.120363 0.291737 0.009513 0.141775 -0.113653 -0.044656 -0.133417 0.048493 -0.055706 0.128141 0.111154 0.080308 -0.112195 -0.078803 0.187738
38 0.144144 -0.329000 -0.238640 -0.172492 0.059095 0.262500 0.206408 0.047568 0.320852 -0.193438 -0.188902 0.189976 -0.143904 0.106239 0.105360 -0.475389 0.103395 -0.054046 0.395115 -0.764351 0.490708 0.118256 0.202575 0.296677 -0.038144 0.086023 -0.043474 0.039587 -0.299011 -0.563789 -0.280512 0.230448 0.139907 0.099994 0.085132 -0.240904 -0.083452 0.068262 -0.130714 0.200320 0.306184 0.031346 0.046011 -0.200489 -0.080599 0.095391 0.056358 -0.107264 -0.331739 -0.111073 0.341785 0.110436 -0.037119 -0.055881 -0.231004 -0.121187 0.067818 0.401111 0.021161 -0.008510 -0.064463 0.001479 0.374987 0.007692 0.268946 -0.147904 0.092627 0.096416 -0.316375 -0.122269 0.232484 -0.012100 -0.196554 -0.011401 0.130866 -0.171502 -0.018506 0.067288 0.031377 -0.118329 -0.094237 -0.097236 0.267466 0.361164 -0.030355 0.086515 -0.281631 0.206684 0.009336 0.007638 0.150958 -0.192912 -0.155733 0.008943 0.006030 -0.012349 -0.454553 -0.100060 0.004155 0.121847 -0.158213 0.089219 -0.122983 -0.087188 0.165450 0.040922 0.097814 0.292365 0.070561 -0.332232 0.233320 -0.032926 0.178689 -0.066548 0.339705 0.173950 0.113021 -0.162167 0.022034 -0.122962 0.067849 -0.160372 0.184171 0.023224 0.114842 -0.077149 -0.078447 0.116043
9 -0.068115 -0.114757 -0.036516 0.030832 0.079036 0.060304 -0.038291 0.088843 -0.025922 0.048449 0.031299 -0.181062 0.091304 -0.040013 -0.194919 -0.226757 0.117163 -0.199884 0.121512 -0.477767 0.037573 0.075184 0.305175 -0.084619 -0.166191 0.311513 -0.057546 0.178613 -0.188684 0.088967 -0.213207 0.103187 0.064982 0.088515 0.385408 -0.126072 -0.246615 -0.061885 -0.049020 0.014341 0.430438 -0.026337 -0.099926 -0.275102 -0.157232 0.061692 0.044599 0.201711 0.027758 -0.049068 0.040541 -0.115742 0.118296 0.080870 -0.141433 -0.130934 -0.032012 0.217362 -0.223801 -0.105428 0.149707 -0.204985 -0.048091 0.015452 0.274117 -0.205276 0.259299 -0.130354 -0.137445 -0.014577 -0.122557 0.044157 -0.284624 -0.091086 0.118018 -0.087368 -0.055319 0.011425 -0.063781 0.004227 -0.163808 0.025033 -0.322701 0.246307 -0.098493 -0.082193 -0.135716 0.229382 0.002789 0.278951 0.333317 -0.191403 -0.168332 -0.035208 0.080333 -0.113748 0.095945 -0.127901 0.049759 -0.111740 0.075203 -0.053276 -0.142344 -0.153613 -0.027730 -0.087694 -0.054659 0.041215 -0.150095 -0.029304 0.089357 0.102460 -0.165721 0.058703 -0.060348 0.222679 -0.240764 -0.111605 -0.061549 -0.087252 0.151144 -0.203438 -0.068629 0.068692 0.160883 -0.018100 0.105102 0.093102
68 -0.531500 -0.188199 -0.244283 0.084150 -0.066701 -0.017616 0.079225 0.295550 0.181827 -0.083337 0.327312 0.129115 0.084405 -0.073135 -0.244348 0.212381 -0.310270 -0.090530 -0.229595 -0.354080 0.135296 -0.276124 -0.086035 -0.022263 -0.136487 -0.162471 -0.230853 0.054104 0.278294 -0.054493 0.235067 0.168334 -0.037876 0.021966 -0.349439 0.087180 0.178689 -0.123636 0.016500 0.383497 0.182003 -0.194095 0.059912 -0.150774 0.078907 -0.077614 -0.313082 -0.110541 -0.349586 -0.041287 -0.296997 0.118228 0.070511 0.117072 -0.056644 0.056434 0.050240 0.227682 0.088245 -0.094711 0.007041 -0.040226 0.035176 -0.217617 0.225626 -0.140066 0.017305 0.081287 -0.087035 -0.226894 0.070487 -0.005620 0.259909 -0.026168 0.320835 -0.028046 -0.189965 -0.105503 -0.226419 0.075786 0.071582 0.016487 0.201129 -0.177616 0.155410 0.098040 0.217318 0.019958 -0.099804 0.033793 0.022317 -0.006836 -0.024718 -0.081494 -0.155891 0.062199 0.027433 -0.000649 0.004228 0.231897 -0.259378 -0.007988 -0.112721 0.233831 -0.074857 -0.174524 0.033839 -0.035423 0.085681 0.183968 -0.364766 0.136845 -0.023037 -0.286500 -0.078514 -0.065603 -0.045241 0.089272 0.056316 0.025743 -0.037088 -0.175375 0.101084 0.180348 0.103402 0.069821 -0.083817 -0.069625
27 -0.278373 -0.020495 -0.143714 -0.042761 -0.068355 0.108680 0.136750 0.167725 0.215827 -0.094516 0.285713 -0.024414 0.137898 -0.050334 -0.278846 -0.100463 -0.243403 -0.076872 -0.349934 -0.161012 0.144020 -0.282985 -0.013179 0.013011 0.067558 -0.153841 -0.277878 0.057562 0.314007 -0.179420 0.089301 0.146653 -0.065725 0.002367 -0.351030 0.139390 0.274313 -0.232324 0.132046 0.397322 -0.111003 -0.320851 -0.200125 -0.048155 0.048799 -0.079732 -0.298486 -0.254061 -0.331309 -0.010944 -0.177983 -0.087247 -0.002742 -0.040010 -0.036854 -0.058152 0.072772 0.149662 0.016003 -0.117062 0.153642 -0.034431 -0.022674 -0.243785 0.155497 -0.239151 -0.041251 0.254427 -0.100144 -0.105455 0.118627 -0.013992 0.253742 -0.134496 0.203366 -0.157776 -0.135427 -0.184714 -0.286162 0.181954 0.166347 0.040630 0.149001 -0.035299 0.076549 -0.037687 0.003718 0.142071 -0.021511 0.074466 0.231856 -0.016632 0.020975 -0.199103 0.051708 -0.027808 -0.056258 0.074290 0.144138 0.045076 -0.357309 -0.032523 -0.199135 0.162546 0.070826 -0.136150 -0.022721 -0.010819 -0.047600 0.155891 -0.152747 0.015316 -0.145287 -0.254225 -0.206192 -0.209109 -0.067333 -0.068286 0.118104 -0.114707 0.077501 -0.073445 -0.050156 0.176463 0.011591 0.115436 0.064243 -0.128553
36 -0.698910 -0.466791 -0.593326 -0.008546 0.308491 0.344775 0.116064 0.546237 -0.029890 -0.223067 0.274584 0.276584 0.004530 -0.167252 -0.217673 0.249129 -0.472288 -0.209077 -0.255533 -0.355582 0.257248 -0.429047 -0.018628 -0.184093 0.292753 -0.062246 -0.169973 -0.016680 0.034114 -0.245325 0.394003 0.161679 -0.127315 0.098929 -0.179467 0.515467 0.342088 -0.157892 -0.200248 0.330975 0.144650 -0.172630 -0.130622 -0.297695 -0.067961 0.001056 -0.060780 -0.300132 -0.427838 -0.112422 -0.162746 0.302289 -0.045090 0.195978 0.061523 0.112973 -0.035400 0.189898 -0.353003 -0.112043 0.052691 -0.128748 -0.020206 -0.008172 0.240710 -0.262410 0.078602 -0.024574 -0.225635 -0.076417 0.196504 0.085960 0.242067 0.053219 0.141395 0.008268 -0.127594 -0.107202 -0.238661 0.110137 0.113956 0.231129 0.158516 -0.064189 -0.044032 0.204257 0.240205 0.203778 0.078257 0.079703 0.155839 0.099168 0.266059 0.076794 0.007239 0.126769 -0.303169 -0.005518 0.135232 0.014098 -0.290745 0.262531 -0.252925 0.150857 0.051251 -0.302956 -0.078870 -0.234093 -0.154906 0.186229 -0.187954 -0.115726 -0.046265 -0.509720 -0.213033 0.025848 -0.055066 -0.259508 -0.083194 -0.035110 -0.011502 0.042320 0.106251 0.375707 -0.056323 0.137984 0.150637 -0.257007
41 -0.018200 -0.166976 -0.085391 -0.107891 0.049698 -0.019423 0.054173 0.024933 -0.054775 0.049081 0.027238 -0.159519 -0.087951 0.152529 -0.176031 -0.216339 0.080960 -0.220729 -0.011598 -0.449842 -0.009251 -0.081575 0.140111 -0.105153 -0.243658 0.198784 -0.230186 -0.028073 -0.005907 0.152261 -0.196591 0.215605 0.003343 0.104572 0.229689 -0.187290 -0.032435 -0.095479 0.020516 -0.076892 0.277956 -0.062402 -0.182483 -0.400713 -0.159753 0.220754 0.010414 0.092861 -0.016995 -0.119522 0.203890 0.007657 0.074323 0.184558 -0.162507 0.002858 -0.059971 0.139914 -0.008825 0.002023 0.085577 -0.092609 -0.010981 -0.167175 0.278791 -0.149927 0.266084 0.004671 0.097813 -0.030085 -0.089834 0.034596 -0.229366 0.063081 0.105073 -0.177902 -0.153454 0.053125 -0.064293 0.007853 -0.141951 -0.186974 -0.118613 0.085822 -0.174916 -0.071524 -0.202094 0.289505 0.037283 0.300086 0.294809 -0.127518 -0.131325 0.114808 0.060277 -0.122001 0.143427 0.006707 0.232065 -0.243236 0.078557 -0.153642 -0.170155 -0.131360 -0.014009 0.008432 -0.019295 0.101614 -0.050830 -0.027651 0.187236 0.221561 -0.191616 0.093963 -0.003216 0.215892 -0.253350 0.060547 -0.025451 -0.008555 0.282668 -0.170772 -0.160211 -0.122955 0.074092 0.120489 0.045762 0.176570
30 -0.555069 -0.276335 -0.560850 0.114757 0.031962 0.228567 0.239075 0.651635 -0.244116 -0.045604 0.052838 0.243742 -0.154441 -0.175499 -0.302815 0.218999 -0.431062 -0.190286 -0.454385 -0.353945 0.396701 -0.408799 0.065294 -0.108991 0.324132 -0.091653 -0.183924 0.060634 0.174812 -0.149915 0.363819 0.239995 -0.058617 0.092358 -0.172511 0.261653 0.494513 -0.003088 -0.352391 0.246316 0.198370 -0.268495 -0.137279 -0.267263 -0.001552 -0.021502 -0.054710 -0.303845 -0.526265 -0.166218 -0.027809 0.288283 -0.047353 0.071096 -0.139872 0.093454 0.102080 0.272443 -0.259830 -0.120709 0.010593 -0.172395 0.096955 0.033458 0.190306 -0.178177 0.054456 -0.028211 -0.144620 -0.029199 0.244738 0.040562 0.291402 0.029296 0.209936 0.093424 -0.115239 -0.065898 -0.325943 0.052270 0.161836 0.179998 0.242694 -0.126980 -0.047527 0.306572 0.309041 0.168911 0.061981 0.200123 0.069458 0.193144 0.269187 -0.042053 -0.060463 0.085041 -0.246233 -0.066794 0.180540 0.094442 -0.249847 0.279957 -0.257320 0.169869 -0.009820 -0.294782 -0.094543 -0.113417 -0.151979 0.199222 -0.162957 -0.145169 0.056393 -0.603112 -0.093713 0.017398 -0.009857 -0.202723 -0.080536 -0.082380 0.108641 -0.027159 0.101119 0.446999 -0.114762 0.098517 0.195013 -0.291295
24 -0.414748 -0.251243 -0.557233 -0.116564 0.285511 0.156683 0.056885 0.449011 -0.114788 -0.261053 0.293337 0.085224 -0.061497 -0.054319 -0.082415 0.167590 -0.553996 -0.168035 -0.331553 -0.362535 0.373134 -0.557611 -0.112868 -0.078561 0.047109 -0.033017 -0.117187 -0.050073 0.188370 -0.176563 0.400226 0.065636 -0.117454 0.076281 -0.315348 0.415634 0.339335 -0.060962 -0.304363 0.444427 0.295137 -0.410727 -0.083773 -0.217405 -0.094986 -0.009721 -0.047320 -0.390522 -0.412458 -0.123346 -0.095502 0.189549 -0.234839 0.142998 -0.041717 0.102789 -0.084055 0.216920 -0.326000 -0.141130 0.082907 -0.108411 -0.025012 0.056627 0.279260 -0.201652 0.099665 -0.124781 -0.140381 0.072653 0.337103 0.133620 0.242544 -0.009297 0.122476 0.097590 -0.165023 -0.165852 -0.393369 0.002262 0.130087 0.155407 0.339581 -0.111605 -0.070622 0.296311 0.268775 0.151558 0.021453 0.314047 0.260580 0.094853 0.225957 -0.022820 0.091387 0.082443 -0.316650 0.058236 0.062512 0.104185 -0.305860 0.251346 -0.290404 0.243096 0.099632 -0.229577 0.105440 -0.228604 -0.241163 0.172251 -0.260337 -0.140582 -0.029907 -0.584172 -0.083684 0.159103 -0.182379 -0.265266 -0.101260 -0.181625 0.010514 0.030545 0.083102 0.281668 0.012730 0.233065 0.163523 -0.405074
59 0.193894 -0.312880 -0.280792 -0.154939 0.030067 0.307927 0.071070 0.012492 0.283375 -0.096243 -0.165627 0.166020 -0.322093 -0.023103 -0.045985 -0.386913 -0.014416 -0.208331 0.259243 -0.693953 0.160511 0.146615 0.112457 0.094812 0.016877 0.013506 0.035483 0.101450 -0.200359 -0.359376 -0.266873 0.085757 0.103306 0.177072 0.244995 -0.293630 -0.154942 0.032376 -0.135277 0.075448 0.512122 -0.034773 0.234058 -0.364064 -0.159539 0.118119 0.110326 0.000025 -0.283749 0.012399 0.294109 0.224934 -0.000344 0.051095 -0.146708 -0.212379 0.105127 0.296367 0.010727 0.111324 0.016173 -0.079417 0.419518 -0.152748 0.174278 -0.208402 0.037531 0.143040 -0.148535 -0.132831 0.105156 0.034743 -0.004823 -0.093927 -0.006117 -0.277290 -0.085629 0.137152 -0.043648 -0.092808 -0.132414 0.030647 0.287613 0.097282 -0.236757 0.089770 -0.241199 0.089237 0.002575 0.360184 0.104637 -0.164317 -0.109042 0.079988 0.060663 -0.093487 -0.333855 -0.057091 0.196708 0.192228 -0.044489 0.180129 -0.094364 -0.218024 0.108207 0.030050 0.142605 0.154589 -0.323567 -0.236742 0.356670 -0.101368 0.000661 0.072453 0.224785 0.057322 0.034080 -0.095256 -0.019022 -0.126315 -0.005697 -0.034400 0.159469 0.029480 0.116020 -0.061321 0.120274 0.046678
35 -0.570366 -0.132049 -0.426576 -0.071379 0.171753 0.180980 0.106359 0.459714 -0.041486 -0.161478 0.369653 0.303469 -0.035826 -0.095473 -0.157418 0.072831 -0.453031 -0.275593 -0.235435 -0.330541 0.362986 -0.445477 -0.085876 -0.367820 0.236588 -0.072428 -0.215246 -0.173077 0.193846 -0.228917 0.290818 0.094626 -0.079263 0.051373 -0.256713 0.326111 0.411709 -0.026825 -0.050318 0.400399 0.187651 -0.356434 -0.130881 -0.158543 -0.104480 0.241693 -0.131620 -0.355819 -0.458568 -0.128674 -0.064948 0.154947 -0.146832 0.013261 -0.028560 0.178788 0.046910 0.232044 -0.188436 -0.194360 0.057866 -0.103776 0.004618 -0.026020 0.216186 -0.114010 0.055455 0.016581 -0.133780 -0.115447 0.211605 0.078687 0.166633 -0.043797 0.298061 0.018197 -0.137072 -0.176480 -0.202566 0.125256 0.091316 0.216321 0.304997 -0.095884 -0.003070 0.231470 0.303688 0.236035 0.066555 0.199729 0.138153 0.173000 0.308308 0.001219 -0.006219 0.020165 -0.454917 0.030016 0.134040 0.074170 -0.328382 0.236885 -0.262187 0.215407 0.213940 -0.208038 -0.131806 -0.211759 -0.329139 0.172298 -0.243586 -0.126305 -0.088721 -0.470112 -0.245621 -0.039878 -0.129965 -0.250152 -0.128904 -0.067298 -0.041896 -0.049429 0.097284 0.328701 -0.005134 0.152650 0.215048 -0.270468
4 0.206331 -0.239565 -0.287656 -0.302592 0.053425 0.127707 -0.017507 0.122024 0.245691 -0.129933 -0.133623 0.211421 -0.119200 0.146509 0.035263 -0.310495 -0.010194 -0.092258 0.155860 -0.617935 0.338450 0.019275 0.095188 -0.006142 0.009114 0.236557 0.081967 -0.127324 -0.329863 -0.353996 -0.346394 0.122757 0.036027 0.146416 0.135115 -0.223006 -0.136678 -0.051247 0.053183 0.259173 0.323373 0.025302 0.018583 -0.321784 -0.153882 0.054885 0.204036 -0.135845 -0.351066 -0.105622 0.220071 0.179470 -0.041067 -0.020852 -0.224351 -0.250848 0.136273 0.435222 0.175109 0.125469 -0.048076 0.043915 0.398286 -0.010127 0.155746 -0.210716 0.068374 -0.007850 -0.386089 -0.101573 0.268504 0.075867 -0.203521 -0.014068 0.029636 -0.209594 -0.052353 0.069173 -0.115583 -0.062186 -0.093371 0.091898 0.130385 0.266636 -0.173104 0.120885 -0.258594 0.110739 0.018745 0.254784 0.197989 -0.105867 -0.128267 0.053926 0.058428 -0.078765 -0.285350 -0.036318 0.097424 -0.132498 0.044197 0.161980 -0.076945 -0.131616 0.062938 0.135290 0.056193 0.109502 -0.268845 -0.270500 0.246262 0.060402 0.132464 0.144639 0.283237 0.212845 -0.055134 -0.122314 -0.013323 -0.245054 -0.053523 -0.097766 0.063149 0.005828 0.119776 -0.110995 0.013169 0.107904
51 0.132395 -0.139302 -0.279109 -0.019888 0.467452 0.145212 -0.318747 0.232830 -0.145703 0.155709 -0.156090 -0.226339 -0.257001 0.025082 -0.051465 -0.240088 -0.405915 0.120444 0.501981 -0.183240 0.709619 0.327086 0.112629 -0.043534 0.592685 -0.112598 -0.080816 -0.157759 -0.619227 -0.634149 -0.361274 0.205864 0.005589 0.165259 0.397517 -0.280098 -0.205426 -0.006269 -0.778720 0.009433 -0.313456 0.237570 -0.233598 0.273205 0.200303 0.540578 0.043834 -0.158130 -0.544056 -0.030805 0.243491 0.371543 -0.031372 0.419209 -0.308759 -0.286548 -0.216009 0.299494 0.240231 0.138911 0.213296 -0.373150 0.426305 -0.270976 0.131722 -0.103670 -0.171073 0.159948 -0.050579 -0.023741 -0.099455 -0.067323 0.114850 -0.280719 0.394022 -0.284650 0.167339 0.028465 -0.056926 -0.521083 -0.132420 -0.128005 0.213088 0.343767 -0.076747 0.150747 -0.352270 -0.161887 -0.128993 0.076238 0.311907 -0.226200 -0.054350 -0.180810 0.021392 0.028646 -0.476225 -0.088572 -0.073409 0.301647 -0.053019 -0.092322 0.050864 0.199651 0.130134 0.441157 0.564523 0.028152 -0.073343 0.175452 -0.068226 0.078367 0.000997 -0.432414 0.388303 -0.334943 0.217718 0.039949 0.152500 0.120678 0.615547 -0.196681 -0.046182 -0.019355 -0.208076 -0.278287 -0.375126 0.281232
33 0.059000 -0.080269 -0.233781 -0.162586 0.422833 0.009129 -0.257921 0.192655 -0.003883 0.209597 -0.164585 -0.342138 -0.244066 0.032153 -0.143658 -0.152822 -0.432884 0.134616 0.633463 -0.152600 0.630437 0.329179 0.043989 -0.047438 0.740350 -0.240308 -0.061571 -0.171249 -0.695135 -0.474183 -0.225202 0.043712 0.045759 0.266202 0.420834 -0.160219 -0.448301 0.037136 -0.690669 0.083394 -0.285699 0.252046 -0.093157 0.201248 0.107392 0.524102 0.189892 -0.086012 -0.484770 -0.038878 0.237772 0.411404 -0.076862 0.475522 -0.280799 -0.244181 -0.189544 0.282854 0.235949 0.142618 0.190359 -0.438869 0.409113 -0.348847 0.260002 0.058441 -0.099335 0.168250 -0.136542 -0.016637 -0.011447 -0.024652 0.036390 -0.225388 0.526140 -0.218115 0.064951 0.032628 -0.103367 -0.525839 -0.154083 -0.213857 0.328925 0.404578 -0.045252 0.166280 -0.477427 -0.118339 -0.143452 0.069037 0.338399 -0.197046 -0.124273 -0.196216 -0.050542 0.075725 -0.538012 -0.048832 -0.007979 0.259949 -0.126753 -0.212974 -0.025250 0.200354 0.270365 0.375835 0.436888 -0.080762 -0.169063 0.124838 -0.164457 0.034008 0.003595 -0.451026 0.334931 -0.209658 0.263650 0.024995 0.251379 0.098685 0.535361 -0.057780 0.146930 -0.113277 -0.140633 -0.413339 -0.245439 0.328864
17 0.001398 -0.082042 -0.428011 0.063477 0.249579 0.790886 -0.690565 0.042652 -0.225472 -0.426588 -0.343805 0.013378 0.237033 0.670487 0.250889 0.069954 -0.078954 0.265443 0.024984 -0.403858 -0.115085 0.106710 0.065939 -0.256936 0.428153 -0.378811 -0.597121 -0.314208 -0.335155 0.159587 -0.082852 -0.182630 -0.491155 -0.086669 -0.174620 -0.222743 0.128501 -0.482929 0.152821 -0.154343 0.250917 -0.070859 -0.147847 -0.809277 0.234482 0.193264 -0.378756 0.242967 -0.503968 0.261273 -0.644137 -0.468030 0.071451 -0.168140 -0.129433 -0.332094 0.142143 0.152239 0.623966 -0.186170 0.437285 -0.492012 -0.642558 -0.330840 0.117331 -0.121275 -0.118424 -0.487680 0.452965 0.416527 -0.216535 0.094752 -0.408991 0.375559 0.128080 0.251545 -0.313998 -0.161252 0.023010 -0.633878 -0.176208 -0.216504 -0.084670 0.330076 0.150314 0.360386 -0.215212 -0.239812 0.345765 0.576694 0.236426 0.270134 -0.466796 0.125337 -0.071075 0.350229 -0.311534 -0.026350 -0.389266 -0.188513 0.034154 -0.268071 0.038713 -0.027410 -0.085901 0.100874 0.229116 0.378781 -0.218976 0.467005 0.118179 0.387896 -0.192773 -0.431336 -0.106734 -0.270277 0.203014 0.114683 -0.279814 -0.088591 0.240877 -0.327784 0.502444 0.096683 -0.012225 -0.414554 -0.178000 0.077111
52 0.017465 -0.088718 -0.610439 0.337411 0.169896 0.741525 -0.648623 -0.036478 -0.200760 -0.398734 -0.442703 0.062883 0.349643 0.719552 0.302109 0.024185 -0.132606 0.014843 -0.011458 -0.172453 0.006894 0.050984 0.071466 -0.230455 0.526291 -0.373073 -0.572912 -0.446750 -0.373029 0.026982 -0.116372 0.127421 -0.290835 0.017921 -0.209190 -0.316920 0.024840 -0.383188 0.198415 -0.098262 0.330508 -0.079594 -0.195624 -0.892603 0.270905 0.265976 -0.443418 0.232754 -0.544371 0.196485 -0.562939 -0.522820 0.084183 -0.026503 -0.106836 -0.233582 0.093702 0.194325 0.648463 -0.069947 0.285436 -0.436185 -0.509117 -0.278277 0.015898 -0.182968 -0.194685 -0.421665 0.461051 0.342087 -0.224117 0.100223 -0.323387 0.316057 0.163039 0.147796 -0.205450 -0.077986 0.006063 -0.600337 -0.306719 -0.318190 -0.069525 0.278067 0.107094 0.327111 -0.139459 -0.307759 0.286718 0.590737 0.175134 0.123136 -0.393685 0.050326 -0.000441 0.300074 -0.303044 -0.100635 -0.315226 -0.123801 0.148506 -0.274257 0.131513 -0.081781 -0.102453 0.009701 0.176249 0.331492 -0.251113 0.271426 0.051983 0.453628 -0.093967 -0.420168 -0.119958 -0.325748 0.193134 0.037864 -0.174647 -0.011927 0.166554 -0.405642 0.586907 0.106579 -0.063007 -0.404956 -0.018400 0.115191
48 0.198485 -0.146548 -0.133526 -0.116696 -0.079725 0.054836 -0.373459 0.141561 -0.011711 0.102988 0.114469 0.234882 -0.058587 0.210893 -0.076313 -0.184049 -0.205361 -0.257939 0.101107 -0.444953 0.132620 0.219892 0.116923 -0.351544 0.069949 -0.001321 0.034353 0.107090 -0.275104 -0.271093 -0.427489 0.053963 -0.174998 -0.082915 -0.025804 -0.245099 0.078108 0.044836 -0.064349 0.256312 0.203625 -0.009382 0.187826 -0.287251 0.292645 -0.123352 -0.159543 0.095245 -0.058981 -0.167618 0.302558 -0.102022 -0.069537 0.023445 -0.167303 -0.117007 0.064072 0.189139 0.161736 -0.132127 0.114969 -0.281984 0.481758 -0.020958 0.129080 -0.052663 0.143754 -0.057776 -0.161659 -0.127791 0.155183 0.117755 -0.276256 0.073102 0.014724 -0.289128 -0.149774 0.033518 -0.044075 -0.166593 -0.140154 0.241467 0.120841 0.117196 -0.181604 0.110700 -0.160705 0.138034 0.216345 0.074242 0.162007 -0.292431 -0.148188 0.057044 -0.155790 -0.075400 -0.143118 0.078799 0.136616 -0.060093 0.025155 0.136045 0.079502 -0.172065 0.022692 0.109143 0.102701 0.049088 -0.111096 -0.139452 0.082459 0.032622 -0.033081 0.109692 0.258486 0.080364 -0.041035 0.015179 -0.127852 -0.154128 -0.180410 -0.199928 0.051362 0.093720 -0.062867 -0.074367 0.242604 -0.185454
32 0.357658 0.029841 -0.307640 -0.119257 -0.037466 0.310346 -0.326692 0.147786 -0.070924 -0.145538 -0.010064 0.276439 -0.268577 0.188633 -0.060689 -0.224286 -0.250969 -0.266855 0.008847 -0.458625 0.148275 0.259200 0.222654 -0.357379 0.082120 0.122357 -0.068764 0.167754 -0.250238 -0.126717 -0.349360 0.074182 -0.161476 -0.109269 0.139008 -0.237994 0.151951 0.011476 -0.227224 0.101734 0.129919 -0.001383 0.023681 -0.268705 0.215449 -0.193936 -0.151016 -0.013173 -0.205277 -0.111339 0.114028 -0.116679 -0.023614 0.053809 -0.101297 -0.257774 0.077780 0.217035 0.236346 -0.022076 0.048424 -0.200464 0.314809 -0.085800 0.294959 -0.143533 0.150840 -0.169212 -0.102316 0.014832 0.182246 0.146561 -0.274925 0.062857 -0.025225 -0.402868 -0.050688 0.028958 -0.029670 -0.140244 -0.133573 0.247154 0.191692 0.046750 -0.109188 0.137968 -0.001865 0.213438 0.134360 0.176044 0.127498 -0.197188 -0.106156 0.026029 0.026150 -0.149396 -0.042986 -0.041950 0.113440 -0.087621 -0.062090 0.073777 0.256430 -0.060930 -0.010252 0.045694 0.180297 0.176238 0.014638 -0.136439 0.200151 0.052574 0.049095 0.124213 -0.032419 0.009318 -0.055377 0.053013 -0.109805 -0.050405 -0.089613 -0.291318 0.014715 0.116353 0.037702 -0.074239 0.113197 -0.064785
42 0.146484 0.106178 0.075428 -0.040452 0.672928 -0.152854 -0.598305 0.274685 -0.276094 0.236795 0.077165 -0.447405 -0.221773 0.138862 -0.156911 -0.017196 -0.287186 0.423538 0.657557 -0.192433 0.811542 0.587940 0.128589 0.218919 0.663310 -0.383187 -0.091879 -0.086494 -1.001045 -0.386705 -0.365868 -0.016878 -0.187582 0.174295 0.083362 -0.126339 -0.309757 -0.152209 -0.883500 -0.015847 0.082402 0.315084 0.243679 0.158392 0.241074 0.697294 0.156783 -0.291689 -0.523305 0.096421 0.297054 0.434878 0.128311 0.408169 -0.376962 -0.142610 -0.297963 0.324572 0.267545 0.392110 0.351885 -0.254427 0.286785 -0.482742 0.249754 -0.060770 -0.208284 0.002830 -0.134965 -0.143208 -0.047363 -0.038320 0.262210 -0.303185 0.681370 -0.168950 0.018797 -0.010206 -0.258663 -0.383555 0.021488 -0.168133 0.201697 0.361936 0.365300 0.024712 -0.243429 -0.258204 -0.168802 0.143144 0.361151 -0.112221 -0.220539 -0.297221 -0.076434 0.090641 -0.581830 -0.148512 0.077755 0.038691 -0.338300 -0.169094 0.149314 0.150787 0.162834 0.374423 0.273908 -0.023153 0.159832 0.292638 -0.179002 0.112042 0.072952 -0.409718 0.285154 -0.130681 0.232813 0.143914 0.370513 0.207901 0.603518 -0.132925 0.069364 0.154396 -0.070390 -0.471501 -0.287824 0.305622
34 0.042923 0.171875 0.085808 0.038553 0.605243 -0.208637 -0.643063 0.259006 -0.189517 0.358159 0.154902 -0.302705 -0.245353 0.223425 -0.170979 -0.074268 -0.351568 0.390914 0.703680 -0.195567 0.783459 0.530706 0.078269 0.196932 0.767680 -0.328591 -0.022329 -0.044845 -0.868799 -0.473695 -0.424234 0.065424 -0.228268 0.257437 0.155108 -0.094498 -0.258749 -0.190647 -0.917464 -0.059890 -0.164384 0.203082 0.287800 0.258993 0.227011 0.557660 0.160704 -0.157469 -0.534735 0.121616 0.219046 0.381409 0.032986 0.427334 -0.368808 -0.248463 -0.342634 0.384614 0.257584 0.282180 0.334643 -0.296116 0.244878 -0.459070 0.290828 -0.099264 -0.160775 0.084781 -0.140320 -0.254183 -0.018276 -0.074452 0.160274 -0.307527 0.681181 -0.220488 0.016654 0.092754 -0.258437 -0.468609 -0.045230 -0.136977 0.274870 0.385197 0.353554 0.007184 -0.286656 -0.247022 -0.194432 0.218183 0.315464 -0.087892 -0.282050 -0.304727 -0.070303 0.060270 -0.620410 -0.031210 0.006241 0.156143 -0.428449 -0.148511 0.126573 0.153539 0.090955 0.414227 0.315026 -0.056219 -0.002004 0.248152 -0.159307 -0.051508 -0.007255 -0.360641 0.305349 -0.111781 0.251745 0.122107 0.366214 0.223944 0.558626 -0.219192 0.160192 0.072739 0.028773 -0.538254 -0.228608 0.174913
12 0.040942 -0.430961 -0.048550 -0.237495 -0.005371 -0.021462 -0.297699 -0.237045 -0.065505 0.234952 0.126705 0.065161 -0.112553 -0.497801 -0.084858 0.005073 0.074590 -0.137138 -0.306041 -0.575840 0.062334 0.321123 0.070884 0.217335 -0.062240 0.376412 -0.126862 -0.077611 -0.259423 -0.066183 -0.165677 0.048171 0.253122 0.093222 0.285983 0.118995 -0.225951 -0.069808 0.128603 0.131351 0.496972 -0.067078 -0.099234 -0.243283 0.046054 0.211917 0.046853 -0.052236 -0.175196 -0.003523 -0.010471 -0.227679 -0.098613 0.032708 -0.108418 -0.074652 -0.256846 0.206660 -0.010111 0.090149 0.217014 -0.003343 -0.151349 -0.050499 0.034349 -0.006972 0.164458 -0.281086 0.226555 -0.052292 -0.420296 -0.142702 -0.313025 -0.134224 0.366395 -0.254420 -0.089148 -0.268863 -0.005916 -0.153559 -0.083053 -0.111840 -0.190305 0.267430 0.135201 -0.062238 -0.052287 0.100471 -0.097953 0.219908 0.350825 0.154821 -0.060438 0.006891 0.086880 -0.235439 -0.001932 -0.304032 0.181756 0.038523 0.084581 -0.090449 0.020993 -0.281052 0.147834 0.071364 -0.050923 0.139186 0.211781 0.095218 0.115032 -0.063347 -0.074175 0.094680 -0.025235 0.457341 -0.185491 0.015252 -0.131615 0.054261 0.525766 -0.025452 -0.382608 0.092687 -0.082426 0.094808 0.179901 0.184188
67 0.111661 -0.101520 -0.246982 -0.282996 -0.066151 -0.173282 -0.159223 -0.080464 -0.203831 0.049718 0.049925 -0.159656 0.111378 -0.261493 -0.207892 -0.031330 0.043694 -0.131216 -0.142896 -0.548590 0.075676 0.236690 0.153565 0.054750 -0.287455 0.385331 -0.132834 -0.060651 -0.357108 -0.033762 0.069427 0.023395 0.038169 -0.049656 0.111578 0.066989 0.064539 -0.286387 -0.012715 0.052571 0.341273 0.101647 0.014376 -0.038761 -0.028046 0.283017 0.071961 -0.075865 -0.163981 0.165239 -0.017403 -0.146670 0.022832 -0.066132 -0.151661 -0.132434 -0.176004 0.265379 0.148591 0.118170 0.165060 0.108183 -0.160717 -0.061707 0.054828 0.117696 0.052337 -0.335608 0.109174 -0.039734 -0.315631 -0.080777 -0.498419 -0.169770 0.358605 -0.265401 -0.180333 -0.080013 -0.042363 -0.144553 0.011463 -0.207407 -0.159820 0.270431 0.199429 -0.100277 -0.185486 0.082715 -0.083072 0.199083 0.351956 0.155717 -0.061083 0.002040 0.041402 -0.188061 0.145938 -0.274012 0.157654 -0.105749 -0.091810 -0.023661 -0.141679 -0.137360 0.115030 0.118452 -0.184383 0.231945 0.316658 0.089624 -0.043747 -0.140736 0.100597 0.161368 -0.124576 0.307080 -0.195372 -0.087971 0.008229 0.016078 0.434391 0.029922 -0.346907 0.147737 -0.095031 0.032828 -0.091826 0.349773
1 -0.457398 -0.565077 -0.090549 -0.291725 0.545972 0.034124 0.537975 0.634525 0.200097 -0.147499 0.042484 -0.205994 -0.509701 0.045265 -0.244936 -0.372897 -0.090819 -0.181379 0.202339 -0.834926 0.547617 0.238037 -0.109190 0.123134 0.139107 0.122293 0.170742 -0.180503 -0.565569 -0.904247 -0.623901 -0.137514 -0.215088 0.317742 0.241213 -0.058927 0.209805 0.417663 -0.236106 0.228938 0.248097 -0.051431 0.027445 -0.195719 0.057986 0.247212 -0.442860 -0.439557 -0.605781 -0.038773 0.059721 -0.148729 -0.286919 -0.124899 -0.268652 -0.060695 -0.263999 -0.031293 0.036611 0.098519 0.107558 -0.207372 0.202426 -0.140560 0.019321 0.062269 -0.098648 -0.106413 -0.569863 0.129397 -0.323903 -0.333609 -0.178439 -0.087708 0.420029 -0.327480 0.354788 -0.487958 -0.045000 -0.527599 -0.319426 0.067399 0.008477 0.274845 0.054990 0.179739 -0.007939 0.025003 -0.068951 0.051945 0.297347 -0.000733 0.419068 -0.491081 -0.042639 -0.253929 -0.883061 -0.780565 0.170709 0.521275 -0.461397 0.005367 0.061542 -0.007058 0.548641 0.169525 0.573854 -0.097374 -0.227751 0.048551 0.257896 -0.261291 0.241684 -0.252433 0.120421 0.182901 0.450804 -0.234870 -0.282032 0.668880 0.442559 0.013002 -0.095413 0.443718 0.028949 -0.214741 -0.234920 0.546815
37 -0.312837 -0.289437 -0.452101 -0.284115 0.672203 0.301277 0.179767 0.635721 -0.033047 -0.249266 0.214997 -0.069762 -0.489194 -0.134022 -0.311326 -0.450654 -0.393636 -0.224432 0.120489 -0.790644 0.490044 0.245771 -0.141469 -0.141607 0.353100 0.089788 -0.078648 -0.095913 -0.742224 -0.853310 -0.449470 0.231957 0.088131 0.336782 0.241378 -0.014638 0.080721 0.459654 -0.203048 0.124020 0.143580 -0.207774 0.155848 -0.215387 -0.192474 0.078482 -0.257640 -0.413220 -0.493584 -0.004588 0.149796 -0.020764 -0.296603 0.019353 -0.432710 0.077412 -0.352220 -0.221430 0.044287 0.033626 0.060313 -0.438548 0.291422 -0.207309 0.135528 -0.161064 -0.079176 0.032912 -0.450317 0.522948 -0.243510 -0.295305 -0.007482 -0.324904 0.396784 -0.267723 0.266567 -0.459872 -0.252104 -0.720432 -0.332501 0.099642 0.050240 0.441037 -0.123319 0.087007 -0.197922 -0.062379 -0.081593 0.184099 0.223790 -0.306334 0.555768 -0.412355 0.241446 -0.149982 -0.912175 -0.724840 0.337864 0.454017 -0.257270 -0.002560 0.018797 -0.178325 0.539948 0.304457 0.597505 -0.153861 -0.599446 0.116232 0.404950 -0.317090 0.220596 -0.311316 0.152166 0.155407 0.328747 -0.337735 -0.259256 0.820363 0.433510 -0.048544 -0.024024 0.143013 0.151833 -0.216751 -0.407138 0.514044
