151 10
15 -1.551388 -2.087100 -0.748945 0.334719 0.478462 1.341448 -0.115846 -0.267514 0.768066 -1.474458
10 -2.060986 -0.986381 0.133257 -0.093558 -0.363753 1.949175 0.811718 1.647848 0.136713 -0.796979
11 -1.543250 -1.939419 -0.760822 0.323959 0.462155 1.321290 -0.108446 -0.162368 0.716505 -1.528437
75 0.968116 -1.410929 -0.121584 -2.103626 1.186430 1.004262 1.733839 -0.569360 -0.460860 -0.513925
18 -1.052995 -0.888034 -0.791720 0.551320 0.709363 2.197386 -0.277070 1.138030 1.055285 -0.252871
136 1.268398 -1.453429 -0.067787 -2.017682 0.876532 1.060790 1.697236 -0.455819 -0.329915 -0.918832
13 -0.559296 -1.653721 -0.921572 0.191233 0.420188 1.407209 1.136028 0.766419 1.145805 1.534278
8 -0.556200 -1.734716 -1.088781 0.400364 0.327310 1.679090 1.280080 1.019425 1.203263 1.458706
1 -0.254918 -2.461702 1.371518 -0.354721 -0.575649 1.591669 -0.579259 0.738545 0.637953 0.272114
6 -0.493729 -1.796174 -0.942226 0.267216 0.450896 1.408627 1.061996 0.800560 1.060609 1.479012
19 -0.209915 -2.471331 1.288347 -0.307652 -0.451274 1.515720 -0.493871 0.818211 0.647018 0.510716
27 -0.238648 -2.648306 1.349093 -0.574803 -0.432982 1.756830 -0.648923 0.810134 0.504482 0.460118
17 -0.421889 -1.243652 0.040720 -0.678891 -0.092495 0.003465 -0.001818 1.402175 3.324083 -0.358008
105 0.309112 -0.606454 1.423719 1.255030 1.797670 0.791011 2.080379 -1.182858 2.061774 -0.439895
41 0.743211 -0.659631 2.666836 0.309805 2.583975 0.185672 0.321633 0.906319 -0.197122 -0.879436
3 0.621926 -0.517276 2.637207 0.333065 2.672992 0.185601 0.366821 1.040360 -0.229638 -0.868439
124 0.761190 -0.524384 2.719285 0.178880 2.518237 0.256046 0.338577 0.970632 -0.074452 -0.920556
21 0.637037 -0.673740 2.749131 0.363278 2.593635 0.156658 0.266908 0.970357 -0.227277 -0.920257
95 0.732367 -0.809897 2.665243 0.366353 2.679150 0.262192 0.186286 0.940627 -0.263228 -0.933001
23 0.760206 -0.791732 2.715070 0.370714 2.527264 0.222084 0.317369 1.051692 -0.287823 -1.096873
98 0.534879 -0.808138 2.875521 0.405951 2.551280 0.259755 0.240554 0.831961 -0.361502 -0.815351
121 -0.006300 -0.503090 1.668728 1.182407 1.715832 0.719666 1.875807 -1.182493 1.932430 -0.617391
76 -1.645379 0.358314 1.079044 -1.167940 2.404572 0.146118 0.294817 1.163377 1.041757 1.182444
69 -1.347677 0.551718 1.112372 -1.140874 2.398255 0.220347 0.212750 1.031430 1.000030 0.939171
56 -1.234052 0.473142 1.047301 -1.110426 2.428488 0.363775 0.253158 1.031661 1.149607 1.178826
28 -1.029991 -0.864648 -0.910242 0.636589 0.925449 2.323808 -0.175777 1.206604 0.924986 -0.250067
79 -1.466447 0.420616 1.041042 -1.123511 2.328496 0.291099 0.126678 1.095121 0.952825 1.085881
51 -1.313185 0.472925 1.022635 -1.129429 2.526295 0.237774 0.111092 1.087892 0.904000 0.945169
52 -1.989350 -1.056494 -0.039786 0.093204 -0.311498 1.815180 0.783384 1.701737 0.126215 -0.932576
135 -1.895173 -0.898952 -0.077207 0.107177 -0.282870 2.011392 0.843951 1.897600 0.080343 -0.683631
73 -1.258543 0.644032 0.891384 -1.061260 2.416022 0.287433 0.268393 1.224181 1.097954 1.220106
46 -1.777263 -1.071242 0.012699 -0.070394 -0.417182 1.776257 0.632594 1.778617 0.086124 -0.723531
42 -1.204246 0.481315 0.980964 -1.086069 2.530993 0.174377 0.097951 1.227158 0.905197 1.110082
64 -0.763424 -0.419464 2.634033 1.005316 0.230973 0.916751 2.675075 -0.501779 1.821314 -0.395771
59 -0.745256 -0.223411 2.454285 0.844451 0.258241 1.073222 2.687184 -0.669526 1.787551 -0.317001
2 -0.002969 -0.084698 1.976315 0.439893 2.742581 -0.068377 0.128752 0.614369 0.262998 -0.642290
67 -0.388291 -1.776991 -0.960934 0.136142 0.338363 1.460927 1.108435 0.701199 1.214485 1.523051
127 -0.599122 -1.562676 0.404830 -1.602112 0.799783 -1.182972 2.869499 0.387381 0.011257 0.194683
138 -0.611741 -1.727231 0.435694 -1.440076 0.746876 -1.336161 3.082976 0.458275 0.127073 0.212822
100 -0.607971 -1.726570 -0.950605 0.405079 0.442169 1.574153 1.242067 0.806150 1.258728 1.536128
130 -0.374643 -1.504593 0.652400 -1.606908 0.853602 -1.322576 2.848282 0.396665 -0.022974 0.170480
110 0.990293 -1.772742 -1.070131 -1.997063 1.028228 -0.075009 2.115857 1.111127 -0.242704 -0.666375
137 -0.574554 -1.709614 -0.732203 0.206893 0.233236 1.465721 1.200543 0.847326 1.080530 1.591433
107 -0.038733 -0.539157 -0.206889 1.042581 1.089742 0.419263 3.330654 0.263562 1.129087 -1.419018
116 -0.022102 -0.502645 0.871162 -0.606056 0.542460 -0.513622 2.582339 0.189705 1.788110 -3.410848
24 0.659706 -1.664242 -0.749576 -2.057279 1.124399 -0.208175 2.234668 1.271280 -0.493285 -0.548877
71 -0.026731 -0.738405 0.655219 -0.622721 0.770587 -0.836777 2.664173 0.375733 1.858304 -3.447328
132 -1.518752 -2.022184 -0.724386 0.210000 0.383357 1.172649 0.015568 -0.356544 0.511040 -1.367656
34 0.035682 -0.521858 -0.094878 1.153796 1.124263 0.422591 3.284090 0.248711 1.299516 -1.229489
78 -1.702168 -2.047886 -0.699434 0.351475 0.417180 1.296886 -0.075691 -0.202956 0.629466 -1.449617
30 -0.087709 -0.323215 1.159958 1.043254 1.314468 0.731706 2.075688 -1.138705 1.554100 -0.536790
126 -1.469574 -2.015112 -0.656924 0.274091 0.310880 1.236859 -0.068897 -0.127170 0.670591 -1.190937
49 -0.974854 -0.780543 1.127325 0.314142 3.279586 0.327254 -0.686605 -0.783747 0.712881 -0.772088
149 -1.488984 -1.929360 -0.849356 0.304406 0.447421 1.316524 0.010561 -0.080912 0.729741 -1.335205
68 -1.094432 -0.757935 1.110116 0.059894 3.472889 0.229842 -0.796634 -0.691155 0.547041 -0.678811
106 -1.687541 -1.875697 -0.733883 0.184241 0.375886 1.251379 0.171292 -0.101755 0.526603 -1.545373
60 -1.573432 -1.803251 -0.815290 0.170328 0.401229 1.336233 0.001258 -0.120753 0.586573 -1.340478
151 -1.551392 -1.939388 -0.777348 0.312730 0.404439 1.277559 0.042597 -0.360430 0.679351 -1.278177
97 0.033111 -0.509545 0.965337 0.801831 1.403623 0.406863 2.324806 -1.222708 1.639892 -0.686543
144 -0.356793 -2.627188 1.384113 -0.564919 -0.468785 1.564348 -0.565912 0.819291 0.506677 0.431476
143 1.164083 -1.518132 0.033192 -1.639941 1.099756 0.536009 1.428822 -0.277705 -0.423635 -0.616189
81 -0.478617 -2.605362 1.200664 -0.569848 -0.496694 1.505650 -0.388335 0.787963 0.395359 0.533144
84 -0.390064 -2.560447 1.531411 -0.661874 -0.488180 1.488962 -0.468177 0.861607 0.594478 0.511399
129 -0.488292 -2.409679 1.360954 -0.610653 -0.479468 1.510445 -0.490001 0.750214 0.495500 0.463282
89 1.381520 -1.424801 0.270616 -1.409013 0.802109 0.594514 1.686838 -0.502499 -0.000617 -0.686391
114 -0.532079 -2.583154 1.534101 -0.588754 -0.488450 1.514439 -0.566465 0.629344 0.255916 0.457596
119 -1.223003 -0.962364 -0.823998 0.603307 0.824732 2.115298 -0.284535 1.093882 0.910567 -0.309840
39 -1.076721 -0.792753 -0.657123 0.675329 0.965036 2.264005 -0.413014 1.065180 1.070790 -0.383666
22 0.828596 -1.591653 -0.425380 -1.529503 1.130050 0.037476 1.836146 -0.035107 -0.435529 -0.410126
72 -0.550408 -0.157523 1.805984 0.397099 2.426241 -0.040422 0.104620 0.570132 0.126787 -0.019943
58 0.533670 -1.739467 -0.591258 -1.589356 1.855720 0.979776 1.438324 -0.690550 -0.835329 -0.298060
53 -1.139732 -0.792904 -0.790400 0.655532 0.791222 2.423952 -0.218823 1.166720 1.031348 -0.259256
25 0.665065 -1.177166 0.340289 -2.302940 1.163159 0.694690 1.693977 -0.792165 -0.276410 -0.631804
148 -1.394064 0.420049 1.088008 -1.156519 2.302782 0.271980 0.107178 0.944051 0.989524 0.995182
123 -1.173158 0.494457 1.106565 -1.071859 2.331309 0.246950 0.091396 1.018304 1.080750 1.062999
92 0.161780 -0.363234 1.454018 1.018424 1.495678 0.869744 1.868052 -1.320266 1.651291 -0.534841
150 -1.258340 0.527314 1.017035 -1.243653 2.374778 0.314195 0.065346 0.906417 1.155216 1.084344
47 0.047783 -0.415233 1.259061 0.991995 1.315287 0.700359 2.016496 -0.999949 1.429008 -0.594725
35 0.229133 -1.875004 -0.108464 -1.763619 1.651059 0.708072 1.044327 -0.300893 -1.298118 -1.013858
9 -0.906635 -1.200178 -0.019348 -0.024979 -0.020202 0.973283 0.074556 1.275356 0.581778 -0.143516
146 1.016101 -1.338657 0.814762 -0.118110 2.722083 -0.446719 -1.181308 2.069735 0.846558 -0.899537
112 0.982422 -1.478983 -0.355516 -1.206382 1.406255 -0.182975 1.883641 -0.126669 -0.282019 -0.119656
61 -0.365280 -1.344727 0.437620 -1.607059 0.831310 -1.157675 2.698179 0.490334 0.029331 0.171841
125 0.611173 -1.651866 -0.652505 -1.645862 1.802455 0.575742 1.546399 -0.284631 -0.719246 0.027552
94 0.073532 -1.655109 -0.462793 -1.897015 1.746348 0.624373 1.232965 -0.251900 -1.237617 -0.703669
26 0.090454 -2.142603 -0.160465 -1.618150 1.407300 0.488051 1.055735 -0.370304 -1.337937 -0.943502
14 0.214887 -0.598875 0.667644 -0.188513 2.321953 -0.384819 -0.660378 0.509791 0.598380 -0.085160
4 0.731787 -1.383468 0.668371 -0.363693 2.420191 -0.660975 -1.106609 2.210809 0.795444 -1.236013
128 1.035782 -1.487867 -0.287102 -1.567648 1.302187 -0.165253 1.961917 -0.245755 0.017878 -0.370379
20 -0.873740 -1.174102 -0.024210 -0.188091 -0.027155 1.088807 -0.077278 1.725331 0.296713 -0.734412
44 0.482940 -0.672244 -0.682598 -3.508563 1.367927 0.302647 0.802572 1.030175 0.775563 -0.406261
118 -0.586047 -1.132733 -0.057607 -0.630265 -0.386039 -0.161059 0.089204 1.117048 2.785194 -0.610342
103 0.196289 -0.535618 2.637175 -1.714849 1.932341 -0.187855 -0.738009 1.018839 1.105886 -0.742304
117 -0.422347 -1.356871 0.067115 -0.598609 -0.410567 -0.129731 0.290994 1.324955 2.960839 -0.429948
7 -0.888665 -1.146340 0.077213 0.076457 -0.141670 0.946303 0.046618 1.210328 0.660373 -0.269634
63 0.977183 -0.513735 -0.725540 -3.342973 1.966458 0.335235 0.706526 1.069452 0.964019 -0.342284
74 -0.405833 -1.180792 -0.228125 -0.557174 -0.242208 0.096848 0.263864 1.304549 2.854211 -0.276124
65 0.402555 -1.270902 0.199181 -2.414048 1.251934 0.774692 1.493004 -0.556449 -0.445072 -0.365119
102 0.589149 -0.593630 2.392232 -1.669848 2.410474 -0.182743 -0.979521 1.272714 1.334653 -0.779783
115 -0.236871 -1.265444 0.018919 -0.645372 -0.297712 -0.009905 -0.027797 1.322214 2.646325 -0.180198
122 -0.543993 -1.171486 -0.158617 -0.616122 -0.183357 -0.130222 0.260930 1.341801 2.927812 -0.481683
93 -0.413323 -1.084418 -0.283316 -0.470033 -0.264283 0.289550 0.145943 1.000886 2.581949 -0.356443
55 -0.862919 -1.047510 -0.125110 -0.088894 -0.259494 1.278432 0.236973 1.839382 0.576575 -0.416286
134 -0.126911 -0.156331 1.794914 0.427537 2.462043 -0.074850 -0.154071 0.440788 0.474708 -0.239449
29 -0.479452 -1.149340 -0.189540 -0.611847 -0.386567 0.103959 0.076057 1.196492 2.619959 -0.327190
57 -0.030539 -0.395893 0.844907 -0.062423 2.408914 -0.010049 -0.715916 0.426868 0.509496 0.134936
62 -0.614127 -1.141736 -0.215761 -0.126986 0.014985 1.226272 0.051968 1.980789 0.668243 -0.709845
111 0.561123 -1.477845 -0.816141 -1.588256 1.849419 1.012766 1.124507 -0.383435 -0.731567 -0.113545
87 1.072484 -0.626975 0.496708 -0.194795 0.641030 0.176873 1.851505 -0.531408 0.671481 -1.159769
12 -0.470313 -0.012336 0.150850 0.321029 1.997225 -0.267791 0.325969 -0.322785 0.558281 -0.301684
5 -0.645389 -1.340535 0.114641 -0.137187 -0.169088 0.674864 -0.081005 0.711827 0.673207 -0.174633
90 -0.934888 -1.045302 -0.052511 -0.244140 -0.207586 0.955640 0.075970 1.393350 0.552070 -0.376727
80 -0.327426 -0.044822 0.333882 0.069874 2.314248 0.175821 -0.144508 -0.178449 0.491832 -0.234597
120 0.610055 -1.116346 -0.446944 -1.505449 1.389787 0.348502 1.264832 -0.160052 -0.399255 -0.344578
131 0.334606 -1.160512 -0.161426 -1.392336 0.913237 0.079641 1.024467 0.047901 -0.463946 -0.453915
45 -0.018186 -0.343714 -0.020478 0.595140 0.820006 0.071980 1.999376 -0.187427 1.102105 -1.011470
86 -0.642233 -0.960680 -0.257505 -0.112029 -0.106815 0.950767 0.163936 1.112543 0.534730 -0.282254
101 0.329984 -1.226267 -0.210729 -1.242212 1.137745 0.446289 0.847740 -0.293979 -0.593935 -0.515169
37 -0.759601 -1.083406 -0.166168 -0.000824 -0.130827 0.774035 0.133913 0.486440 0.693248 -0.238998
16 -0.279985 -0.287956 0.686583 -0.208839 1.724380 -0.008119 -0.522998 0.454858 0.345784 0.017380
133 -0.745573 -0.801278 -0.263773 -0.053818 0.004357 0.850112 0.108558 0.482902 0.676389 -0.091704
32 -0.749714 -0.805747 -0.047192 -0.083433 -0.121482 0.791679 0.103786 0.745490 0.711723 -0.162097
147 -0.446992 -0.044756 0.580617 -0.118333 1.759394 0.160873 -0.267009 -0.081252 0.465936 -0.034449
33 -0.663010 -0.991092 0.069101 -0.258663 -0.168807 0.725612 0.020917 0.712861 0.656972 -0.131216
88 -0.445564 -1.137008 0.067245 -0.315764 -0.072067 0.986010 -0.157914 0.895418 0.495927 -0.024035
54 -1.021419 -0.934578 -0.028878 0.012494 -0.176249 0.849506 0.253628 0.662767 0.512732 -0.245521
85 -0.889107 -0.816217 -0.153369 0.014458 -0.129298 0.721426 0.256018 0.778883 0.535609 -0.188449
91 -0.672637 -0.752919 -0.302139 0.109446 0.094275 0.946776 0.089052 0.554857 0.625671 -0.267711
83 -0.722388 -0.909306 -0.216224 0.042465 0.061104 0.597386 0.106717 0.512382 0.667510 0.047633
142 -0.812135 -0.771635 -0.167503 0.057274 -0.062039 1.037746 0.119535 0.645604 0.511970 -0.125735
77 -0.702476 -0.824025 -0.253354 0.157052 0.148904 0.832874 -0.009347 0.533891 0.688377 -0.158501
145 -0.665185 -1.063655 -0.367252 -0.121121 0.080045 0.753116 -0.034904 0.315927 0.644879 -0.160557
139 -0.698198 -0.857031 -0.263995 -0.144498 0.040832 0.759833 -0.081888 0.508492 0.643129 -0.336021
141 -0.824150 -0.705662 -0.305408 -0.013398 0.094044 0.963644 0.215614 0.636895 0.659350 -0.035205
70 -0.634849 -0.821609 -0.027303 -0.003958 -0.041659 0.768225 -0.005408 0.549630 0.667230 0.049770
99 -0.649350 -0.980069 -0.043307 -0.095159 -0.123798 0.792019 0.075780 0.618031 0.582121 -0.087882
43 -0.748394 -0.750414 -0.244892 0.018367 0.077759 0.907908 0.097781 0.540291 0.568602 -0.188002
113 -0.360734 -1.099989 0.075382 -0.282188 -0.103246 0.841943 -0.230655 0.836070 0.527131 0.003016
66 -0.700168 -0.771428 -0.323898 -0.032031 0.136351 0.708149 -0.053914 0.446065 0.657592 -0.155438
38 -0.624767 -0.757261 -0.093281 -0.046378 -0.050189 0.774432 0.108917 0.648192 0.614025 0.060313
31 -0.884024 -0.753455 -0.201541 0.066964 0.071419 0.828493 -0.004868 0.473364 0.477151 -0.327068
108 0.102621 -0.278772 0.227195 0.075773 0.439156 -0.318578 1.352512 -0.092987 0.836478 -1.106409
109 -0.460652 0.020481 0.462749 -0.174376 1.681504 0.041195 -0.179438 0.012417 0.464590 -0.015629
36 -0.624924 -0.774544 -0.065012 0.103731 0.024940 0.675757 0.091550 0.573480 0.466248 -0.345610
96 -0.407721 -1.106140 0.261745 -0.304172 -0.169230 0.729401 -0.269287 0.582792 0.457661 -0.140822
40 -0.632695 -0.966103 -0.018112 -0.367000 0.100693 0.761204 -0.052701 0.603331 0.597296 -0.351095
50 0.526780 -0.765319 0.007246 -0.657739 0.580607 -0.024176 1.041720 -0.079277 -0.001363 -0.194544
82 -0.431668 -0.855868 0.287652 -0.267353 -0.162198 0.565771 -0.023427 0.585118 0.369014 0.075664
140 -0.674546 -0.629702 -0.023821 -0.172908 -0.073499 0.545615 0.162413 0.425962 0.580938 -0.051959
104 -0.188851 -0.222780 0.499304 -0.039189 1.115366 0.093296 -0.315311 0.070557 0.347669 -0.201233
48 0.014859 -0.128638 0.665479 -0.267782 0.767865 0.084183 -0.042229 0.374912 0.265349 -0.073528
