22 10
3 0.040902 -0.382815 0.253890 -0.874948 -0.343009 -0.048360 -0.011206 0.194594 0.867944 0.580724
9 0.058568 -0.408850 0.178947 -0.894854 -0.352976 -0.041430 -0.038232 0.193808 0.974072 0.593183
5 0.116735 -0.306600 0.145024 -0.871940 -0.240851 0.010668 -0.061851 -0.010049 0.909235 0.614103
7 0.176536 -0.238771 0.136787 -0.905032 -0.308379 0.084052 -0.101001 0.000201 0.917763 0.666059
4 0.096153 -0.261230 0.195807 -0.858791 -0.269815 -0.023690 -0.121212 0.106557 0.901326 0.618650
8 0.080703 -0.314241 0.179993 -0.655149 -0.302389 -0.001752 -0.010945 0.116842 0.699531 0.512007
20 -0.575692 -1.401588 0.377535 0.288334 -0.756926 -1.236589 0.541320 1.791355 0.355177 -0.601217
11 -0.619482 -1.379025 0.383388 0.356422 -0.687209 -1.202881 0.476289 1.797782 0.361987 -0.666742
22 0.069743 -0.380130 0.179678 -0.703977 -0.298842 -0.115215 -0.044664 0.173999 0.724876 0.465308
14 0.036726 -0.390251 0.249578 -0.805109 -0.286210 -0.044630 -0.064821 0.175478 0.785520 0.550059
18 0.107237 -0.264509 0.136133 -0.809890 -0.256792 0.010016 -0.110635 0.072175 0.839646 0.632263
21 -0.026936 -0.369376 0.202210 -0.745887 -0.389856 -0.132756 -0.008100 0.247346 0.788777 0.499150
15 0.034947 -0.385031 0.242496 -0.866727 -0.307497 0.003805 -0.021135 0.105990 0.853621 0.558968
13 0.113977 -0.307720 0.195638 -0.762578 -0.314275 -0.037552 -0.019929 0.109421 0.776577 0.553730
10 -0.036389 -0.627763 0.214580 -0.582319 -0.436668 -0.201627 0.176095 0.597581 0.778731 0.232635
17 0.098379 -0.247014 0.170764 -0.720166 -0.288370 0.001579 -0.039077 0.054639 0.778910 0.585363
19 0.075477 -0.328276 0.201182 -0.626031 -0.270804 -0.046513 -0.030608 0.143832 0.658989 0.400496
2 0.067047 -0.533922 0.210969 -0.755477 -0.428767 -0.117471 0.101536 0.470385 0.779039 0.398579
1 -0.093189 -0.628883 0.279464 -0.674360 -0.377715 -0.273899 0.073823 0.538876 0.778026 0.311239
12 -0.083547 -0.605638 0.225306 -0.640281 -0.415440 -0.216767 0.067124 0.450610 0.673682 0.317883
6 -0.305986 -0.887513 0.274835 0.044072 -0.470970 -0.675294 0.309229 1.091458 0.374794 -0.236782
16 -0.163582 -0.581034 0.223001 -0.255149 -0.376149 -0.404586 0.174731 0.627735 0.476259 0.049099
