49 10
12 -0.498310 -1.689371 -1.221537 -0.633015 0.390514 0.066578 -0.497816 -0.475796 0.589992 0.326019
8 -2.130454 -0.619815 1.423262 -0.287865 -0.822140 0.019719 0.207158 0.855106 0.283584 1.187261
21 -2.130877 -0.455506 1.511037 -0.383496 -0.781927 0.035351 0.283904 0.826546 0.223368 1.139796
15 -0.105657 -1.116342 -0.085453 -0.303935 0.562421 0.426111 0.925752 0.143546 0.171285 -0.269641
9 -0.261664 -0.876987 0.014586 -0.253145 0.401311 0.351443 0.846985 0.279098 0.200914 -0.123139
10 -0.142253 -0.993398 0.120428 -0.149585 0.432123 0.485741 1.152964 0.301972 0.253351 -0.253776
2 -0.032600 -1.078542 0.100238 -0.129930 0.441990 0.457122 1.144381 0.270562 0.264027 -0.324182
5 -0.004976 -1.141435 -0.056869 -0.090940 0.484512 0.433407 1.104920 0.141349 0.403361 -0.347626
6 -0.110064 -1.113964 0.047188 -0.172067 0.504190 0.456114 1.102692 0.313311 0.226842 -0.251563
7 -0.204357 -0.872497 0.197489 -0.138164 0.279972 0.392173 0.964191 0.340281 0.261207 -0.179540
3 -0.340830 -0.753190 0.235739 -0.186021 0.288675 0.296451 0.849898 0.319420 0.068796 -0.062508
14 -0.112039 -1.172431 0.043444 -0.144568 0.460176 0.492043 1.082057 0.204091 0.366899 -0.241248
18 -0.554668 -1.658463 -1.324418 -0.656425 0.458916 -0.024274 -0.750479 -0.418444 0.613105 0.402839
17 -0.200080 -1.299358 -0.358842 0.111764 0.173494 0.224005 0.267727 -0.131720 1.007074 -0.123379
11 -0.382236 -1.304086 -0.237548 0.149272 0.065312 0.215846 0.053548 -0.164812 1.163859 -0.115641
40 -2.178730 -0.562993 1.339520 -0.338174 -0.704955 -0.046585 0.039217 0.871922 0.243350 1.108464
28 -2.121825 -1.491944 1.031972 -0.996768 0.727164 -0.829044 -1.198102 0.671020 -0.398587 0.394513
1 -2.165664 -1.614529 1.157194 -1.160065 1.013643 -1.018301 -1.103718 0.917947 -0.507086 0.275821
23 -0.519952 -1.504309 -1.251822 -0.609632 0.426076 0.063124 -0.538236 -0.314994 0.526369 0.320790
41 -0.503549 -1.542359 -1.202422 -0.550293 0.506215 -0.029768 -0.606434 -0.416022 0.584742 0.215193
44 -0.086976 -0.920961 -0.015120 -0.280983 0.506273 0.294914 0.855501 0.285751 0.090824 -0.197529
26 -0.112623 -1.069124 -0.049826 -0.192428 0.521041 0.260159 0.791523 0.178394 0.273410 -0.252643
34 -0.008823 -1.056384 -0.100467 -0.175669 0.605347 0.324540 0.929061 0.155522 0.164197 -0.312602
48 -0.160430 -0.884368 0.138658 -0.241893 0.404389 0.350713 0.932251 0.255894 0.034998 -0.205220
27 -0.018779 -1.000373 0.083932 -0.175519 0.466166 0.441453 1.127284 0.347752 0.171991 -0.277008
22 -0.038395 -1.109073 -0.017657 -0.212575 0.539204 0.345209 0.959021 0.227436 0.166886 -0.308521
19 -0.140228 -0.863081 0.103111 -0.177369 0.296753 0.299097 0.718267 0.197505 0.227892 -0.098599
46 -0.108112 -0.975569 -0.035869 -0.124073 0.431124 0.405174 0.881442 0.216865 0.166395 -0.181752
47 -0.131796 -1.000280 0.104519 -0.221370 0.519341 0.339487 0.962771 0.356208 0.074006 -0.243798
42 -0.080889 -1.019531 -0.039310 -0.219716 0.563758 0.369268 0.980950 0.255865 0.261294 -0.251013
45 -0.019563 -0.964455 -0.104928 -0.264827 0.596689 0.293717 0.844603 0.261549 0.157549 -0.266810
49 0.022204 -1.055072 -0.098898 -0.143493 0.522846 0.319219 0.844776 0.138266 0.271059 -0.297542
36 0.069807 -1.047618 -0.020967 -0.174708 0.494060 0.361411 1.068158 0.252536 0.272930 -0.268176
20 -0.096980 -1.104628 -0.126923 -0.205613 0.505001 0.248933 0.805848 0.213276 0.211412 -0.268890
38 -0.299894 -1.353358 -0.220888 0.153541 -0.044296 0.329785 0.239871 -0.275688 1.220961 -0.126198
32 -1.692539 -0.628130 0.858749 -0.480278 -0.049861 -0.397015 -0.246457 0.765049 -0.153659 0.678914
4 -1.694402 -0.684188 0.849247 -0.490814 0.116828 -0.459061 -0.254177 0.886701 -0.101866 0.570465
35 -0.429666 -1.196403 -0.407126 -0.003104 -0.011671 0.246988 0.070788 -0.244688 0.885392 0.095114
37 -0.313303 -1.140200 -0.103098 0.086088 0.121142 0.332929 0.311518 -0.101472 0.908833 -0.118681
24 -0.223456 -1.252519 -0.170425 0.173858 0.083523 0.377173 0.457503 -0.153498 1.064004 -0.119941
33 -1.852553 -0.673377 1.074605 -0.412523 -0.230473 -0.365967 -0.313267 0.759911 0.065521 0.810388
25 -0.345248 -1.256431 -0.258576 0.026698 0.075025 0.262652 0.239463 -0.185637 0.993073 -0.112290
29 -0.294275 -1.081051 -0.301201 -0.047480 0.179461 0.181625 0.181236 -0.151012 0.727851 -0.032877
30 -0.299412 -1.271420 -0.103108 0.025031 0.227134 0.255097 0.444441 0.007949 0.719844 -0.143207
39 -0.228077 -0.989600 -0.323297 -0.153313 0.384332 0.197198 0.222239 -0.032943 0.456162 -0.118903
43 -0.244358 -1.004647 -0.401888 -0.156519 0.292043 0.152345 0.208154 -0.098968 0.545401 -0.061203
13 -1.695176 -0.865352 0.697568 -0.674877 0.245066 -0.578942 -0.568623 0.703051 -0.154707 0.603628
16 -1.873019 -1.231536 0.721208 -0.863114 0.542915 -0.762733 -1.071490 0.570577 -0.253087 0.472043
31 -0.319899 -1.085144 -0.331327 -0.173303 0.260810 0.125221 0.107120 -0.127404 0.474446 0.029270
