18 10
10 0.047598 -1.048285 0.091906 0.699058 0.722195 1.445776 1.167584 0.641525 1.037276 -0.474580
16 -0.111673 -0.596256 0.037812 -0.389367 -0.088764 -0.367196 0.074389 0.313730 1.008264 0.433174
6 0.033729 -0.900774 0.113600 0.600432 0.623771 1.160681 0.953216 0.552951 0.888961 -0.346652
8 -0.256624 -0.818848 0.305265 -0.292020 -0.376033 -0.193652 0.412881 0.681492 0.423726 0.472111
9 -0.303937 -0.859607 0.268412 -0.339573 -0.356112 -0.210324 0.430188 0.749604 0.525281 0.469907
7 -0.036814 -0.518736 -0.048525 -0.437838 -0.178681 -0.397772 -0.015489 0.293627 0.971536 0.440802
5 -0.083818 -0.598110 -0.041568 -0.422998 -0.074479 -0.424641 0.024963 0.241162 1.022151 0.420353
12 -0.181237 -0.756058 0.101192 -0.336633 -0.095997 -0.224237 0.180011 0.405164 0.910984 0.405888
14 -0.109204 -0.580171 0.052319 -0.446929 -0.077417 -0.380659 -0.031611 0.276683 0.921080 0.455641
11 -0.137837 -0.592513 0.041507 -0.384424 -0.105227 -0.394806 -0.009988 0.359398 0.943316 0.397531
17 -0.112943 -0.606892 0.044660 -0.373264 -0.153212 -0.405828 0.069043 0.366982 0.993202 0.468171
4 -0.074914 -0.474271 -0.007853 -0.381208 -0.069310 -0.410323 -0.062127 0.314139 0.950524 0.394038
13 -0.069393 -0.617051 0.061458 -0.371620 -0.097648 -0.273217 0.123184 0.325373 0.937797 0.420876
18 -0.051835 -0.498009 -0.068576 -0.436265 -0.095096 -0.430465 -0.093147 0.269839 0.976841 0.481618
2 -0.145025 -0.859342 0.185759 -0.297399 -0.059850 -0.127234 0.373995 0.611671 0.818038 0.323957
1 -0.207494 -0.741410 0.213231 -0.256149 -0.038759 -0.147071 0.292522 0.514866 0.726259 0.286087
3 -0.199812 -0.663864 0.192748 -0.242037 -0.109089 -0.147336 0.298399 0.470009 0.626588 0.312470
15 -0.068722 -0.629345 0.098549 0.124192 0.259126 0.502945 0.500119 0.319060 0.669937 -0.065735
