64 10
9 -0.753423 -0.900674 0.337124 0.319977 0.158586 -0.663603 0.495953 0.475048 0.727111 -0.499804
6 -0.698361 -0.963364 0.382380 0.318316 0.185143 -0.660372 0.563339 0.501908 0.716242 -0.467241
3 -0.800060 -0.975488 0.691656 0.095238 0.147690 -0.932643 0.424115 0.365221 0.496240 -0.470491
5 -0.636540 -0.979135 0.375656 0.280133 0.211965 -0.558543 0.522398 0.386361 0.724280 -0.437842
4 -0.790964 -0.935363 0.502082 0.207446 0.121241 -0.997869 0.474240 0.374943 0.674661 -0.571273
12 -0.797295 -0.999638 0.543559 0.117339 0.066969 -0.966915 0.465957 0.255864 0.608499 -0.455664
8 -0.728101 -1.000631 0.526810 0.125796 0.082108 -0.914921 0.511550 0.362802 0.608002 -0.430461
7 -0.650087 -0.964634 0.509599 0.053561 0.065368 -0.851359 0.406934 0.331527 0.590364 -0.408477
1 -0.749581 -0.960375 0.626448 0.066543 0.060013 -1.010634 0.415633 0.263280 0.577973 -0.423759
11 -0.759996 -0.985161 0.600503 0.173734 0.092058 -0.918296 0.396900 0.326482 0.608845 -0.480329
10 -0.786287 -0.939843 0.496932 0.215695 0.099429 -0.890941 0.541385 0.276939 0.692581 -0.543585
2 -0.739219 -1.019276 0.574496 0.195498 0.084120 -0.932531 0.520218 0.328546 0.617669 -0.512918
24 0.293998 -0.556573 -0.049569 -1.764227 1.516037 0.726379 0.393899 1.849413 0.137180 0.930806
53 0.219290 -0.621317 -0.063079 -1.848049 1.544718 0.617868 0.389105 1.882519 0.093003 0.855043
63 0.261477 -0.612076 0.071403 -1.598410 1.437717 0.800487 0.399401 1.741482 0.180655 0.883813
43 -0.944973 0.808124 -1.727393 -2.034531 1.182536 -1.773665 1.822920 0.893744 0.707628 -0.194777
62 0.272980 -0.624528 -0.083399 -1.635182 1.409985 0.682968 0.357087 1.822760 0.226700 0.790335
27 0.287486 -0.649190 -0.057095 -1.607373 1.410118 0.740822 0.359845 1.759544 0.113464 0.807226
14 0.238175 -0.598231 -0.093478 -1.770631 1.543862 0.778717 0.427876 1.822433 0.173008 0.884025
47 0.205872 -0.626386 -0.123223 -1.647496 1.456499 0.746419 0.433330 1.829259 0.185632 0.868841
15 -0.778957 -0.981528 0.581495 0.107854 0.087208 -0.843718 0.440064 0.277674 0.580526 -0.484046
59 0.236730 -0.610279 -0.176220 -1.744920 1.494956 0.822127 0.516450 1.817241 0.232509 0.895967
60 0.241648 -0.684363 0.020936 -1.610622 1.391316 0.731980 0.414077 1.813987 0.214170 0.866811
41 0.214458 -0.541294 -0.203811 -1.717552 1.505764 0.741924 0.525564 1.755640 0.231274 0.835960
35 0.177449 -0.636773 -0.044092 -1.602368 1.368207 0.718734 0.437572 1.708186 0.155415 0.890401
20 -0.910025 0.821168 -1.715132 -2.199761 1.191897 -1.860649 1.777051 0.973786 0.533621 -0.187371
29 -0.671353 -0.811256 0.396897 0.067711 0.126116 -0.825821 0.433531 0.252354 0.548426 -0.384902
34 -0.687689 -0.942517 0.525119 0.210978 0.185022 -0.809755 0.502923 0.330445 0.567056 -0.425566
50 -0.628642 -0.949993 0.513413 0.173540 0.101533 -0.718547 0.416124 0.395897 0.540207 -0.316637
58 -0.746575 -0.847015 0.434945 0.063004 0.004379 -0.971223 0.491894 0.269230 0.582889 -0.431894
57 -0.858353 0.843929 -1.790189 -2.025986 1.125475 -1.713403 1.660318 0.814211 0.602984 -0.249410
36 -0.668800 -0.871092 0.555836 0.093059 0.076887 -0.932009 0.480384 0.278111 0.554058 -0.396230
30 -0.625924 -0.976910 0.473481 0.200191 0.051237 -0.774269 0.436399 0.317333 0.577689 -0.415266
33 -0.730413 -0.922110 0.536079 0.213200 0.083387 -0.949729 0.451535 0.303512 0.605770 -0.461920
25 -0.672765 -0.860051 0.375750 0.149565 0.146008 -0.608185 0.428276 0.354318 0.648219 -0.387179
28 -0.725892 -0.837268 0.444325 0.065012 0.106703 -0.866769 0.509919 0.256518 0.543380 -0.428306
38 -0.701015 -0.931137 0.496766 0.179024 0.050342 -0.952474 0.479269 0.230037 0.674577 -0.522200
26 -0.675012 -1.016780 0.646542 0.225960 0.101066 -0.845335 0.429075 0.318400 0.569045 -0.462295
16 -0.633200 -0.896504 0.467204 0.243923 0.132177 -0.618915 0.462946 0.362424 0.617872 -0.405347
55 -0.776955 -1.100881 0.721527 0.250738 0.046855 -0.958815 0.523524 0.257717 0.722639 -0.464160
21 -0.693626 -0.899153 0.522564 0.079279 0.090549 -0.802440 0.451817 0.324424 0.595314 -0.329689
51 -0.664826 -0.964027 0.470947 0.301290 0.151736 -0.640356 0.427073 0.370123 0.664074 -0.427349
19 -0.675679 -0.949647 0.553142 0.100751 0.071285 -0.885661 0.415607 0.280350 0.612053 -0.452452
13 -0.469545 -1.000885 0.885847 -0.113302 0.125229 -0.896686 0.511709 0.235079 0.494895 0.070065
45 -0.620498 -0.920275 0.429528 0.261842 0.189648 -0.605653 0.453590 0.458684 0.670102 -0.428660
22 -0.587247 -0.942874 0.473602 0.224209 0.132924 -0.673698 0.403600 0.362498 0.553910 -0.401171
54 -0.621848 -0.843251 0.425269 0.163105 0.180142 -0.580827 0.461148 0.376327 0.597880 -0.359174
64 -0.609206 -0.945859 0.485721 0.276987 0.180982 -0.509028 0.469387 0.484595 0.636575 -0.427628
46 -0.702078 -0.878147 0.406130 0.241662 0.200340 -0.629576 0.527404 0.393100 0.602836 -0.424653
52 -0.710466 -0.805585 0.438860 0.135152 0.110275 -0.751319 0.558023 0.351791 0.626056 -0.455260
49 -0.629697 -0.914116 0.460283 0.185102 0.175375 -0.757930 0.477088 0.355732 0.648329 -0.422426
48 -0.665007 -0.912467 0.505985 0.192300 0.167349 -0.557087 0.428260 0.409267 0.590202 -0.387012
61 -0.726543 -0.911749 0.491007 0.146055 0.125210 -0.773274 0.465807 0.349125 0.642752 -0.416650
44 -0.686355 -0.920335 0.494803 0.234009 0.052622 -0.853383 0.450841 0.260065 0.636125 -0.468248
42 -0.704746 -0.805436 0.450138 0.152490 0.170056 -0.758949 0.469567 0.364731 0.623167 -0.365977
23 -0.606626 -0.908504 0.536318 0.200039 0.149975 -0.585610 0.386387 0.431418 0.600204 -0.346087
37 -0.634578 -0.867732 0.488214 0.212560 0.164676 -0.552814 0.365452 0.385621 0.598491 -0.368134
40 -0.660310 -0.900997 0.459686 0.256582 0.180701 -0.554856 0.382317 0.421679 0.589968 -0.422806
39 -0.726765 -0.808529 0.461246 0.154399 0.188685 -0.742035 0.470470 0.378139 0.574463 -0.440818
56 -0.664866 -0.968712 0.500989 0.203313 0.238752 -0.553993 0.408992 0.459605 0.570219 -0.361018
31 -0.432883 -1.067840 0.997566 -0.110417 0.178692 -0.828880 0.481115 0.284167 0.412120 0.136153
32 0.161830 -0.627527 -0.193132 -1.358279 1.245601 0.674960 0.473747 1.565991 0.234569 0.731644
17 0.185189 -0.509987 -0.137699 -1.341521 1.145249 0.577579 0.460878 1.507314 0.254400 0.792461
18 0.193770 -0.415049 -0.229884 -1.495788 1.252287 0.544690 0.405342 1.501120 0.208289 0.824053
