36 10
10 -0.094703 -0.879472 0.399420 -0.358037 0.019607 -0.569791 0.224030 -0.547898 -0.205510 0.148094
14 -0.044540 -0.800910 0.264340 -0.342802 0.100515 -0.705534 0.066690 -0.374639 -0.144764 0.152188
3 -0.079360 -0.759311 0.316832 -0.315299 0.078051 -0.705648 0.120394 -0.407330 -0.208757 0.108039
12 -0.063635 -0.736806 0.252183 -0.352161 0.008386 -0.641980 -0.011336 -0.479477 -0.267098 0.140313
5 -0.033300 -0.814087 0.271015 -0.335176 0.050738 -0.643369 0.140016 -0.511693 -0.158511 0.110690
7 0.043426 -0.776721 0.189130 -0.326203 0.063193 -0.703588 0.078072 -0.383768 -0.128274 0.097199
2 -0.002745 -0.834672 0.287920 -0.358623 0.061321 -0.768461 0.102010 -0.416341 -0.243860 0.122030
4 -0.056304 -0.714665 0.327653 -0.310978 0.068156 -0.673101 0.063815 -0.393917 -0.197066 0.113805
1 -0.113065 -0.775813 0.342406 -0.348540 0.039333 -0.630240 0.088829 -0.383905 -0.140632 0.137103
11 -0.117881 -0.873718 0.396639 -0.324662 0.068085 -0.669813 0.152885 -0.435451 -0.169436 0.110946
17 -0.051973 -0.723188 0.308767 -0.266635 -0.033353 -0.571261 0.171407 -0.409552 -0.133339 0.181866
6 -0.603126 -1.746477 -0.503867 0.045907 0.516867 -1.422286 0.840708 1.742177 2.198077 -0.041621
9 -0.671467 -1.898863 -0.509505 -0.075018 0.528143 -1.571306 0.859952 1.702322 2.283990 -0.028077
13 -0.087336 -0.884046 0.465945 -0.320675 0.099814 -0.696965 0.479483 -0.384995 -0.016072 0.212580
30 -0.062738 -0.944475 0.245301 -0.271908 0.029250 -0.710583 0.270298 -0.322236 0.005237 0.161822
32 -0.068999 -0.780915 0.312936 -0.325653 -0.002956 -0.519059 0.211896 -0.529124 -0.280449 0.170469
25 -0.101239 -0.793754 0.210379 -0.306277 0.037172 -0.688841 0.104661 -0.343893 -0.019923 0.109336
23 -0.090567 -0.827970 0.222400 -0.292832 0.048910 -0.650618 0.201635 -0.250078 0.014037 0.114714
31 -0.102809 -0.796734 0.354924 -0.263198 0.016721 -0.614380 0.220789 -0.353640 -0.077018 0.156138
35 -0.127276 -0.868044 0.297492 -0.333029 0.021937 -0.649601 0.227838 -0.431346 -0.129860 0.176387
18 -0.027891 -0.712005 0.203098 -0.309835 0.057438 -0.635877 0.032416 -0.347916 -0.121516 0.173522
28 -0.104960 -0.788202 0.356928 -0.317526 0.043780 -0.596001 0.141090 -0.413265 -0.202717 0.133010
36 0.025104 -0.801584 0.254419 -0.354744 0.087876 -0.798317 0.110724 -0.338516 -0.133837 0.159073
26 -0.043953 -0.725371 0.332794 -0.320930 0.037824 -0.577280 0.184467 -0.433042 -0.203326 0.125689
29 -0.040297 -0.741221 0.248483 -0.329762 0.071478 -0.699050 0.071395 -0.474222 -0.198379 0.152261
33 -0.035554 -0.832337 0.271176 -0.277279 0.129924 -0.797251 0.095743 -0.358484 -0.127625 0.121821
24 -0.047875 -0.736885 0.330330 -0.246694 0.038933 -0.590940 0.161831 -0.359120 -0.102602 0.153859
27 -0.034804 -0.748805 0.192952 -0.306535 0.070470 -0.576976 0.173703 -0.233373 -0.088687 0.121808
20 -0.107889 -0.783748 0.306869 -0.293889 -0.028103 -0.580687 0.228230 -0.350538 -0.141288 0.123919
8 -0.396809 -1.286646 0.961257 -0.471162 -0.324079 -0.119637 0.707364 -0.881036 -0.324801 0.407091
34 -0.135751 -0.955119 0.467229 -0.275588 0.142105 -0.716118 0.465108 -0.441352 -0.117832 0.188938
21 -0.162358 -0.902106 0.432002 -0.409969 -0.035910 -0.642319 0.301452 -0.529393 -0.153793 0.241125
19 -0.041946 -0.745806 0.301975 -0.306333 0.008401 -0.513658 0.164163 -0.359042 -0.051143 0.137857
22 -0.059717 -0.851617 0.290516 -0.305821 0.050621 -0.691203 0.173461 -0.368512 -0.124639 0.124170
16 -0.490052 -1.309639 0.913286 -0.473596 -0.278453 -0.184607 0.773543 -0.711639 -0.116989 0.375453
15 -0.504379 -1.348540 0.966448 -0.522670 -0.243263 -0.175836 0.751530 -0.805977 -0.174455 0.357928
