36 10
5 -0.190004 -0.584340 0.535698 -0.170554 0.265983 -0.258526 0.580636 -0.445799 -0.861658 0.478811
14 -0.174125 -0.613789 0.488414 -0.163570 0.127314 -0.154145 0.565223 -0.429215 -0.744665 0.450621
8 -0.098978 -0.541823 0.515962 -0.093869 0.107784 -0.193836 0.531517 -0.359108 -0.785727 0.486794
13 -0.095675 -0.619727 0.663851 -0.225117 0.202071 -0.338952 0.568830 -0.468949 -0.897755 0.616894
11 -0.147221 -0.564354 0.510654 -0.075790 0.178906 -0.245509 0.571668 -0.425875 -0.843479 0.464880
12 -0.217488 -0.610096 0.565600 -0.185002 0.149594 -0.278844 0.543234 -0.442956 -0.913888 0.543212
3 -0.204484 -0.582292 0.502596 -0.077727 0.161319 -0.213860 0.668345 -0.422078 -0.903230 0.460262
2 -0.098324 -0.528999 0.504172 -0.124162 0.150665 -0.191882 0.574497 -0.386774 -0.904222 0.466639
6 -0.384717 -0.543442 0.377514 0.137924 0.114873 0.076077 0.826290 -0.185968 -0.962150 0.229026
4 -0.378245 -0.561462 0.391501 0.059916 0.098736 0.012913 0.777971 -0.241705 -0.928600 0.245504
7 -0.551256 -2.148601 -0.390034 -0.762280 -1.016506 0.031103 1.308421 -0.282735 1.279774 0.132392
25 -0.588300 -1.899767 -0.477660 -0.705061 -1.000472 0.010831 1.127662 -0.334606 1.262401 0.081110
32 -0.167375 -0.555859 0.490653 -0.154619 0.201626 -0.256895 0.554808 -0.409233 -0.884463 0.520321
22 -0.055553 -0.536718 0.400236 -0.094045 0.148870 -0.262413 0.525952 -0.446896 -0.775836 0.447524
29 -0.192362 -0.608473 0.522839 -0.212070 0.177696 -0.255996 0.506597 -0.356579 -0.711927 0.469916
31 -0.127890 -0.544796 0.563641 -0.163633 0.152838 -0.300378 0.466968 -0.383091 -0.735979 0.474601
36 -0.131588 -0.634765 0.505574 -0.197824 0.128301 -0.256238 0.630845 -0.339619 -0.729930 0.504009
23 -0.168947 -0.470065 0.558712 -0.091592 0.234683 -0.233074 0.568591 -0.368996 -1.005666 0.520938
26 -0.124720 -0.514719 0.389906 -0.093272 0.109456 -0.176427 0.640037 -0.408116 -0.773110 0.374907
17 -0.164483 -0.548782 0.476153 -0.114580 0.069804 -0.239167 0.517979 -0.311593 -0.635559 0.466495
24 -0.145578 -0.489768 0.618948 -0.092112 0.219008 -0.236912 0.555268 -0.399956 -0.929714 0.535653
18 -0.126840 -0.530471 0.439349 -0.169351 0.185220 -0.275959 0.477611 -0.380623 -0.735136 0.526615
34 -0.375313 -0.494131 0.384424 0.118854 0.159970 0.047941 0.776496 -0.239133 -0.968653 0.220701
33 -0.431380 -1.816218 -0.239749 -0.336990 -0.507772 0.018232 1.099837 -0.086276 1.047080 0.039178
19 -0.114731 -0.577262 0.550847 -0.194227 0.155072 -0.242851 0.481614 -0.375914 -0.704946 0.473261
10 -0.456779 -1.827627 -0.281928 -0.400195 -0.523973 0.094026 1.168275 -0.134941 1.076644 0.029809
21 -0.226271 -0.566066 0.289136 -0.189942 -0.080065 -0.122957 0.591156 -0.395343 -0.503911 0.394931
15 -0.361204 -0.615890 0.592787 -0.206929 0.175688 -0.015004 0.587603 -0.270911 -0.775448 0.314724
9 -0.816798 -1.727107 -0.029641 -0.831509 -0.518747 -0.172606 0.814763 0.241168 1.200395 0.047017
1 -0.781755 -1.847275 -0.022691 -0.802727 -0.556063 -0.189795 0.894046 0.168875 1.224263 0.057812
20 -0.300506 -0.545902 0.401993 0.028554 0.080335 -0.057398 0.787564 -0.292857 -0.990290 0.297754
35 -0.319779 -0.614649 0.298956 -0.045330 0.014514 -0.031084 0.710605 -0.320437 -0.712219 0.313039
16 -0.285223 -0.619392 0.366052 -0.142785 0.025095 -0.037740 0.658683 -0.266018 -0.521541 0.272776
28 -0.354662 -0.699735 0.524162 -0.206213 0.092252 -0.046091 0.604958 -0.259130 -0.642415 0.330179
27 -0.264671 -0.595585 0.551030 -0.212395 0.201313 -0.127749 0.537609 -0.194843 -0.846226 0.393171
30 -0.174163 -0.718381 0.299678 -0.132947 -0.031727 -0.141795 0.590570 -0.287011 -0.406386 0.365776
