24 10
13 0.263566 -0.471117 -0.571211 0.009946 0.029121 0.020140 0.280746 0.326710 1.158184 -0.050590
5 0.074452 -0.633231 -0.639663 0.072765 0.031140 -0.072051 0.307920 0.349279 1.128306 0.002512
6 0.462840 -0.413433 -0.636243 0.049284 0.099730 0.123614 0.324854 0.393904 1.335509 -0.210575
3 0.026566 -0.604662 -0.830176 0.149741 -0.003069 -0.118109 0.416412 0.527304 1.170915 0.076788
9 0.184235 -0.423899 -0.834655 0.118458 0.025708 -0.031501 0.346307 0.466541 1.179080 0.002119
7 0.490855 -0.359247 -0.743799 0.015854 0.032168 0.123666 0.347948 0.383821 1.349859 -0.196629
4 0.981806 -0.205376 0.498346 -0.466001 0.333773 0.606203 -0.263539 -0.180514 1.422620 -0.955183
10 0.971693 -0.231339 0.272794 -0.402157 0.296395 0.622900 -0.100079 -0.137020 1.456760 -0.877686
1 -1.042490 -1.626758 0.676528 -0.261421 -0.111464 -0.235843 -0.457671 0.095606 0.678943 0.288482
14 -0.922962 -1.578257 0.586301 -0.245430 -0.126499 -0.124266 -0.417276 0.075520 0.699678 0.301923
17 -1.081336 -1.860167 0.906046 -0.311513 -0.199946 -0.146361 -0.550144 0.008920 0.816063 0.280126
18 0.328709 -0.480034 -0.778404 0.052683 0.071021 0.011096 0.298699 0.435492 1.337681 -0.042773
12 -0.891961 -1.516397 0.558886 -0.251929 -0.150202 -0.133528 -0.417966 0.011601 0.670806 0.258292
11 -1.092310 -1.634963 0.488817 -0.131482 -0.127510 -0.257645 -0.421878 0.181427 0.682116 0.337935
8 -1.016211 -1.711774 0.691158 -0.225852 -0.189206 -0.149160 -0.436367 0.077250 0.697162 0.331284
19 1.004705 -0.351944 0.639943 -0.562045 0.283787 0.679332 -0.283055 -0.286609 1.464241 -0.955824
23 0.335502 -0.355880 -0.773376 0.080150 0.043946 0.066327 0.328340 0.440692 1.223595 -0.122660
24 0.387256 -0.386726 -0.616226 0.084736 0.082555 0.052102 0.304485 0.371811 1.252080 -0.121803
20 0.238144 -0.496275 -0.537181 0.019621 0.012484 -0.007110 0.278827 0.356355 1.117374 -0.133922
2 0.604575 -0.433660 -0.255932 -0.226999 0.108587 0.266392 0.168708 0.184324 1.313497 -0.448839
16 0.567229 -0.362507 -0.228655 -0.195204 0.115182 0.250999 0.164310 0.129097 1.299166 -0.421031
15 -0.649392 -1.248326 0.611402 -0.313695 -0.063074 0.006839 -0.343195 -0.055543 0.663989 0.055073
22 -0.172699 -0.801492 0.231012 -0.186043 -0.017838 0.003295 -0.177115 0.032037 0.666516 -0.067696
21 -0.335488 -0.873361 0.323668 -0.258949 -0.070148 0.012888 -0.227558 0.009682 0.751461 0.018964
