40 10
4 0.209425 0.600172 1.675944 0.076288 0.916080 -0.198406 -0.503012 -0.542779 1.024903 0.165531
14 0.178022 0.425937 1.677526 0.014334 0.889632 -0.136039 -0.440182 -0.573996 0.919482 0.228487
9 0.119781 0.307093 1.581810 0.042396 0.818054 -0.277996 -0.415964 -0.499127 0.885455 0.190285
5 0.201573 0.414076 1.554457 0.064617 0.887654 -0.157605 -0.424846 -0.627752 0.974323 0.140009
1 -0.491066 -1.728487 1.013153 -1.284743 -0.631167 -1.129970 0.421505 0.502403 0.336655 0.826960
7 -0.523718 -1.818947 1.073156 -1.563080 -0.785690 -1.077929 0.498719 0.743509 0.585029 1.014998
3 -0.617905 -1.591100 1.555335 0.036936 -0.466240 -0.051669 1.610149 0.213618 -0.797566 0.847259
10 0.956797 -0.586168 1.244577 0.128885 0.079915 0.622597 1.752762 -0.642144 0.916648 0.238903
8 -0.585177 -1.658731 1.311139 0.077835 -0.724162 0.095869 1.653502 0.111766 -0.998607 0.896247
24 0.197858 0.627090 1.649505 0.111415 0.850305 -0.116862 -0.514303 -0.592535 1.026645 0.179500
40 0.089782 0.569798 1.666793 0.032477 0.876717 -0.072914 -0.477623 -0.429240 1.042746 0.189889
22 0.288483 0.469030 1.694968 0.122982 0.975362 -0.153925 -0.369872 -0.532709 1.068806 0.102442
13 -0.451175 0.697131 1.313593 -0.629355 -1.190914 0.930665 0.004686 -1.117326 -0.028855 1.312765
36 0.999427 -0.272747 1.226667 0.218725 0.261997 0.637900 1.535103 -0.620715 0.882626 0.238944
38 0.205312 -1.634324 1.000641 -0.564555 -0.883315 -1.450999 -0.004897 -1.405618 -0.503453 0.333325
35 0.255953 -1.488413 1.070130 -0.475699 -0.805717 -1.429351 -0.045155 -1.728147 -0.557615 0.322165
11 0.266994 -0.082609 1.160376 -0.052081 0.091466 0.170132 0.328694 -0.390048 0.940121 0.104844
23 0.430078 -0.126151 1.086023 -0.118330 0.029082 0.275106 0.549090 -0.292340 1.075573 0.160468
37 -0.425732 0.837804 1.303815 -0.353944 -0.663439 0.745586 -0.331941 -0.992924 0.146239 0.960611
28 -0.403142 0.590093 1.275893 -0.414425 -0.808795 0.770419 -0.071067 -0.973258 0.047085 0.982810
19 -0.042210 0.160894 1.205578 -0.348339 -0.118041 0.312073 0.190601 -0.254466 0.719798 0.486257
31 -0.382965 0.655621 1.208356 -0.450984 -0.890371 0.632843 -0.220577 -1.041459 0.007223 1.018513
20 -0.142999 0.281457 1.330555 -0.319526 -0.077078 0.173613 0.038946 -0.331356 0.703076 0.487335
15 -0.118666 0.166534 1.207676 -0.344731 -0.030877 0.272827 0.177480 -0.291161 0.702718 0.435538
6 0.363677 -0.721114 0.740550 -0.080570 0.044521 -0.205748 0.766465 -0.145157 0.323062 0.210292
25 -0.232191 0.359664 1.242559 -0.326653 0.020535 0.215238 -0.068545 -0.224016 0.810176 0.455951
18 -0.234823 -1.369715 0.791797 -0.723483 -0.507910 -0.860695 0.391753 0.043877 -0.035487 0.618533
2 -0.073214 -1.035374 0.750895 -0.507600 -0.378519 -0.794395 0.217785 -0.198204 -0.069215 0.356301
39 0.182644 0.012955 1.123846 -0.105904 0.025084 0.321907 0.525486 -0.441030 0.561617 0.368959
26 0.095581 -1.174872 0.656913 -0.645242 -0.588235 -1.141283 0.003744 -0.748197 -0.220166 0.301298
16 0.056312 0.025656 1.353670 -0.180812 0.059484 0.052076 0.235543 -0.449236 0.646037 0.411943
12 -0.295520 -1.289443 0.585250 -1.055230 -0.601507 -1.006045 0.062867 0.106904 0.188858 0.582428
27 -0.013161 0.180099 1.210816 -0.289123 0.076015 0.062334 -0.088354 -0.418040 0.598131 0.419717
33 0.084038 0.065543 1.192649 -0.161426 0.178425 -0.009729 0.037205 -0.342494 0.737275 0.315947
21 -0.014773 0.014228 1.176477 -0.332617 -0.236434 0.256349 0.403022 -0.415900 0.579747 0.549604
30 0.047399 0.057798 1.105857 -0.102976 -0.100397 0.321261 0.331827 -0.403850 0.491738 0.475374
17 -0.099296 -0.516747 0.835127 -0.173358 -0.058081 -0.330717 0.300701 -0.009116 0.231952 0.358701
29 -0.259762 -1.027252 0.754785 -0.538645 -0.394041 -0.620471 0.391045 -0.046266 -0.036551 0.512495
34 -0.133623 -1.034015 0.711161 -0.527666 -0.392299 -0.830255 0.193489 -0.292399 -0.074833 0.377137
32 -0.028560 0.207560 1.020741 -0.190020 -0.026889 0.162953 0.010099 -0.491561 0.484896 0.421465
