35 10
13 -0.778893 -0.061799 0.931296 -0.240790 0.512486 -0.810886 -0.235220 -0.275418 0.053353 -0.202975
1 -0.941172 -0.115937 0.996989 -0.363262 0.493784 -0.815563 -0.177806 -0.384536 0.027034 -0.147755
4 -0.898630 -0.042102 0.947368 -0.297229 0.475932 -0.815392 -0.220971 -0.347415 0.022221 -0.173025
15 -0.839913 -0.244062 0.788586 -0.289789 0.484991 -0.607388 -0.071204 -0.239449 -0.064179 -0.152321
3 -0.810613 -0.150780 0.806199 -0.201064 0.389165 -0.718626 -0.126097 -0.246458 0.010044 -0.145445
5 -0.790405 -0.128305 0.790854 -0.287351 0.458124 -0.705005 -0.088709 -0.376993 0.039510 -0.192471
14 -0.742729 -0.146529 0.848605 -0.242857 0.375445 -0.714885 -0.161686 -0.337758 0.063989 -0.148270
11 -0.842030 0.073719 0.955539 -0.314757 0.490994 -0.730674 -0.288808 -0.378081 0.040426 -0.219586
6 -0.615006 -0.353506 0.522601 0.377883 0.574856 -1.047116 -0.643419 0.685367 0.335330 -0.268693
9 -0.633896 -0.293772 0.460368 0.287045 0.556532 -1.003699 -0.647584 0.631874 0.339930 -0.256885
12 -0.603445 -0.552865 0.399151 0.238892 0.375535 -0.911799 -0.391611 0.472278 0.246690 -0.172430
16 -0.767359 -0.017195 0.843754 -0.181087 0.483107 -0.775689 -0.258252 -0.178778 0.054636 -0.205562
21 -0.847720 -0.048422 0.882445 -0.271550 0.418856 -0.807650 -0.228629 -0.296898 0.062673 -0.160131
8 -0.881889 -2.132698 -0.038084 -0.074133 -0.486668 -0.337020 1.320000 -0.053974 -0.178114 0.546490
20 -0.715254 -0.180181 0.736225 -0.168205 0.349847 -0.719709 -0.098706 -0.196398 -0.023052 -0.141447
32 -0.865588 -2.099452 -0.146083 -0.029309 -0.381843 -0.358488 1.258383 0.087736 -0.192841 0.466985
22 -0.786007 -0.142092 0.820973 -0.218058 0.501174 -0.774764 -0.238430 -0.185214 -0.043876 -0.181894
10 -0.525937 -2.685356 -0.345765 0.572185 -0.225319 -0.696211 1.325229 1.027378 0.286013 -0.112050
28 -0.759951 -0.124241 0.780458 -0.158852 0.454071 -0.668324 -0.244844 -0.125556 -0.016356 -0.159243
33 -0.504847 -0.465883 0.368178 0.436971 0.497524 -1.009626 -0.555579 0.742579 0.356817 -0.248904
2 -0.490228 -2.662766 -0.222928 0.622998 -0.242244 -0.944624 1.217199 1.083793 0.363872 -0.219240
24 -0.634219 -0.330723 0.671366 -0.097334 0.230663 -0.642773 0.029885 -0.245447 0.092766 -0.072668
23 -0.810486 -0.085715 0.851093 -0.288075 0.374403 -0.670776 -0.094456 -0.413502 0.004237 -0.141918
27 -0.712678 -0.250395 0.731918 -0.180516 0.406929 -0.749667 -0.152095 -0.127483 0.053700 -0.171562
25 -0.665603 -0.033146 0.732328 -0.196537 0.318834 -0.674715 -0.216992 -0.324555 0.115445 -0.189407
34 -0.638423 -0.223080 0.668784 0.028730 0.511548 -0.770995 -0.213136 0.072524 0.066331 -0.240923
30 -0.602827 -1.807613 0.241206 0.339604 -0.586813 -0.859801 0.917464 -0.206529 0.494419 0.121826
31 -0.700279 -0.225276 0.726488 -0.166483 0.308964 -0.675619 -0.062571 -0.297332 -0.028516 -0.083676
7 -0.610915 -2.012840 0.116095 0.353104 -0.700268 -0.895583 0.981304 -0.045509 0.614352 0.155698
35 -0.551928 -0.535107 0.324468 0.392340 0.408404 -0.978365 -0.454824 0.661437 0.334381 -0.242769
17 -0.630093 -0.448887 0.509024 -0.034374 0.210730 -0.641078 0.033504 0.008700 0.097095 -0.043140
29 -0.487361 -0.627805 0.282479 -0.069216 -0.030084 -0.441863 0.309581 -0.221804 0.069739 0.061012
18 -0.566965 -0.346961 0.454012 -0.137085 0.231698 -0.529407 -0.003317 -0.110878 0.041495 0.002199
26 -0.509378 -0.301796 0.491746 -0.052777 0.262453 -0.615738 -0.036295 -0.040951 0.037350 -0.113658
19 -0.543601 -0.560802 0.451763 -0.100216 0.139563 -0.502851 0.119389 -0.077544 0.042525 -0.005655
