6 10
2 0.001024 -0.061340 0.062368 0.027059 0.054188 -0.046271 0.087905 0.131988 -0.070422 -0.052869
6 -0.023713 -0.070394 0.080900 0.086663 0.075346 -0.033529 0.097430 0.131586 -0.032117 -0.044088
3 -0.083220 -0.048920 0.118971 0.048790 0.087110 -0.058241 0.097231 0.108764 -0.071710 -0.069001
1 -0.075286 -0.091846 0.095141 -0.006589 0.070761 -0.084196 0.040713 0.106549 0.026286 -0.030311
4 -0.025014 0.009573 0.044793 0.045619 0.075040 -0.066791 -0.002326 0.116061 -0.003500 -0.057652
5 0.001189 -0.054939 -0.037366 0.007037 0.051456 -0.025959 0.056455 -0.022119 0.043822 -0.043442
