24 10
7 0.369145 -0.601719 -0.120112 0.113390 -0.310484 0.183600 0.660003 0.682524 1.063697 0.231360
13 0.369556 -0.682468 -0.114018 0.095113 -0.336360 0.130290 0.754520 0.730148 1.132329 0.332284
5 0.312858 -0.713641 -0.243117 0.139808 -0.302986 0.101473 0.808690 0.727634 1.126227 0.296279
6 0.236397 -0.728053 -0.154486 0.172405 -0.367332 0.088426 0.770315 0.767525 0.995602 0.363991
3 0.165791 -0.654896 -0.081339 0.082902 -0.305334 0.074724 0.677765 0.643450 0.899672 0.302307
9 0.266455 -0.741043 -0.120784 0.101841 -0.349472 0.126099 0.740360 0.795428 1.178007 0.311147
17 -1.239314 -1.448148 0.988572 -0.524463 -0.465039 -0.551841 -0.281808 -0.154457 0.014115 0.615660
12 -1.281167 -1.411209 0.907159 -0.583218 -0.429019 -0.545266 -0.350316 -0.253246 -0.123725 0.595186
8 -0.981461 -1.214123 0.774152 -0.430501 -0.389812 -0.400675 -0.178961 -0.107329 -0.004235 0.518148
14 -1.220776 -1.453580 0.967626 -0.588198 -0.400686 -0.490459 -0.294103 -0.172209 -0.029044 0.604349
1 -1.214241 -1.388139 0.968011 -0.586025 -0.347224 -0.519649 -0.315793 -0.163543 -0.002891 0.514356
4 0.447495 -0.779619 0.989183 -0.170068 0.183741 0.514377 0.028589 0.336703 1.469525 -0.299854
11 -1.239276 -1.424670 0.920173 -0.524323 -0.401571 -0.529065 -0.297367 -0.122914 -0.004607 0.543978
10 0.400192 -0.698052 0.667725 -0.114548 0.092040 0.469923 0.181128 0.322150 1.266467 -0.187305
18 0.169792 -0.615609 -0.054782 0.031066 -0.236133 0.057512 0.472298 0.555597 0.851562 0.300947
19 0.363297 -0.871408 0.749502 -0.168628 -0.015972 0.392545 0.215680 0.347617 1.320166 -0.072151
24 0.350519 -0.657250 0.117050 0.115969 -0.222877 0.184902 0.583659 0.640320 1.110643 0.211532
20 0.324483 -0.636827 -0.130221 0.141171 -0.325422 0.105820 0.749149 0.733186 1.024236 0.238705
23 0.313809 -0.612369 -0.131368 0.131365 -0.285422 0.180581 0.658371 0.725757 1.068206 0.232935
16 0.048211 -0.716463 0.251311 -0.052299 -0.232455 0.082423 0.409526 0.393839 0.810608 0.225262
2 0.170561 -0.650950 0.201148 -0.039133 -0.201935 0.125853 0.398520 0.444619 0.778448 0.157505
15 -0.625157 -1.094858 0.675190 -0.377105 -0.272508 -0.138296 0.020122 0.024040 0.389799 0.326374
22 -0.133400 -0.809288 0.355818 -0.147537 -0.229447 -0.047503 0.199719 0.246046 0.571753 0.223932
21 -0.357223 -0.657377 0.426077 -0.252404 -0.227227 -0.099710 0.019784 0.052949 0.340768 0.266810
