61 10
1 -0.323488 -0.603451 -0.305106 -0.100900 -0.998710 -1.015678 -0.495761 -0.325894 2.149302 0.070401
9 -0.513612 -0.700261 -0.313866 -0.106954 -1.008444 -1.066805 -0.606626 -0.403922 2.144175 0.132579
2 0.274573 -1.526347 -0.950285 -0.235894 0.100778 0.014680 2.214286 -0.248094 1.044041 -0.419449
5 0.194483 -1.322696 -0.908825 -0.083964 -0.220866 -0.174424 1.631856 -0.305372 1.337741 -0.485288
7 0.207366 -1.514448 -0.980260 -0.181767 -0.142388 -0.137801 1.795176 -0.286562 1.280452 -0.541599
17 -0.247475 -0.664666 -0.091555 -0.073798 -1.017380 -1.017165 -0.443002 -0.265078 1.827575 0.202070
10 0.244654 -1.609349 -0.874011 -0.239390 0.054285 -0.102252 2.155135 -0.295346 1.227707 -0.299471
3 0.292758 -1.471043 -0.758504 -0.172124 -0.139506 -0.077797 2.118123 -0.292683 1.360980 -0.325815
12 -1.681724 -2.149492 0.248436 -0.401183 -0.184023 0.655230 0.803626 -1.356448 1.260041 -0.511522
15 -1.909670 -1.879557 0.618142 -0.860906 0.758388 -0.957560 0.018398 -0.934170 -0.262454 0.700049
8 -1.852246 -1.830846 0.683697 -0.825712 0.823757 -1.186793 -0.230706 -0.943940 -0.120064 0.738916
47 -1.186424 -1.100606 -0.428050 -0.097095 -2.001255 -0.096465 0.302277 0.170935 -1.076272 0.696591
48 -1.655831 -1.196662 -0.592627 -0.115035 -2.143367 -0.316437 -0.064332 0.043608 -1.171424 0.581195
43 -0.442042 -0.338767 -0.566679 -0.454511 -0.416922 -0.934534 1.773981 0.790329 -0.244762 2.179968
51 -0.324624 -0.438020 -0.339130 -0.395717 -0.490079 -0.758463 1.687283 0.592934 -0.081597 2.359438
45 -0.325894 -0.344283 -0.474957 -0.453853 -0.501320 -0.932782 1.768198 0.777659 0.026981 2.476234
41 -1.430350 -1.994589 0.127450 -0.360614 -0.083182 0.412365 0.782817 -1.058675 1.041637 -0.505636
39 -1.869576 -2.070097 0.104896 -0.360128 -0.009025 0.441848 0.590110 -1.288876 1.193220 -0.544831
4 0.109220 -0.757317 -1.008184 -0.471972 -0.079428 -2.086389 -0.011337 0.766670 -0.001183 1.211820
56 -1.698214 -1.682031 0.432318 -0.760085 0.853347 -1.009667 0.018137 -0.911323 -0.164917 0.527446
34 -1.993134 -1.844387 0.647940 -0.745475 0.686254 -1.112869 -0.173373 -0.922188 -0.326690 0.715640
53 0.082179 -0.869925 -1.053344 -0.462831 0.001909 -1.991884 0.044632 0.703956 -0.234689 1.185025
22 -0.048503 -0.612552 -0.953204 -0.378201 -0.111017 -2.019783 -0.026382 0.684635 -0.269835 1.456130
6 -0.720584 -0.957554 -0.261244 0.301622 -2.073792 0.064298 1.131747 0.508010 -0.607423 1.287109
18 -0.121462 -0.646623 -0.149957 -0.149993 -0.824837 -0.811013 -0.265501 -0.303567 1.957533 0.121440
59 -0.945690 -1.122113 -0.264865 0.256263 -2.165201 0.139849 1.072446 0.449187 -0.732828 1.256226
46 0.489183 -1.674767 0.599883 -0.446383 -1.271018 -0.592486 1.237626 0.648859 -0.628918 1.924561
13 0.584745 -1.293908 0.550184 -0.454605 -1.046560 -0.274367 1.522340 0.408557 -0.336143 1.861214
26 1.068831 -1.387041 -0.393183 -0.916806 -0.464535 -2.025106 0.545897 0.980526 -0.369079 0.799781
27 1.158679 -1.524174 -0.350011 -0.924578 -0.606911 -1.959801 0.357545 1.061268 -0.419401 0.750962
31 -0.139114 -0.608919 -0.242487 -0.045410 -0.859690 -0.816589 -0.249880 -0.362134 1.855019 -0.006539
19 0.023594 -0.705301 -0.149467 -0.166518 -1.017571 -0.988225 -0.395393 -0.254825 1.921423 0.068894
35 -0.052536 -0.655534 -0.281204 -0.150313 -0.868603 -0.945890 -0.296147 -0.301920 1.911106 0.032639
54 0.007751 -0.674644 -0.231914 -0.129800 -0.878704 -0.900887 -0.293506 -0.227397 1.929101 -0.048076
25 -0.108538 -0.586809 -0.286740 -0.097466 -0.917782 -0.806115 -0.253351 -0.302737 1.914764 -0.021549
36 -0.279958 -0.724072 -0.182176 -0.126619 -0.984332 -0.852866 -0.464695 -0.327014 1.869832 -0.058602
61 -0.040507 -0.623510 -0.116833 -0.169125 -0.841868 -0.887187 -0.297582 -0.273185 2.007254 0.032124
30 -0.153016 -0.736895 -0.315571 -0.078552 -0.933648 -1.095665 -0.587616 -0.262296 1.802357 -0.035360
60 -0.076497 -0.577658 -0.125665 -0.143986 -0.814339 -0.769560 -0.334685 -0.301493 1.891127 0.013707
42 -0.057273 -0.669662 -0.416984 -0.147274 -0.668072 -0.959899 -0.281272 -0.236168 1.813837 -0.159724
52 0.007570 -0.533467 -0.275897 -0.119663 -0.938969 -0.977781 -0.260929 -0.215997 1.950566 -0.032549
11 -1.109609 -1.296742 -0.155685 -0.125507 -2.572073 -1.049970 -0.280201 1.074041 -0.789487 1.373032
24 -1.014910 -0.957748 -0.184559 -0.068442 -2.151588 -0.873399 -0.106973 0.870812 -0.711441 1.429090
14 -0.511911 -1.035413 0.451108 -0.448113 0.032523 -0.339891 0.189933 -0.401680 0.573003 0.217690
16 -0.355292 -0.393989 -0.240597 -0.167753 -0.846011 -0.404998 1.100479 0.490935 -0.333365 1.586635
57 -1.209892 -1.014573 -0.313855 -0.138917 -2.209122 -0.948073 -0.415883 0.864452 -0.709183 1.372357
50 -0.722625 -0.669314 -0.342161 0.099282 -1.449615 -0.137830 0.445868 0.333604 -0.711423 0.781499
55 -1.097747 -1.343063 0.120675 -0.292517 0.161907 0.089445 0.368607 -0.811917 0.509874 -0.272069
40 -0.777980 -0.955759 0.091195 -0.338409 0.296705 -0.310442 0.192643 -0.468465 0.398134 0.061623
44 -0.576054 -0.768965 0.278181 -0.360421 0.033761 -0.323742 0.206842 -0.409196 0.629731 0.410458
49 -0.749844 -1.150024 0.066696 -0.228334 0.029817 0.013211 0.466569 -0.578825 0.536246 -0.106528
28 -0.841920 -0.983842 0.260247 -0.333170 0.184326 -0.289302 0.183349 -0.524550 0.337315 0.171816
23 -0.134895 -0.503513 -0.173107 -0.152761 -0.780894 -0.411307 0.321475 0.437885 -0.362092 0.724364
20 -0.167581 -0.649842 -0.167141 -0.137082 -0.109518 -0.340805 0.308715 -0.222928 0.648634 -0.118868
33 -0.525224 -0.831012 0.090361 -0.195213 -0.084210 -0.313780 0.199479 -0.302284 0.511947 0.133747
21 -0.729337 -0.846493 0.092921 -0.277446 0.015645 -0.075004 0.200872 -0.546284 0.455292 -0.082463
29 -0.195751 -0.679027 -0.126514 -0.155220 -0.085654 -0.138374 0.477514 -0.302716 0.568460 -0.068300
58 -0.331697 -0.702307 0.035165 -0.248499 -0.007694 -0.154902 0.342932 -0.285884 0.469725 0.067860
38 -0.495457 -0.773216 0.004192 -0.148638 -0.137042 -0.147273 0.130370 -0.411413 0.538134 -0.097386
37 -0.173060 -0.564897 0.004736 -0.152022 -0.164197 -0.250383 0.247541 -0.164181 0.668050 0.107505
32 -0.150523 -0.603127 -0.150367 -0.118129 -0.273433 -0.249269 0.213190 -0.267544 0.897874 -0.091234
