41 10
2 -0.299129 -0.579003 -0.520110 -0.602632 0.934472 0.225377 0.980498 1.357080 0.840161 -1.051944
5 -0.334465 -0.864724 0.397613 -0.070780 0.383993 -0.502485 0.247164 -0.261706 0.187773 -0.092023
3 -0.441733 -0.766148 0.497954 -0.163766 0.499331 -0.460959 0.285667 -0.047315 0.217969 -0.204558
10 -0.407158 -0.952868 0.582636 -0.061595 0.451103 -0.541694 0.245753 -0.307009 0.242226 -0.107979
9 -0.321928 -0.560250 -0.757952 -0.570241 0.862143 0.365469 0.997012 1.355722 0.971704 -1.046650
8 -0.419373 -0.908506 0.754455 -0.094121 0.421969 -0.622281 0.163119 -0.301465 0.142119 -0.022935
4 -0.371601 -0.690128 0.445249 -0.148311 0.500077 -0.478964 0.206346 0.020042 0.266057 -0.228860
6 -0.386276 -0.727797 0.661017 -0.118776 0.467515 -0.526362 0.160013 -0.143158 0.194904 -0.132280
11 -0.447252 -0.841971 0.571126 -0.117886 0.473864 -0.532665 0.173274 -0.123788 0.243638 -0.166237
1 -0.464303 -0.913042 0.634661 -0.125109 0.448763 -0.614009 0.176834 -0.215498 0.252741 -0.086013
12 -0.393453 -0.708641 0.536676 -0.197141 0.417282 -0.481961 0.142998 -0.129525 0.157478 -0.118264
13 -0.360060 -0.813994 0.532890 -0.152651 0.420195 -0.514373 0.230925 -0.181073 0.226988 -0.098527
15 -0.345775 -0.586351 -0.468739 -0.539139 0.828010 0.260013 0.898059 1.101640 0.810130 -0.935455
41 -0.266960 -0.371380 -0.553119 -0.478700 0.778023 0.307156 0.825264 1.188381 0.766317 -0.955765
33 -0.277742 -0.530342 -0.512130 -0.428615 0.789566 0.195938 0.824194 1.150010 0.782007 -0.869424
14 -0.426192 -0.844210 0.570995 -0.184354 0.509207 -0.493679 0.209685 -0.124253 0.202303 -0.141145
28 -0.477132 -0.893819 0.720799 -0.143295 0.494809 -0.546327 0.206302 -0.210078 0.196337 -0.137046
31 -0.397120 -0.799402 0.534332 -0.120343 0.490823 -0.509270 0.245732 -0.124205 0.232497 -0.186978
16 -0.333657 -0.610899 0.391045 -0.167946 0.432131 -0.344762 0.282875 0.029535 0.258810 -0.217050
22 -0.292799 -0.742748 0.230207 -0.148258 0.417565 -0.332789 0.323195 0.045505 0.249601 -0.244208
19 -0.400034 -0.947786 0.658020 -0.153774 0.471138 -0.569041 0.213549 -0.232397 0.267682 -0.127311
37 -0.405840 -0.655839 0.492060 -0.183503 0.509159 -0.386904 0.195724 0.019479 0.296242 -0.218685
27 -0.369670 -0.802069 0.476856 -0.221859 0.510399 -0.447698 0.267567 0.011918 0.236538 -0.207581
17 -0.335392 -0.654851 0.384695 -0.131370 0.397273 -0.387514 0.269441 0.044381 0.301138 -0.176417
24 -0.361352 -0.826987 0.520147 -0.060966 0.454821 -0.502969 0.250663 -0.136795 0.226587 -0.125066
39 -0.415752 -0.745156 0.369737 -0.159349 0.534372 -0.354065 0.331891 0.055737 0.304522 -0.262386
34 -0.344313 -0.956262 0.199804 0.068128 0.293654 -0.378965 0.368278 -0.237594 0.159947 -0.036337
20 -0.367634 -0.833004 0.327866 -0.099595 0.390592 -0.440026 0.350090 -0.033052 0.206268 -0.190634
18 -0.330195 -0.708844 0.338481 -0.155299 0.458119 -0.410191 0.220480 0.002567 0.266954 -0.143872
40 -0.429962 -0.760804 0.574273 -0.153273 0.500059 -0.504845 0.169764 -0.080356 0.186664 -0.194904
26 -0.346573 -0.781428 0.527788 -0.141117 0.468392 -0.530019 0.241666 -0.176488 0.167628 -0.152946
25 -0.441383 -0.808574 0.561306 -0.203027 0.480894 -0.549131 0.201507 -0.110518 0.305707 -0.211471
29 -0.421470 -0.788767 0.495141 -0.178822 0.501247 -0.519079 0.210417 -0.131130 0.248047 -0.151981
23 -0.323694 -0.699337 0.305432 -0.100181 0.391631 -0.353727 0.250944 -0.008160 0.263882 -0.188670
38 -0.301144 -0.619928 0.434960 -0.176514 0.399832 -0.368369 0.182139 0.016726 0.294370 -0.252466
35 -0.390876 -0.771668 0.360912 -0.138913 0.397596 -0.411598 0.263597 -0.113665 0.218945 -0.138019
30 -0.402904 -2.531343 -1.438184 0.470578 0.076851 0.094209 1.540877 -0.099033 0.650408 -0.158950
32 -0.394556 -2.507718 -1.604926 0.553696 -0.055355 0.159366 1.500191 -0.232054 0.520015 -0.031445
21 -0.293372 -0.468205 -0.087412 -0.276443 0.411457 -0.047704 0.447510 0.391586 0.418567 -0.370774
36 -0.221171 -0.753314 -0.095362 -0.147315 0.364310 -0.160452 0.524312 0.240309 0.352852 -0.239986
7 -0.272900 -0.933715 0.112583 -0.015204 0.257002 -0.312455 0.377054 -0.143152 0.267548 -0.107466
