63 10
11 -0.987972 0.110317 0.426675 -0.708542 -0.511065 0.132820 -0.078784 0.890177 0.171968 -1.295683
7 -0.695707 0.208974 -0.600091 0.051263 0.247703 0.583192 -0.167061 0.864683 0.850022 -0.448118
4 -0.675178 0.319833 -0.547994 -0.084726 0.277517 0.587088 -0.202772 0.695450 0.681523 -0.428824
10 -0.927883 0.191209 0.452503 -0.671148 -0.224893 0.297881 -0.078080 0.836860 0.110314 -1.165991
33 -1.719947 -0.923571 -0.445165 -0.097119 0.798720 -1.171364 1.801540 0.000186 1.268779 0.479751
6 -0.644863 -0.464655 -0.413673 -0.723155 -0.005045 0.440558 -0.393606 0.991413 0.073550 0.137551
34 -1.664312 -0.655058 -0.406290 -0.313415 0.529241 -1.193241 1.774584 -0.224405 1.150134 0.202451
9 -0.697073 -0.563736 -0.491013 -0.804547 0.100931 0.361128 -0.407768 0.929272 0.078550 0.269438
8 -0.689088 -0.338390 -0.335409 -0.824785 0.026889 0.315040 -0.334833 0.874318 0.146893 0.024185
12 -0.694723 -0.431890 -0.253281 -0.698869 -0.089195 0.471163 -0.474725 0.930972 -0.026423 -0.024016
1 -0.761706 -0.586652 -0.225849 -0.541540 0.053631 0.379482 -0.203426 0.862755 0.094181 0.185062
2 -0.654432 -0.513264 -0.341283 -0.708475 0.117477 0.358926 -0.334501 0.991380 0.029148 0.148895
21 -1.192690 0.469581 0.544761 -0.525306 -0.356609 0.327444 0.141264 0.686535 0.317294 -1.423184
20 -1.152503 0.156913 0.788190 -0.561059 -0.393033 0.265957 0.165652 0.853325 -0.020771 -1.420591
38 -1.017437 0.186501 0.532860 -0.512687 -0.370519 0.104592 0.124264 0.701099 0.295214 -1.340907
14 -1.110108 -0.026487 0.214404 -1.242872 0.258525 0.284757 -0.119715 0.585803 -0.054901 -0.388283
3 -0.966910 -0.013035 0.153426 -1.045919 0.267274 0.238610 -0.142536 0.619931 -0.086425 -0.325201
13 -1.744878 -0.779218 -0.568599 -0.334514 0.544996 -1.017447 1.845544 -0.202180 1.300142 0.438574
15 -0.685024 -0.535794 -0.384554 -0.777297 0.011160 0.451548 -0.398672 0.868770 0.027601 0.180309
46 -1.964452 -0.603728 0.697698 0.398657 0.692818 0.931819 1.377657 0.094291 0.061240 0.068557
59 -1.827790 -0.395254 0.406437 0.343266 0.814171 1.018408 1.216100 0.047276 0.291515 0.144638
52 -0.994860 0.276085 0.421615 -0.544067 -0.302267 0.247690 0.109564 0.671774 0.215473 -1.147172
41 -1.759485 -0.603906 0.222445 0.376557 0.714591 0.911041 1.216799 -0.014443 0.291131 0.295202
37 -0.572670 0.261572 -0.563402 -0.300246 0.111880 0.424955 -0.470277 0.909746 0.711292 -0.516676
32 -0.517598 0.394409 -0.618474 -0.208420 0.238276 0.302350 -0.375627 0.842574 0.788028 -0.655124
27 -1.011680 0.100122 0.602878 -0.580610 -0.337304 0.308612 0.196703 0.663828 -0.013136 -1.118364
61 -1.642989 -0.862676 -0.331731 -0.259949 0.577012 -0.861867 1.593120 -0.081499 0.964879 0.453802
43 -0.947607 0.216251 0.529554 -0.473546 -0.282445 0.281186 0.099469 0.716171 0.085160 -1.104521
55 -1.883349 -0.283113 -1.910869 -0.572596 -0.377850 -0.330899 1.853936 -0.800836 2.146761 0.407671
29 -0.478401 0.231893 -0.881005 -0.183037 0.254596 0.280478 -0.296770 0.668172 0.848278 -0.243419
18 -0.498595 0.333672 -0.928180 -0.314003 0.255512 0.386975 -0.498967 0.888598 0.895694 -0.369183
39 -0.532200 0.347925 -0.294700 -0.127657 0.122079 0.471601 -0.277345 0.776261 0.503481 -0.657267
50 -0.578021 0.446314 -0.903552 -0.166689 0.125549 0.429690 -0.382252 0.889045 0.980000 -0.583953
35 -2.111451 -0.261698 -1.598151 -0.457019 -0.300107 -0.305314 2.117282 -0.968885 1.933703 0.298377
45 -0.544520 0.228336 -0.871707 -0.333793 0.175799 0.445031 -0.373789 0.907457 0.874801 -0.361893
53 -0.409964 0.121177 -0.832989 -0.187474 0.162711 0.227814 -0.266611 0.687128 0.736904 -0.248478
25 -0.504269 0.049512 -0.748194 -0.350474 0.065651 0.379026 -0.448079 0.808418 0.657341 -0.233756
17 -0.617994 0.151094 -0.506499 -0.268396 0.029528 0.381450 -0.263806 0.830649 0.653708 -0.429535
62 -0.519723 0.265836 -0.844632 -0.181462 0.126523 0.434549 -0.445441 0.976317 0.883657 -0.513138
57 -0.637871 -0.454931 -0.264533 -0.660555 -0.011753 0.332059 -0.235324 0.727175 0.016351 0.086688
30 -0.645891 -0.523665 -0.640468 -0.689587 0.089854 0.349910 -0.371093 0.921036 0.223264 0.256733
58 -0.736012 -0.535936 -0.335692 -0.757160 0.039929 0.532117 -0.293105 0.822141 -0.062156 0.282689
36 -0.642447 -0.291202 -0.258539 -0.794377 -0.078789 0.482913 -0.394281 0.975854 0.086737 -0.108924
56 -0.591081 -0.167773 -0.624863 -0.465996 0.152261 0.641446 -0.497050 0.971573 0.234365 0.022077
49 -0.600544 -0.294134 -0.441239 -0.528620 -0.052960 0.357633 -0.344827 0.847903 0.336109 -0.125217
31 -0.690684 -0.425790 -0.064667 -0.630174 0.031166 0.418288 -0.305714 0.810781 -0.142250 0.032546
47 -0.673235 -0.394767 -0.501567 -0.696018 -0.040560 0.447001 -0.428426 0.903326 0.117791 0.106791
60 -0.645141 -0.279174 -0.434461 -0.507119 0.062418 0.414844 -0.175869 0.754502 0.262370 0.044653
28 -0.604006 -0.612931 -0.546210 -0.765072 0.125363 0.280446 -0.423292 0.904678 0.107869 0.355697
22 -0.663598 -0.471080 -0.343639 -0.719447 0.033536 0.289698 -0.384264 0.947879 0.068250 0.001312
23 -0.632507 -0.385833 -0.465801 -0.804849 -0.025940 0.507504 -0.515572 0.988846 0.044090 0.074213
44 -0.784894 -0.416694 -0.202421 -0.734349 -0.050067 0.401945 -0.239234 0.856105 0.043678 -0.024133
63 -0.861922 0.075404 -0.035511 -0.975192 0.162510 0.363268 -0.134333 0.587762 0.127000 -0.318117
24 -0.690158 0.042470 -0.059518 -0.673653 0.118178 0.226872 -0.151970 0.563505 0.181477 -0.305623
54 -0.875187 -0.183923 -0.016718 -0.955358 0.163507 0.240936 -0.160106 0.539489 0.005673 -0.180814
40 -0.912912 -0.005896 0.103148 -0.930706 0.067735 0.437039 -0.269312 0.714945 -0.051374 -0.479867
48 -1.212262 -0.711469 -0.017772 -0.309486 0.175222 0.397977 0.566844 0.233300 0.043796 0.403339
26 -0.901402 -0.012997 -0.075226 -0.764622 0.199122 0.366545 -0.044943 0.609502 0.131404 -0.324036
42 -1.395429 -0.558004 0.157183 -0.052350 0.574071 0.261361 1.024943 -0.026518 0.198325 0.434241
51 -0.773376 -0.043766 -0.336027 -0.773450 0.056347 0.484185 -0.359220 0.758109 0.192016 -0.220846
19 -0.879306 -0.009637 0.011871 -0.917938 0.128491 0.312639 -0.176135 0.685834 0.172980 -0.435770
16 -0.905925 0.166976 0.165508 -0.884463 0.199219 0.382253 -0.107124 0.529564 0.024541 -0.477137
5 -0.917009 -0.311510 -0.559915 -0.213537 0.137707 -0.432317 0.956766 -0.240421 0.852459 0.104851
