24 10
5 0.401127 -0.351896 -0.518364 0.434031 0.006671 -0.439878 1.316735 0.401452 0.583677 0.150870
9 0.760055 -0.161496 -0.410887 0.409524 0.152019 -0.320604 1.139321 0.596688 0.893211 -0.239154
6 0.545001 -0.237269 -0.325173 0.420315 0.078055 -0.322072 1.051328 0.521562 0.667197 -0.040988
3 0.478149 -0.224791 -0.381835 0.449805 0.061584 -0.387631 1.204578 0.497981 0.589309 0.008632
13 0.567923 -0.175022 -0.302984 0.316555 0.070696 -0.311303 0.981076 0.411029 0.635608 -0.060473
7 0.595177 -0.252718 -0.475233 0.428097 0.013763 -0.359684 1.227049 0.538839 0.734349 0.008974
4 0.850777 -0.247203 0.549458 0.022644 0.398214 -0.158121 0.104590 0.703838 1.293992 -0.833400
10 1.039252 -0.177589 0.401618 0.082597 0.460298 -0.047033 0.263516 0.676438 1.387186 -0.971029
18 0.528241 -0.133194 -0.683322 0.508820 0.041593 -0.399162 1.254769 0.502212 0.540008 0.157732
1 -0.781033 -1.377356 1.168128 -0.282242 -0.226923 -0.592182 0.107757 0.405819 0.647162 0.611491
11 -0.816432 -1.391050 1.097332 -0.204715 -0.249690 -0.603314 0.140333 0.427191 0.613895 0.646235
14 -0.721845 -1.432617 1.237433 -0.288211 -0.213019 -0.565652 0.124843 0.417178 0.696477 0.613545
17 -0.811946 -1.376337 1.194631 -0.269118 -0.314356 -0.577246 0.068100 0.368044 0.628633 0.677900
8 -0.753675 -1.513717 1.237895 -0.239018 -0.285685 -0.608540 0.200644 0.463309 0.719017 0.683182
12 -0.467102 -1.108858 0.784522 -0.142452 -0.197918 -0.513940 0.311708 0.359103 0.598594 0.480494
19 0.977845 -0.346381 0.598075 -0.025280 0.380082 -0.122882 0.232806 0.635583 1.410303 -0.869170
24 0.595963 -0.207846 -0.416822 0.501962 0.075807 -0.396811 1.204630 0.543143 0.700135 0.016586
23 0.608590 -0.174280 -0.372610 0.410129 0.101540 -0.305290 1.019531 0.581122 0.769233 -0.138617
20 0.459238 -0.248052 -0.375272 0.405018 0.008964 -0.400185 1.093403 0.498883 0.573508 0.012364
2 0.659504 -0.430563 0.360686 0.058012 0.190083 -0.257468 0.507752 0.610169 1.033194 -0.448394
16 0.708977 -0.257163 0.287929 0.099367 0.232757 -0.187199 0.459667 0.553503 1.035884 -0.529259
15 -0.134747 -0.805653 0.717541 -0.136287 -0.012929 -0.295866 0.224973 0.363437 0.721955 0.065346
22 0.123139 -0.565961 0.466029 -0.036900 0.026668 -0.288092 0.220923 0.352412 0.634699 -0.068505
21 0.116607 -0.336853 0.341372 -0.056099 0.011384 -0.196699 0.196030 0.275332 0.571854 -0.061037
