78 10
10 -0.296440 -0.571837 -0.432365 0.718164 0.548806 1.380824 1.796368 1.865084 0.822183 -0.143142
7 -0.748228 0.012473 -1.108092 -0.821834 0.480387 1.379982 1.214248 1.610220 0.446394 0.014280
12 -1.651966 -0.513171 0.213451 0.174237 0.678232 -0.667814 0.623580 0.940786 -0.001286 0.339738
9 -1.672159 -0.238636 0.182988 0.174933 0.692562 -0.491176 0.655078 1.164797 -0.015646 0.330287
16 -1.616142 -0.483872 0.213595 0.211668 0.660091 -0.613641 0.793811 1.074752 -0.143135 0.233269
11 -1.756040 -0.289497 0.228647 0.295458 0.591372 -0.603806 0.650664 0.970469 -0.108849 0.237814
3 -1.817376 -0.322360 0.388464 0.260476 0.691856 -0.618433 0.688186 1.081336 -0.050731 0.392476
65 -0.735610 -2.300474 -0.912053 0.479452 -1.421606 -0.996916 -0.085458 0.244857 -0.329356 -1.555542
2 -1.517444 -0.471267 0.244246 0.343479 0.678031 -0.635816 0.692996 1.186115 -0.060003 0.221779
20 -1.813957 -0.450867 0.325301 0.420003 0.710629 -0.901010 0.679528 1.091689 -0.154032 0.193514
54 -0.737494 -2.301487 -0.808159 0.447602 -1.252637 -1.031657 -0.090155 0.157688 -0.385423 -1.514448
47 -0.406783 -2.700549 0.006865 0.940060 -2.020120 1.426847 0.768685 -0.110506 -0.141468 -0.417761
8 -0.600359 -2.567112 0.042951 0.780101 -2.121061 1.467676 0.855874 0.007907 0.049454 -0.246016
14 -0.729547 -2.359442 -0.351807 -0.987643 -1.039920 -0.059659 -1.380272 1.097620 0.782350 -0.440761
15 -1.717802 -0.547193 -0.928729 -0.021444 0.385132 0.805483 1.344416 -0.935473 0.706350 -0.029762
51 -2.299169 -0.777280 -1.180488 -0.245700 0.488254 0.901492 1.329378 -1.143827 0.749122 -0.090258
66 0.481951 -2.035930 -1.534126 -0.265246 -2.176186 -1.282813 0.560607 1.681480 0.634726 0.142774
30 0.548393 -2.166763 -1.671976 -0.335748 -2.281730 -1.417703 0.889407 1.532591 0.640081 0.370286
57 -0.494915 -2.602680 -0.611166 -1.099217 -0.889139 -0.164403 -1.186348 1.110953 0.747132 -0.534972
61 -1.461966 -0.524477 -0.722175 0.761234 -2.728019 -0.295543 -0.666650 0.897409 0.207559 -0.409359
74 -1.637347 -0.529963 -0.726421 0.819575 -2.681049 -0.238233 -0.669097 1.007184 0.113130 -0.443264
50 -1.624225 -0.528337 -0.711329 0.857995 -2.820180 -0.571627 -0.735097 1.005023 0.195670 -0.279558
4 -1.267486 -0.310482 -0.934533 -1.056340 1.134798 -0.071785 0.946746 0.641539 1.307060 0.245030
22 -0.321332 -0.554412 -0.249216 0.585891 0.621736 1.270951 1.712951 1.612502 0.550112 -0.083250
32 -0.641157 -2.314683 -0.862713 0.167929 -1.346290 -1.001144 -0.087388 0.340013 -0.417898 -1.353153
78 -1.636841 -0.141519 -1.052057 -1.072212 1.311704 -0.361644 1.132717 0.705722 1.478314 0.505846
39 -1.134621 0.308866 -1.062797 -0.535495 0.293118 1.117884 0.830753 1.237738 0.365946 -0.019519
5 -1.991525 -0.160346 -1.059122 -0.132037 0.520276 0.654356 1.050496 -0.666893 0.994322 0.120183
77 -0.979482 0.192422 -1.103327 -0.637456 0.099914 1.486572 1.099254 1.585201 0.583186 0.170501
13 -0.767645 -1.714673 -1.242812 -1.606298 -2.476288 1.331575 0.942427 -0.205218 1.217577 0.620637
58 -0.958187 0.338014 -1.048061 -0.464098 0.278197 1.209309 0.939858 1.506706 0.543267 0.056083
21 -0.991894 -1.629728 -1.247935 -1.502183 -2.523356 1.316648 0.987277 -0.459931 1.026967 0.567619
60 -1.537062 -0.358111 0.165529 0.325179 0.748245 -0.647272 0.590467 1.015774 -0.124331 0.089105
55 -1.515387 -0.509289 0.110881 0.323186 0.658820 -0.691608 0.813343 1.132660 -0.197035 0.038366
63 -1.637771 -0.334406 0.081344 0.235345 0.823870 -0.650685 0.732735 0.983781 -0.021025 0.160956
35 -1.534390 -0.423606 0.108585 0.344764 0.766085 -0.658114 0.699571 0.720620 -0.033305 0.171388
71 -1.633680 -0.445827 0.148629 0.409161 0.684274 -0.675324 0.664751 0.820789 -0.035906 0.101577
64 -0.332987 -0.618638 -0.152334 0.713513 0.686118 1.181871 1.723618 1.527579 0.570716 -0.169589
36 -0.125960 -0.661649 -0.300525 0.475322 0.647246 1.385268 1.793713 1.710174 0.646259 -0.084485
46 -0.277944 -0.385507 -0.319166 0.506276 0.618706 1.126018 1.570790 1.505702 0.650111 -0.000257
1 -0.683425 -2.049115 -0.132092 -0.682796 -1.143496 0.426242 -1.008395 0.763153 0.833010 -0.412741
76 -1.671773 -0.361408 0.136577 0.352958 0.812926 -0.735864 0.673254 0.909302 -0.058895 0.136590
72 -1.479544 -0.406500 0.218018 0.378792 0.707322 -0.720055 0.600307 1.108640 -0.163329 0.086659
33 -1.523897 -0.291003 0.032139 0.207193 0.747082 -0.561542 0.689128 0.801534 -0.092965 0.157031
42 -1.602427 -0.373591 0.152383 0.250735 0.798702 -0.570222 0.770421 0.843542 -0.175018 0.181365
40 -1.725746 -0.462888 0.190854 0.294510 0.770146 -0.639189 0.674531 0.920080 -0.171472 0.110494
23 -0.190677 -0.564694 -0.217254 0.560497 0.530657 1.143829 1.544304 1.670889 0.601151 -0.030486
29 -1.564469 -0.358049 0.132621 0.381180 0.595308 -0.560575 0.702041 0.829841 -0.026854 0.173851
44 -0.304325 -0.592946 -0.287447 0.470719 0.527607 1.166565 1.546375 1.578073 0.638212 -0.013740
28 -1.635374 -0.388906 0.141914 0.204996 0.663656 -0.583157 0.642523 0.706748 -0.051039 0.235292
17 -1.572514 0.056864 -0.603587 0.413604 0.335759 0.283090 0.868652 0.045377 0.718218 0.096571
43 -1.633445 -0.406950 0.153153 0.163812 0.732112 -0.698279 0.729371 0.964297 -0.063630 0.196957
37 -1.554791 -0.399048 0.155576 0.283332 0.628968 -0.494943 0.697725 0.982114 -0.142811 0.148842
68 -1.982013 -0.311850 -1.017221 -0.307027 0.498626 0.515641 0.929306 -0.769783 0.815123 0.017237
62 0.256613 -1.361833 -1.095171 -0.035070 -2.004099 -0.859097 0.232020 1.080257 0.430336 0.146986
38 -0.594610 -1.651142 0.111544 -0.031047 -1.461202 0.655448 0.016160 0.091986 0.497812 -0.083413
49 -0.813923 -1.356696 -0.135116 0.168444 -1.575050 0.198935 -0.265014 0.255971 0.456361 -0.217136
19 0.162728 -1.702717 -0.901446 -0.171874 -1.472345 -0.766574 0.125856 0.891548 0.437057 -0.167569
69 -1.521618 -0.097638 -0.724331 0.024316 0.422606 0.341088 0.788477 -0.353243 0.543531 0.006138
52 -0.353370 -1.643397 0.083383 0.538798 -1.635281 0.922938 0.563210 -0.035200 0.172162 -0.270948
6 -0.421024 -1.295429 -0.606182 0.275422 -1.699982 -0.389432 -0.117034 0.314288 0.048153 -0.427053
75 -0.743916 -0.263802 -0.315304 0.024575 0.381772 0.206184 0.766405 0.550499 0.276610 0.075395
70 -1.390279 -0.285783 -0.440230 0.126414 0.446100 0.076479 0.649866 -0.054451 0.512865 0.101657
56 -1.230319 -0.204985 -0.574018 -0.040009 0.313410 0.382503 0.742025 0.044124 0.507127 0.127536
26 -0.072779 -1.547094 -0.616759 -0.189092 -1.095437 -0.793733 -0.105205 0.661892 0.129723 -0.304948
59 -1.051017 -0.147320 -0.260403 -0.185005 0.560389 -0.074108 0.688780 0.655826 0.474940 0.312737
31 -1.299486 -0.269503 -0.385886 0.129592 0.314086 0.021299 0.673486 0.110739 0.378112 0.079492
53 -1.143305 -0.238167 -0.436244 0.118386 0.375110 0.092035 0.639883 0.291799 0.405563 0.070016
24 -1.173684 -0.338714 -0.427424 0.251592 0.355627 0.152850 0.808153 0.175448 0.449843 0.005759
67 -1.198269 -0.212569 -0.357361 0.165441 0.337085 -0.079844 0.627934 0.355905 0.413628 0.057414
45 -1.119019 -0.316295 -0.508733 0.087404 0.331767 0.179038 0.671335 0.012005 0.468273 -0.020734
34 -1.207962 -0.202810 -0.300696 0.170246 0.337019 0.115755 0.692995 0.304141 0.322760 0.099990
27 -0.894111 -0.352244 -0.417837 0.057520 0.420585 0.446593 0.873006 0.238798 0.402208 0.071119
41 -0.680902 -0.886366 -0.508424 -0.337405 -1.313676 0.243839 -0.116079 -0.051187 0.461365 -0.069530
25 -0.257012 -1.105897 -0.492856 -0.068506 -0.973457 -0.500011 -0.180224 0.395720 0.185275 -0.263514
73 -0.228528 -1.154078 -0.492284 -0.070978 -0.891660 -0.426188 -0.035753 0.516773 0.144240 -0.343605
18 -0.499668 -0.925198 -0.399782 -0.208231 -1.113801 0.083058 -0.074470 0.243336 0.443617 0.086953
48 -0.465694 -1.034580 -0.386839 -0.450870 -1.018692 0.102967 -0.098594 0.234149 0.491213 0.023804
