43 10
4 -0.704743 -0.786807 0.353273 -0.391201 0.203019 -0.200886 0.202279 0.029594 0.418531 -0.224871
13 -0.602642 -0.854698 0.371473 -0.390047 0.093318 -0.184069 0.356764 0.021207 0.531057 -0.143617
12 -0.540272 -0.806525 0.266766 -0.239428 -0.029203 -0.148268 0.378442 0.046206 0.545264 -0.110314
3 -0.564707 -0.764430 0.370926 -0.343022 0.074547 -0.154569 0.378250 0.069736 0.438467 -0.141389
7 -0.635879 -0.731896 0.218451 -0.328280 0.138159 -0.082310 0.252046 -0.014154 0.452370 -0.241416
9 -0.546546 -0.775726 0.289263 -0.327545 0.071551 -0.172342 0.333520 0.107262 0.510208 -0.144639
1 -0.427087 -0.762200 0.332139 -0.271881 0.014378 -0.188667 0.371115 0.148568 0.515864 -0.088881
11 -0.613178 -0.754651 0.236695 -0.211490 0.126851 -0.141790 0.311122 0.075481 0.529201 -0.233808
5 -0.658806 -0.840856 0.181704 -0.201944 0.153000 -0.134533 0.400131 -0.024707 0.586081 -0.242886
6 -0.455862 -0.856456 0.307352 -0.192895 0.031816 -0.147298 0.495581 0.139012 0.536807 -0.142544
14 -0.743924 -0.869214 0.413024 -0.470327 0.216917 -0.163243 0.245511 0.023265 0.429848 -0.179882
10 0.430916 -0.537303 -0.564575 1.585183 -1.157833 0.322767 1.848645 1.008423 2.765534 0.051797
17 0.340547 -0.577670 -0.435348 1.457070 -1.147222 0.176547 1.748804 0.978615 2.599355 0.130199
2 0.430471 -1.079773 0.669630 -0.345891 -0.505249 -0.324925 0.931160 0.541267 0.619043 0.223553
38 -0.518139 -0.859036 0.381206 -0.366887 0.057386 -0.203310 0.303463 0.022479 0.490025 -0.186246
35 -0.670558 -0.920269 0.347787 -0.401301 0.076103 -0.179288 0.399915 0.008456 0.486922 -0.158983
26 -0.617122 -0.868161 0.404169 -0.419411 0.146518 -0.217072 0.380462 0.004120 0.415672 -0.202516
41 -0.704488 -0.834842 0.361224 -0.420404 0.214077 -0.172123 0.269113 -0.030450 0.379495 -0.236834
32 -0.539435 -0.841952 0.304322 -0.340848 0.081744 -0.169646 0.375584 0.067095 0.433902 -0.139565
22 -0.503525 -0.760673 0.232005 -0.197669 0.052438 -0.159068 0.384003 0.054601 0.512793 -0.176934
42 -0.543179 -0.777737 0.337266 -0.381520 0.110007 -0.190156 0.381506 0.129890 0.514197 -0.098376
33 -0.596003 -0.760645 0.298742 -0.288757 0.158323 -0.190908 0.272676 0.065323 0.442345 -0.163053
27 -0.537297 -0.769941 0.228886 -0.286626 0.103616 -0.112701 0.365922 0.105348 0.462157 -0.152531
19 -0.519852 -0.813126 0.333750 -0.323984 0.061515 -0.140813 0.351096 0.027614 0.519169 -0.159397
29 -0.633567 -0.809545 0.322590 -0.427628 0.165810 -0.193318 0.288577 -0.005677 0.403267 -0.153425
30 -0.682993 -0.902920 0.355907 -0.446663 0.155697 -0.188227 0.277497 -0.029857 0.359382 -0.171187
43 -0.608783 -0.781206 0.302134 -0.355628 0.118824 -0.208966 0.405588 0.081242 0.506846 -0.167261
36 0.493488 -1.084248 0.643671 -0.252990 -0.563483 -0.357947 1.040258 0.589182 0.798025 0.278974
15 -0.540381 -0.801785 0.340329 -0.308128 0.052005 -0.108791 0.413454 0.029709 0.514065 -0.150615
28 -0.741810 -0.828036 0.393822 -0.400814 0.188857 -0.123130 0.260053 -0.040141 0.344926 -0.215474
16 -0.656140 -0.808464 0.337604 -0.360286 0.128035 -0.172302 0.348074 0.003019 0.451629 -0.187619
23 -0.645032 -0.781406 0.298465 -0.363872 0.147639 -0.126558 0.287298 0.061855 0.456947 -0.197635
25 -0.507033 -0.738705 0.225105 -0.223044 -0.007794 -0.150383 0.344938 0.038269 0.548010 -0.149438
20 -0.556429 -0.873964 0.322314 -0.277775 0.027219 -0.223225 0.469156 0.109202 0.506896 -0.177572
34 -0.511217 -0.812600 0.359590 -0.271961 0.086612 -0.182636 0.420136 0.051054 0.446123 -0.125095
37 -0.529514 -0.780272 0.345101 -0.222954 0.034642 -0.130668 0.374782 0.119570 0.598154 -0.119825
39 -0.525635 -0.675413 0.238430 -0.171709 0.076996 -0.087126 0.397989 0.132834 0.574576 -0.159830
40 -0.456057 -0.695668 0.238525 -0.156782 0.025181 -0.115973 0.371003 0.146689 0.540660 -0.154234
31 -0.426199 -0.751849 0.318530 -0.163658 -0.004406 -0.199313 0.431052 0.062587 0.535741 -0.113784
21 -0.587928 -0.799735 0.276413 -0.246501 -0.021573 -0.163638 0.453414 0.065030 0.658714 -0.126786
18 -0.503167 -0.779548 0.236664 -0.255580 0.078951 -0.165584 0.369915 0.113905 0.579378 -0.108593
24 -0.158630 -0.727625 0.339674 -0.080587 -0.156015 -0.159096 0.550324 0.246983 0.669469 -0.004243
8 -0.336234 -0.738015 0.280638 -0.140411 -0.091154 -0.106079 0.454388 0.146226 0.565962 -0.051835
