35 10
2 -0.227589 -0.552503 -0.559151 -0.296475 -0.829946 0.363638 0.735685 -0.118109 -1.973642 0.515118
7 0.365889 -1.183978 -0.796881 -0.284415 -0.913309 1.038112 1.634073 -0.142100 0.543706 0.111659
9 0.387536 -1.086957 -0.619451 -0.223265 -0.827940 0.812140 1.502393 -0.242344 0.539296 0.154463
6 0.372057 -1.027032 -0.949297 -0.247502 -0.893891 0.934355 1.679412 -0.283299 0.365755 0.201386
1 -0.199708 -1.758887 0.340687 -0.100415 -0.081139 -0.871532 0.496441 -0.483844 0.147759 0.071905
10 0.396732 -0.647384 -0.854791 -0.201674 -0.702394 0.721369 1.312900 -0.358075 0.361167 0.152301
3 -0.268847 -1.709868 0.459670 -0.034281 -0.035938 -0.830602 0.454681 -0.429219 0.024414 0.003457
8 -0.193116 -1.482304 0.315766 -0.032374 -0.112594 -0.622008 0.405843 -0.327537 -0.016919 0.074439
5 -0.220374 -1.737230 0.439516 -0.032019 -0.008817 -0.868599 0.427193 -0.484783 -0.001755 0.012433
4 -0.282715 -1.926382 0.509846 -0.038527 -0.011932 -0.804862 0.446469 -0.299059 0.268115 -0.063730
11 -0.226246 -1.389520 0.382768 -0.043468 -0.125132 -0.663105 0.321488 -0.348585 -0.234975 0.080048
12 -0.298805 -1.786774 0.529814 -0.069290 -0.112943 -0.743883 0.374437 -0.394417 0.000339 0.061922
31 0.246597 0.323607 -1.291849 -0.156153 -0.110740 -1.454145 0.159695 -1.509957 -0.971216 0.528177
26 0.279059 0.314851 -1.246610 -0.178512 -0.024418 -1.486015 0.157616 -1.478376 -0.808288 0.464801
29 0.388398 0.191756 -1.325120 -0.217772 -0.178503 -1.382777 0.361884 -1.598797 -0.727641 0.558086
18 0.237690 0.102625 -1.019101 -0.160383 -0.058214 -1.496605 0.049056 -1.382958 -0.834005 0.536708
25 0.197893 0.160133 -1.142425 -0.174775 -0.087357 -1.682223 0.045652 -1.598151 -0.942937 0.533117
32 -0.195982 -0.402986 -0.667246 -0.237107 -0.938960 0.521418 0.863157 -0.223130 -2.086819 0.642860
35 -0.082333 -0.290835 -0.750252 -0.277720 -1.069208 0.417630 0.900545 -0.428900 -2.322227 0.769988
13 0.447069 -1.095363 -0.849194 -0.308607 -0.904600 0.842587 1.676143 -0.369670 0.503724 0.219376
28 0.334762 -0.803878 -0.870463 -0.248142 -0.746249 0.743276 1.403704 -0.382744 0.386818 0.179618
21 0.288578 -0.922982 -0.631596 -0.261005 -0.730127 0.627303 1.302602 -0.310316 0.500940 0.171431
34 0.341697 -0.684172 -0.773761 -0.194572 -0.703107 0.870602 1.396150 -0.200944 0.331067 0.153196
22 -0.115114 -1.873232 0.545337 -0.030658 -0.054957 -0.980772 0.424464 -0.547885 0.116552 0.026298
27 -0.172570 -1.414335 0.387251 -0.070134 -0.062094 -0.717778 0.287521 -0.333318 -0.270852 0.095508
33 -0.204043 -1.816808 0.493093 0.004370 -0.023012 -0.859546 0.441335 -0.363803 0.153334 0.017109
15 -0.165922 -1.814183 0.565801 -0.075571 -0.106205 -0.764842 0.496561 -0.501598 0.123601 0.043859
30 -0.128622 -1.761490 0.524494 0.030362 -0.070843 -0.898904 0.380688 -0.487387 0.109629 0.050204
23 -0.157080 -1.608157 0.348639 -0.017338 -0.065751 -0.700236 0.428098 -0.359908 0.211723 -0.005186
16 0.424058 -0.222795 -0.246102 0.042147 -0.833883 -0.245782 0.962450 -0.854135 -1.515990 0.868090
20 0.838104 -0.037313 -0.274113 -0.343294 -0.969932 -0.281399 0.690400 -1.060558 -1.326893 0.656877
24 0.472766 -0.401376 -0.388495 -0.027033 -0.888707 -0.191485 1.050316 -0.886778 -1.404057 0.839263
19 0.840223 -0.087837 -0.324664 -0.376827 -0.933247 -0.487444 0.640431 -1.301350 -1.579663 0.794329
14 0.061627 -0.121837 -0.396537 -0.160440 -0.394692 -0.150760 0.364484 -0.493460 -1.012699 0.429849
17 -0.014801 -0.476495 -0.178025 -0.064468 -0.409936 -0.055836 0.463742 -0.227952 -0.549915 0.277405
