42 10
7 0.057501 -0.623549 -0.255323 -0.263967 -0.522360 -0.520751 0.731561 0.433603 0.943630 0.236193
1 0.161198 -0.599514 -0.315337 -0.231435 -0.562458 -0.738745 0.710119 0.391087 0.929083 0.326660
6 -0.244700 -0.485312 0.257874 0.088994 0.636691 -0.418683 0.543037 0.784580 0.125098 -0.080170
5 -0.260988 -0.518448 0.189286 0.023117 0.608405 -0.443087 0.561860 0.685362 0.242330 -0.123731
13 -0.233338 -0.474757 0.205079 -0.037191 0.477989 -0.428313 0.502546 0.634797 0.261003 -0.034654
8 -0.294620 -0.532435 0.265131 0.038690 0.595655 -0.409132 0.518154 0.751372 0.197790 -0.074043
4 -0.361247 -0.467687 0.283702 0.005279 0.597339 -0.395431 0.475573 0.799932 0.242115 -0.127575
10 -0.184080 -0.485887 0.093497 -0.030389 0.306118 -0.417838 0.582009 0.620898 0.395939 -0.043423
3 -0.311696 -0.453509 0.273868 -0.000612 0.492553 -0.377890 0.527469 0.646885 0.178132 -0.104315
2 -0.286663 -0.473764 0.235805 -0.074565 0.341628 -0.296704 0.485603 0.632355 0.237397 -0.054008
11 -0.243422 -0.514012 0.190004 0.044885 0.520125 -0.483616 0.475537 0.718634 0.260681 -0.093095
14 -0.359908 -0.579705 0.310423 -0.039285 0.634630 -0.432263 0.527894 0.758401 0.228538 -0.080835
35 0.005549 -0.651421 -0.324442 -0.308598 -0.716336 -0.537256 0.725074 0.312010 0.960055 0.348830
41 -0.139734 -0.690757 -0.123057 -0.246782 -0.406859 -0.494168 0.721968 0.448026 0.902438 0.191321
17 -0.048902 -0.639268 -0.278636 -0.350872 -0.934473 -0.405245 0.647942 0.221411 1.090013 0.374855
19 -0.286840 -0.523086 0.299737 -0.014104 0.556060 -0.385530 0.490266 0.701971 0.238905 -0.092296
20 -0.285198 -0.452692 0.231062 0.043145 0.560734 -0.404209 0.485496 0.684527 0.111346 -0.126617
34 -0.273338 -0.527485 0.202645 0.043483 0.509086 -0.479523 0.567904 0.678099 0.246810 -0.049010
15 -0.402390 -0.539612 0.283285 -0.075530 0.520606 -0.305530 0.514673 0.646846 0.261918 -0.109207
26 -0.252397 -0.472697 0.222411 -0.033716 0.467012 -0.424526 0.532734 0.647021 0.219242 -0.076540
36 -0.251127 -0.486523 0.247496 -0.056211 0.498323 -0.397490 0.508403 0.678566 0.229942 -0.043416
25 -0.308006 -0.454124 0.195194 0.003135 0.504821 -0.400175 0.416947 0.623642 0.218024 -0.097654
22 -0.274623 -0.486578 0.225999 0.027232 0.553917 -0.362924 0.445517 0.669959 0.140756 -0.128352
29 -0.290919 -0.489979 0.178202 -0.036592 0.491642 -0.408396 0.488974 0.620026 0.257357 -0.055177
32 -0.350947 -0.506910 0.209159 0.013630 0.597657 -0.361200 0.481328 0.685739 0.176777 -0.102811
16 -0.246127 -0.468512 0.177737 -0.030908 0.348179 -0.394413 0.547431 0.633392 0.305938 -0.018535
21 -0.320834 -0.456325 0.206285 -0.048459 0.418649 -0.416045 0.518778 0.671750 0.292457 -0.024159
33 -0.271038 -0.489871 0.196154 0.016312 0.461786 -0.405734 0.471595 0.673537 0.286215 -0.064567
40 -0.311622 -0.461292 0.217944 0.043487 0.579847 -0.346039 0.424192 0.706328 0.146233 -0.131756
38 -0.210352 -0.486587 0.186836 -0.039711 0.302187 -0.373629 0.431137 0.552589 0.339545 -0.062748
30 -0.254519 -0.529807 0.224671 0.100383 0.630865 -0.411952 0.525046 0.751624 0.154995 -0.091624
27 -0.278251 -0.508753 0.160148 -0.107508 0.347689 -0.286365 0.484664 0.618269 0.279845 -0.033094
18 -0.286807 -0.482559 0.227421 0.018283 0.671780 -0.419385 0.466894 0.781672 0.211293 -0.075320
42 -0.335382 -0.480303 0.171943 -0.109061 0.353674 -0.375450 0.520500 0.664070 0.395429 0.016437
23 -0.328669 -0.415796 0.235240 0.028414 0.578073 -0.297800 0.446094 0.730796 0.186708 -0.142657
37 -0.392855 -0.469327 0.346567 0.064110 0.729812 -0.352998 0.463347 0.779853 0.180205 -0.137351
39 -0.355163 -0.450321 0.268974 0.041716 0.703748 -0.389751 0.498435 0.774610 0.163704 -0.131647
28 -1.806101 -1.696511 0.552668 -1.149384 -1.313434 0.560346 0.771890 0.590629 1.977732 0.268901
9 -1.643018 -1.698934 0.355401 -1.122328 -1.311071 0.335157 0.836997 0.675700 2.082218 0.297947
31 -0.255730 -0.576377 0.109307 -0.129794 0.001646 -0.388999 0.544265 0.498554 0.512768 0.076542
24 -0.226630 -0.521156 0.065913 -0.164055 -0.185861 -0.287297 0.479987 0.422434 0.629476 0.133167
12 -0.414536 -0.648455 0.081891 -0.293071 -0.255133 -0.222065 0.445933 0.378536 0.623819 0.137468
