96 10
7 1.003929 -1.128964 1.008455 0.056988 -0.308268 1.270315 0.392202 0.587477 -0.318651 0.621194
24 1.020884 -1.183193 1.228914 -0.005377 -0.269159 1.239497 0.345827 0.701927 -0.347748 0.639300
23 -0.399719 -0.371426 1.334477 0.087971 -1.252908 0.913460 0.387609 0.037316 -0.749114 0.997343
12 -0.760243 -0.411629 1.449363 0.202249 -1.335502 0.961804 0.212618 -0.031968 -0.938352 1.070279
8 -0.559415 -0.303954 1.368968 0.225437 -1.172976 0.865018 0.387428 0.132287 -0.761747 0.990064
14 0.373803 -0.677129 1.628195 -1.226985 0.220930 0.590453 -0.374020 -0.560810 -0.921905 0.774016
6 0.392720 -0.770833 1.847477 -1.290094 0.126009 0.548208 -0.123638 -0.560861 -0.935091 0.772466
19 0.332470 -0.656677 1.899679 -1.397944 0.235482 0.493990 -0.212436 -0.777124 -0.935755 0.799173
65 -0.705684 -2.003069 -0.338350 -0.415534 0.767901 -0.143585 1.621138 -2.058567 -0.029468 -0.575358
5 0.368067 -1.964810 -0.906927 -0.138676 -0.312107 -0.266115 1.798274 -1.951512 -0.647206 -0.263621
15 0.224043 -0.884555 0.973900 0.028046 -0.734694 0.899921 0.538990 0.456005 -0.349225 0.817384
73 -0.641763 -2.062098 -0.419279 -0.284394 0.587671 -0.131986 1.506001 -1.916341 -0.259035 -0.709191
76 0.371386 -2.071477 -0.997198 -0.089874 -0.501957 -0.218070 1.970990 -2.005023 -0.688659 0.017842
86 -0.562444 -2.068503 -0.504031 -0.107538 0.609382 -0.105543 1.496516 -1.873592 -0.130913 -0.588958
11 -0.253348 -0.283203 1.449715 0.239218 -0.719450 -0.087955 1.753693 1.040107 -0.098365 0.780176
1 0.405220 -0.872533 0.543884 0.031549 -0.472127 0.535084 0.510963 0.205665 -0.310946 0.746056
10 -0.205146 -0.270598 1.433173 -0.130162 -0.576804 -0.238183 1.793157 0.799292 0.097604 0.746018
4 -0.781516 -0.621825 1.900566 0.689082 1.030218 -0.913992 1.410689 0.185986 -2.919596 -1.433126
20 -0.203483 -0.375371 1.413671 0.011955 -0.829961 -0.097801 1.738044 0.790553 -0.029083 0.781690
34 -0.707255 -0.574461 1.720908 0.737610 1.011769 -0.990372 1.568239 0.180349 -2.693356 -1.354849
81 -1.677034 -2.644876 0.219161 -0.471196 0.789173 0.276324 0.866619 -0.469387 0.627879 -0.784066
2 -0.539466 -0.531038 1.642516 0.578780 0.904442 -0.886483 1.319463 0.100079 -2.903094 -1.362224
87 -1.696993 -2.375337 0.325121 -0.353558 0.877244 0.271372 0.619464 -0.505862 0.326609 -0.825734
71 -1.589971 -2.384846 0.388727 -0.491509 0.918508 0.152288 0.620678 -0.446923 0.414033 -0.945199
42 -1.637733 -2.370228 0.242633 -0.301478 0.950783 0.189166 0.758868 -0.213737 0.389200 -0.871834
3 -1.527971 -2.103086 0.266990 -0.166323 0.845199 0.218360 0.623787 -0.276409 0.175885 -0.862249
58 -0.273380 -2.166739 -0.957072 -0.100280 -0.408110 -0.233132 1.603902 -1.662323 -0.417496 -0.332116
22 -0.209495 -2.010764 -0.867757 -0.136700 -0.432359 -0.183878 1.467346 -1.630312 -0.240575 -0.078500
18 -0.494410 -1.923088 -0.628905 -0.108603 0.328787 -0.159378 1.496897 -1.927797 -0.253922 -0.425068
9 -1.424998 -2.322724 0.011818 -0.232102 0.641084 0.177415 0.701158 -0.416461 0.267946 -0.850975
62 -1.716027 -2.135741 0.434080 -0.424842 0.916757 0.214230 0.314929 -0.386753 0.177085 -1.039372
16 -0.535234 -0.452831 1.674539 0.605912 0.788120 -0.884526 1.404206 0.071547 -2.701973 -1.240633
59 -0.245852 -1.856122 -0.628242 -0.086661 -0.003773 -0.073118 1.459160 -1.462672 -0.132464 -0.438877
30 0.230641 -0.611289 1.736876 -1.361319 0.191841 0.423403 -0.258495 -0.733864 -0.924470 0.624637
48 0.252164 -0.703652 1.800145 -1.228798 0.090201 0.592678 -0.183776 -0.486564 -0.794171 0.730813
69 -1.718176 -2.219161 0.376206 -0.405306 0.908830 0.092247 0.661896 -0.346510 0.319516 -0.907498
84 -0.486298 -0.438528 1.170574 0.415183 -1.297223 1.037958 0.363476 -0.017276 -0.856917 1.109007
96 0.348386 -0.545165 1.664249 -1.370153 0.223948 0.274920 -0.142387 -0.437490 -0.696939 0.623217
17 -1.695840 -2.244262 0.415655 -0.440049 0.862902 0.076510 0.679628 -0.468473 0.388532 -0.881869
68 -0.451981 -0.364200 1.218526 0.366584 -1.267668 1.042014 0.365831 0.005498 -0.869711 1.074249
56 0.181749 -0.541045 1.623915 -1.166671 0.056706 0.530842 -0.201045 -0.510485 -0.899743 0.784981
63 0.356593 -0.527594 1.655360 -1.130388 0.052395 0.603187 -0.088756 -0.373645 -0.685922 0.765187
95 0.358133 -0.758007 1.798407 -1.438043 0.360129 0.477268 -0.177220 -0.693142 -0.859807 0.702053
35 -0.737020 -0.269225 1.081856 0.297112 -1.161801 0.787245 0.294777 -0.101930 -0.787951 1.035674
61 -0.506542 -0.236643 1.183427 0.232720 -1.050220 0.654685 0.525930 -0.069581 -0.745640 1.039033
64 0.815194 -1.032014 0.967952 0.177652 -0.302077 1.045349 0.664662 0.779565 -0.213566 0.576185
54 -0.641532 -0.329567 1.202998 0.215120 -1.259236 0.769900 0.358130 -0.336537 -0.944705 1.025856
57 -0.510307 -0.468743 1.071804 0.357062 -1.205380 1.003763 0.388415 -0.044979 -0.771189 1.054746
74 0.390658 -0.725524 1.603229 -1.438763 0.211743 0.554926 -0.273041 -0.607360 -0.775782 0.663855
27 0.821754 -1.080924 1.020258 -0.042575 -0.132241 1.128552 0.391578 0.736746 -0.316937 0.615384
44 0.789618 -1.065966 0.944428 0.155071 -0.192195 1.108920 0.453579 0.782834 -0.224301 0.584739
46 -0.355968 -0.524606 1.142011 0.227316 -1.196442 1.040361 0.416730 -0.064513 -0.713271 1.182146
28 0.750101 -1.130708 1.068599 0.127235 -0.144821 1.033925 0.594381 0.887147 -0.212370 0.477820
39 0.919131 -1.119620 0.962040 0.050653 -0.205544 1.063579 0.672523 0.831040 -0.100598 0.592696
40 -0.713906 -0.678551 1.225185 0.560552 0.852686 -0.795449 1.208866 -0.081186 -2.303384 -1.368957
41 -0.660532 -0.222686 1.216336 0.340282 -1.231253 0.728567 0.534549 -0.132310 -0.884725 0.950023
79 0.631567 -0.968986 0.830735 0.118685 -0.352837 1.001201 0.385951 0.539526 -0.423798 0.648658
36 -0.263524 -0.500785 1.026659 0.233436 -1.206112 0.913825 0.384831 -0.019826 -0.697552 1.088948
85 -0.192855 -0.259614 1.289991 0.051065 -0.576503 -0.237711 1.660058 0.725360 -0.065137 0.753389
92 -0.189030 -0.335589 1.266361 0.231511 -0.683570 -0.137671 2.033691 1.045267 0.152015 0.718419
75 0.793007 -0.830462 1.047468 -0.098591 -0.184483 0.950802 0.409685 0.607521 -0.278323 0.576408
66 0.685483 -0.997244 1.070214 0.035060 -0.394751 0.927984 0.516679 0.682626 -0.243680 0.634653
37 0.765749 -1.132021 1.007363 0.116147 -0.247711 1.194673 0.417749 0.720961 -0.260190 0.688058
49 0.605108 -1.164880 1.088878 -0.022452 -0.286272 1.134300 0.334667 0.544271 -0.212097 0.652540
51 0.812266 -1.010089 1.152594 0.033953 -0.157589 1.123290 0.328691 0.793924 -0.303396 0.596559
78 0.867077 -1.128699 1.069291 0.119189 -0.287334 1.264484 0.446372 0.654074 -0.331560 0.807343
45 -0.262974 -0.256579 1.432628 0.055271 -0.519981 -0.229311 1.825649 0.856191 -0.040748 0.686390
53 0.887321 -1.105230 1.031582 0.016672 -0.364515 1.142952 0.524923 0.641408 -0.346611 0.717168
29 0.815770 -1.176370 0.933871 0.203864 -0.328587 1.170164 0.592681 0.744455 -0.227935 0.661453
50 -0.343927 -0.351186 1.125791 0.129537 -0.705477 -0.165670 1.667009 0.516002 -0.141887 0.648737
33 0.664796 -0.990626 1.151642 0.071748 -0.362850 1.050338 0.384064 0.653373 -0.378932 0.671647
55 -0.466075 -1.038663 0.580603 0.536854 0.224349 -0.825332 1.443966 -0.300917 -1.478188 -1.748569
13 0.309301 -0.400603 1.598840 -0.866909 -0.755342 0.085817 0.874098 -0.110599 0.181818 0.228043
21 -1.585418 -2.299280 0.152162 -0.414317 0.768897 0.268180 0.558982 -0.412552 0.413308 -0.838601
83 -1.434896 -1.995425 0.076342 -0.406145 0.545074 -0.081868 0.864475 -0.923524 0.227227 -0.758234
88 -0.043981 -1.644302 -0.133984 0.296872 -0.799761 -0.542513 1.243356 -1.128595 -1.676480 -1.501443
38 0.625350 -0.805009 0.791163 -0.129240 -0.484530 0.668522 0.488312 0.217742 -0.233670 0.760271
26 -0.692131 -0.767348 1.019436 0.355970 0.474300 -0.977374 1.545176 -0.391698 -1.772709 -1.558391
31 -0.365437 -1.599769 -0.466019 -0.060029 0.226327 -0.101080 1.114368 -1.348487 -0.164554 -0.282783
91 0.532371 -0.701497 0.753633 0.035310 -0.514783 0.768732 0.554249 0.268196 -0.195435 0.887597
60 0.418165 -0.648478 0.838268 -0.110678 -0.493600 0.671854 0.470656 0.232642 -0.294652 0.691076
70 0.403301 -0.852544 0.742495 0.089420 -0.687187 0.795007 0.570716 0.448083 -0.261132 0.828141
90 0.394868 -0.755825 0.584773 0.078383 -0.628052 0.681017 0.852026 0.273971 -0.116583 0.786232
72 0.437996 -0.720872 0.885294 -0.191388 -0.476110 0.627049 0.594041 0.220637 -0.272852 0.746421
93 0.394542 -0.935571 0.705412 0.053409 -0.815474 0.989319 0.460306 0.265009 -0.307047 0.859395
43 0.223823 -0.752639 0.774156 0.131275 -0.713128 0.820220 0.601180 0.217037 -0.378664 0.879643
47 0.468521 -0.740943 0.882568 -0.320474 -0.353939 0.707706 0.240613 0.170785 -0.376981 0.747572
80 0.301877 -0.732230 0.631506 -0.110561 -0.451207 0.593446 0.566852 0.084591 -0.188963 0.610128
89 0.448255 -0.793428 0.831181 0.163582 -0.485921 0.829496 0.646570 0.470117 -0.408040 0.661550
82 0.097394 -2.165256 -0.490473 0.428893 -0.949712 -0.033268 1.070397 -1.263638 -1.798195 -1.456115
94 0.391567 -0.788101 0.888138 -0.104923 -0.708907 0.714946 0.542038 0.323305 -0.291770 0.838586
25 -0.196320 -0.433224 1.730686 -0.906431 -0.994841 -0.038479 1.108218 -0.303685 0.337120 0.381364
52 -0.538443 -1.113818 0.512012 0.364162 0.194898 -0.701232 1.375082 -0.387791 -1.242477 -1.685336
32 -0.251071 -1.905178 -0.342262 0.135363 -0.648368 -0.254220 1.093292 -1.033456 -1.127812 -1.147342
77 -0.062278 -0.453403 0.769124 -0.041600 -0.252341 0.060999 0.752696 0.288949 -0.171025 0.272910
67 0.083595 -0.490763 0.853554 -0.125304 -0.358903 0.227645 0.754885 0.037960 -0.105498 0.318952
