35 10
13 -0.718839 -1.417200 0.544528 -0.758114 -0.047689 -0.211937 0.466198 -0.237250 0.237260 0.147205
1 -0.512061 -1.147258 0.290531 -0.516119 -0.089694 -0.057672 0.426134 -0.118568 0.219922 0.070637
11 -0.542666 -1.192148 0.203189 -0.519786 -0.102657 -0.035806 0.384986 -0.081245 0.293758 0.024030
14 -0.398764 -1.087520 0.070494 -0.494667 -0.163858 0.051695 0.348009 -0.088164 0.315828 0.078357
5 -0.499416 -1.189489 0.175203 -0.515891 -0.151866 -0.105534 0.400651 -0.214034 0.359259 0.077862
4 -0.553824 -1.232335 0.270276 -0.557320 -0.137124 -0.089423 0.417354 -0.122822 0.295533 0.068435
3 -0.528556 -1.139891 0.302113 -0.453430 -0.064839 0.022007 0.532095 -0.142544 0.069589 0.039253
15 -0.486829 -1.171549 0.220134 -0.608816 -0.103827 0.008964 0.425516 -0.130115 0.324995 -0.002481
9 -0.069350 -0.871095 -0.629168 -0.209024 -0.384778 0.192623 0.228041 0.163187 0.621425 0.064139
16 -0.408872 -1.127483 0.124210 -0.494732 -0.158457 0.010890 0.455122 -0.084812 0.319669 0.045364
6 0.089732 -0.790217 -0.740936 -0.005916 -0.462562 0.300144 0.252835 0.181925 0.544031 0.124366
12 -0.055585 -0.858763 -0.494652 -0.245882 -0.301688 0.271492 0.318921 0.073236 0.405320 0.005031
21 -0.496155 -1.142477 0.160216 -0.573596 -0.240226 -0.016559 0.421044 -0.160813 0.334399 0.104046
20 -0.551396 -1.156194 0.277595 -0.519009 -0.143398 -0.116370 0.446962 -0.132478 0.174621 0.062570
31 -0.378359 -1.085025 0.141856 -0.417121 -0.180921 -0.010190 0.418571 -0.156522 0.207396 0.077209
23 -0.550835 -1.109742 0.291293 -0.471832 -0.103214 -0.044100 0.432645 -0.155012 0.129920 0.101050
25 -0.396388 -1.021247 0.123022 -0.423346 -0.198348 0.011128 0.397623 -0.155529 0.244660 0.058137
27 -0.416599 -1.144327 0.146103 -0.531183 -0.156072 -0.023938 0.400507 -0.084531 0.265312 0.091932
24 -0.385061 -1.033288 0.151174 -0.405097 -0.158232 -0.043307 0.340544 -0.070412 0.325608 0.103966
22 -0.465372 -1.120799 0.229145 -0.459852 -0.124860 -0.087132 0.388289 -0.167256 0.130508 0.090676
34 -0.427639 -1.081810 0.223612 -0.351040 -0.105175 -0.032177 0.465301 -0.156067 0.132523 0.110551
8 1.067672 -1.065870 -1.270450 0.427377 -0.674421 1.420774 1.397954 0.268196 0.018276 -0.061492
32 1.010458 -0.879715 -1.331354 0.436399 -0.480700 1.389763 1.333559 0.303658 -0.104049 -0.155021
28 -0.595164 -1.163990 0.311786 -0.517828 -0.115486 -0.073228 0.373054 -0.168724 0.201278 0.089228
10 0.959147 -0.804534 -1.182144 -0.016956 -0.060117 1.384901 1.231350 0.557805 0.202748 -0.686120
33 -0.032426 -0.867092 -0.540881 -0.097824 -0.239643 0.229254 0.325146 0.194411 0.382712 0.046737
30 1.098163 -0.962473 -1.238063 0.243146 -1.093236 1.010010 0.892947 0.072569 0.755000 0.034671
2 1.132134 -0.714830 -1.266091 0.007870 0.011986 1.496063 1.330939 0.698271 -0.002517 -0.782862
35 -0.268575 -0.921942 -0.217552 -0.328391 -0.222842 0.118653 0.338045 -0.010379 0.288253 0.071105
7 1.018374 -0.942627 -1.172087 0.152385 -0.999816 0.991814 0.880625 0.128492 0.717431 -0.020788
29 0.080875 -0.825322 -0.263096 -0.177953 -0.373571 0.267645 0.492475 -0.107776 0.282365 0.071414
26 -0.081593 -0.822688 -0.140880 -0.256670 -0.193887 0.157843 0.445735 -0.030483 0.175037 0.009457
18 -0.091817 -0.765935 -0.180207 -0.233779 -0.176099 0.161818 0.337474 0.008209 0.245124 0.074127
17 0.000445 -0.824044 -0.251047 -0.176063 -0.297286 0.236065 0.474828 0.049894 0.323041 0.037405
19 -0.042267 -0.810183 -0.098315 -0.239275 -0.218941 0.209640 0.406295 -0.045637 0.219063 0.033492
