17 10
1 -0.513609 -0.697278 0.298174 -0.060520 0.016585 -0.056709 0.490353 0.184656 0.734309 -0.041950
8 -0.423239 -0.626484 0.262443 -0.006499 -0.041550 -0.005200 0.467897 0.140553 0.617482 -0.001523
10 -0.458537 -0.645796 0.226765 -0.023548 0.017139 0.027507 0.519757 0.130960 0.725264 -0.076634
4 -0.500675 -0.618976 0.288482 -0.004008 0.022081 -0.050079 0.473581 0.199655 0.715782 -0.065645
9 -0.481661 -0.631428 0.217747 -0.039608 -0.007536 -0.010722 0.498356 0.156141 0.722509 -0.047484
5 -0.447141 -0.670225 0.196856 -0.031387 0.022031 -0.033650 0.528305 0.091249 0.719513 -0.066959
3 -0.510735 -0.632437 0.290822 -0.017181 0.007376 -0.019326 0.518762 0.147440 0.640772 -0.067660
6 -0.401121 -0.643529 0.226134 0.025407 -0.032727 0.019528 0.528642 0.161993 0.686921 -0.022345
7 -0.416637 -0.668337 0.196147 -0.031555 -0.068896 0.018488 0.544153 0.153216 0.782135 -0.044659
11 -0.519205 -0.679597 0.281099 -0.015869 0.022767 -0.040368 0.457412 0.189571 0.724360 -0.086685
14 -0.495990 -0.671826 0.315096 -0.063190 0.020518 0.004508 0.476894 0.129203 0.660831 -0.016342
16 -0.428463 -0.584813 0.239407 -0.013080 -0.031470 -0.014699 0.508034 0.121628 0.658149 -0.028785
15 -0.499074 -0.628576 0.283801 -0.067732 0.014228 0.026313 0.486294 0.092239 0.643314 -0.066233
12 -0.457966 -0.609191 0.225400 -0.059287 -0.036323 -0.029558 0.410995 0.078784 0.587083 -0.007400
17 -0.456260 -0.633274 0.259862 0.008880 -0.057622 -0.047255 0.508322 0.164644 0.710986 0.002461
13 -0.422524 -0.615463 0.272132 -0.061506 -0.022582 -0.019545 0.498695 0.103731 0.677193 -0.004904
2 -0.202140 -0.346763 0.119948 -0.028026 -0.020378 -0.003526 0.285787 0.105530 0.324765 -0.028036
