6 10
4 -0.019716 0.018176 -0.009505 0.071371 0.186354 -0.150177 0.021617 0.151394 0.027856 -0.173585
5 -0.027146 -0.097352 -0.064478 0.074495 0.283829 -0.201474 0.149585 0.111447 0.086447 -0.261241
3 -0.062745 -0.024512 0.033295 0.059440 0.170089 -0.118542 0.096548 0.096268 -0.022283 -0.162348
1 -0.066730 -0.077480 0.039627 -0.001065 0.135409 -0.133716 0.042757 0.102524 0.060383 -0.101529
2 0.031768 -0.016558 -0.011866 0.003647 0.039435 -0.036566 0.043180 0.063628 -0.038700 -0.055776
6 -0.003981 -0.041129 0.000575 0.088681 0.142726 -0.087108 0.082052 0.116271 0.017621 -0.121497
