72 10
4 -0.999598 -1.475978 0.434918 0.196360 -0.106543 -0.130062 0.931504 1.160840 0.551369 0.098342
3 -0.899759 -1.484438 0.366359 0.192157 0.020099 -0.130640 0.937655 1.127933 0.421088 0.116948
17 -1.096502 -1.405689 0.506075 0.210415 -0.030624 -0.184760 1.067920 1.040556 0.465066 0.083599
5 -0.993890 -1.434049 0.347010 0.196139 -0.188380 -0.168612 1.045402 1.087845 0.597986 0.087211
8 -0.345142 -1.878253 0.315937 0.008791 -0.499388 -0.208847 0.314297 -0.024739 -0.426790 0.341764
6 -0.331346 -2.046628 0.329919 -0.123693 -0.530645 -0.147503 0.271234 -0.067706 -0.566782 0.355733
11 -0.389895 -1.953298 0.409448 -0.152663 -0.748962 -0.094082 0.243062 -0.009210 -0.463777 0.300333
2 -0.093024 -1.926950 0.255632 -0.173340 -0.705285 0.024098 0.251192 0.052273 -0.566143 0.369491
12 -0.208574 -1.793022 0.299357 -0.180903 -0.651243 -0.123946 0.087318 -0.118475 -0.513873 0.415036
1 -0.216286 -2.056228 0.240343 -0.091508 -0.611934 -0.301861 0.055731 -0.256698 -0.538011 0.511351
14 -0.188178 -2.048964 0.349890 -0.077855 -0.617562 -0.199857 0.020337 -0.156911 -0.643367 0.473972
27 0.549481 -0.737757 -1.734962 -0.812158 0.974576 1.037224 1.273474 0.690838 1.169641 0.519321
20 0.578910 -0.752242 -1.801010 -0.738370 1.173193 0.907826 1.198874 0.663669 1.177727 0.557583
10 0.643511 -0.724637 -1.783314 -0.596597 1.065678 0.974869 1.132308 0.738449 1.251933 0.510031
39 0.527015 -0.690675 -1.699596 -0.782543 1.301747 1.072429 1.223576 0.868251 1.180474 0.482604
7 -0.141415 -1.035195 0.407514 -1.210414 -1.697339 1.100079 1.010421 0.441063 0.226584 0.063444
67 0.578639 -0.749053 -1.697599 -0.530758 1.277921 0.731774 1.015522 0.683602 1.397440 0.600057
9 0.559206 -0.700825 -1.733280 -0.583949 1.100991 0.856416 1.061814 0.810740 1.266009 0.530985
68 0.589437 -0.672176 -1.736748 -0.747577 1.107991 1.128046 1.277942 0.987735 1.260856 0.485044
13 0.588609 -0.616765 -1.725449 -0.651157 1.247097 0.975145 1.261767 1.038006 1.428473 0.509409
45 0.782413 -0.677678 -1.786598 -0.702338 0.911411 1.023558 1.055323 0.881171 1.266418 0.556317
29 1.383335 -1.226935 -2.099043 -0.460075 0.277224 0.283523 -0.113508 -0.593738 1.340664 1.128102
25 1.302587 -1.299523 -2.127820 -0.594547 0.267712 0.383396 0.001052 -0.651053 1.398234 1.088812
30 2.351887 -1.529558 -1.565856 1.514150 -1.304450 0.045175 -0.343107 1.411920 -0.027869 1.228212
71 1.492512 -1.247576 -2.145729 -0.453709 0.316175 0.350948 -0.107425 -0.626219 1.373647 1.064395
70 2.433570 -1.538582 -1.620236 1.299380 -0.862082 0.075548 -0.559946 1.570496 -0.026415 1.240015
15 1.407400 -1.201850 -2.168362 -0.471319 0.418389 0.364449 -0.082895 -0.644565 1.432054 1.096744
19 -0.210116 -2.133572 0.289641 -0.096213 -0.606823 -0.195197 0.171539 -0.145539 -0.502435 0.471367
31 -0.968123 -1.528399 0.447702 0.212287 0.066061 -0.263743 0.874692 0.873359 0.339434 0.155291
55 -1.003628 -1.535774 0.503451 0.172369 0.059843 -0.250961 0.919183 0.967912 0.346341 0.127736
33 -0.928656 -1.447247 0.393193 0.449571 -0.142930 -0.237708 0.933209 1.072053 0.444308 0.108809
58 2.068398 -1.480218 -1.805654 1.178892 -1.115019 0.632637 -0.188363 2.496396 0.278477 1.010502
54 -1.038641 -1.397698 0.518335 0.290369 -0.157480 -0.099715 0.999532 1.233620 0.402538 0.013367
28 -0.960895 -1.433321 0.355418 0.281234 0.033683 -0.086911 0.984209 1.167422 0.504457 0.087012
32 -1.060442 -1.557408 0.363818 0.416939 -0.066239 -0.325231 0.904846 0.946092 0.288748 0.151538
38 -1.036096 -1.345785 0.415269 0.241150 0.039023 -0.088963 1.107272 1.242769 0.554530 -0.024250
37 -0.989511 -1.421132 0.287519 0.371022 0.088334 -0.188079 0.854426 1.005737 0.476187 0.176632
36 -1.026988 -1.454571 0.388198 0.411909 0.257826 -0.407104 0.987466 1.221018 0.500921 0.149914
40 1.834956 -1.282176 -1.665059 1.447594 -0.812827 0.388392 -0.318618 2.461568 0.270488 0.882202
56 -1.109023 -1.418430 0.301374 0.312252 0.188832 -0.121827 1.148015 1.402262 0.478306 0.056749
66 -0.894255 -1.344505 0.440313 0.094099 -0.080136 -0.131285 0.918805 0.991357 0.360391 0.088072
18 0.633941 -1.024199 -1.835649 -1.147469 0.191879 0.491708 0.390583 -0.744523 1.298263 1.201523
47 -0.242202 -1.988265 0.243099 -0.016599 -0.683933 -0.211009 0.080744 -0.095146 -0.544613 0.435602
21 0.469872 -1.217149 -1.903508 -1.202007 0.084235 0.485602 0.621758 -0.888103 1.325688 1.270575
42 -0.371371 -1.757848 0.335303 -0.014849 -0.531259 -0.202775 0.195445 0.094464 -0.395842 0.369048
22 -0.261145 -1.988160 0.277232 -0.062371 -0.709210 -0.120936 0.251455 0.021539 -0.493783 0.380087
24 -0.225445 -2.043759 0.347762 -0.133479 -0.294815 -0.156480 0.168244 -0.050682 -0.564048 0.351571
34 0.507800 -1.343246 -1.882270 -1.241435 0.272536 0.446874 0.549253 -0.917893 1.194418 1.345730
23 -0.086965 -1.064261 0.509435 -1.077029 -1.521665 1.066407 0.838894 0.605563 0.095203 0.013198
64 -0.169149 -1.965953 0.262600 -0.079589 -0.564618 -0.162807 0.104267 -0.211661 -0.609430 0.396770
49 -0.334471 -1.846914 0.422529 -0.007175 -0.560459 -0.121529 0.261136 0.032233 -0.486064 0.238603
41 -0.379922 -1.813066 0.314395 0.037570 -0.419459 -0.174133 0.333345 0.094739 -0.281613 0.282964
52 -0.247085 -2.066239 0.322014 -0.169493 -0.709041 -0.155206 0.209101 -0.142365 -0.560873 0.397530
61 -0.129281 -0.909510 0.367893 -0.993523 -1.605846 1.039916 0.999340 0.720520 0.408774 0.042583
16 -0.100991 -1.600144 0.164856 0.688110 -1.099961 -0.029575 0.396677 0.288042 -0.059249 0.391740
62 -0.366013 -1.862970 0.320812 -0.063051 -0.442993 -0.222417 0.178673 0.017466 -0.432170 0.305716
46 -0.152818 -1.754000 0.237921 -0.176548 -0.620343 0.039351 0.189148 -0.111046 -0.456303 0.404238
44 -0.306401 -1.751205 0.325357 -0.182697 -0.395801 -0.145660 0.163171 -0.086336 -0.494758 0.296904
51 -0.167417 -1.686018 0.285433 -0.257351 -0.579722 0.076674 0.224368 0.014865 -0.400340 0.348343
65 -0.054350 -1.852041 0.246563 -0.158523 -0.590042 -0.032755 0.077546 -0.045615 -0.552424 0.330245
57 -0.142433 -1.879581 0.234877 -0.099143 -0.503027 -0.119027 0.087554 -0.020467 -0.462110 0.403792
63 -0.102228 -0.962846 0.448051 -0.955986 -1.532200 0.996819 0.891534 0.599035 0.235158 0.127682
48 -0.281777 -1.840798 0.343389 -0.130741 -0.457588 -0.072012 0.234215 -0.009147 -0.438127 0.267629
53 -0.278009 -1.804832 0.282340 -0.106718 -0.481905 -0.045119 0.239157 0.167027 -0.475776 0.256631
43 -0.369701 -1.670164 0.348911 -0.024133 -0.607788 -0.250120 0.267706 -0.006505 -0.304846 0.326962
35 -0.254878 -1.947588 0.284342 0.090903 -0.578473 -0.265105 0.075080 0.030501 -0.579142 0.440421
26 -0.329738 -1.873920 0.392868 0.106274 -0.562520 -0.309847 0.197787 0.030182 -0.514076 0.343039
59 -0.252688 -1.723787 0.238319 -0.026315 -0.475561 -0.146764 0.211460 -0.002486 -0.357798 0.362200
72 -0.205699 -1.698044 0.343317 0.629885 -1.371375 0.133499 0.379784 0.371470 0.000905 0.339441
69 0.246407 -0.624098 -1.700548 -0.666221 0.401637 0.833082 1.245697 0.070562 1.096252 0.552233
50 0.343763 -0.610447 -1.698668 -0.461132 0.147056 0.739005 1.143808 0.023036 0.963197 0.658582
60 0.459408 -0.623297 -1.668721 -0.520105 0.190481 0.749685 0.985384 0.041959 1.000713 0.651439
