73 10
17 -1.286738 -0.422557 0.876767 0.770048 0.854035 -1.130861 0.617933 -0.158293 0.622263 -0.267466
3 -1.277859 -0.449947 0.756904 0.634020 0.853759 -1.061782 0.761415 -0.056979 0.871133 -0.141664
11 -0.719392 -1.409078 1.062762 0.090909 -0.027280 -0.202739 1.045558 0.714053 0.043440 0.070265
5 -1.375779 -0.338229 0.850708 0.540830 0.951532 -1.160076 0.614998 -0.162111 0.675676 -0.333255
4 -1.539829 -0.414825 0.831470 0.759623 1.078265 -1.134304 0.632574 -0.203979 0.744841 -0.451667
8 -0.581216 -1.509726 1.103512 -0.041805 -0.177356 -0.067485 1.286734 0.927305 -0.032361 0.056979
6 -0.572094 -1.555752 1.101929 0.151376 -0.213511 0.030945 1.323150 0.825855 0.059733 0.042812
14 -0.713460 -1.001162 1.243291 -1.090862 0.304585 -0.950204 0.204274 0.474876 -0.738207 -0.255719
12 -0.775372 -1.013972 1.378381 -0.916923 0.393409 -1.112891 0.221135 0.279013 -0.753067 -0.436338
2 -0.715558 -1.058663 1.227156 -0.953051 0.149387 -0.760526 0.350278 0.484817 -0.790703 -0.305154
1 -0.776220 -1.245421 1.539934 -0.975010 0.196206 -0.752007 0.285003 0.262532 -1.036011 -0.289825
7 -0.632900 -1.047915 0.360298 -1.235166 0.120853 -1.250053 0.554710 0.849024 1.417652 0.231906
27 -1.824171 -1.125261 -1.543727 -0.177657 0.284121 1.426923 0.507314 -0.365057 -0.511815 -0.809907
20 -1.874960 -1.086823 -1.497615 -0.337134 0.227959 1.396287 0.408664 -0.693087 -0.430951 -0.851562
9 -1.865233 -1.042638 -1.508697 -0.384694 0.238053 1.223501 0.279132 -0.597150 -0.273481 -0.560462
13 -1.654317 -0.976658 -1.291401 -0.385925 0.203210 1.309021 0.270297 -0.840048 -0.367094 -0.857247
10 -1.818446 -1.125322 -1.543761 -0.184689 0.204964 1.500092 0.519512 -0.491679 -0.230808 -0.724406
40 -1.906146 -1.104809 -1.471324 -0.354770 0.242730 1.421111 0.370622 -0.636828 -0.223258 -0.700316
46 -1.772221 -1.147644 -1.460229 -0.414598 0.179922 1.561254 0.412524 -0.567204 -0.486936 -0.740412
69 -1.907121 -0.988301 -1.477581 -0.278908 0.267708 1.323815 0.401321 -0.563263 -0.468701 -0.790456
68 -1.723383 -1.007139 -1.375412 -0.422277 0.237922 1.361409 0.343571 -0.731379 -0.388130 -0.811014
25 -1.544083 -1.016859 -0.419370 -1.191445 -0.046308 0.265222 -0.624814 -2.563169 0.685206 0.272009
29 -1.602054 -0.922481 -0.562951 -1.208539 0.140181 0.204656 -0.572626 -2.359167 0.452615 0.167898
72 -1.580638 -0.910124 -0.272161 -0.997087 0.013850 0.314045 -0.493769 -2.389110 0.580891 0.108252
15 -1.644601 -0.793313 -0.301036 -1.114933 0.075136 0.219410 -0.643872 -2.477619 0.449537 0.262966
43 -0.763941 -1.157007 1.274824 -1.430360 0.231899 -1.029026 0.142626 0.233451 -0.713598 -0.306163
65 -0.822428 -1.022007 1.388044 -1.031307 0.323877 -1.091529 0.160533 0.319382 -0.862280 -0.246399
19 -0.628959 -1.172688 0.913139 0.204402 -0.037861 -0.116625 1.031408 0.626665 0.123443 0.021914
48 -0.708059 -1.291004 1.492262 -1.324235 -0.016727 -0.831149 0.212446 0.223632 -0.947115 -0.189861
22 -0.784410 -1.031658 1.483425 -0.972607 0.244976 -1.066332 0.122687 0.084214 -0.847235 -0.137380
55 -1.078071 -0.558847 0.850890 0.412342 0.775068 -1.096855 0.670327 0.051293 0.553544 -0.219206
39 -1.313504 -0.280199 0.746885 0.675921 0.970299 -1.021102 0.568176 -0.166410 0.617351 -0.441359
33 -1.291502 -0.397812 0.605048 0.710789 0.987559 -1.040551 0.579043 -0.104807 0.718917 -0.420273
38 -1.445979 -0.357683 0.754758 0.720440 0.948250 -1.145024 0.573518 -0.145790 0.610224 -0.279037
32 -1.306726 -0.397218 0.752616 0.780049 0.843223 -0.943434 0.727435 -0.070656 0.552105 -0.350008
28 -1.283276 -0.322038 0.780686 0.837827 0.808877 -0.877181 0.619694 -0.266127 0.679389 -0.329356
56 -1.181161 -0.580466 0.789017 0.565741 0.820952 -1.024711 0.761573 0.045507 0.666139 -0.337261
31 -1.319224 -0.356666 0.779372 0.821749 0.926634 -1.099378 0.703098 -0.131962 0.633571 -0.229602
57 -1.246964 -0.435724 0.854404 0.650701 0.879910 -1.028432 0.679817 -0.022436 0.647450 -0.469589
23 -0.533230 -1.026986 0.372982 -1.187715 0.048502 -1.096674 0.474176 0.764378 1.263281 0.233941
37 -1.221038 -0.399274 0.893131 0.577589 0.814585 -0.951793 0.593266 -0.102291 0.626262 -0.324029
70 -1.726450 -1.267498 -1.709226 -0.663853 0.366918 0.619803 -0.021112 -0.139649 -0.011722 0.511429
67 -1.226486 -0.385157 0.849505 0.576037 0.880680 -1.009659 0.636758 -0.165117 0.568737 -0.408355
18 -1.713884 -1.048500 -1.252592 -1.142003 0.171926 0.083095 -0.404636 -0.941442 0.630024 1.030766
61 -1.972257 -1.215930 -1.879267 -0.629340 0.407080 0.535948 0.103931 0.060553 0.072548 0.459954
64 -0.701724 -0.976857 0.196770 -1.042038 0.121363 -1.067487 0.544070 0.658421 1.504489 0.291129
34 -1.801919 -1.130895 -1.368207 -1.136886 0.275245 0.094830 -0.334864 -0.902986 0.552298 1.040075
21 -1.803327 -0.870659 -1.166491 -1.043443 0.223964 0.076181 -0.371650 -1.008172 0.475240 0.839226
51 -2.010205 -1.212553 -1.875287 -0.465261 0.492939 0.565077 0.056963 -0.037982 -0.084119 0.608986
44 -0.495802 -1.330705 1.031763 0.017416 -0.071267 -0.169127 1.097194 0.718290 0.120733 -0.044653
36 -0.563476 -1.083433 0.279104 -1.052763 0.050882 -1.094072 0.633193 0.616998 1.626016 0.345359
41 -0.531584 -1.990237 0.316797 -0.930885 -0.094069 1.132092 0.219348 -2.196488 0.531831 -0.862891
62 -0.656858 -1.096893 0.208949 -0.921434 0.068892 -1.064837 0.595370 0.748201 1.536954 0.280832
47 -0.723538 -1.222810 1.062449 0.417341 0.007426 -0.219528 1.100121 0.561881 0.168700 -0.003048
42 -0.502916 -1.177868 1.086852 0.016292 -0.094736 -0.228729 0.973407 0.581626 0.072936 0.029673
58 -0.517779 -1.480538 1.174939 0.003596 -0.322793 0.019673 1.252109 0.864049 -0.023787 0.146739
35 -0.508922 -1.285116 1.120391 0.026033 -0.163732 -0.221481 1.081054 0.657826 0.042053 0.023766
49 -0.551202 -1.233183 1.135630 0.269980 -0.027200 -0.145801 1.083339 0.571709 0.029171 -0.185427
60 -0.517019 -1.400626 1.272528 0.058060 -0.206125 -0.189717 1.135024 0.688261 0.013034 0.042998
45 -0.545944 -1.446004 1.207832 0.098886 -0.211426 0.017176 1.257897 0.715605 -0.085215 -0.006926
54 -0.456579 -1.391280 1.114290 0.226629 -0.247231 0.021406 1.246535 0.739854 0.040161 -0.018751
16 -0.436795 -0.994662 0.986924 0.048958 0.243574 -0.664689 0.886289 -0.209116 0.761235 0.336533
50 -0.545802 -1.353063 1.118062 0.289644 -0.264741 0.002134 1.259467 0.569312 0.058309 0.119471
66 -0.550992 -1.372594 1.160286 0.207337 -0.187582 -0.193852 1.148392 0.566240 0.142161 0.221003
59 -0.403995 -2.218405 0.397346 -1.058662 -0.231928 1.331396 0.421467 -2.086705 0.598884 -0.802609
26 -0.396213 -1.474838 1.216871 0.005977 -0.246508 -0.042125 1.274659 0.745853 -0.000359 0.076815
53 -0.454884 -1.381351 1.052230 0.023260 -0.184906 0.045852 1.090978 0.752742 -0.124673 0.050959
63 -0.539610 -1.371156 1.309429 -0.152568 -0.160018 -0.038973 1.202680 0.751273 -0.251102 0.014073
52 -0.517484 -1.067726 1.078477 -0.138664 0.006434 -0.307710 0.805781 0.433275 -0.246056 -0.219843
30 -0.237943 -2.399161 0.066596 -0.549735 -0.269317 1.108011 0.429012 -2.278983 0.930492 -0.487353
24 -0.497779 -1.355534 1.190653 0.124378 -0.197698 -0.014612 1.120132 0.594049 -0.050042 -0.057112
71 -0.316314 -2.411610 0.320990 -0.361121 -0.154958 1.034921 0.508095 -2.332173 1.046327 -0.802126
73 -0.465641 -1.059886 0.867836 -0.068351 0.207218 -0.382675 1.096565 0.071175 0.705891 0.219780
