215 10
2 0.792120 -0.303404 0.974949 -0.048877 -1.770231 -1.636403 -1.606323 0.278756 -0.139998 0.440791
20 -1.428442 -1.020520 1.051554 -0.052825 -1.582666 -1.389733 -0.050700 1.290536 -0.114858 -0.770196
6 -0.320656 -1.064893 0.582147 0.820736 -0.043188 -0.724896 -2.218206 1.289629 0.342185 0.115064
14 -1.513034 -1.187920 1.261790 -0.336370 -1.742758 -1.393009 -0.057631 1.264293 -0.198326 -0.748633
1 -0.395259 -1.156298 0.585205 0.750176 -0.128250 -0.740844 -2.309664 1.369493 0.268179 0.032591
17 0.436256 -1.382257 0.790196 1.264958 -0.607103 -1.441277 -0.903360 -0.254680 -0.107191 -0.905089
22 -0.710908 -0.631543 0.820608 -0.251186 -1.456025 -1.919093 -0.590138 1.210798 -0.220197 -1.249764
25 -0.996669 -1.370457 -3.060387 1.086785 -1.403253 -0.489576 -1.226031 -0.354728 1.280449 -0.741824
10 0.457660 -1.892423 -0.033711 -0.041391 -0.755494 -1.547009 0.003861 0.576227 0.473230 0.266344
13 -0.658213 -1.853844 1.485396 -0.459392 -1.229904 -0.480220 -1.535405 -0.383503 -0.946859 -0.268859
9 0.392900 -1.980129 -0.108141 -0.121324 -0.669753 -1.620883 -0.023251 0.572402 0.426460 0.245640
12 0.342920 -1.866165 -0.028135 -0.246533 -0.701118 -1.529157 0.038093 0.370631 0.296718 0.182916
105 -0.897832 -1.335415 -3.254210 1.171862 -1.237575 -0.591535 -1.304184 -0.460173 1.202466 -0.913696
8 -0.131282 -1.597058 1.695502 1.371156 -1.438834 -0.445789 -0.320821 0.111729 0.854295 0.763422
26 0.035380 -1.669253 1.694860 1.194168 -1.415041 -0.462753 -0.422454 0.016638 1.046161 1.031226
23 -2.385418 0.048951 -1.406365 2.121023 -1.555376 -0.291391 -0.367134 -1.060096 1.649498 -0.033081
177 -0.316321 -0.324819 1.428685 -0.225431 1.423667 -2.763171 -1.282639 -1.897163 2.182576 -0.263945
97 -2.253955 1.122643 0.682610 1.259356 -0.550271 -2.216360 -1.952123 -0.764302 -1.123335 2.072022
108 -2.151469 1.032188 0.470142 1.068884 -0.488870 -2.141322 -1.917155 -0.879768 -1.193010 2.035903
158 -2.342567 -0.196172 -1.593755 2.095885 -1.626572 -0.155092 -0.390760 -1.148611 1.621511 -0.200342
47 -2.194405 1.080370 0.546338 0.975982 -0.560756 -2.277021 -1.912392 -0.662062 -1.319894 1.999989
3 -2.330371 1.147275 0.558149 1.054595 -0.495817 -2.193302 -1.709552 -0.627392 -1.008068 2.027891
86 -2.293389 -0.263013 -1.646451 1.983838 -1.413713 -0.266580 -0.245433 -1.071505 1.561242 -0.140004
167 -0.121112 -0.331928 1.246267 -0.306639 1.386421 -3.034173 -1.156201 -1.984025 2.170853 -0.354326
28 -0.554866 -1.079069 0.682217 0.837559 -0.132804 -0.646118 -1.999688 1.369568 0.324783 0.050453
68 -1.901947 -0.864327 1.092441 -0.238996 -1.611668 -1.534849 -0.127262 1.401173 -0.244267 -0.780799
92 -1.368938 -1.380940 -0.232903 0.467992 0.331130 -2.884524 1.581297 -3.367064 1.896988 0.141221
42 -1.932780 -0.941883 1.221363 -0.046265 -1.632532 -1.370548 -0.151893 1.454061 -0.166192 -0.849999
36 -2.717165 -1.795012 0.346605 -2.073398 1.172414 -1.465947 -0.937888 -0.671576 1.859518 1.237655
38 -1.092132 -0.781110 -1.580914 -1.151565 -1.079875 -1.822502 -1.671449 -0.628749 -0.857002 3.231451
48 -2.872952 -1.817182 0.465999 -2.287345 1.027713 -1.512150 -0.698390 -0.697259 1.811119 1.112529
57 -1.260843 -0.559100 -1.192533 -1.410634 -0.730433 -1.891020 -1.434030 -1.179184 -0.589032 3.341098
101 -0.395644 -0.696445 -2.446653 1.509050 -0.257855 -1.205036 -0.900578 -0.442920 2.532414 -0.004056
63 -0.555389 -0.488712 1.278130 0.217066 1.357744 -2.686808 -0.800108 -1.752317 2.393499 -0.091787
138 -1.666750 -1.607859 -0.029134 0.679497 0.198398 -2.591798 1.651392 -3.363222 1.719198 0.216983
135 -0.764008 -0.775812 -2.435721 1.660538 -0.304398 -1.130673 -1.034047 -0.425371 2.772582 0.238361
131 -1.158357 -0.761979 -0.999344 -1.636500 -0.505237 -1.857123 -1.499991 -0.907460 -0.599015 3.360939
41 -0.127691 -1.691298 1.871005 1.574477 -1.713268 -0.639597 -0.334119 0.048637 0.903243 1.007305
161 -0.163384 -1.542205 1.751078 1.392215 -1.728304 -0.406675 -0.420875 0.052786 0.818751 0.916680
176 0.913915 -0.317622 0.972691 -0.035269 -1.881925 -1.566334 -1.276974 0.338189 0.028348 0.485308
91 0.865465 -0.354670 1.044833 -0.108795 -1.767539 -1.783660 -1.507155 0.373049 -0.070840 0.411929
203 0.888006 -0.352416 1.116674 -0.182022 -1.757701 -1.742969 -1.663547 0.330698 -0.198206 0.355975
104 -0.167113 -1.890046 1.859236 1.575842 -1.654583 -0.551988 -0.455082 -0.066097 0.922156 1.166770
19 0.406426 -0.744911 0.468457 -0.394196 -1.570683 -0.832182 -0.652015 -0.602117 0.286317 -0.627346
205 1.027672 -0.281396 0.900877 -0.091495 -1.685560 -1.654005 -1.674347 0.343687 0.011834 0.515611
18 0.290690 -0.587651 0.772895 -0.284872 -1.791901 -0.625857 -0.885525 -0.755480 0.489062 -0.471656
169 -0.545452 -1.125193 0.737943 0.583192 -0.119204 -0.573533 -2.009180 1.285208 0.261553 -0.007998
186 -0.786910 1.444048 -0.674388 2.868119 -2.295909 -1.520024 -2.309017 -0.521575 1.120188 -1.528011
159 0.247908 -1.602718 1.022120 1.536768 -0.544069 -1.555259 -0.903911 -0.186965 -0.208833 -1.111606
139 -0.984978 -0.861677 0.807120 -0.250975 -1.244250 -1.922060 -0.785278 1.229043 -0.531036 -1.547729
129 0.161393 -1.485891 0.951119 1.882177 -0.525637 -1.874647 -0.812621 -0.149795 -0.093646 -1.243119
197 -0.928431 1.496284 -0.717317 2.919585 -2.377354 -1.402529 -2.560151 -0.531408 1.044701 -1.320381
149 -0.653707 -1.016550 0.429688 0.921691 -0.015698 -0.723289 -2.079400 1.489659 0.268324 0.022439
143 -0.686615 -0.874218 -2.429829 1.481442 -0.287436 -1.097491 -0.929634 -0.471813 2.715663 0.407080
62 -1.015841 -0.630340 0.808753 -0.216724 -1.454844 -1.866975 -0.749039 1.216659 -0.522381 -1.459980
212 -0.959158 -0.795478 0.922865 -0.201356 -1.436030 -1.787707 -0.669048 1.008075 -0.362427 -1.569766
80 -0.617965 -1.011272 0.645475 0.851911 -0.122929 -0.632798 -2.123881 1.276880 0.283320 0.125637
200 -0.512768 -0.943042 0.711670 0.917490 -0.215729 -0.695507 -2.040501 1.342623 0.291903 0.096705
115 0.282978 -1.270260 0.954322 1.822687 -0.607690 -1.617631 -0.948323 -0.236925 -0.129041 -1.143003
70 0.139528 -1.608994 1.239167 1.986012 -0.657327 -1.710516 -0.996646 -0.103522 0.001279 -1.195922
102 -0.593331 -0.910737 0.698377 0.849780 -0.216794 -0.663938 -1.836347 1.329184 0.204130 0.162566
67 -1.444065 -1.590796 -0.885402 0.648924 0.405947 -0.801304 -0.950000 -3.990671 0.549606 -1.152523
5 0.156226 -0.498702 0.750945 -0.369035 -1.599989 -0.613944 -0.899168 -0.467762 0.311089 -0.473340
182 -0.863419 -0.977066 -2.819157 1.232632 -1.306561 -0.521098 -1.051476 -0.496171 1.431550 -0.634572
164 -1.337713 -1.505685 -0.793932 0.856600 0.381050 -0.826425 -1.107533 -4.057297 0.717915 -1.287083
35 -0.520487 -2.161577 1.523415 -0.393491 -1.280998 -0.419141 -1.579895 -0.294410 -1.074157 -0.302290
61 -0.497206 -0.656092 -2.332297 1.422161 -0.128262 -1.185776 -0.921098 -0.383099 2.711182 0.375321
52 -1.381752 -0.897515 1.055747 -0.054712 -1.559807 -1.304285 -0.025638 1.127045 -0.076176 -0.739032
166 -0.436132 -2.055689 1.322911 -0.365996 -1.011746 -0.313316 -1.356649 -0.150609 -0.982914 -0.438880
107 -1.398267 -0.915386 1.115213 -0.267154 -1.573112 -1.527111 -0.167438 1.333351 -0.191709 -0.708645
133 -1.328872 -0.930967 0.958467 -0.128075 -1.595062 -1.637902 -0.113609 1.361976 -0.147062 -0.958353
151 -0.568363 -2.017308 1.430044 -0.373230 -1.417755 -0.433976 -1.501806 -0.343460 -1.097440 -0.479113
155 -0.489750 -1.962287 1.330376 -0.321738 -1.161958 -0.553194 -1.491379 -0.390754 -1.114299 -0.272823
82 -1.492476 -0.867288 1.058524 -0.086050 -1.603953 -1.575093 -0.221305 1.392063 -0.348204 -0.835090
132 -2.211393 -1.465867 -2.328959 -1.860986 -0.761039 -0.160076 -2.292483 -0.439299 1.868910 -0.002199
175 -1.012947 -0.267917 -2.465612 0.248860 -1.783467 -0.286123 -1.455429 -0.576042 1.266332 -0.528741
55 -0.840588 -0.867427 1.195675 0.602731 1.573905 -2.896183 -0.312375 -0.756281 3.001988 0.228918
44 -2.443805 -1.317810 -2.212527 -1.815050 -0.816326 -0.178428 -2.271636 -0.480891 1.636110 -0.231707
85 -2.892744 -1.469664 0.570903 0.252155 2.328089 -1.221922 -1.816708 -1.241849 0.880291 0.064962
199 -1.237436 -0.640390 -1.411448 -1.455253 -1.252671 -1.904869 -1.321298 -0.445029 -0.983249 2.942351
134 -1.303261 -0.738224 -1.566610 -1.374916 -1.254808 -1.726967 -1.663594 -0.479880 -0.859290 2.972946
125 -2.905761 -1.648216 0.243480 0.089523 2.161798 -0.980070 -1.780380 -1.087886 1.052925 0.367883
83 -0.927353 -0.873973 1.253991 0.026520 1.245557 -2.215822 -0.299953 -1.725215 2.014148 -0.499724
11 -0.720836 -1.353213 1.234782 0.351909 1.798373 -2.568328 -0.710097 -0.949953 3.032190 0.072275
51 -1.848567 -0.371719 -1.334944 0.927295 -0.009088 0.047474 -0.990233 -1.764390 1.542829 0.038285
187 -1.273192 -0.225391 -2.420941 -0.064698 -1.740134 -0.288784 -1.297889 -0.325384 1.283704 -0.324799
53 -1.833328 0.427641 -0.960546 1.093927 -0.549772 -2.191653 -2.069646 -1.013768 -2.107459 0.426338
201 -1.320035 0.998849 -0.504626 -1.099062 -0.117064 -1.851661 -2.162004 0.341250 2.993610 -0.888769
90 -1.644754 1.163957 -0.584439 -1.191930 -0.070814 -1.998866 -2.233743 0.224342 2.868701 -1.257772
165 -1.843484 0.829616 -0.776305 0.974657 -0.510916 -2.276757 -2.322675 -1.018521 -2.106661 0.615025
15 -2.005094 0.391741 -0.857884 0.728310 -0.747979 -1.799487 -1.383820 -0.914535 -1.502810 2.087625
207 -1.696099 -1.062814 0.235279 0.215063 0.558061 -2.187396 1.254083 -2.628542 1.614937 -0.010460
31 -1.616047 -0.392183 1.458481 -0.514663 0.767870 -1.779343 -0.348919 -1.977979 1.384886 -0.761542
78 -1.811345 0.305726 -0.780351 0.496371 -0.386806 -1.871137 -1.644588 -1.184713 -1.638756 1.625004
204 -2.538494 -0.318675 -0.487612 -0.663243 1.104519 -0.981836 -0.597779 -0.903202 2.071768 1.269120
16 -1.659669 0.880015 -0.943922 0.381768 -1.337741 -2.534003 -0.444714 -1.542778 -0.948242 1.334188
213 0.399285 -1.978712 -0.119550 -0.196807 -0.680091 -1.338583 0.005419 0.312630 0.425118 0.332345
112 -1.071265 -0.750692 1.413107 -0.128640 0.821243 -1.629505 -0.511471 -2.264036 1.303306 -0.642023
190 0.285739 -1.722659 -0.054095 -0.147917 -0.766724 -1.392933 0.064724 0.484379 0.251782 0.076284
146 0.397145 -1.901110 -0.014006 -0.274654 -0.684976 -1.410125 -0.054594 0.319524 0.445392 0.165793
88 0.321500 -2.102080 -0.110103 -0.207134 -0.530421 -1.329109 -0.014413 0.299175 0.224995 0.315260
184 0.305081 -1.899804 -0.184512 -0.087879 -0.500078 -1.560005 0.004665 0.502993 0.329428 0.199767
183 0.408240 -1.890132 -0.013008 -0.122026 -0.768297 -1.394427 0.129525 0.278229 0.339688 0.275690
130 0.500663 -1.847109 0.021822 -0.088929 -0.726023 -1.413022 0.005155 0.275962 0.124478 0.077192
198 0.587587 -1.858085 -0.133464 -0.001356 -0.591262 -1.537635 -0.127363 0.343820 0.290800 -0.028394
208 0.306398 -1.750752 -0.054565 -0.165771 -0.668551 -1.250794 -0.134484 0.480030 0.216305 0.075900
196 0.448554 -1.740994 0.054381 -0.086982 -0.624756 -1.335921 -0.108026 0.258209 0.318839 0.261102
49 0.334287 -1.810575 0.049525 -0.116148 -0.723569 -1.278409 0.032066 0.193840 0.061642 0.070985
40 -1.473938 -0.226072 -1.149096 0.867176 0.031633 0.015907 -1.295750 -2.517959 1.250400 0.037805
153 0.321791 -1.927898 -0.085302 -0.134434 -0.680343 -1.406464 -0.001481 0.408109 0.281622 0.220731
103 0.174463 -1.628095 0.105729 -0.192472 -0.628109 -1.085395 -0.222664 0.542892 0.265656 0.149185
154 0.456931 -1.974482 -0.126003 -0.139998 -0.663540 -1.517252 -0.071950 0.245697 0.254227 0.229529
120 0.397403 -1.885734 -0.171418 -0.176806 -0.600039 -1.375316 -0.006739 0.273183 0.322569 0.049851
66 0.400830 -1.867025 -0.056266 -0.175829 -0.686215 -1.442482 0.033366 0.306099 0.432035 0.123688
172 0.391545 -2.044274 -0.074592 -0.237088 -0.703904 -1.327899 0.006552 0.385022 0.333282 0.099513
128 0.270049 -1.955195 -0.083717 -0.152153 -0.792574 -1.395066 0.114026 0.436515 0.405253 0.345468
206 0.428675 -1.816570 0.003723 -0.141843 -0.688402 -1.274329 -0.210868 0.354900 0.224142 0.156800
202 0.336307 -1.880683 -0.065919 -0.187160 -0.626397 -1.307753 0.063707 0.231810 0.354080 0.155279
98 0.442844 -1.913489 -0.025523 -0.073191 -0.725761 -1.353819 -0.002901 0.429590 0.311973 0.274418
192 0.292970 -1.972489 -0.214716 -0.158292 -0.529028 -1.452344 0.067803 0.389504 0.303301 0.245067
119 0.543425 -1.951627 -0.132772 -0.216850 -0.681363 -1.203309 -0.138656 -0.028996 0.325867 0.190789
43 0.247062 -1.961815 -0.225263 -0.041588 -0.513650 -1.356882 0.059325 0.401528 0.305388 0.470115
54 0.358068 -2.096164 0.009178 -0.063973 -0.653734 -1.310411 0.046676 0.318259 0.355204 0.436357
4 -0.774190 -0.364421 -2.259565 0.574313 -1.195389 -0.253874 -1.407573 -0.334886 1.567956 -0.378400
56 -1.909481 0.628633 -0.640014 0.434141 -1.573116 -1.884016 -0.355382 -1.644025 -1.020891 1.215991
50 0.225187 -1.786266 0.212633 -0.053637 -0.852209 -1.325611 0.219205 0.334173 0.417465 0.292791
96 0.397901 -2.039244 0.070468 -0.078122 -0.739401 -1.249629 0.043456 0.253396 0.477784 0.288257
79 -2.833062 -0.572323 -0.017155 -0.107629 1.084539 -0.664061 -0.680187 -0.988027 1.980451 1.172408
144 0.445738 -1.926456 -0.249877 -0.284029 -0.794712 -1.502627 0.057305 0.198990 0.392897 0.205769
72 0.293790 -0.401235 0.589644 -0.419105 -1.752876 -0.747309 -1.075523 -0.795937 0.346093 -0.658426
147 0.410211 -1.969299 0.006594 -0.110914 -0.596374 -1.338165 -0.131333 0.344288 0.289972 0.066783
215 -0.388655 -0.553559 0.909327 -0.082319 1.196261 -2.264241 -0.457216 -1.479088 1.846515 -0.033718
110 -2.021300 -1.212973 0.266414 0.000835 1.848923 -0.925750 -1.127537 -1.328651 0.774694 -0.102698
168 -0.891429 -0.595054 1.209749 0.137334 1.153773 -1.859117 -0.092296 -1.305375 1.666426 0.022998
118 -1.511331 -0.295248 -1.556714 1.313530 -1.081784 -0.148630 -0.698965 -0.761147 1.067397 -0.430875
193 0.305959 -0.344287 0.619670 -0.443940 -1.772683 -0.702435 -1.021240 -0.754906 0.474816 -0.613958
163 0.332150 -0.416176 0.684605 -0.356947 -1.744775 -0.622595 -1.061719 -0.884189 0.362921 -0.607002
59 -1.345721 -0.261339 -1.463687 1.465447 -1.129281 -0.124963 -0.820740 -0.922721 0.997975 -0.578816
194 0.186498 -0.338119 0.576270 -0.302217 -1.680964 -0.694513 -1.020529 -0.806094 0.141589 -0.673841
73 0.295267 -0.447066 0.567934 -0.354033 -1.584804 -0.677296 -1.021644 -0.774177 0.326688 -0.559905
69 0.320188 -1.103081 0.894825 0.884490 -0.973167 -0.800862 -0.411907 0.161002 0.140661 -0.046948
142 0.075382 -1.239737 1.021719 1.070978 -0.757046 -0.646049 -0.282873 0.042677 0.355186 -0.071844
29 0.196085 -0.312713 0.712134 -0.465588 -1.809177 -0.546650 -1.216546 -0.986736 0.366300 -0.638369
65 0.178198 -0.469900 0.677466 -0.243885 -1.632470 -0.488100 -1.030388 -0.797085 0.328492 -0.591226
24 -1.882864 -0.539043 -1.249703 -1.465694 -1.931486 -0.019729 -1.188997 0.437213 1.520907 -0.418969
116 -1.759556 -0.401890 -1.278521 -1.414366 -1.961072 -0.122428 -1.190318 0.305438 1.398107 -0.775001
162 0.396325 -0.515152 0.607505 -0.363099 -1.502631 -0.583249 -1.055851 -0.838039 0.264587 -0.466175
64 0.153421 -1.096512 0.902732 0.785803 -0.925309 -0.788609 -0.367486 0.257450 0.310088 -0.246203
34 -1.895970 -0.829581 -0.097687 -0.203584 1.238530 -0.494027 -0.958067 -0.904230 1.032833 0.277795
45 0.183067 -1.186747 0.829091 0.939003 -0.650374 -0.960537 -0.238479 0.249299 0.001905 -0.091375
188 0.274389 -0.425165 0.629539 -0.309581 -1.621111 -0.573702 -0.901123 -0.747585 0.365234 -0.511123
106 -0.992826 -0.040175 -0.448864 -0.198871 -0.683552 -1.394360 -0.877672 -1.044193 -0.893363 1.152164
33 -1.441463 0.508279 -0.581104 0.324339 -0.903709 -1.536609 -0.768747 -1.083544 -0.890585 1.445981
140 -0.629250 -0.504956 -1.554910 0.770522 0.239186 -0.635459 -0.757927 -0.737840 1.675743 0.173103
141 -1.107084 -0.160458 -1.907837 -0.417567 -1.489336 -0.016269 -1.106222 -0.263923 0.990046 -0.175910
123 -1.197037 0.065652 -0.814649 0.078344 -0.579339 -1.527729 -0.754820 -1.039917 -1.025247 1.380755
32 -1.311895 0.213313 -0.548239 0.080357 -0.903327 -1.661752 -0.375396 -1.200952 -0.827531 1.379943
93 -1.248924 -0.465548 -1.675371 -0.606399 -1.205025 0.081333 -1.246107 -0.264442 1.127480 -0.275255
170 -1.102109 -0.289304 -1.651854 -0.532951 -1.277486 -0.033127 -1.188108 -0.317638 1.006989 -0.230638
7 -1.033602 0.104842 -1.058260 0.037928 -0.984521 -0.023190 -1.053484 -0.194229 1.055981 -0.724852
150 -1.583825 -0.116653 -1.295134 0.195544 -1.351827 0.106396 -0.572942 -0.426674 1.118273 -0.060956
81 0.342856 -0.877904 0.674177 0.263520 -0.787339 -0.749527 -0.780832 0.108582 -0.018626 -0.023678
117 -1.003231 -0.130803 -1.399181 0.980559 -0.855314 -0.177547 -0.740570 -0.647925 1.021264 -0.321750
58 0.009936 -0.767097 0.971121 0.219586 -0.834238 -0.583439 -0.581895 0.091588 0.115727 -0.070591
111 0.218732 -0.726805 0.699987 0.363590 -0.681929 -0.887091 -0.640355 0.222211 -0.160743 -0.044689
185 -0.996902 -0.381455 -1.514827 -0.671403 -1.122951 -0.052969 -1.079318 -0.235312 1.078052 -0.137916
173 -0.894035 -0.002211 -0.613846 -0.179563 -0.729630 -1.336326 -0.613881 -1.063352 -0.518054 1.180445
21 -1.480875 0.443421 -0.331384 -0.047277 -0.427533 -1.260200 -0.780111 -0.740406 -0.837301 1.294434
156 -0.299920 -0.370757 0.703622 -0.268309 -1.363664 -0.597159 -0.473156 -0.002773 0.066691 -0.373409
122 0.149603 -0.765099 0.611363 0.109696 -0.857532 -0.893323 -0.501864 0.135071 -0.136878 -0.390710
180 -0.090673 -0.770514 0.813140 0.117286 -0.848708 -0.666044 -0.652771 0.191539 -0.198450 -0.119336
37 0.095996 -1.112674 0.177657 -0.081336 -0.639744 -0.713584 -0.181731 0.217810 0.141335 0.007950
27 -0.972544 0.069914 -1.056535 -0.463111 -0.886823 -0.180873 -1.007320 -0.170554 0.986192 -0.690429
126 0.315827 -0.862706 0.793269 0.047638 -0.874808 -0.601251 -0.636875 -0.164370 -0.117447 0.075763
76 0.196864 -1.180516 0.313532 -0.131363 -0.597794 -0.824597 -0.212598 0.279940 0.084188 0.082881
127 0.000050 -0.730758 0.614927 0.051613 -0.749109 -0.462719 -0.786763 0.006281 -0.204342 -0.392686
100 0.063171 -0.898477 0.549232 -0.043902 -0.801584 -0.559932 -0.879172 -0.084354 -0.213849 -0.186402
171 -1.371104 0.451921 -0.303821 0.273116 -0.470073 -1.267972 -0.845147 -0.547874 -0.759901 1.374040
95 0.120270 -1.196083 0.291928 0.075012 -0.484318 -0.742666 -0.175786 0.158081 0.179248 0.048569
124 0.029981 -0.445103 0.454036 -0.386736 -1.183837 -0.630410 -0.545869 -0.271513 0.249342 -0.381719
89 0.013711 -0.650704 0.658270 -0.051930 -0.846427 -0.520873 -0.738239 0.157902 -0.223860 -0.214063
148 0.110631 -0.916166 0.348605 -0.022408 -0.660949 -0.816339 -0.253176 0.260371 0.091488 -0.058242
77 -0.046256 -0.767506 0.519699 0.088071 -0.561008 -0.849536 -0.549938 0.079273 -0.124856 -0.283724
94 -0.358056 -0.933166 0.901746 0.547571 -0.837014 -0.746160 -0.333462 0.119192 -0.154783 -0.353722
71 -0.168474 -0.805019 0.625934 -0.004778 -0.647978 -0.394781 -0.594715 0.184074 -0.059734 -0.063482
181 0.147869 -0.985936 0.126858 -0.196566 -0.679902 -0.831159 -0.144527 0.162326 0.137956 0.038253
87 -0.012646 -0.584977 0.554589 -0.201597 -0.913734 -0.596018 -0.511614 -0.002306 -0.112263 -0.330628
60 -0.952990 -0.285049 -1.328257 -0.576356 -1.154943 0.058405 -1.024525 -0.256737 0.894833 0.008294
145 0.124729 -0.811883 0.451784 0.036004 -0.691927 -0.642614 -0.472124 0.100438 -0.116373 -0.196248
214 -0.182452 -0.718344 0.721528 0.044972 -0.893297 -0.566112 -0.748451 0.089735 -0.185625 -0.156314
113 -0.642040 -0.484966 0.450972 -0.109123 0.587492 -0.984450 0.006916 -1.166690 1.086526 -0.227219
30 0.005974 -0.656526 0.404582 -0.028365 -1.013339 -0.631613 -0.410506 0.071969 -0.157201 -0.356772
137 0.135940 -0.392230 0.532174 0.087403 -1.016668 -0.574310 -0.775094 -0.055690 0.194129 -0.030577
191 0.008279 -0.458874 0.466217 0.042237 -0.768232 -0.566393 -0.788382 -0.008595 0.053724 -0.123921
174 -0.527958 0.048305 -1.085407 0.474604 -0.017659 -0.434442 -0.673847 -0.462981 1.132290 -0.127486
114 0.252813 -0.470710 0.564284 0.144467 -0.903166 -0.566659 -0.733846 -0.145857 0.136499 -0.019885
99 0.019646 -0.598309 0.556147 0.081396 -0.751998 -0.408681 -0.882851 -0.138863 0.039189 -0.314434
84 0.094423 -0.625152 0.551742 -0.120489 -1.023897 -0.362677 -0.727594 -0.245093 -0.097301 -0.258503
75 0.020095 -1.116698 0.117627 0.017235 -0.491252 -0.690593 -0.017143 0.115778 0.260265 0.095389
179 -0.303241 -0.520241 0.495277 -0.319461 -1.116505 -0.421195 -0.565537 -0.192227 0.134668 -0.349834
46 0.002455 -0.651540 0.567561 0.093349 -0.684877 -0.482399 -0.569509 -0.180209 -0.074827 -0.216624
210 0.068158 -0.576687 0.524010 -0.043729 -0.737705 -0.573436 -0.583301 -0.011013 0.029702 -0.169124
157 0.087256 -0.439771 0.400521 0.132644 -0.721978 -0.709128 -0.692877 -0.151326 -0.175132 -0.288947
195 0.148484 -0.647382 0.412850 0.175736 -0.472573 -0.639111 -0.757799 0.151008 -0.091704 -0.129449
178 0.205772 -0.668634 0.418915 0.354398 -0.634308 -0.840675 -0.319606 -0.221337 0.095614 -0.390474
121 -0.111730 -0.709733 0.425412 -0.108782 -0.805036 -0.501114 -0.400964 -0.077305 -0.030848 -0.124796
109 0.168948 -0.443432 0.395742 0.217586 -0.713503 -0.542957 -0.600524 -0.009756 0.199430 -0.158096
160 0.040258 -0.543025 0.600945 -0.086661 -1.017163 -0.524183 -0.721256 -0.219992 0.043172 -0.069131
74 0.186060 -0.533184 0.461781 0.418326 -0.848131 -0.610385 -0.662422 -0.497664 0.016530 -0.597893
39 0.029346 -0.362911 0.448859 0.164887 -0.874005 -0.572583 -0.466251 -0.182090 0.052995 -0.159331
189 -0.136654 -0.711314 0.502754 -0.368517 -0.724769 -0.606851 -0.375352 -0.032974 -0.075924 -0.345290
209 0.028204 -0.586277 0.418584 0.266918 -0.526821 -0.528280 -0.570586 0.116253 0.151785 -0.238795
136 -0.474168 -0.019264 -0.806899 0.327106 -0.613820 -0.211889 -0.751469 -0.323806 0.808526 -0.379047
211 -0.467823 -0.202150 -0.994742 0.733862 -0.610858 -0.198795 -0.474651 -0.403793 0.683282 -0.250433
152 -0.680717 0.136777 -0.436707 -0.055037 -0.416894 -0.790316 -0.532619 -0.579392 -0.296354 0.761213
