75 10
1 -0.960818 -1.930886 0.135222 -1.180724 0.327191 -0.263096 0.537960 1.346385 0.535012 0.822779
8 -0.954933 -1.754516 0.164416 -1.104950 0.270885 -0.227016 0.514399 1.310303 0.430070 0.726379
4 -1.380607 -0.915863 0.506031 0.292221 0.024305 -0.753535 0.090336 -0.352097 -0.515456 -0.231659
12 -1.463641 -0.957989 0.554234 0.247782 0.056457 -0.804424 0.110429 -0.436391 -0.610620 -0.197648
11 -1.427610 -0.915696 0.535674 0.439847 0.023786 -0.770199 0.106136 -0.491239 -0.651644 -0.349231
9 -1.407545 -0.941126 0.530007 0.313287 0.182685 -0.800541 0.084948 -0.283516 -0.734641 -0.231649
3 -1.505030 -0.910354 0.629913 0.353301 0.102399 -0.795639 0.086956 -0.337927 -0.692628 -0.195195
13 -0.443974 -1.069603 -0.172761 -0.306829 -0.440333 -0.475744 1.151366 -0.722279 0.222858 -0.895561
2 -0.529897 -1.146114 -0.170881 -0.229913 -0.514063 -0.425418 1.110878 -0.701066 0.189980 -0.855191
10 -0.566313 -1.201843 -0.227514 -0.332391 -0.499681 -0.471247 1.256545 -0.686095 0.530912 -0.938294
7 -0.548953 -1.152911 -0.197391 -0.320407 -0.427512 -0.446136 1.164190 -0.668887 0.237231 -0.865163
14 -1.323328 -0.893433 0.529389 0.226303 0.054623 -0.713518 0.140581 -0.395718 -0.459022 -0.193984
72 -0.146464 -1.768630 -0.625844 0.236610 -1.121520 1.605752 0.265963 -0.930561 -1.552235 0.852918
30 -0.098524 -1.722866 -0.662181 0.315172 -1.164762 1.526486 0.359085 -0.946047 -1.488341 0.801957
27 -0.168899 -1.783063 -0.697463 0.292754 -1.235207 1.593192 0.394395 -1.006348 -1.529499 0.796096
58 -0.173711 -1.705772 -0.656457 0.290106 -1.253330 1.575934 0.348056 -0.998658 -1.503189 0.808679
52 -0.180461 -1.715009 -0.610539 0.290681 -1.258603 1.582996 0.362529 -0.989403 -1.601379 0.819166
28 -0.035938 -1.649883 -0.598014 0.259656 -1.143481 1.547379 0.350413 -0.932214 -1.427395 0.753563
35 -0.168346 -1.650831 -0.662970 0.229136 -1.190343 1.496281 0.375168 -1.004512 -1.422280 0.760360
31 -0.103937 -1.602312 -0.572069 0.297126 -1.122428 1.442296 0.328957 -0.960134 -1.486357 0.818185
51 -0.181325 -1.580539 -0.581107 0.372477 -1.091619 1.477634 0.236201 -0.962481 -1.542439 0.832284
69 -0.210807 -1.635676 -0.615529 0.400927 -1.199647 1.529200 0.311455 -1.015800 -1.572069 0.783360
56 -0.945030 -1.860368 0.052994 -1.220731 0.411325 -0.266699 0.599577 1.379180 0.415247 0.729523
54 -0.881266 -1.911812 0.116412 -1.213670 0.434067 -0.257646 0.554380 1.399082 0.373348 0.704298
32 -0.870045 -1.631207 0.067087 -1.058852 0.349599 -0.289133 0.523240 1.211493 0.450379 0.628586
45 -0.918157 -1.738627 0.075186 -1.050478 0.268628 -0.232860 0.561037 1.185614 0.455281 0.661644
74 -0.898601 -1.795584 -0.004185 -1.258467 0.246824 -0.135570 0.590663 1.338895 0.636739 0.662746
34 -1.420587 -0.991538 0.645059 0.360343 0.208720 -0.779882 0.072061 -0.275082 -0.737110 -0.015551
40 -1.487457 -0.939704 0.591944 0.441296 0.121034 -0.760038 0.036015 -0.413627 -0.704016 -0.173499
46 -1.379555 -0.807243 0.582240 0.483843 0.017268 -0.708847 0.110373 -0.539857 -0.591080 -0.206729
50 -1.308172 -0.925256 0.493089 0.334737 0.108552 -0.726350 0.099693 -0.240512 -0.574003 -0.044042
22 -1.364875 -0.952111 0.597416 0.440500 0.069567 -0.861564 0.109594 -0.537236 -0.705876 -0.222876
5 -0.940489 -1.640911 0.302126 -0.687825 0.706749 -0.901872 0.716134 0.572845 0.302168 0.174647
19 -1.267525 -0.884958 0.605931 0.380261 0.051473 -0.779229 0.137387 -0.530503 -0.608034 -0.272619
16 -1.365629 -0.846826 0.576825 0.378929 0.076589 -0.751111 0.084035 -0.401558 -0.632687 -0.136576
43 -1.445231 -0.902168 0.624439 0.371848 0.205894 -0.855219 0.070578 -0.353387 -0.714178 -0.108459
26 -0.589270 -1.090299 -0.140554 -0.271229 -0.490475 -0.477437 1.125039 -0.730338 0.323825 -0.841900
25 -0.536177 -0.981500 -0.132253 -0.334899 -0.303797 -0.523085 0.964739 -0.511675 0.321789 -0.751083
21 -0.499496 -1.032551 -0.231110 -0.395708 -0.548258 -0.377573 1.172467 -0.722446 0.419290 -0.762305
15 -0.502305 -1.040314 -0.189391 -0.403764 -0.442689 -0.311586 1.129461 -0.648427 0.372542 -0.782251
64 -0.495832 -1.093243 -0.179727 -0.223495 -0.452893 -0.415964 1.156384 -0.682041 0.267121 -0.822800
57 -0.552825 -1.045205 -0.203356 -0.371410 -0.422161 -0.394023 1.010307 -0.605907 0.407902 -0.703691
62 -0.442488 -1.166562 -0.326313 -0.391547 -0.593516 -0.356963 1.218776 -0.728592 0.362888 -0.924088
60 -0.497156 -1.036355 -0.220616 -0.194594 -0.558204 -0.308003 1.059147 -0.730987 0.293243 -0.751231
38 -0.495001 -1.073963 -0.139857 -0.298807 -0.475435 -0.329489 0.933369 -0.573121 0.396348 -0.614521
53 -0.384930 -1.042321 -0.312507 -0.374010 -0.492416 -0.275415 1.092946 -0.628635 0.417004 -0.750547
65 -0.383715 -1.112529 -0.342638 -0.406871 -0.514700 -0.272509 1.232608 -0.683082 0.416685 -0.817133
68 -0.527770 -1.015926 -0.219851 -0.312576 -0.470806 -0.301623 1.132783 -0.683836 0.376215 -0.749738
33 -0.077910 -1.575089 -0.594507 0.245617 -0.990462 1.336579 0.362052 -0.796723 -1.310586 0.688217
6 -0.892140 -1.265985 0.359380 -0.309686 0.411053 -0.584100 0.391551 0.470184 -0.125030 0.228948
70 0.484387 -1.588522 -0.471135 -0.570813 0.175676 0.858128 0.299567 0.605468 -1.528901 0.697877
73 0.434634 -1.512620 -0.520630 -0.623735 0.025878 1.159297 0.368170 0.595335 -1.616936 0.738028
48 -1.092854 -1.671774 0.440753 -0.781182 0.593761 -0.899349 0.644553 0.747404 0.262354 0.209303
17 -0.872734 -1.568980 0.365995 -0.632381 0.578370 -0.826527 0.631111 0.683924 0.196188 0.290191
75 -0.976829 -1.594897 0.420902 -0.726448 0.689323 -0.860052 0.608055 0.685965 0.184186 0.272688
36 -0.818803 -0.838465 0.354050 -0.123255 0.183362 -0.584099 0.255078 0.100351 -0.214494 0.013834
23 -0.867141 -0.930210 0.253240 -0.119740 0.174408 -0.486898 0.273364 0.109052 -0.179966 -0.005069
18 -0.835842 -0.895158 0.234605 -0.109407 0.119127 -0.559700 0.295448 -0.023197 -0.052990 -0.065421
55 -0.737052 -0.904395 0.253841 -0.223817 0.178728 -0.407532 0.289802 0.197290 -0.028027 0.177830
20 -0.685347 -0.908806 0.219685 -0.315108 0.193036 -0.482949 0.340183 0.345671 0.028534 0.097447
24 -0.707295 -0.923990 0.223419 -0.108054 0.079863 -0.296009 0.259257 0.120529 -0.160811 0.155228
41 -0.700513 -0.973989 0.211725 -0.332259 0.248628 -0.310802 0.298998 0.338374 0.008942 0.198638
37 -0.670838 -0.878697 0.213081 -0.302243 0.210395 -0.327666 0.275359 0.309595 0.017776 0.108682
61 -0.834083 -0.945079 0.284128 -0.170742 0.163483 -0.491886 0.268249 0.129103 -0.100619 0.061833
67 -0.749996 -0.916533 0.266934 -0.134323 0.193095 -0.480125 0.359226 -0.006670 -0.133943 -0.028900
42 -0.567289 -1.365260 -0.330873 0.128674 -0.712638 0.873512 0.365661 -0.761631 -1.048337 0.621079
39 -0.469947 -1.222076 -0.329593 0.226784 -0.720779 0.979394 0.276111 -0.736857 -1.051924 0.571537
29 -0.382100 -1.260151 -0.367557 0.127152 -0.718450 0.891560 0.315223 -0.757837 -0.975454 0.608931
47 -0.728560 -0.787896 0.138164 -0.051536 -0.089181 -0.430034 0.387219 -0.253131 -0.071963 -0.213052
63 -0.458043 -1.241397 -0.235679 0.116923 -0.637063 0.891366 0.329375 -0.690615 -0.995789 0.645480
44 -0.701516 -0.822366 0.204157 -0.029504 0.093566 -0.340689 0.179799 -0.040323 -0.349868 0.062420
71 -0.765256 -0.850351 0.236195 -0.040494 0.021445 -0.502721 0.305856 -0.204217 -0.098233 -0.110103
49 -0.620618 -0.823872 0.203561 -0.087246 0.035249 -0.373409 0.317319 -0.062197 -0.038476 -0.084522
66 -0.582182 -0.862358 0.220604 -0.310441 0.147724 -0.448590 0.302241 0.287688 0.045208 0.074646
59 -0.721907 -0.748305 0.234567 -0.050826 0.008672 -0.386707 0.328147 -0.184785 -0.155550 -0.146863
