22 10
9 0.019417 -0.382550 -0.229175 -0.739613 -0.038466 -0.069180 0.265215 -0.211762 0.875179 0.393770
5 0.058391 -0.415395 -0.239447 -0.688580 -0.003090 -0.075322 0.296929 -0.247163 0.809418 0.325047
3 0.037303 -0.385806 -0.172501 -0.799935 -0.009655 -0.041723 0.299403 -0.280720 0.809552 0.405210
4 0.052511 -0.358514 -0.198268 -0.740114 -0.004040 -0.091912 0.224441 -0.199997 0.833202 0.359529
7 0.113810 -0.444625 -0.248398 -0.731595 -0.080842 -0.023249 0.307647 -0.189112 0.805490 0.309678
8 0.119181 -0.352579 -0.189393 -0.766428 -0.053357 0.039098 0.251105 -0.331089 0.809616 0.478303
14 -0.042444 -0.500473 -0.102808 -0.704754 -0.016084 -0.111073 0.261950 -0.148790 0.716065 0.335739
18 0.016309 -0.426161 -0.191199 -0.647301 -0.016472 -0.104957 0.221716 -0.126391 0.729197 0.348728
13 0.076854 -0.364959 -0.165043 -0.705747 -0.048807 -0.055082 0.269800 -0.246695 0.745116 0.368036
2 -0.058544 -0.712047 -0.160372 -0.625427 -0.078878 -0.273566 0.429450 0.124428 0.664582 0.138664
15 -0.021505 -0.381545 -0.130650 -0.702392 -0.017305 -0.004429 0.254970 -0.275883 0.721526 0.324590
22 0.105537 -0.360240 -0.188424 -0.725325 -0.032155 -0.053330 0.214524 -0.296410 0.728110 0.372350
17 0.040574 -0.349008 -0.166751 -0.635821 -0.071350 -0.063409 0.261803 -0.210169 0.781205 0.402169
10 -0.074400 -0.598995 -0.159347 -0.587900 -0.026989 -0.172614 0.368241 0.019032 0.714937 0.154189
21 -0.221922 -0.611887 -0.081894 -0.582988 -0.097708 -0.328199 0.334574 0.084835 0.674076 0.187083
20 -0.870586 -1.776837 0.120840 -0.260701 -0.234836 -1.297851 0.833986 1.187515 0.651430 -0.457303
19 0.142038 -0.357765 -0.148906 -0.706435 -0.048504 0.019876 0.233208 -0.288783 0.746483 0.358344
11 -0.972107 -1.947696 0.139606 -0.297573 -0.193702 -1.380597 0.829774 1.294110 0.793504 -0.507163
1 -0.148907 -0.614922 -0.075543 -0.615072 -0.013097 -0.260572 0.301014 0.042328 0.696325 0.205332
12 -0.117474 -0.583208 -0.123163 -0.655209 -0.062643 -0.211488 0.275843 -0.088785 0.636374 0.267753
6 -0.391908 -1.040792 -0.013088 -0.379778 -0.102558 -0.615764 0.515658 0.513939 0.634862 -0.061623
16 -0.078927 -0.476640 -0.098476 -0.516710 -0.059067 -0.189072 0.309237 -0.019244 0.594202 0.194671
