63 10
11 -0.408811 -0.330069 0.157086 -0.707518 -0.970772 -0.437168 0.254459 1.213920 0.505476 -1.231944
7 -0.319693 -0.556338 -0.063885 -0.115942 -0.152200 -0.210906 -0.035290 1.040066 1.112988 0.367552
4 -0.550516 -0.321630 0.031945 -0.068670 0.054558 -0.263325 -0.071626 1.054789 1.079589 0.089888
2 -0.089952 -1.184429 0.479411 -0.322874 -0.327403 0.293433 0.273778 0.704256 0.036946 0.485573
6 0.082398 -1.203586 0.288755 -0.355321 -0.530442 0.353242 0.091010 0.980344 0.064343 0.456530
10 -0.362689 -0.344122 0.183711 -0.701640 -0.898378 -0.147467 0.248627 1.213301 0.582278 -0.997408
9 0.015732 -0.971389 0.349795 -0.406537 -0.478804 0.112080 0.136073 0.890195 0.247386 0.282861
34 -0.607867 -1.385270 1.965122 0.455609 1.218601 -1.781793 1.114123 -0.210711 0.393889 0.449209
1 -0.098029 -1.040927 0.402632 -0.328276 -0.319755 0.176090 0.079392 0.910966 0.228233 0.369796
12 -0.108642 -0.887590 0.256941 -0.441579 -0.540996 0.261737 0.075985 0.797205 0.113199 0.196689
33 -0.489175 -1.308150 1.872276 0.488810 1.223896 -1.805753 0.974165 -0.139953 0.344538 0.348693
8 0.003898 -1.110056 0.496322 -0.235684 -0.305928 -0.008883 0.225905 0.766526 0.152834 0.378052
21 -0.325137 -0.252927 0.200586 -0.802320 -1.046749 -0.284150 0.190955 1.257403 0.347841 -1.218946
20 -0.259388 -0.346371 0.255491 -0.789084 -1.091231 -0.237781 0.234735 1.369267 0.233775 -1.320045
38 -0.352963 -0.307498 0.213808 -0.723529 -1.005605 -0.346610 0.243780 1.149207 0.575877 -1.175941
3 -0.330853 -0.567801 0.647219 -0.562380 -0.608742 -0.027739 0.335134 0.748009 0.545084 -0.094953
14 -0.082317 -0.333430 0.462484 -0.571211 -0.594997 -0.156077 0.059623 0.822271 0.586585 -0.194801
13 -0.599999 -1.204509 1.779949 0.305779 1.026280 -1.397097 1.034317 -0.318775 0.275075 0.349303
59 -1.473999 -1.261156 1.376052 -0.200882 0.480842 0.682675 0.989298 0.002192 -0.021074 0.061129
46 -1.396079 -1.215235 1.544504 -0.067767 0.599092 0.504349 1.020547 -0.052981 -0.037112 0.082499
41 -1.382948 -1.150212 1.440793 0.000200 0.780745 0.444203 0.884496 0.011655 0.008028 -0.007830
15 0.008646 -0.939811 0.434475 -0.371995 -0.359415 0.137230 0.175994 0.644919 0.064284 0.256040
27 -0.230523 -0.328976 0.151148 -0.718304 -0.887238 -0.256667 0.184656 1.248621 0.491957 -0.932306
52 -0.278985 -0.197409 0.097240 -0.622257 -0.868417 -0.394753 0.163908 1.158437 0.613378 -0.916710
25 -0.480833 -0.471676 -0.067373 -0.170332 -0.179076 -0.272288 -0.055405 1.016516 1.137423 0.230758
29 -0.478228 -0.434212 -0.025797 -0.154275 -0.075889 -0.284751 -0.007945 0.949110 1.089597 0.245614
61 -0.441174 -1.100055 1.504410 0.225777 0.780269 -1.041735 0.795933 -0.167109 0.087733 0.234441
18 -0.452309 -0.456560 0.052851 -0.127586 -0.006558 -0.208157 0.027148 0.823491 0.899188 0.241489
17 -0.455398 -0.445167 -0.079035 -0.098212 -0.130482 -0.150100 -0.048362 1.032559 1.055754 0.320687
50 -0.424271 -0.416558 -0.121986 -0.142941 -0.274096 -0.262081 0.018392 1.054365 1.070030 0.183801
62 -0.308397 -0.381021 -0.055252 -0.187219 -0.193309 -0.237882 -0.117103 1.084281 1.003332 0.133291
32 -0.513319 -0.384808 -0.115427 -0.183719 -0.189069 -0.204117 0.009467 1.003290 0.985970 0.035518
43 -0.384703 -0.265112 0.244534 -0.689889 -0.822264 -0.243967 0.254921 1.179710 0.463884 -1.044549
53 -0.411858 -0.548507 -0.069949 -0.070773 0.072500 -0.264827 -0.082881 0.993807 1.055366 0.462744
39 -0.557655 -0.388053 -0.015683 -0.122793 -0.056669 -0.185529 0.024583 0.989660 1.045127 0.149694
35 -1.198466 -1.552097 0.949778 -0.018398 -0.059566 -1.570814 1.803889 -0.987652 1.227097 1.208673
37 -0.579072 -0.404542 0.007214 -0.118211 -0.036199 -0.150949 -0.091041 1.038495 1.131455 0.211424
55 -1.101675 -1.455839 1.216179 -0.006844 0.127605 -1.515511 1.756877 -0.983969 1.141126 1.021634
45 -0.218042 -0.444621 0.028980 -0.200798 -0.181360 -0.283649 0.003543 0.989587 0.898620 0.165525
58 0.036183 -0.834373 0.374067 -0.374933 -0.459881 0.001202 0.177695 0.736972 0.175041 0.186697
47 0.026086 -0.899230 0.316172 -0.336157 -0.421022 0.035906 0.114020 0.746287 0.073129 0.215935
57 0.007754 -1.207721 0.481573 -0.378844 -0.381922 0.119068 0.264592 0.671547 0.040304 0.412023
56 -0.060746 -1.006847 0.313205 -0.385857 -0.390048 0.170462 0.185420 0.758915 0.104620 0.383530
30 0.079434 -0.918067 0.255244 -0.298917 -0.505945 0.029360 0.120613 0.834964 0.284390 0.294496
49 0.072055 -0.921530 0.445386 -0.342349 -0.441750 -0.005337 0.153690 0.759256 0.187066 0.162822
23 -0.039829 -1.018700 0.411774 -0.309492 -0.359581 0.057957 0.192773 0.795880 0.278376 0.419416
28 0.000383 -1.042674 0.346633 -0.355539 -0.487087 0.193196 0.124131 0.823299 0.140299 0.346354
31 -0.165451 -0.990913 0.403141 -0.286821 -0.396492 0.155766 0.202465 0.722226 0.245749 0.385778
36 -0.091864 -0.854588 0.427152 -0.398772 -0.363592 0.048711 0.240829 0.767930 0.156140 0.106504
22 -0.096824 -0.959775 0.448377 -0.262764 -0.278527 -0.028216 0.253861 0.560213 0.199352 0.338909
60 0.044974 -0.898865 0.337268 -0.356753 -0.486743 0.115156 0.148696 0.848853 0.193007 0.192916
44 -0.095465 -1.088963 0.436528 -0.340750 -0.323166 0.208577 0.259552 0.658538 0.042423 0.327770
63 -0.106108 -0.409531 0.399863 -0.553092 -0.585358 -0.155636 0.160725 0.942412 0.573990 -0.186258
40 -0.270416 -0.511721 0.449898 -0.412370 -0.403542 -0.152192 0.179037 0.797584 0.540002 -0.111589
48 -0.811384 -0.827362 0.880388 -0.123247 0.194636 0.071020 0.601513 0.087874 0.121632 0.011567
26 -0.132339 -0.458399 0.617314 -0.571247 -0.515076 -0.105036 0.214536 0.828152 0.321604 -0.327758
19 -0.192890 -0.528977 0.435177 -0.462436 -0.489289 -0.225446 0.226271 0.716539 0.592604 -0.088367
16 -0.311159 -0.474077 0.480672 -0.381782 -0.359377 -0.246680 0.259104 0.721029 0.567061 -0.133448
51 -0.187104 -0.521710 0.525583 -0.537735 -0.582827 -0.135687 0.156072 0.948747 0.542193 -0.203773
24 -0.104217 -0.437984 0.385242 -0.562994 -0.730754 -0.131434 0.136095 1.031811 0.499725 -0.398031
54 -0.308282 -0.337927 0.309858 -0.419785 -0.508304 -0.117761 0.050475 0.923374 0.762182 -0.211351
42 -1.068277 -0.843930 1.060189 -0.075973 0.517896 0.103797 0.766310 0.003094 0.118896 0.121618
5 -0.452977 -0.685673 0.657005 0.062579 0.301767 -0.691705 0.685264 -0.239207 0.452799 0.267838
