35 10
3 -0.002529 -0.849006 0.034220 0.044183 0.141746 -0.709460 0.184315 0.215595 0.145453 0.143107
1 0.003269 -0.891219 0.007704 0.030804 0.129972 -0.725387 0.162844 0.249018 0.272803 0.157001
7 0.146783 -0.949411 -0.095228 0.043288 0.094893 -0.742656 0.198918 0.246028 0.276782 0.174771
12 -0.005565 -0.923720 -0.015995 0.017759 0.088259 -0.730163 0.145717 0.182829 0.168113 0.193623
4 0.015366 -0.866694 0.012898 0.054270 0.142478 -0.765342 0.129401 0.271361 0.207808 0.147530
8 0.054894 -0.938421 0.015426 0.068013 0.088318 -0.709299 0.211594 0.220198 0.189611 0.202668
11 0.013404 -0.904663 -0.013925 0.072922 0.144187 -0.719220 0.141248 0.238677 0.236401 0.123670
5 0.045596 -0.947047 -0.066364 0.057101 0.163944 -0.747204 0.222580 0.194983 0.270872 0.126284
6 -0.003311 -0.926003 0.019806 0.059998 0.090585 -0.652300 0.212237 0.237788 0.210069 0.189842
9 -0.024339 -0.862831 -0.016893 0.005121 0.082621 -0.642864 0.178695 0.212335 0.241256 0.174298
13 0.037386 -0.890039 0.020386 -0.012018 0.064429 -0.654191 0.217150 0.168332 0.222114 0.211776
2 -0.174340 -1.014033 0.168777 -0.059117 -0.046934 -0.545054 0.303727 0.182636 0.115808 0.256356
26 -0.009056 -0.863142 0.061820 -0.021867 0.103963 -0.688710 0.200617 0.159547 0.112562 0.173634
23 -0.040624 -0.909237 0.003219 0.025999 0.066179 -0.632028 0.209816 0.235029 0.213881 0.174515
31 0.015107 -0.887970 0.048817 0.064894 0.091354 -0.723939 0.180703 0.159555 0.153681 0.187357
29 -0.094345 -0.914701 0.055293 -0.051148 0.065675 -0.638894 0.207246 0.122986 0.169670 0.224993
19 0.087657 -0.858536 0.019723 0.013760 0.127875 -0.696359 0.132442 0.182676 0.223428 0.153868
33 -0.067093 -0.896873 0.062659 0.036637 0.079559 -0.616344 0.194318 0.210098 0.196484 0.192116
14 -0.048541 -0.894564 0.070046 -0.045168 0.116144 -0.628653 0.148084 0.166492 0.139758 0.203017
15 -0.049239 -0.940032 0.058740 -0.022386 0.106337 -0.643567 0.218700 0.149104 0.186209 0.172344
24 -0.112702 -0.873520 0.141360 0.023921 0.038931 -0.563694 0.215479 0.166333 0.182516 0.230994
32 -0.159537 -0.889506 0.068473 -0.052295 0.017763 -0.510839 0.236566 0.119904 0.120779 0.223285
35 -0.066158 -0.884938 0.012873 -0.010294 0.044459 -0.636283 0.192199 0.134988 0.138935 0.223551
17 -0.018247 -0.836729 0.037926 0.058743 0.037576 -0.636685 0.208839 0.207858 0.220690 0.206184
16 -0.018256 -0.915867 0.037063 0.037552 0.082521 -0.718163 0.226102 0.203634 0.201877 0.199429
28 -1.798979 -1.814514 1.383133 -0.696145 -0.819334 0.323594 0.785989 -0.303401 -0.092170 0.879063
27 0.028243 -0.918293 -0.014133 -0.021427 0.112971 -0.669054 0.188227 0.226630 0.140703 0.185993
22 -0.014429 -0.905586 0.033817 0.015213 0.067008 -0.684924 0.179201 0.175024 0.146898 0.170349
21 -1.719100 -1.725595 1.280821 -0.715338 -0.827618 0.212049 0.744043 -0.292107 -0.040494 0.917733
30 0.031101 -1.008682 -0.027660 0.103019 0.022007 -0.660982 0.274278 0.204567 0.206445 0.210280
18 -0.046483 -0.851517 0.005778 -0.004974 0.086911 -0.614961 0.148074 0.198166 0.208199 0.223872
20 -0.079360 -0.925110 0.065216 0.024187 0.018381 -0.653954 0.275887 0.206069 0.133859 0.163791
25 -0.078175 -0.898434 0.016398 -0.000595 0.033143 -0.650137 0.174439 0.150603 0.215145 0.166516
34 -0.133002 -0.889383 0.120565 0.013378 0.086239 -0.595865 0.241347 0.152640 0.139736 0.210546
10 -0.517639 -1.092636 0.383850 -0.171053 -0.180754 -0.267676 0.396321 0.036222 0.139132 0.342583
