33 10
16 -0.287098 -0.963201 0.028559 -0.208269 -0.328633 -0.617196 0.840108 0.058729 0.645698 -0.084545
3 -0.330601 -0.880192 0.053810 -0.172560 -0.299858 -0.525549 0.773852 0.060901 0.618402 -0.097293
12 -0.323139 -1.073814 0.106860 -0.231443 -0.337290 -0.581282 0.736905 0.053084 0.553779 0.007335
10 -0.264770 -1.030287 -0.014718 -0.174296 -0.381566 -0.509494 0.866018 0.042461 0.735129 -0.051402
2 -0.179464 -0.847131 -0.020521 -0.223823 -0.213481 -0.561550 0.681110 0.154053 0.605635 -0.106281
5 -0.231467 -0.692083 -0.005456 -0.184836 -0.079150 -0.518008 0.541891 0.101879 0.580604 -0.155592
7 -0.253859 -0.730828 0.001116 -0.192726 -0.237421 -0.502953 0.617933 0.127600 0.689406 -0.119280
11 -0.251251 -0.834676 0.035360 -0.135634 -0.220677 -0.498978 0.598613 0.114994 0.611947 -0.097069
13 -0.177049 -0.755699 0.061960 -0.237717 -0.096475 -0.573554 0.553464 0.143803 0.576288 -0.085662
26 -0.666671 -0.093570 1.079761 -0.603929 1.403583 -1.284877 -0.460629 0.954812 0.279871 -0.705202
1 -0.788378 -0.008484 1.157502 -0.620688 1.522217 -1.299981 -0.621323 1.051773 0.338109 -0.736462
15 -0.882147 0.026671 1.231928 -0.650422 1.556621 -1.237261 -0.630503 1.007993 0.339183 -0.780122
4 -0.724690 -0.065283 1.116294 -0.530256 1.367309 -1.211408 -0.571443 1.000938 0.294688 -0.644567
17 -0.189408 -0.773745 0.041797 -0.143360 -0.224421 -0.523011 0.598368 0.136106 0.535556 -0.023374
19 -0.305205 -0.836292 0.120801 -0.242993 -0.228280 -0.573433 0.650909 0.089291 0.689791 -0.107523
20 -0.274967 -0.958977 0.007872 -0.171030 -0.389626 -0.583604 0.826950 0.046252 0.587045 -0.064857
30 -0.184453 -1.063922 0.082636 -0.154621 -0.301022 -0.528866 0.736655 0.081390 0.547074 0.019050
21 -0.247736 -0.785995 -0.013516 -0.186222 -0.392993 -0.436873 0.670652 -0.029955 0.560365 0.048135
29 -0.249297 -0.863907 -0.025212 -0.178903 -0.344506 -0.483902 0.718968 -0.018690 0.569630 -0.004116
28 -0.315104 -0.888702 0.056422 -0.172209 -0.337871 -0.460241 0.734194 0.026250 0.591092 -0.046260
14 -0.034003 -1.434994 1.177670 -0.473885 0.822445 -0.825760 -0.152077 0.645537 -0.247867 0.225390
25 -0.299187 -0.807631 0.088523 -0.217135 -0.208116 -0.535641 0.543825 0.086821 0.553727 -0.084163
9 -0.269626 -0.676369 0.204620 -0.236044 0.055259 -0.521189 0.335353 0.319968 0.510385 -0.079352
24 0.012369 -1.256114 1.188861 -0.418947 0.950902 -0.873935 -0.248718 0.762330 -0.257605 0.149759
8 -0.232268 -0.860090 0.281061 -0.168803 -0.119494 -0.454028 0.450758 0.285555 0.475524 0.064707
32 -0.209731 -0.848541 0.091484 -0.224902 -0.044667 -0.549302 0.522223 0.166206 0.443378 -0.048643
18 -0.137677 -0.732890 -0.049913 -0.175900 -0.170597 -0.471502 0.523524 0.101992 0.518509 -0.012573
31 -0.154642 -0.888858 0.106839 -0.130423 -0.251994 -0.516989 0.599510 0.049659 0.465136 0.024441
33 -0.552679 -0.002868 0.843217 -0.377039 1.097646 -0.930434 -0.455267 0.760914 0.239526 -0.514366
6 -0.273494 -0.595032 0.706518 -0.281326 0.612814 -0.686559 -0.075319 0.535238 0.134382 -0.130240
22 0.139320 -1.590946 1.056353 -0.533559 0.880043 -0.954723 -0.131122 0.782218 -0.326556 0.127172
27 0.070206 -1.328450 0.719282 -0.505373 0.657794 -0.781218 0.051476 0.693340 -0.152771 0.043057
23 -0.264451 -0.562083 0.219710 -0.182757 0.041498 -0.458623 0.297150 0.272742 0.430872 -0.093792
