34 10
12 -0.294608 -0.892159 0.184311 -0.153049 -0.163977 -0.051498 0.177090 0.104344 0.577620 0.174095
1 -0.318294 -0.961495 0.208223 -0.215975 -0.180861 -0.047690 0.189994 0.141179 0.730567 0.178950
3 -0.314093 -0.849749 0.225268 -0.132810 -0.131105 -0.038222 0.208713 0.145173 0.600625 0.139075
9 -0.289138 -0.960174 0.131192 -0.167718 -0.191476 -0.008106 0.219000 0.167890 0.768910 0.164286
6 -0.180246 -0.940939 0.170843 -0.092727 -0.217669 0.023993 0.278137 0.131880 0.693464 0.174475
8 -0.186695 -0.940510 0.253980 0.017982 -0.039334 -0.179509 0.266754 0.317316 0.633901 0.124760
11 -0.256406 -1.024149 0.193485 -0.145240 -0.193582 -0.014279 0.238396 0.139782 0.756075 0.134275
7 -0.189207 -0.878191 0.109759 -0.151373 -0.238001 0.038736 0.229102 0.133344 0.748036 0.138149
10 -0.234085 -0.944545 0.157925 -0.097069 -0.107068 -0.034274 0.272846 0.185102 0.700246 0.100936
5 -0.215751 -0.894158 0.098192 -0.129982 -0.127292 -0.030178 0.260229 0.079626 0.698258 0.096733
13 -0.210664 -0.908370 0.211494 -0.109186 -0.119524 -0.106501 0.243670 0.170326 0.680695 0.160337
2 -0.180191 -0.888242 0.215321 -0.003790 0.026803 -0.252933 0.271834 0.384575 0.546710 0.082415
4 -0.325484 -0.817500 0.632403 0.833428 1.166230 -1.428991 0.118782 1.589492 0.443084 -0.336137
34 -0.380859 -0.954406 0.719294 0.943888 1.309040 -1.556120 0.251427 1.660686 0.391785 -0.337790
23 -0.240484 -0.987251 0.143844 -0.138051 -0.230216 0.016781 0.256263 0.172765 0.774809 0.169249
14 -0.282869 -0.913076 0.232322 -0.111283 -0.049887 -0.095126 0.182516 0.213379 0.634015 0.141706
28 -0.294504 -0.946304 0.236112 -0.127808 -0.169191 -0.009480 0.222143 0.136299 0.626838 0.163367
21 -0.273792 -0.831653 0.190567 -0.142286 -0.160426 -0.102936 0.204045 0.154792 0.654554 0.189801
20 -0.232916 -0.946666 0.179974 -0.099173 -0.199531 -0.096090 0.279678 0.194613 0.646340 0.146433
29 -0.226612 -0.862237 0.141871 -0.155593 -0.168955 -0.040101 0.212615 0.075590 0.636497 0.184119
18 -0.228278 -0.886994 0.132298 -0.163491 -0.164391 -0.033803 0.166387 0.142288 0.691305 0.223680
30 -0.192831 -0.959829 0.152830 -0.086459 -0.212680 -0.018732 0.265488 0.125758 0.656617 0.190231
19 -0.179009 -0.908399 0.269308 -0.019774 0.002404 -0.215765 0.218215 0.306988 0.638100 0.093369
25 -0.254302 -0.847258 0.117933 -0.164282 -0.234361 -0.000794 0.173823 0.047098 0.669916 0.150312
15 -0.238509 -0.847245 0.215115 -0.131298 -0.125122 -0.007848 0.239441 0.105805 0.600128 0.129444
26 -0.222641 -0.947841 0.219436 -0.127868 -0.098854 -0.133944 0.263060 0.187101 0.647492 0.135177
16 -0.267635 -0.904196 0.183512 -0.221569 -0.261042 0.041128 0.238635 0.025011 0.725381 0.208031
31 -0.228370 -0.963580 0.224691 -0.129372 -0.214728 -0.068597 0.238494 0.076826 0.668319 0.198581
17 -0.221339 -0.877682 0.194564 -0.066171 -0.171699 -0.101720 0.241676 0.206583 0.684055 0.168870
33 -0.235138 -0.877657 0.154491 -0.160885 -0.215777 0.009276 0.184045 0.078944 0.682440 0.193371
22 -0.196917 -0.896897 0.153337 -0.148225 -0.197768 -0.045247 0.199632 0.088353 0.628831 0.155091
24 -0.228675 -0.933483 0.223374 -0.118844 -0.171965 -0.038995 0.224190 0.137289 0.714767 0.190599
32 -0.241628 -0.984429 0.143175 -0.052125 -0.065230 -0.164904 0.303113 0.282120 0.635432 0.137573
27 -0.229269 -0.924256 0.253394 0.062037 0.183928 -0.370563 0.239320 0.534889 0.543789 0.050361
