22 10
9 -0.046395 -0.615248 -0.173736 -0.782725 -0.071665 -0.041515 0.036238 -0.428395 0.687728 0.276831
5 -0.016267 -0.653167 -0.188485 -0.712240 -0.021205 -0.085930 0.083972 -0.443580 0.659044 0.197545
3 -0.064344 -0.571892 -0.001181 -0.774253 -0.093263 -0.027999 0.039580 -0.473124 0.460987 0.331195
7 -0.017563 -0.596164 -0.072822 -0.718930 -0.129042 -0.041332 0.027994 -0.390860 0.539302 0.265156
4 -0.032779 -0.563348 -0.073501 -0.731183 -0.048580 -0.089672 -0.020297 -0.390141 0.552950 0.258447
8 0.004909 -0.593059 -0.033509 -0.759979 -0.132570 -0.001869 0.036057 -0.471518 0.498821 0.403895
14 -0.187450 -0.707317 0.080239 -0.701294 -0.087891 -0.137680 -0.018784 -0.312381 0.451830 0.231242
15 -0.032902 -0.575182 -0.051027 -0.809275 -0.074763 0.047625 0.042880 -0.543939 0.539720 0.342054
18 -0.061574 -0.643906 -0.094850 -0.768022 -0.065195 -0.095606 -0.018332 -0.397251 0.606753 0.320601
17 -0.065260 -0.621918 0.005966 -0.744142 -0.152266 -0.082998 0.030986 -0.434031 0.536945 0.379705
13 -0.023892 -0.587151 -0.040878 -0.730120 -0.100085 -0.070434 0.042210 -0.424493 0.534412 0.291089
19 -0.042617 -0.617509 0.032348 -0.721489 -0.112707 -0.062410 0.003521 -0.414813 0.512345 0.277723
21 -0.106660 -0.556259 -0.017286 -0.762091 -0.148770 -0.077768 0.001786 -0.433753 0.493211 0.338254
22 -0.193677 -0.802039 0.058674 -0.707513 -0.122577 -0.243410 -0.012015 -0.307304 0.459238 0.181994
20 -1.468256 -2.222836 0.562234 -0.258060 -0.258059 -1.486001 0.094022 0.969240 0.747566 -1.039478
11 -1.376313 -1.945910 0.500689 -0.043482 -0.137892 -1.345478 0.011054 1.044545 0.725613 -1.099682
2 -0.151784 -0.800575 0.119322 -0.894945 -0.179079 -0.130428 -0.001256 -0.439879 0.394462 0.364346
10 -0.294529 -0.905042 0.130658 -0.790962 -0.143372 -0.193214 0.019133 -0.321957 0.516966 0.182127
1 -0.275645 -0.688491 0.246651 -0.720797 -0.133977 -0.188552 -0.066668 -0.298909 0.278711 0.331642
12 -0.483481 -0.970809 0.334030 -0.796204 -0.233687 -0.323898 -0.108602 -0.322004 0.217093 0.305497
6 -0.797024 -1.307140 0.327276 -0.233814 -0.133410 -0.765415 0.039542 0.461056 0.480865 -0.477024
16 -0.303862 -0.625472 0.109650 -0.329079 -0.090083 -0.298384 0.041838 0.002544 0.333737 -0.065577
