64 10
3 -1.871501 -0.027481 0.883697 0.103311 1.144376 0.263480 0.064651 1.586688 -0.087741 -0.422218
11 -1.958347 -0.138986 1.130279 0.066688 1.162393 0.424283 0.037702 1.539619 -0.069905 -0.364037
6 -0.738759 -0.418403 0.134687 -0.886725 -0.229219 0.177244 -0.263541 2.269907 -0.105194 0.747791
4 -0.866067 -0.631489 -0.027141 -0.916822 -0.321083 0.175479 -0.341559 2.568455 0.145541 0.874762
9 -0.615070 -0.483337 -0.097011 -0.741543 -0.184599 0.212001 -0.161564 2.144057 0.242950 0.804453
7 -0.499230 -0.339196 0.032189 -0.719143 -0.247525 0.151573 -0.248023 2.334745 0.021282 0.771728
12 -0.908945 -0.421744 -0.122311 -0.922306 -0.320248 0.192082 -0.067937 2.297942 0.089856 0.838915
26 1.197560 1.073600 -0.242862 -1.091796 1.221353 -1.502576 2.418531 1.545588 -0.132319 0.219756
13 -0.256023 -0.783096 2.296256 -1.587635 0.504766 0.142945 0.842967 0.366735 -0.986490 1.184226
14 -0.450353 -0.068259 1.150039 -0.984338 1.283618 0.905835 0.994381 0.546799 -1.083910 1.717253
45 1.305245 1.243790 -0.251354 -1.009896 1.130550 -1.424118 2.285198 1.777861 -0.249863 0.236008
10 -1.539742 -0.671385 0.781844 -1.496763 -0.245387 -0.229914 2.301134 0.501993 -0.181225 -0.969043
2 0.602549 -0.903568 1.944567 -0.237955 0.936981 0.165175 -0.245033 1.150608 -1.133522 0.087793
5 -0.531710 -1.874487 -1.235323 0.010861 1.129842 -1.346228 0.911082 0.921307 1.383721 0.488615
48 -0.059114 -0.747014 -0.562281 2.225722 0.293900 -1.533872 1.611215 1.446002 0.377405 0.068646
55 0.057374 -0.830735 -0.309595 2.038040 0.520770 -1.577822 1.535609 1.196406 0.255372 0.022683
25 -0.474655 -1.859310 -1.105473 0.010910 1.400532 -1.253001 0.783181 0.851303 1.391906 0.462079
57 -0.415188 -1.921700 -1.102490 0.174277 1.239644 -1.151332 1.000517 0.956794 1.404957 0.485390
50 0.342416 -0.702216 -0.458137 2.020911 0.545526 -1.509573 1.583211 1.233450 0.111728 0.032327
31 1.065476 -0.765074 0.014820 0.084933 0.594565 -1.974864 1.289351 1.226338 -2.023997 0.960083
32 0.880024 -1.065159 -0.341326 0.493687 0.405347 -2.149331 1.354864 1.297777 -1.968610 1.111709
33 0.885833 -1.077744 2.045979 0.185417 1.362426 -0.032168 -0.508051 1.579040 -1.216777 0.137107
54 -0.418021 -0.989446 2.139011 -1.314832 0.188296 -0.022390 0.392524 0.506012 -0.881797 0.869393
60 -0.010365 -1.011939 2.069000 -1.411007 0.148868 -0.007400 0.606528 0.392811 -0.775749 0.896996
19 -1.786466 -0.208522 0.855291 0.297860 1.039463 0.376139 0.161485 1.364294 0.013465 -0.389137
52 0.974794 0.631956 -0.322784 -0.716334 0.730266 -1.520916 2.241367 1.126132 0.199359 0.286968
46 -0.239073 -0.050446 1.060273 -0.969305 1.117290 0.795053 0.845305 0.560005 -0.994346 1.406687
43 -0.175319 0.126684 1.348120 -1.153724 1.383032 0.590060 1.124651 0.391024 -1.234653 1.606155
51 0.519268 -2.084982 -0.062676 0.575568 0.361525 -1.894595 0.653020 1.339326 0.016219 0.560473
15 0.597458 -2.193796 -0.036235 0.398609 0.598655 -1.752272 0.542442 1.442209 0.140360 0.477777
1 0.717773 -0.976484 -0.264488 -1.225527 -0.255296 -2.294724 1.990729 0.717062 0.531881 0.670972
61 -1.485395 -0.527915 0.703379 -1.249287 -0.280288 -0.166435 2.140542 0.284001 -0.041188 -0.934993
58 0.758648 -0.840667 -0.330672 -1.674745 -0.300154 -2.137900 2.071900 0.937730 0.425309 0.880053
29 -1.617985 0.020908 0.764302 0.200242 0.948733 0.363661 0.140470 1.253872 -0.205975 -0.187344
20 -1.402152 -0.399319 0.804494 -1.235259 -0.183554 -0.157219 2.346203 0.131659 -0.202043 -0.828045
56 -1.715081 -0.188716 0.621020 0.200023 0.872355 0.348411 0.150638 1.148925 0.002369 -0.305434
21 -1.646825 -0.217527 0.917654 0.203712 0.863528 0.506616 0.096436 1.121804 -0.196335 -0.092930
63 -1.709053 -0.089019 0.828753 0.348402 1.088777 0.482093 0.251010 1.244492 -0.023058 -0.202988
39 -1.629947 -0.283457 0.840830 0.142621 0.886495 0.280938 0.168767 1.320363 -0.117484 -0.314896
40 -1.539917 -0.517354 0.926672 -0.936501 0.016768 0.002110 1.995246 0.184470 -0.100502 -0.991871
37 -1.722475 -0.199969 0.814683 0.219253 0.903299 0.374129 0.158102 1.236354 0.011178 -0.341426
35 -1.658407 -0.208601 0.653952 0.223162 0.704541 0.365311 0.096877 1.314258 -0.066749 -0.302442
59 -1.645947 -0.082094 0.746539 0.021906 0.712035 0.355862 0.148535 1.204812 -0.066082 -0.282926
64 -1.505020 0.049938 0.797260 0.256550 0.812415 0.401746 0.296960 1.146825 -0.164243 -0.315962
47 -1.679358 -0.007236 0.609115 0.304149 0.785015 0.368352 0.220722 1.252469 -0.114502 -0.375685
23 -1.649409 -0.193584 0.807589 0.215348 0.887430 0.371104 0.056448 1.379369 -0.038779 -0.171994
17 0.863545 0.550597 -0.251671 -0.164914 0.833626 -1.378320 1.875791 1.011511 0.057189 0.143322
18 0.366128 -0.735785 -0.371229 1.686810 0.431762 -1.435218 1.251145 1.162184 0.107691 0.200422
38 -1.596072 -0.001341 0.737154 0.169140 0.848109 0.386597 0.098238 1.304333 -0.021223 -0.377414
8 -0.472445 -0.556900 0.892821 -0.285653 0.467704 0.238023 0.240942 0.797850 -0.345255 0.125798
53 0.846910 -0.974386 0.225762 0.420220 1.205681 -1.491584 1.681845 0.869982 -1.351698 -0.169911
16 -0.584802 -0.559423 0.893254 -0.141979 0.469144 0.286464 0.488442 0.742320 -0.372474 0.105773
30 0.744817 -0.695819 0.150657 0.412085 0.851773 -1.402101 1.760838 0.876862 -1.463722 0.028666
49 0.066164 -0.548628 1.091097 -0.534121 0.270471 0.157604 0.088871 0.552359 -0.513955 0.432828
44 0.812380 -0.204289 0.036593 0.110571 1.002289 -1.158011 1.791121 0.738259 -0.692209 -0.074726
27 -0.050173 -0.655888 1.125963 -0.598850 0.362113 0.329807 0.159639 0.618583 -0.574252 0.480892
28 0.403588 -0.422415 -0.318721 0.219279 0.226216 -1.071110 1.046732 0.516415 0.093368 0.214199
22 -0.888120 -0.400310 0.433219 -0.175714 0.281495 0.118568 0.116263 0.879005 -0.083585 0.051010
41 -0.440526 -0.167789 0.615053 -0.430128 0.440919 0.207770 0.293453 0.726796 -0.250835 0.281927
36 -0.585828 -0.273869 0.380101 -0.048037 0.373627 0.025853 0.209671 0.682559 -0.042077 0.064746
34 -0.690278 -0.272694 0.475003 -0.119290 0.356167 0.056321 0.158414 0.777654 -0.139938 0.089952
24 -0.307802 -0.419226 0.773024 -0.468784 0.252647 0.007060 0.477731 0.614485 -0.268928 0.271181
42 -0.337883 -0.336733 0.611787 -0.250106 0.426635 -0.047122 0.440832 0.521115 -0.198510 0.062962
62 -0.327099 -0.539306 0.680013 -0.336889 0.356782 0.064193 0.253822 0.720781 -0.245292 0.153971
