40 10
5 -0.650815 -0.684832 0.013875 -0.716027 -0.435239 -0.192696 -0.149871 -1.797790 0.293645 -0.387876
14 -0.455959 -0.670661 0.104760 -0.601300 -0.478938 -0.171194 -0.043451 -1.696875 -0.003778 -0.238455
9 -0.486775 -0.636880 0.037328 -0.647890 -0.464028 -0.113712 0.094132 -1.948164 0.056353 -0.310074
4 -0.677635 -0.645863 -0.058365 -0.653836 -0.522807 -0.202126 -0.209224 -1.475763 0.360024 -0.495019
7 -1.025401 -1.409104 0.768906 -1.154276 0.423981 -1.248419 -0.318294 1.598549 1.675861 0.097552
1 -0.902716 -1.503290 0.796746 -1.124080 0.365061 -1.316276 -0.191018 1.447864 1.582635 0.138825
3 -0.221150 -1.764993 1.295099 -0.403356 -0.162752 -1.072954 1.230425 1.021926 0.522391 0.474852
8 -0.446315 -1.754033 1.688178 -0.339335 -0.410217 -0.869768 1.413967 0.960141 0.455195 0.616260
10 0.786839 -0.748833 0.192942 -0.729073 -0.714921 0.080166 1.482704 -0.892195 1.122481 0.030455
40 -0.378595 -0.607813 -0.127530 -0.633990 -0.569006 -0.200434 -0.145246 -1.736339 0.170673 -0.335672
24 -0.441538 -0.672212 -0.005123 -0.718091 -0.811928 -0.311206 -0.293878 -2.010082 0.200909 -0.247094
22 -0.549746 -0.589885 -0.169598 -0.688618 -0.719962 -0.249709 -0.436660 -1.945472 0.134282 -0.391038
38 0.717552 -1.455434 -0.879042 -0.972620 -0.496108 -1.834575 -1.100028 0.575689 1.501660 0.110561
36 0.857026 -0.820465 0.317449 -0.716105 -0.738962 0.085988 1.767408 -0.954598 1.013717 0.080311
13 -0.565187 -0.060023 1.701022 -0.689139 -1.427742 -0.099886 -0.437624 -0.876431 0.419000 0.982465
35 0.498380 -1.439825 -1.011946 -0.988008 -0.424653 -1.861553 -1.187963 0.695641 1.440001 0.105284
11 -0.631758 -0.277232 0.281160 -0.366720 -1.364985 0.576753 0.315797 -0.729474 0.969365 -0.516487
23 -0.328469 -0.530416 0.245175 -0.546811 -1.236949 0.400154 0.733806 -0.656970 1.156459 -0.415126
28 -0.603344 -0.111248 1.494405 -0.604624 -1.274077 -0.189646 -0.650679 -0.781810 0.274872 0.880661
37 -0.663458 -0.223688 1.295031 -0.646831 -1.142177 -0.259327 -0.617904 -0.913020 0.325727 0.720669
31 -0.541128 -0.155548 1.427485 -0.574142 -1.190101 -0.356845 -0.648664 -0.665505 0.287823 0.864971
20 -0.213943 -0.481782 0.062605 -0.564582 -0.819410 -0.229604 0.137914 -1.198395 0.212056 -0.112354
19 -0.273553 -0.624998 0.237767 -0.758000 -0.955310 -0.279246 0.060109 -0.923762 0.631838 -0.030546
15 -0.332195 -0.618973 0.262308 -0.779402 -0.837369 -0.213757 0.091748 -1.121365 0.521039 -0.041883
18 -0.603673 -1.078321 0.674441 -0.712300 0.183105 -0.844179 0.073013 0.982045 1.010567 0.197958
6 0.207588 -0.662015 0.365913 -0.388331 -0.421310 -0.117565 0.870281 -0.618553 0.355991 0.093980
2 -0.413454 -0.827427 0.227053 -0.703790 0.096005 -0.796964 -0.294082 0.659960 0.855294 0.036772
25 -0.358834 -0.537157 0.142261 -0.636500 -0.970469 -0.195215 0.083073 -1.066332 0.484556 -0.086799
26 -0.029251 -1.065914 -0.092780 -0.741223 -0.094311 -1.205037 -0.474806 0.666761 0.952522 0.082570
16 -0.266929 -0.588505 0.362018 -0.598303 -0.808976 -0.272442 0.235558 -0.680355 0.535415 0.051559
30 -0.175725 -0.556473 0.191376 -0.496344 -0.914834 -0.074968 0.222460 -0.940793 0.521458 -0.048272
21 -0.291767 -0.539209 0.392468 -0.694773 -0.857199 -0.358519 0.055552 -0.581435 0.615443 0.183437
39 -0.257535 -0.630567 0.321352 -0.669473 -0.787831 -0.257725 0.208015 -0.729975 0.644184 0.004428
12 -0.447367 -0.954342 0.287623 -0.738070 0.165160 -0.928563 -0.322430 0.948238 1.023493 0.126886
17 -0.410027 -0.392392 0.274945 -0.300012 -0.027746 -0.251048 0.003480 -0.045750 0.330220 -0.012220
27 -0.208056 -0.501336 0.188222 -0.493227 -0.567251 -0.186956 0.044151 -0.661597 0.288565 0.008587
32 -0.192570 -0.577648 0.226601 -0.509143 -0.700203 -0.175711 0.251127 -0.834156 0.400908 0.016380
33 -0.222230 -0.522881 0.304590 -0.468816 -0.650588 -0.219874 0.121251 -0.695428 0.455539 0.016567
29 -0.230161 -0.679270 0.419933 -0.399056 -0.177852 -0.464894 0.231051 0.212106 0.479193 0.152223
34 -0.105096 -0.788744 0.017430 -0.515849 -0.143384 -0.750697 -0.188550 0.201821 0.673625 0.045929
