96 10
24 -0.674715 -1.508338 0.866999 -0.266026 0.563164 1.005896 -0.016785 0.241598 -0.000653 1.140213
7 -0.626665 -1.401018 0.741063 -0.366876 0.637279 1.193524 0.366299 0.410426 0.202182 0.976314
8 -1.236701 -1.800313 -0.350694 -0.037382 -0.480565 0.179376 -0.279653 -0.526850 -0.287337 1.014053
12 -1.108927 -1.647106 -0.241881 -0.172885 -0.542121 0.220307 -0.200230 -0.558472 -0.270867 1.096753
23 -1.115449 -1.616335 -0.155990 -0.244603 -0.196702 0.462998 -0.286491 -0.359362 -0.101987 1.021464
6 -0.583345 -1.262652 1.473351 -1.223381 -1.030396 0.127849 -0.169779 -0.693771 0.297927 0.288631
19 -0.723019 -1.418995 1.599949 -1.269024 -1.069658 0.003562 -0.221666 -0.698621 0.249169 0.353983
14 -0.726362 -1.163991 1.696725 -1.401394 -1.204989 0.006067 -0.085770 -0.661142 0.343365 0.192856
15 -0.787440 -1.645839 0.320543 -0.438063 -0.201467 1.130731 0.147759 -0.413782 -0.099213 0.879747
86 -1.462329 -0.879091 -1.498497 -0.656333 1.571605 -1.317274 0.333404 -0.477716 0.855791 -0.589473
20 -1.643482 -0.461506 0.210385 -0.162984 -1.110415 0.670763 1.582123 0.303141 0.518316 0.607448
10 -1.561483 -0.559513 0.065114 -0.085265 -1.012483 0.700858 1.665970 0.255037 0.474768 0.640479
4 -1.788460 -1.469816 1.053745 -0.117078 0.659667 -1.873121 1.720217 0.612976 -1.289565 -0.960883
65 -1.459856 -0.742737 -1.508880 -0.788335 1.422878 -1.298784 0.420913 -0.371603 1.010333 -0.467924
1 -0.429915 -1.162230 -0.121959 -0.268656 -0.007191 0.692056 0.352970 -0.221163 0.137687 0.540593
11 -1.427536 -0.483149 0.165463 -0.314302 -0.860244 0.793119 1.921247 0.369430 0.668266 0.629389
73 -1.372125 -0.693464 -1.575181 -0.806195 1.636724 -1.165682 0.613791 -0.337390 0.896752 -0.463084
5 -0.541580 -1.251286 -0.861507 -1.187796 1.101095 -0.956787 0.957758 -1.059850 0.984584 -1.611555
76 -0.880533 -1.336705 -1.187418 -1.258153 1.049296 -1.040526 0.941069 -1.129650 1.146434 -1.739121
34 -2.058610 -1.308459 1.157887 0.155150 0.566695 -1.813460 1.703407 0.741967 -1.473988 -0.936405
2 -1.822220 -1.489321 0.888820 -0.043679 0.499022 -2.010303 1.678561 0.422434 -1.445863 -0.943667
81 -1.853722 -0.384099 -0.091383 -0.822859 1.862693 -0.274608 -0.324513 0.743162 1.474575 -0.859958
71 -1.805725 -0.476241 -0.199014 -0.930441 1.756105 -0.492784 -0.237455 0.521651 1.524351 -0.925410
42 -2.135034 -0.381256 -0.285838 -0.804470 1.567787 -0.441234 -0.342556 0.577446 1.537567 -0.777394
87 -1.772425 -0.325954 -0.131941 -0.842293 1.639144 -0.364026 -0.186004 0.503482 1.489994 -1.062122
3 -1.685152 -0.398609 -0.077999 -0.951470 1.738853 -0.176002 -0.319976 0.496668 1.612763 -1.070824
22 -0.391187 -1.442726 -1.531456 -1.443315 1.549404 -0.461990 0.982779 -1.048500 0.870488 -0.762405
58 -0.174051 -1.366068 -1.233205 -1.512174 1.319295 -0.428424 1.010208 -1.085385 0.790413 -1.119823
16 -1.801114 -1.447704 0.802209 -0.010648 0.593202 -1.926522 2.017509 0.407971 -1.536874 -0.668902
18 -1.045481 -0.827625 -1.456730 -0.952669 1.364749 -1.112184 0.816422 -0.523056 0.869846 -0.708695
57 -1.154026 -1.497957 -0.280967 -0.159435 -0.505584 0.228832 -0.005188 -0.376916 -0.289570 1.212204
9 -1.566931 -0.567836 -0.302228 -0.816900 1.861590 -0.118505 -0.131161 0.513940 1.436839 -0.976131
36 -1.106090 -1.564633 -0.461413 -0.149038 -0.422110 0.213943 0.064576 -0.504510 -0.247674 1.176000
48 -0.575987 -1.255490 1.689559 -1.295205 -1.118173 0.139686 0.008410 -0.650318 0.195579 0.228971
84 -1.264026 -1.775962 -0.550410 -0.051875 -0.520439 0.137004 -0.161678 -0.732786 -0.348568 1.251924
63 -0.634773 -1.214747 1.454723 -1.353325 -0.975796 0.355780 -0.042394 -0.644014 0.424007 0.196137
54 -1.133379 -1.271848 -0.250118 -0.199251 -0.705527 0.207283 0.142527 -0.501373 -0.046688 0.952542
74 -0.609454 -1.375646 1.665390 -1.516196 -1.178421 0.163117 -0.368655 -0.824735 0.390466 0.134734
68 -1.039455 -1.666910 -0.494835 -0.142876 -0.419985 0.259660 -0.050014 -0.726286 -0.384820 1.126180
40 -1.643169 -1.158056 1.122669 -0.228920 0.872792 -1.653800 1.770710 0.654293 -1.225798 -1.026344
35 -1.160835 -1.582255 -0.519494 -0.158460 -0.504718 0.047418 0.003792 -0.679313 -0.356340 1.102115
56 -0.604456 -1.266592 1.640801 -1.399471 -0.997008 0.110597 -0.220193 -0.689587 0.232474 0.099461
30 -0.712241 -1.377772 1.508296 -1.312575 -1.219275 0.111566 -0.239829 -0.793873 0.336119 0.202947
41 -1.180994 -1.665722 -0.608570 -0.059366 -0.363237 0.195000 0.157016 -0.589724 -0.300217 1.170923
95 -0.682280 -1.213681 1.566913 -1.268826 -1.143182 0.142584 -0.128954 -0.615826 0.368733 0.396558
59 -0.576491 -1.045221 -1.211720 -0.876938 1.342562 -0.572917 0.467113 -0.664841 0.709799 -0.549111
61 -1.173253 -1.744743 -0.395681 -0.134686 -0.597055 0.041766 -0.128817 -0.701717 -0.306359 1.110849
46 -1.275423 -1.651443 -0.523314 -0.026574 -0.592784 0.273032 0.016110 -0.588607 -0.242945 1.190685
17 -1.853284 -0.252050 0.140040 -0.772225 1.637674 -0.160733 -0.116803 0.855499 1.564324 -0.898213
96 -0.629592 -1.179337 1.824627 -1.367151 -1.001843 0.077000 -0.134801 -0.496262 0.316316 0.217428
85 -1.570424 -0.485241 -0.049182 -0.206949 -0.983266 0.619024 1.768265 0.271603 0.533135 0.839729
69 -1.682609 -0.263990 -0.046325 -0.966129 1.702069 -0.274057 -0.289667 0.571488 1.638027 -1.048895
50 -1.541435 -0.477473 0.050594 -0.189571 -0.886273 0.596200 2.033372 0.359662 0.486965 0.738081
66 -0.481357 -1.334455 0.763153 -0.422685 0.276262 0.778917 0.117768 0.147917 -0.007215 0.971156
62 -1.736150 -0.255719 0.038003 -0.991217 1.599617 -0.289307 -0.375373 0.707634 1.570309 -0.871963
53 -0.556874 -1.391953 0.574129 -0.295383 0.400580 0.785984 -0.121203 0.067017 -0.092043 0.912180
28 -0.370151 -1.308021 0.837902 -0.548610 0.163076 0.831099 0.175051 -0.055268 -0.028271 0.925176
92 -1.387574 -0.404864 0.252546 -0.308756 -0.975948 0.596863 1.887440 0.247628 0.410957 0.747405
29 -0.554523 -1.472328 0.533552 -0.337466 0.843682 0.996432 0.140552 0.214761 0.003163 1.056542
75 -0.365921 -1.245441 0.742321 -0.479324 0.369876 0.871925 0.034124 0.081480 0.018334 0.895284
45 -1.439681 -0.409775 0.304976 -0.358784 -1.054928 0.578444 1.947841 0.341313 0.552665 0.642563
78 -0.575629 -1.384436 0.803091 -0.325818 0.536967 1.061285 0.127328 0.292522 -0.006957 1.099076
79 -0.498625 -1.330178 0.828735 -0.524127 0.549729 1.038546 0.310545 0.290804 0.073046 1.014811
27 -0.427753 -1.356076 0.586255 -0.447123 0.447420 0.884499 0.095616 0.130822 -0.055420 0.943365
49 -0.531994 -1.200732 0.472971 -0.312907 0.544323 0.964546 0.141236 0.182162 0.174884 0.934677
33 -0.527373 -1.509368 0.479719 -0.273684 0.466332 1.004542 -0.016222 0.131083 0.080631 1.015050
39 -0.498249 -1.235435 0.698756 -0.402513 0.411882 0.873795 -0.111950 0.132008 0.059890 0.827789
51 -0.558646 -1.108447 0.781375 -0.377756 0.281215 0.985078 0.162018 0.247469 0.147381 0.919916
37 -0.480090 -1.317090 0.915761 -0.330851 0.445611 1.003262 0.085414 0.252954 0.033370 0.850641
55 -1.342087 -0.751492 1.188709 -0.651442 1.077893 -1.537652 1.320956 0.411990 -0.445325 -1.493541
64 -0.575562 -1.458495 0.743201 -0.372700 0.488956 1.213693 0.172715 0.305518 0.138981 1.042223
44 -0.495624 -1.421997 0.889889 -0.511007 0.560263 1.122779 0.150414 0.232938 0.096450 0.986577
90 -0.490578 -1.550631 0.553771 -0.534168 0.200013 1.080330 0.229065 -0.164796 -0.076944 0.810299
88 -1.007652 -0.794836 0.322890 -0.932691 0.978982 -0.878191 1.454549 -0.194754 0.283810 -2.270196
13 -0.735845 -0.585607 0.906660 -1.316442 -0.301787 0.562405 0.931343 -0.389759 0.702955 0.794543
93 -0.647684 -1.357149 0.226815 -0.540035 -0.136395 0.955265 0.263920 -0.245559 0.041732 0.894358
89 -0.756562 -1.007216 0.089799 -0.227300 -0.213767 0.587394 0.491793 -0.143884 -0.043303 0.747960
38 -0.644899 -1.457910 0.033912 -0.420200 -0.192152 0.883759 0.370625 -0.407687 0.051707 0.956140
70 -0.606158 -1.457487 0.295589 -0.566818 -0.247311 0.954630 0.178997 -0.311588 0.101078 1.037505
80 -0.658456 -1.169103 0.167360 -0.302263 -0.277714 0.637984 0.295834 -0.215328 0.006877 0.742043
43 -0.338274 -1.412552 0.190060 -0.567536 0.214814 0.973498 0.325181 -0.291992 0.008507 0.859710
82 -1.039068 -0.908160 0.102068 -1.520460 0.737194 -0.775585 1.116362 -0.773171 1.019782 -2.342577
91 -0.695963 -1.177669 0.285896 -0.341471 -0.066011 0.616110 0.349272 -0.224037 0.014461 0.869416
47 -0.745546 -1.447060 0.315553 -0.566410 -0.373846 0.960886 0.088484 -0.294923 0.003924 0.940770
72 -0.646271 -1.128295 0.106982 -0.326069 -0.045944 0.627282 0.350190 -0.210886 0.058955 0.699548
21 -1.579423 -0.253671 -0.107230 -1.019251 1.630456 -0.344022 -0.041881 0.449708 1.533125 -0.976632
52 -1.193538 -0.493488 0.888239 -0.910437 1.362306 -1.217832 1.154442 0.336669 -0.028200 -1.563869
31 -0.677831 -0.929858 -1.259013 -0.951329 1.181189 -0.612169 0.472963 -0.740860 0.795644 -0.537820
26 -1.444296 -0.815665 1.014688 -0.396205 0.898732 -1.485837 1.273440 0.429367 -0.736867 -1.258928
83 -1.499968 -0.405424 -0.306459 -0.753899 1.536813 -0.364769 0.126151 0.299168 1.305539 -0.918637
25 -0.670313 -0.618672 0.830276 -1.336037 -0.419522 0.478528 0.890647 -0.559672 0.700738 0.491360
94 -0.742710 -0.966531 0.323666 -0.347906 -0.410089 0.594305 0.320388 -0.070592 0.128080 0.659947
60 -0.747760 -1.269325 0.165946 -0.272373 -0.024111 0.780062 0.391199 -0.067393 0.027767 0.848319
32 -1.205734 -0.721912 0.133109 -1.051939 0.796091 -0.580777 0.879313 -0.274715 0.837094 -1.907285
77 -0.722308 -0.780468 0.290212 -0.347627 -0.387851 0.346839 0.687368 -0.020443 0.033422 0.609466
67 -0.725889 -0.560216 0.691828 -0.584887 -0.564843 0.244307 0.685976 -0.170353 0.278187 0.278966
