6 10
4 -0.065999 -0.011109 0.079456 0.067850 0.143143 -0.125369 0.013032 0.176542 0.017157 -0.105059
6 -0.087896 -0.113468 0.139158 0.114829 0.185860 -0.135654 0.120451 0.240835 0.006242 -0.119288
3 -0.118660 -0.068900 0.137991 0.054786 0.143260 -0.112222 0.100061 0.146987 -0.036897 -0.106619
1 -0.121569 -0.128461 0.136637 0.012106 0.150443 -0.156082 0.066286 0.180749 0.049970 -0.086057
5 -0.031794 -0.090590 0.001869 0.027666 0.112072 -0.077728 0.087775 0.045084 0.052359 -0.085155
2 0.002865 -0.044691 0.038774 0.011774 0.052649 -0.053163 0.056664 0.109902 -0.042539 -0.052312
