41 10
6 -0.804955 -0.769091 0.893653 0.251655 0.113752 -0.121133 0.125775 0.075286 0.494792 0.240544
4 -0.729233 -0.703321 0.763232 0.270169 0.106349 -0.160417 0.082668 0.063546 0.456185 0.198258
5 -0.719277 -0.762190 0.748375 0.243820 0.075041 -0.144887 0.123548 -0.029425 0.481135 0.234344
11 -0.781565 -0.703831 0.921320 0.207017 0.119846 -0.181147 0.027857 0.078442 0.477151 0.197929
12 -0.761306 -0.720286 0.629136 0.115526 0.086541 -0.117977 0.082688 0.000474 0.478645 0.196838
3 -0.817700 -0.718423 0.749005 0.169588 0.154600 -0.106078 0.163039 0.058208 0.459180 0.138572
8 -0.718720 -0.716069 0.759408 0.138290 0.078765 -0.094652 0.124545 0.060956 0.480769 0.232222
10 -0.750620 -0.763769 0.828836 0.211387 0.124164 -0.080004 0.123240 0.050446 0.523315 0.228332
1 -0.757105 -0.751510 0.731963 0.142271 0.099256 -0.161665 0.110361 0.050117 0.488271 0.194050
2 -0.932437 -0.529004 -0.985571 -0.748826 0.728197 0.276506 0.437964 0.398052 1.219841 -0.878182
9 -0.823159 -0.411161 -1.128053 -0.718961 0.677826 0.274548 0.409732 0.337690 1.168119 -0.864561
13 -0.759600 -0.789263 0.782758 0.182262 0.102784 -0.142442 0.154819 -0.007299 0.534753 0.247361
33 -0.716818 -0.454963 -0.934576 -0.505471 0.624456 0.224207 0.379237 0.329284 0.995637 -0.718801
15 -0.945026 -0.515711 -1.215060 -0.808059 0.772079 0.389031 0.515777 0.315645 1.221843 -0.976128
41 -0.864746 -0.511496 -1.118542 -0.655769 0.719478 0.312358 0.483732 0.313998 1.125798 -0.900261
28 -0.724706 -0.758504 0.602056 0.197283 0.083028 -0.032320 0.165241 0.016194 0.440529 0.170589
38 -0.604368 -0.663369 0.550878 0.130640 0.065438 -0.110240 0.088325 -0.010318 0.495969 0.103297
16 -0.772673 -0.852554 0.417437 0.185828 0.096817 -0.030887 0.276672 0.005991 0.573160 0.149528
39 -0.686428 -0.572095 0.454734 0.101744 0.199216 -0.022083 0.147781 0.092305 0.473794 0.050752
17 -0.627703 -0.555800 0.532545 0.107184 0.082244 -0.121218 0.108598 0.073532 0.494953 0.123735
22 -0.686649 -0.710520 0.611004 0.150084 0.124240 -0.124022 0.118589 0.035657 0.461730 0.123864
14 -0.660301 -0.682931 0.546390 0.095203 0.138707 -0.054947 0.109285 0.020993 0.433324 0.154175
19 -0.614829 -0.661158 0.663691 0.141983 0.099868 -0.093566 0.096540 0.009085 0.463611 0.161136
40 -0.743945 -0.687021 0.792624 0.224587 0.114337 -0.114362 0.048196 0.076192 0.430219 0.185246
27 -0.695703 -0.755601 0.614597 0.143505 0.132778 -0.075701 0.153476 0.085765 0.447959 0.168492
20 -0.645482 -0.660463 0.486156 0.142521 0.086006 -0.105036 0.184351 0.061840 0.427669 0.103381
29 -0.770464 -0.752106 0.616612 0.138094 0.135221 -0.123254 0.150118 -0.019892 0.503120 0.188625
34 -0.740271 -0.711236 0.555075 0.165375 0.192308 -0.083250 0.204933 0.050104 0.487519 0.096248
37 -0.700728 -0.618413 0.742964 0.222804 0.119879 -0.077054 0.056264 0.057725 0.458113 0.200391
23 -0.736578 -0.679524 0.579052 0.178413 0.107914 -0.074129 0.116715 0.072325 0.549913 0.135430
35 -0.723996 -0.705715 0.574950 0.159605 0.071920 -0.079125 0.151456 -0.006025 0.432602 0.193427
26 -0.702689 -0.738592 0.668118 0.185585 0.146031 -0.120382 0.173998 0.040918 0.454326 0.160203
24 -0.699349 -0.630536 0.707775 0.154218 0.167802 -0.110931 0.089483 0.081214 0.516453 0.154604
25 -0.723107 -0.669914 0.700276 0.157762 0.048989 -0.139936 0.062857 0.006787 0.499892 0.185483
31 -0.667176 -0.662921 0.828006 0.267579 0.062323 -0.178786 0.072113 -0.026896 0.403284 0.248152
18 -0.746443 -0.737953 0.675700 0.171056 0.136757 -0.127460 0.088001 0.066264 0.540436 0.237554
30 -1.007162 -1.953578 -1.507435 0.420247 0.126679 0.472170 1.158537 -0.077546 1.212166 -0.170670
32 -0.991954 -1.935335 -1.734295 0.350219 0.154970 0.505962 1.198391 -0.082405 1.163105 -0.210615
21 -0.665284 -0.532866 0.221821 -0.019023 0.133967 -0.020265 0.168114 0.034719 0.531625 0.032142
36 -0.596001 -0.619328 -0.079949 -0.127406 0.262851 0.025250 0.315788 0.142968 0.638088 -0.132149
7 -0.604812 -0.742175 0.085580 0.115346 0.095134 0.044047 0.283336 0.043925 0.597057 0.015172
