22 10
9 0.227609 -0.264083 -0.401504 -0.586089 -0.061045 0.031630 0.117160 -0.200455 0.906680 0.371162
3 0.218599 -0.245878 -0.337446 -0.586248 -0.051906 0.042652 0.167573 -0.231198 0.853007 0.357071
5 0.234659 -0.290945 -0.381147 -0.559193 -0.012155 0.021404 0.177662 -0.259159 0.874767 0.316751
4 0.195658 -0.268387 -0.287982 -0.551405 -0.029893 -0.024090 0.100297 -0.160890 0.823186 0.314943
7 0.355093 -0.094067 -0.458118 -0.593172 -0.088858 0.139773 0.098619 -0.291681 0.856105 0.440878
8 0.274831 -0.368125 -0.350879 -0.615127 -0.119404 0.039551 0.184201 -0.211630 0.965959 0.409360
14 0.211397 -0.302298 -0.290077 -0.600296 -0.033616 0.041039 0.107483 -0.218227 0.827322 0.372890
17 0.103658 -0.372709 -0.196617 -0.380527 -0.104673 -0.073570 0.188789 -0.034344 0.747310 0.193592
22 0.252223 -0.238048 -0.311536 -0.506189 -0.063063 0.007076 0.095415 -0.222374 0.698293 0.319385
15 0.224648 -0.213371 -0.350406 -0.604831 -0.051779 0.107697 0.142270 -0.285968 0.837772 0.375324
19 0.212604 -0.423417 -0.254990 -0.579864 -0.089997 -0.018540 0.165287 -0.171467 0.918943 0.283369
21 0.201380 -0.221580 -0.350223 -0.583485 -0.110672 0.015409 0.125217 -0.218308 0.860610 0.367237
18 0.202525 -0.283382 -0.330119 -0.513674 -0.037877 -0.009460 0.103149 -0.132656 0.813973 0.327713
13 0.095007 -0.527597 -0.143668 -0.546053 -0.085315 -0.115325 0.219060 -0.084090 0.837474 0.218441
20 -0.619535 -1.923274 0.394206 -0.330855 -0.187462 -0.803036 0.699921 0.838134 1.271081 -0.769173
2 0.025954 -0.648290 -0.119050 -0.460445 -0.089015 -0.144578 0.279365 0.084273 0.786884 0.042758
11 -0.745355 -2.084837 0.502114 -0.214568 -0.146924 -0.856470 0.676453 1.020738 1.322778 -0.982524
10 0.023564 -0.524555 -0.136661 -0.414773 -0.034958 -0.067004 0.238340 0.004645 0.769507 0.050763
1 -0.176494 -0.837386 0.054346 -0.522468 -0.027411 -0.274589 0.263679 0.107104 0.883572 0.055969
12 -0.185767 -0.914565 0.023617 -0.537445 -0.095583 -0.276243 0.264743 0.053812 0.872768 0.056927
6 -0.228100 -1.064116 0.117365 -0.332238 -0.086273 -0.351722 0.389458 0.343886 0.908265 -0.219163
16 -0.070857 -0.644072 -0.013902 -0.394600 -0.080272 -0.200172 0.264479 0.075173 0.742087 0.020858
