151 10
10 -1.225885 0.466134 -0.034164 -0.678819 -0.996725 0.691048 0.941954 2.103813 1.578515 0.217612
75 2.048415 0.351300 -0.041925 -1.650477 -0.154556 2.072117 0.594946 0.314628 0.668732 1.254356
11 -1.494251 -0.450134 -0.422674 -0.758604 1.029270 1.608864 -0.450425 1.248177 1.657106 0.210865
15 -1.658786 -0.389418 -0.264079 -0.966544 0.955466 1.680014 -0.560130 1.028785 1.654255 0.141319
136 2.051564 0.161309 0.024478 -1.696418 -0.394944 1.972498 0.931740 0.263748 0.634457 1.290637
18 -0.492099 0.246218 -1.445216 -1.012050 0.600043 -0.233892 -0.338658 1.890099 1.892799 0.089686
13 -0.489998 -0.046987 1.268009 0.298553 0.309127 0.095423 -0.932258 1.441362 2.322148 1.451832
8 -0.514025 -0.020599 1.232728 0.376716 -0.042073 0.214050 -0.646672 1.572683 2.370029 1.294888
6 -0.467304 0.034906 1.077434 0.357459 0.120084 -0.097364 -0.701501 1.715307 2.319051 1.159673
27 -0.811715 -1.499568 0.986284 -1.431232 0.167285 0.016604 -0.558422 2.407460 0.525371 0.578286
19 -0.549399 -1.403580 0.999420 -1.191421 0.128275 -0.317211 -0.620648 2.539778 0.450979 0.784815
1 -0.980890 -1.252497 0.834757 -1.202761 0.053486 -0.107085 -0.534461 2.366585 0.656914 0.528195
17 -0.356560 -1.110007 -0.496464 -1.552402 -0.899870 -1.276887 0.210945 0.785083 1.607036 2.080884
98 -0.649319 -0.072284 2.247263 -1.861973 1.420971 0.652303 1.927981 0.845347 0.003985 -0.516894
3 -0.559607 0.004351 1.971631 -1.815749 1.275961 0.666416 2.249855 0.895451 -0.036668 -0.593509
41 -0.554210 0.117808 1.955502 -1.819210 1.260214 0.611141 2.114213 0.785866 0.120324 -0.529854
105 0.852876 0.132503 0.870723 0.716380 1.642555 0.327365 2.456256 0.729150 1.552527 1.776018
21 -0.618640 0.114019 1.906454 -1.601287 1.260642 0.716016 2.171948 0.629066 0.085982 -0.397368
95 -0.625334 0.154214 2.105038 -1.827782 1.270609 0.803336 2.117891 0.918792 0.008538 -0.577990
124 -0.518802 0.058123 1.884676 -1.750185 1.348885 0.457432 1.931290 0.763706 0.030331 -0.496369
23 -0.548649 0.248174 1.809058 -1.666399 1.489881 0.481748 2.002089 0.716389 0.001679 -0.600820
46 -1.623891 0.570025 -0.262187 -1.181394 -0.912233 0.547301 0.754813 1.947194 1.627587 0.078603
52 -1.350011 0.501091 0.187570 -0.928317 -1.152179 0.446794 0.773969 2.060266 1.752011 0.212421
121 0.758617 -0.149330 1.072956 0.745435 2.086397 0.162651 2.400219 0.597129 1.493609 1.676441
69 -0.860565 1.643986 0.147147 -1.849171 1.076195 -1.014210 0.158303 1.113571 -0.795431 1.978386
135 -1.346708 0.437627 -0.118864 -1.034943 -0.895692 0.530956 0.898847 2.070349 1.671921 0.077733
79 -0.609325 1.506303 0.307078 -1.893242 1.209820 -1.156913 0.281162 1.060295 -0.788352 1.944871
56 -0.750370 1.596247 0.380712 -1.867126 1.187137 -0.991204 0.306429 1.080403 -0.832510 1.896774
42 -0.935308 1.411169 0.125713 -1.907179 1.282836 -0.887973 0.148535 1.286318 -0.807453 1.796569
116 0.314594 3.071265 0.134018 -0.238220 1.767388 -0.158066 1.004145 -0.264756 1.845633 2.684061
51 -0.960262 1.723327 0.392951 -1.764629 1.204346 -1.072240 0.170436 1.237008 -0.710256 1.793249
71 0.237331 3.006158 0.428966 -0.284837 1.474735 -0.113889 1.034522 -0.197777 1.581600 2.769279
28 -0.415249 0.176151 -1.371550 -0.864857 0.554146 -0.145294 -0.127019 1.849649 1.844456 0.201101
76 -0.972964 1.450181 0.336113 -1.729479 1.185119 -1.022355 0.435670 1.236557 -0.845726 1.977834
73 -0.813392 1.508096 0.185726 -1.784643 1.309478 -1.051061 0.323735 1.219471 -0.758440 2.071238
137 -0.335326 -0.181378 1.159999 0.378532 0.174880 0.113200 -0.799887 1.725453 2.381948 1.394863
67 -0.358400 0.027402 1.088242 0.419635 0.138877 -0.023299 -0.688029 1.665059 2.328691 1.284176
110 2.999259 -0.083276 0.262951 -2.143196 0.854198 0.240929 -0.170376 -0.618777 1.793406 1.061516
59 0.648448 0.489475 0.772303 0.129388 1.861110 0.871238 1.891723 -1.087873 2.181041 2.787163
64 0.781329 0.830680 0.689432 0.118178 1.743412 0.780774 1.932057 -0.909616 2.199484 2.553599
100 -0.426357 0.063073 1.152930 0.448736 0.290101 0.139403 -0.823382 1.772653 2.367859 1.280437
127 1.278510 -1.551714 0.394695 -2.255589 0.206609 1.091066 0.529888 -1.630399 1.546131 1.655497
138 1.237823 -1.385765 0.316954 -2.361466 0.228013 1.018318 0.759564 -1.646053 1.750732 1.567321
130 1.300378 -1.557718 0.432167 -2.417802 0.337791 1.118135 0.648885 -1.747564 1.735260 1.606983
24 2.838873 -0.510880 0.389414 -2.004404 0.732789 0.053540 -0.118378 -0.634971 1.879958 1.261159
2 -0.794880 -0.032298 1.491448 -1.550113 1.301800 0.079228 1.836209 -0.217807 -0.039434 0.202063
30 0.257440 0.332039 0.583723 0.344098 2.193178 0.004971 2.509091 0.178457 1.411289 1.273098
106 -1.534874 -0.404883 -0.354055 -0.938824 0.723251 1.408726 -0.503475 0.930521 1.583845 0.292910
149 -1.455088 -0.394656 -0.262851 -1.033577 0.779616 1.449340 -0.701353 0.856651 1.506399 0.319367
143 1.829958 0.086836 0.394493 -1.096506 -0.270452 1.637416 0.653076 0.305385 0.786383 1.018902
34 1.701036 0.430768 -0.064040 -0.955235 2.897653 -0.713936 2.679296 0.783151 0.693619 0.781852
49 -1.053208 -0.287772 0.542666 -2.256350 2.688611 -0.016066 0.810624 -0.481097 -0.418055 0.754532
107 1.851885 0.384471 0.064358 -1.150807 2.895114 -0.619636 2.629322 0.582353 0.749633 0.894684
132 -1.436488 -0.299256 -0.315644 -0.870514 0.889496 1.478904 -0.613629 0.902696 1.653701 0.304267
97 0.472404 0.213008 0.354025 0.438128 2.061736 0.130981 2.165914 0.171510 1.391980 1.401127
60 -1.507696 -0.358540 -0.270265 -1.059076 0.859504 1.647340 -0.632918 0.887287 1.696313 0.133509
126 -1.602554 -0.489350 -0.278710 -0.915448 1.050887 1.533808 -0.674027 0.788624 1.814015 0.249892
68 -0.958331 -0.271895 0.374777 -2.512497 2.685752 -0.113978 0.958887 -0.464903 -0.540502 0.745523
144 -0.830789 -1.323127 1.026296 -1.405630 0.009088 -0.223079 -0.796174 2.342319 0.635205 0.729549
22 2.265642 -0.355263 0.100581 -1.746961 0.261280 1.149075 0.181801 -0.037934 0.662858 1.090180
89 1.940630 0.423670 0.306082 -0.984487 0.085570 1.737174 0.823518 0.389904 0.740932 0.791583
84 -0.870381 -1.408024 0.805594 -1.457589 0.052445 -0.276562 -0.775403 2.294204 0.483558 0.700649
129 -0.888452 -1.400468 1.024925 -1.630648 -0.008077 -0.369498 -0.781528 2.262848 0.517817 0.689886
151 -1.534281 -0.415509 -0.263567 -0.862586 1.004152 1.414836 -0.582804 0.958252 1.669039 0.238471
78 -1.417483 -0.380086 -0.405417 -0.977654 0.855152 1.481135 -0.556527 0.846171 1.627937 0.162493
81 -0.870648 -1.232561 1.076292 -1.474040 0.150408 -0.288022 -0.801455 2.337816 0.513268 0.662184
114 -0.665650 -1.437875 0.967860 -1.533421 0.122654 -0.468777 -0.980071 2.276396 0.662179 0.684607
53 -0.483726 0.230112 -1.544764 -0.944065 0.550248 -0.224934 -0.057055 1.888911 1.828790 0.021412
119 -0.588275 0.168232 -1.487329 -0.869725 0.680464 -0.253269 -0.096057 1.709798 1.713271 0.217267
123 -0.944440 1.373254 0.295589 -1.985693 1.265397 -1.108870 0.474208 1.023577 -0.866649 1.757960
39 -0.402765 0.126933 -1.378772 -0.903498 0.555196 -0.191386 -0.253156 1.847651 1.777149 0.268775
25 1.809267 0.665762 -0.577651 -2.139241 -0.450478 1.658385 0.532965 0.209487 0.611497 1.295518
148 -0.817615 1.482399 0.081401 -1.834960 1.247228 -1.065248 0.335586 1.161136 -0.718180 1.740247
150 -0.721063 1.473737 0.006215 -1.849652 1.067739 -0.874312 0.242986 1.157496 -0.850342 2.005218
58 2.084451 -0.541146 -0.059991 -1.835281 -0.233553 1.419269 -0.202568 0.702321 0.423040 1.452527
146 0.473105 1.039901 2.744953 -2.265128 1.560088 -0.014839 -0.302528 0.259103 0.086360 -0.206604
47 0.349159 0.416679 0.561664 0.257230 1.937885 0.179967 2.141967 0.144131 1.273978 1.154284
9 -0.863028 -0.364592 -0.021642 -0.811811 -0.208720 -0.143761 0.284914 1.047099 1.902028 0.052557
72 -0.936644 0.126888 1.029028 -1.842249 1.562293 0.298586 1.401590 -0.150011 -0.423784 0.420810
4 0.627983 1.190291 2.692019 -2.321276 1.457262 -0.113636 -0.619105 0.392191 -0.037247 -0.018701
112 2.217638 -0.830229 0.236817 -1.695230 0.094136 0.910596 0.089865 0.387812 0.584005 0.869681
35 1.764067 -0.551491 -0.177019 -2.141887 -0.513177 1.762576 -0.027689 1.178102 0.259715 1.367927
92 0.717541 0.043743 1.048776 0.625931 1.496893 0.323832 2.164206 0.546730 1.232583 1.471760
128 2.289987 -0.425874 0.618008 -1.862626 0.085268 1.137087 -0.064153 0.080626 0.729403 0.919182
61 1.202357 -1.310989 0.322754 -2.388025 0.047589 1.216251 0.593435 -1.677253 1.770889 1.753811
26 1.557507 -0.591833 -0.327288 -2.225291 -0.508724 1.539690 0.085959 0.889996 0.463474 1.099840
125 2.005438 -0.561417 0.180742 -1.925587 -0.204749 1.034439 -0.260384 0.562777 0.386374 1.148469
118 -0.346985 -1.127674 -0.138062 -1.167210 -0.838929 -1.140119 0.112235 0.546240 1.687558 2.033384
103 0.511784 2.458381 2.096412 -2.134005 1.074630 0.368380 1.077655 0.290306 0.294852 -0.114841
14 -0.150373 0.676253 1.522786 -2.017400 1.367793 -0.349449 0.175325 0.063700 -0.626335 0.488768
20 -0.651543 -0.802970 0.102436 -0.854301 -0.263967 -0.251416 0.293613 1.091802 1.795235 0.070780
117 -0.430719 -0.951381 -0.548265 -1.409651 -0.834854 -1.013543 0.154570 0.506224 1.748677 1.754788
94 1.734457 -0.647713 -0.098343 -2.159341 -0.578421 1.621926 -0.102063 1.012648 0.390084 1.162330
7 -0.700318 -0.332801 -0.028157 -0.698347 -0.306880 -0.060503 -0.063400 1.008993 1.494989 0.341326
115 -0.342545 -1.187991 -0.349199 -1.348444 -0.766832 -1.090301 0.062248 0.532380 1.641616 1.814147
122 -0.470226 -1.104798 -0.510706 -1.375746 -0.726875 -1.044742 0.004340 0.611033 1.511407 1.867133
44 2.054953 0.900982 -0.736265 -2.161157 0.081872 0.777705 0.307428 -1.046810 1.559354 2.447789
65 1.763878 0.403803 -0.488159 -2.234899 -0.316992 1.424892 0.287850 0.157950 0.269371 1.717532
93 -0.507126 -0.980310 -0.588704 -1.398651 -0.997034 -0.942979 0.185464 0.483404 1.635117 1.981502
102 0.523590 2.320862 2.353744 -1.769482 0.947915 0.637619 1.128128 0.621629 0.417080 -0.359275
29 -0.414190 -0.972238 -0.520164 -1.214318 -0.940010 -0.965791 0.146940 0.745805 1.587085 1.615349
74 -0.823928 -1.207449 -0.458973 -1.431440 -0.675944 -0.618417 -0.133919 0.428520 1.520807 1.557232
63 1.978964 1.290156 -0.754676 -2.376640 -0.137939 0.695061 0.404647 -0.962579 1.415433 2.293375
55 -1.070379 -0.473462 0.203347 -0.883982 -0.564450 -0.025660 0.386088 0.958872 1.834893 0.141170
62 -0.742867 -0.633433 0.242107 -0.953041 -0.324762 -0.303112 0.154907 1.118955 2.120610 0.077189
134 -0.976212 -0.020100 1.124542 -1.784037 1.279632 0.041519 1.330993 -0.333346 -0.377309 0.569133
5 -0.781323 -0.583964 0.379060 -0.644437 -0.092850 -0.163745 -0.066638 1.069623 1.254740 0.431041
12 -0.028502 0.396607 0.444668 -1.120160 1.664169 -0.364950 0.932010 0.000029 -0.259349 0.692283
57 -0.281739 0.658425 1.340107 -1.857362 1.328423 -0.334030 0.363285 0.162099 -0.555572 0.563784
87 1.036922 0.611026 -0.048965 0.040099 0.695767 0.910374 1.248165 0.190291 0.558106 1.182462
131 1.608499 -0.172488 -0.121810 -1.296315 -0.028932 0.998241 0.389317 0.088706 0.535900 0.895395
111 1.745002 -0.432233 0.165733 -1.805206 -0.308861 0.910451 -0.541585 0.323403 0.433704 1.183588
120 1.816656 -0.183077 0.052616 -1.483725 -0.307661 0.860602 0.116713 0.200937 0.481619 0.872254
80 -0.078065 0.133405 0.550094 -1.238046 1.888991 -0.282449 0.743416 0.061017 -0.391971 0.744092
90 -0.917102 -0.005454 0.005662 -0.681853 -0.465731 -0.016816 0.211763 1.089097 1.462032 0.162514
45 0.865668 0.806699 -0.268427 -0.375879 1.532322 -0.308541 1.448799 0.137957 0.597434 0.819025
16 -0.107391 0.711971 1.224024 -1.461191 1.236754 -0.274455 0.240000 0.212935 -0.471267 0.410234
36 -0.677154 -0.132851 -0.250708 -0.546561 0.158866 0.070034 -0.191373 0.839653 1.201632 0.184244
40 -0.504475 -0.526364 0.109780 -0.553649 0.148844 -0.155211 0.044132 1.085474 1.109569 0.302059
85 -0.833562 -0.132431 -0.001739 -0.588773 -0.178750 0.092902 0.180912 1.133534 1.028734 0.198687
38 -0.624807 -0.212770 -0.292654 -0.576171 0.110805 0.016121 -0.326150 1.002275 1.039651 0.310484
54 -0.701266 -0.044699 -0.103516 -0.658168 -0.080757 0.159290 -0.099149 1.057164 1.010693 0.192301
101 1.414177 -0.090997 -0.034925 -1.404895 -0.228805 0.782939 -0.057273 0.152573 0.523017 0.881878
139 -0.386475 -0.066944 0.034234 -0.325609 -0.103013 -0.126265 -0.150726 1.084733 1.128374 0.393561
32 -0.546347 0.015518 -0.007101 -0.664194 -0.339668 -0.100541 0.251153 1.020784 0.872419 0.318366
70 -0.526613 -0.126660 -0.094701 -0.519503 -0.034962 -0.117822 -0.319137 1.098510 1.077766 0.286958
31 -0.676183 -0.134020 -0.181319 -0.675779 -0.117612 0.146341 0.118511 1.054897 0.994542 0.120664
141 -0.545008 0.036564 -0.156778 -0.545150 -0.139990 -0.048259 -0.140958 1.062948 1.195194 0.335405
109 -0.252701 0.460192 0.364844 -1.245270 1.106710 -0.309036 0.466092 0.257771 -0.360914 0.642328
91 -0.549373 0.045304 -0.120923 -0.524122 0.011059 0.006253 -0.085038 1.019839 0.871314 0.326688
145 -0.539183 -0.076110 -0.122964 -0.453242 0.048771 0.153157 -0.225045 0.890392 1.046887 0.319294
140 -0.704734 -0.107273 -0.042838 -0.459755 0.077057 0.131888 -0.176252 0.855853 1.095740 0.295413
113 -0.423426 -0.633383 0.359497 -0.700418 -0.046730 -0.024424 -0.158323 1.016027 0.930587 0.214527
82 -0.519780 -0.337716 0.295377 -0.617901 -0.096621 -0.047016 -0.154056 1.049632 0.754599 0.274677
142 -0.604745 -0.196962 0.016068 -0.410103 -0.046667 0.090886 -0.257206 0.929884 1.112651 0.389426
33 -0.357354 -0.545588 0.373001 -0.684772 -0.019823 -0.233821 -0.191573 1.220371 0.702248 0.409992
88 -0.523715 -0.495285 0.314969 -0.625997 -0.110075 -0.008025 -0.267071 1.031250 0.829103 0.395491
133 -0.734654 -0.188975 -0.179052 -0.484831 0.002232 0.070299 -0.020767 0.788313 0.991612 0.250172
99 -0.617206 -0.192034 0.337395 -0.381525 0.085512 0.190483 -0.363810 0.980280 0.892656 0.249710
77 -0.489573 0.079626 -0.282729 -0.541961 -0.106145 -0.009074 0.092879 1.055822 0.833303 0.294571
108 0.323423 0.882595 0.222919 0.042479 1.027372 0.060653 0.995230 -0.105182 0.756223 1.093760
96 -0.548099 -0.509284 0.350892 -0.581804 -0.001204 -0.098415 -0.083744 1.093717 0.945250 0.292255
37 -0.590831 -0.368314 0.037271 -0.475597 0.169947 0.335286 -0.222629 0.717091 0.870315 0.253406
86 -0.570206 0.129623 -0.081097 -0.670311 -0.255702 0.071736 0.322393 1.027560 0.936659 0.171111
43 -0.405139 0.073312 -0.091642 -0.409411 0.099921 0.109310 -0.104111 0.965180 1.045553 0.477342
83 -0.527800 -0.104435 0.045049 -0.385256 -0.171069 -0.103503 -0.304555 0.895041 0.847393 0.644918
147 -0.249861 0.352219 0.504674 -1.273780 1.139729 -0.267573 0.458334 0.124190 -0.375593 0.650792
50 1.086167 -0.124763 -0.004158 -0.992098 0.015283 0.629021 0.196530 -0.076385 0.472936 0.723444
66 -0.373394 -0.129271 0.105387 -0.445974 -0.061996 -0.144083 -0.132971 0.701550 0.847916 0.394787
48 0.002163 0.372487 0.795400 -0.769898 0.861255 -0.096925 0.443143 0.257640 -0.069776 0.198522
104 -0.111393 0.208297 0.400632 -0.890214 0.621901 -0.147244 0.416202 0.219396 -0.224654 0.373911
