61 10
2 0.331013 -1.971135 0.373116 -0.150123 0.591811 -0.820273 1.387394 -0.103800 -0.544542 -0.057635
3 -1.065217 -1.144233 1.163811 -0.483473 0.437815 0.331552 0.936018 -0.086954 -0.346926 -0.150821
59 -1.160450 -1.234872 1.324328 -0.504183 0.578276 0.390865 1.019925 -0.013379 -0.266050 -0.128626
29 0.384503 -1.796775 0.221462 -0.118709 0.594293 -0.869915 1.151342 -0.207701 -0.469742 -0.102011
28 0.170472 -1.794820 0.441104 -0.167453 0.585190 -0.649472 1.110291 -0.237428 -0.487666 -0.233620
14 -0.732347 -0.877778 -0.266319 -0.536215 0.143930 -0.508387 -0.096535 -0.189508 1.096583 0.155384
5 -0.616277 -0.819606 -0.268514 -0.500531 0.085302 -0.431263 0.090939 -0.287931 0.925782 0.062517
7 -0.613729 -0.937197 -0.379481 -0.549717 0.096294 -0.570991 -0.048807 -0.261598 1.184036 0.088115
11 -0.623148 -0.910750 -0.128271 -0.541388 -0.030601 -0.426731 -0.056477 -0.486146 0.875194 -0.040694
17 -0.558365 -0.948231 -0.097473 -0.433168 0.163141 -0.474006 0.094866 -0.276611 0.752527 -0.123641
12 -0.770850 -0.947064 -0.068561 -0.491305 0.253624 -0.407527 -0.017789 -0.161632 0.877286 0.031203
1 -0.597148 -0.869692 -0.097506 -0.452690 0.227768 -0.486898 0.074189 -0.129194 0.836927 -0.004553
18 -0.519850 -1.091463 -0.270024 -0.461401 0.310895 -0.668220 0.124998 -0.067562 0.990857 0.195916
13 -0.616798 -0.889997 -0.134022 -0.535299 0.194588 -0.437392 -0.058441 -0.322377 1.039148 0.007741
48 -1.479688 -0.343392 0.501364 -1.365986 -1.715289 0.374076 1.064269 -1.971991 -0.270084 -0.094105
16 -1.353436 -0.234479 0.521722 -1.273609 -1.770550 0.454809 1.208491 -1.874980 -0.522215 0.072178
19 -0.748889 -0.873785 -0.023937 -0.546035 0.178263 -0.339162 -0.071345 -0.353412 0.969346 -0.140972
10 -0.354764 -1.138814 0.472833 -0.252164 0.479379 -0.152045 0.673945 -0.054656 0.003821 -0.140006
56 -1.472897 -0.190919 0.417657 -1.327076 -1.535186 0.456860 0.914912 -1.791213 -0.364597 -0.149368
35 0.023198 -0.663803 -0.338702 -0.629128 -1.769534 -0.450089 1.890465 -0.643217 -0.304865 2.208457
36 0.065095 -0.610280 -0.297233 -0.713201 -1.938102 -0.441448 1.909265 -0.726329 -0.196518 2.318224
23 -1.425530 -0.420348 0.416209 -0.669336 -0.163871 -0.169453 1.888385 0.756415 -0.397918 0.733675
4 -1.340235 -0.449481 0.445474 -0.664948 -0.210245 -0.202805 1.839283 0.660513 -0.506285 0.771274
58 -0.725024 -1.042194 -0.163808 -0.560924 0.201167 -0.483747 -0.067985 -0.255582 1.169770 0.033223
39 -0.552377 -0.976076 -0.217417 -0.453897 0.260106 -0.543124 0.012067 -0.219985 1.033870 0.089484
27 -0.696826 -0.913006 -0.107331 -0.529056 0.202385 -0.365788 0.047714 -0.197707 0.847380 -0.034899
46 -0.650282 -0.924884 -0.118858 -0.434258 0.253534 -0.422669 -0.077497 -0.280481 0.928038 -0.110366
41 -0.531680 -0.870228 -0.157543 -0.370914 0.160030 -0.445853 0.079405 -0.195599 0.898216 0.134878
47 -0.554560 -0.954781 -0.104947 -0.436471 0.216296 -0.475873 0.018090 -0.216966 0.836679 0.049137
6 0.040007 -0.650632 -0.202665 -0.547080 -1.626478 -0.332637 1.775772 -0.576947 -0.307824 2.022418
20 -0.584134 -0.812216 -0.150693 -0.445506 0.070688 -0.447668 0.070273 -0.318705 0.778571 -0.090787
44 -0.546460 -0.892198 -0.127402 -0.437791 0.226056 -0.450677 0.173601 -0.080030 0.799607 0.118538
30 -0.682901 -0.892421 -0.238274 -0.470621 0.125113 -0.412329 -0.116214 -0.343418 1.099831 -0.046755
54 -0.637799 -0.942326 -0.164176 -0.447273 0.115654 -0.506102 -0.074057 -0.356648 1.020110 -0.024864
61 -0.591512 -0.895090 -0.135232 -0.456314 0.154647 -0.505904 0.021110 -0.213426 0.934447 0.040557
55 -0.534163 -0.932888 -0.096986 -0.456420 0.174379 -0.480289 0.090541 -0.342226 0.874951 -0.014231
31 -0.611574 -0.893957 0.000152 -0.430853 0.211881 -0.422582 0.048320 -0.343133 0.790710 -0.071349
53 -0.472033 -0.876417 -0.084691 -0.440169 0.167579 -0.364971 0.141336 -0.256449 0.614080 0.024370
42 -0.686987 -0.948794 -0.197962 -0.562813 0.226109 -0.542449 -0.071559 -0.283985 1.124416 0.042897
34 -0.525698 -0.898462 -0.258042 -0.389624 0.203983 -0.587060 -0.003580 -0.210204 1.035088 0.151628
8 -1.032439 -0.737085 0.947511 -0.534236 -0.228935 0.336619 1.262655 -0.194618 -0.528997 0.204869
32 -0.743020 -0.978556 -0.081150 -0.461649 0.334901 -0.386395 0.012161 -0.202791 0.902416 -0.115435
57 -0.582441 -0.904143 -0.100523 -0.489048 0.192381 -0.410115 0.106036 -0.229945 0.813385 0.070797
40 -0.597321 -0.932255 -0.171894 -0.426641 0.233347 -0.465498 -0.010249 -0.189476 0.965940 0.046413
38 -0.447469 -1.056583 -0.117308 -0.379016 0.230557 -0.568579 0.079902 -0.173040 0.917761 0.075509
25 -0.940671 -0.479708 0.775076 -0.669313 -0.866817 0.415716 1.340658 -0.699362 -0.633771 0.421716
33 -0.171467 -1.188956 0.281701 -0.211885 0.384063 -0.420625 0.630723 -0.116310 -0.011530 -0.101749
22 -0.107657 -1.060867 0.284462 -0.204623 0.311850 -0.331262 0.596057 -0.158823 -0.148088 -0.111742
52 -0.240323 -0.897360 0.036179 -0.318781 0.148925 -0.486095 0.397820 -0.240640 0.339046 -0.064021
50 -0.589176 -0.838239 0.148209 -0.344217 0.147721 -0.212181 0.299315 -0.236595 0.396060 -0.072363
60 -0.588472 -0.806037 0.091946 -0.372717 0.225771 -0.276305 0.298262 0.031339 0.568053 0.073941
21 -0.287980 -0.998879 0.354627 -0.249773 0.387898 -0.322057 0.610779 -0.036821 -0.053617 -0.049919
37 -0.491754 -0.892979 0.024290 -0.375780 0.161018 -0.377326 0.189747 -0.259338 0.636251 0.040117
24 -0.472911 -0.813527 0.073569 -0.320406 0.268670 -0.372715 0.244529 -0.073629 0.570514 0.060269
15 -1.032988 -0.100200 0.387105 -0.923870 -1.171233 0.394272 0.807118 -1.264018 -0.351386 -0.024582
51 -0.450068 -1.014909 0.211613 -0.271849 0.427240 -0.351133 0.493470 0.054230 0.384762 0.148319
43 -0.525040 -0.884455 0.025338 -0.399355 0.244849 -0.419671 0.284380 -0.146702 0.597717 0.052977
49 -0.254593 -0.849192 0.088127 -0.206028 0.231226 -0.438456 0.487389 0.034335 0.323274 0.193135
26 -0.263334 -0.977229 -0.036311 -0.312766 0.357786 -0.538031 0.248105 -0.124934 0.521478 -0.008025
45 -0.329353 -0.943291 0.184069 -0.318952 0.272791 -0.295434 0.505296 -0.097234 0.263028 0.028024
9 -0.261471 -0.445211 -0.017787 -0.588065 -1.374118 -0.091320 1.447091 -0.587147 -0.283375 1.450103
