96 10
7 -0.124779 -1.403515 0.194838 -0.684079 1.015494 0.258421 0.326943 0.408085 1.318760 0.441805
24 -0.110887 -1.474886 0.207587 -0.730804 1.125881 0.527007 0.208840 0.277473 1.266078 0.616035
23 -1.580597 -1.412617 0.403479 -0.389126 0.372859 0.699551 0.406263 -0.709884 -0.221532 0.805960
8 -1.429259 -1.466318 0.433133 -0.285400 0.297922 0.578284 0.383588 -0.550285 -0.196883 0.802936
12 -1.462479 -1.539519 0.407525 -0.372122 0.482017 0.494309 0.286437 -0.633896 -0.037047 0.847341
19 0.137757 -0.919819 1.780567 -1.592842 0.369891 1.268737 -0.415635 -0.124071 -0.209344 0.712052
14 0.068142 -0.984925 1.673947 -1.331968 0.302550 1.121375 -0.315851 0.034655 -0.163832 0.626607
6 0.171355 -0.955086 1.706138 -1.421132 0.568364 1.240816 -0.366889 -0.021862 -0.300405 0.658694
20 -0.547960 -2.194214 1.385961 -0.186331 -0.970031 -0.089165 0.749935 0.620444 0.178414 -0.012798
10 -0.491881 -2.164599 1.335433 -0.279905 -1.064088 -0.164541 0.706700 0.831879 0.262953 -0.244712
11 -0.714097 -2.077760 1.172636 0.009576 -0.771579 -0.322788 0.612313 0.598299 0.442065 -0.081103
5 -0.079039 -1.376373 -0.773843 -0.599534 1.667181 -1.000450 1.465071 1.055699 -0.867235 -1.595105
76 -0.041388 -1.253686 -0.693525 -0.432384 1.759535 -0.962469 1.423997 1.122857 -0.722016 -1.492796
1 -0.095341 -1.481054 0.032534 -0.818198 0.435490 -0.010657 0.219813 0.009441 0.310023 0.330099
15 -0.509523 -1.626404 0.237367 -0.488101 0.628900 0.224006 0.202448 -0.031259 0.598479 0.578854
65 -1.297907 -0.492740 -0.708697 -1.231124 1.055681 -0.976091 0.852826 1.143355 -1.449021 -0.748029
4 0.030810 -0.673512 2.747661 0.552995 0.679951 0.055698 0.191022 1.590972 -2.506747 -0.991999
86 -1.311527 -0.377364 -0.620257 -0.861433 1.258775 -1.001150 0.781266 1.086834 -1.614197 -0.555594
73 -1.443503 -0.550557 -0.892499 -1.128571 1.396801 -0.902650 0.938033 1.088785 -1.686485 -0.475460
34 0.179147 -0.744709 2.693356 0.699797 0.956679 0.080565 0.236423 1.649513 -2.246737 -0.959819
2 0.077406 -0.687088 2.576543 0.742622 0.886685 -0.056942 0.316011 1.361260 -2.385765 -0.943484
87 -1.692362 0.260413 0.181177 -0.965468 1.540187 -0.366138 -0.450318 1.923159 -0.602613 -0.510906
81 -1.603008 0.301309 0.077295 -1.059309 1.492468 -0.387942 -0.497863 1.934510 -0.702452 -0.447731
42 -1.612379 0.312890 -0.033970 -1.076332 1.530222 -0.433339 -0.353625 1.875445 -0.741955 -0.400777
71 -1.662516 0.316437 0.086108 -1.100177 1.471800 -0.259226 -0.427468 1.723794 -0.771916 -0.417144
3 -1.575892 0.224982 0.088539 -0.992084 1.475380 -0.325440 -0.396764 1.842528 -0.820544 -0.342651
22 -0.640535 -1.313738 -0.943479 -0.668420 1.446375 -1.159511 1.316790 0.719260 -1.219716 -0.648815
58 -0.688603 -1.061102 -0.891972 -0.644638 1.236785 -1.088535 1.228469 0.994340 -1.110394 -0.762643
18 -1.167234 -0.548400 -0.728744 -1.032791 1.164500 -1.120954 1.026863 1.014525 -1.739824 -0.638726
17 -1.783233 0.337873 0.221125 -1.205786 1.472862 -0.338506 -0.492430 1.896556 -0.628531 -0.362172
62 -1.636423 0.380655 0.245243 -0.849114 1.451216 -0.390123 -0.652609 2.009437 -0.640170 -0.400134
61 -1.316990 -1.552931 0.460638 -0.530478 0.462139 0.711185 0.297795 -0.654822 0.030302 0.946003
9 -1.202714 0.167657 -0.236130 -1.091791 1.547406 -0.433665 -0.194189 1.896967 -0.751831 -0.603076
57 -1.411765 -1.319595 0.382000 -0.408880 0.290574 0.589393 0.315497 -0.664546 -0.268263 0.868476
69 -1.773815 0.334870 0.118852 -1.037538 1.572822 -0.264235 -0.530562 1.853871 -0.583771 -0.329798
84 -1.644388 -1.594506 0.400575 -0.410006 0.400925 0.409562 0.418567 -0.687847 -0.080782 0.813968
68 -1.489829 -1.538629 0.398776 -0.065635 0.290946 0.472504 0.514363 -0.687799 -0.297258 0.783970
54 -1.642851 -1.380469 0.446232 -0.224042 0.375791 0.502268 0.309940 -0.756795 -0.286456 0.867683
95 0.317559 -0.914522 1.795226 -1.389401 0.230519 1.305209 -0.376759 0.124588 -0.236465 0.591715
16 0.230526 -0.741661 2.451632 0.593002 1.110291 0.061105 0.382299 1.649359 -2.365715 -0.982158
59 -0.751671 -0.744329 -0.848351 -0.712920 1.306049 -0.841756 0.964174 0.845158 -0.922240 -0.434746
50 -0.451391 -2.255380 1.284527 -0.098638 -0.912743 -0.123300 0.654697 0.822788 0.481138 0.002882
45 -0.429251 -2.109711 1.178775 -0.240769 -0.729232 -0.215712 0.796636 0.564785 0.469080 -0.051761
85 -0.406713 -2.239810 1.369597 -0.065228 -0.955062 -0.264487 0.590312 1.034956 0.380461 -0.099275
63 0.132897 -0.739631 1.552132 -1.488009 0.488322 1.348629 -0.340673 0.034709 -0.413083 0.696438
36 -1.028424 -1.199258 0.438431 -0.517511 0.285106 0.775019 0.310977 -0.631010 -0.306502 0.825683
35 -1.326634 -1.470722 0.163361 -0.410048 0.435671 0.447285 0.468997 -0.669564 -0.170796 0.738114
46 -1.533316 -1.469036 0.256566 -0.307949 0.200124 0.301417 0.485521 -0.495115 -0.092653 0.679362
30 0.124426 -0.820196 1.735859 -1.140368 0.386291 1.306963 -0.419909 0.074943 -0.319187 0.596861
40 0.259760 -0.858777 2.181563 0.464652 0.911453 -0.147769 0.462863 1.469729 -2.341910 -1.005138
96 -0.014321 -0.836845 1.662340 -1.347847 0.461023 1.236572 -0.476596 0.103805 -0.299378 0.627688
74 0.076960 -0.796017 1.778765 -1.423144 0.348374 1.305134 -0.447938 -0.093458 -0.401462 0.627718
41 -1.647937 -1.412204 0.266735 -0.342113 0.487334 0.366765 0.405237 -0.749741 -0.228323 0.846786
56 0.078334 -0.879754 1.704519 -1.444829 0.459653 1.411205 -0.485930 0.103941 -0.350831 0.697479
92 -0.348021 -2.134751 1.352728 -0.193788 -1.033241 -0.206171 0.756958 0.820822 0.279093 -0.125319
48 0.038920 -0.925639 1.957045 -1.361365 0.311621 1.331574 -0.451656 0.038651 -0.305946 0.628308
37 -0.095532 -1.395147 0.487933 -0.612567 0.951460 0.373780 0.138296 0.148835 1.070929 0.505889
75 0.003260 -1.371145 0.429568 -0.704081 0.940868 0.330626 0.165798 0.296616 1.280537 0.490634
51 -0.183591 -1.553324 0.215295 -0.645878 0.864496 0.330893 0.318662 0.172527 1.072258 0.435665
33 -0.027603 -1.278156 0.286491 -0.745442 0.797746 0.288919 0.192319 0.185828 0.985618 0.387257
49 -0.093528 -1.418079 0.428279 -0.723026 0.895570 0.308844 0.187605 0.360435 1.119621 0.372506
27 -0.020206 -1.406672 0.198140 -0.766660 1.082527 0.377557 0.227034 0.148324 1.067338 0.524162
64 -0.174497 -1.259362 0.389874 -0.835060 1.161974 0.553942 0.009973 0.387676 1.266750 0.591213
29 -0.116461 -1.447975 0.215376 -0.990598 1.086403 0.323571 0.159131 0.207523 1.220508 0.502435
44 -0.057562 -1.273482 0.426191 -0.921496 1.082091 0.512008 0.096142 0.264859 1.041710 0.510506
78 -0.227279 -1.372322 0.110536 -0.805247 1.113172 0.316433 0.272487 0.163813 1.287706 0.564040
39 -0.114000 -1.349409 0.307163 -0.660089 0.978716 0.427157 0.182173 0.292167 1.139149 0.418348
79 -0.023152 -1.394426 0.325661 -0.638615 0.908538 0.329150 0.220302 0.159443 1.149281 0.550593
28 -0.342586 -1.405937 0.271520 -0.715967 0.887595 0.513187 0.185273 0.132509 1.061152 0.594750
53 -0.039809 -1.322763 0.469125 -0.582699 0.778496 0.429704 0.051455 0.178700 1.001243 0.575748
66 -0.084790 -1.424557 0.429864 -0.843097 0.885798 0.426337 0.002225 0.345152 1.125152 0.595893
55 0.392583 -0.026453 0.990788 -0.335289 1.526547 -0.172641 0.272329 1.755772 -1.767482 -0.907223
70 -0.142740 -1.439579 0.261714 -0.740545 0.535091 0.264567 0.190588 -0.062075 0.434608 0.585077
21 -1.343308 0.196440 0.170657 -0.844427 1.321266 -0.237868 -0.368253 1.956340 -0.822853 -0.482238
72 -0.295862 -1.653709 0.337274 -0.740335 0.376131 0.173712 0.341371 -0.100093 0.333594 0.299906
88 0.605937 -0.755758 0.135826 -0.456968 1.323344 -0.268310 0.678041 1.795159 -1.478409 -1.271174
89 -0.325934 -1.410824 0.130266 -0.905385 0.527412 0.146397 0.354271 -0.440720 0.446891 0.476503
83 -1.363071 0.236598 -0.187479 -0.906079 1.461241 -0.403026 -0.209380 1.602154 -0.810437 -0.357582
82 0.915883 -1.269985 -0.262436 -0.745409 1.247510 -0.154442 1.084653 1.481060 -1.787855 -0.978211
47 -0.461462 -1.467723 0.217227 -0.680776 0.526715 0.257732 0.201315 0.002575 0.519785 0.649526
43 -0.331562 -1.401170 0.092380 -0.691894 0.649668 0.195498 0.280200 -0.098415 0.535146 0.596254
13 -0.616715 -1.619453 1.366485 -1.174401 -0.120412 -0.066898 -0.064208 -0.640950 0.287512 0.706468
91 -0.322318 -1.361509 0.142717 -0.596161 0.358880 0.170413 0.466363 -0.281220 0.282506 0.363241
94 -0.319148 -1.615224 0.119968 -0.631936 0.376800 -0.035265 0.372052 -0.175432 0.486466 0.342948
60 -0.291389 -1.603156 0.232731 -0.763027 0.481195 0.192323 0.394512 -0.211989 0.337564 0.374262
93 -0.512161 -1.353510 0.219547 -0.589279 0.381816 0.086623 0.249814 -0.132121 0.334648 0.620358
90 -0.389840 -1.447125 0.411714 -0.521846 0.380782 0.159659 0.267229 -0.078044 0.515893 0.449937
80 -0.293308 -1.496236 -0.014259 -0.613995 0.313295 0.017649 0.554210 -0.063545 0.264208 0.195366
38 -0.532994 -1.403237 0.111849 -0.767993 0.547176 0.184958 0.191813 -0.131750 0.576473 0.569554
26 0.425396 -0.505825 1.441469 0.078758 1.187127 -0.249394 0.493386 1.446794 -2.121555 -0.920984
31 -0.472077 -0.657273 -0.636865 -0.580290 1.094893 -0.845835 0.757154 0.701682 -0.770863 -0.544399
52 0.204595 -0.126071 0.899478 -0.502913 1.421361 -0.202530 0.262762 1.724102 -1.417995 -0.861551
32 0.501992 -1.104443 -0.192840 -0.590577 0.926876 0.004848 0.679287 1.760936 -1.637787 -0.897552
25 -0.612565 -1.390745 1.162129 -1.218365 -0.109002 0.021521 -0.338033 -0.278034 0.466340 0.536729
77 -0.332108 -1.143893 0.686287 -0.413490 0.005938 0.091437 0.105796 0.029794 0.223392 0.296913
67 -0.477728 -1.008283 0.400767 -0.420291 0.244632 0.038233 0.196415 -0.048830 0.295011 0.271743
