35 10
4 -0.516858 -0.830412 0.004957 -0.371516 -0.118727 -0.703078 0.160493 -0.384493 0.263135 -0.137310
1 -0.629114 -0.864081 0.211775 -0.392798 -0.076050 -0.761209 0.182070 -0.478829 0.246809 -0.082401
13 -0.573212 -0.772708 0.255472 -0.437414 -0.081195 -0.750877 0.161311 -0.525393 0.232354 -0.129509
5 -0.653717 -0.855292 0.158195 -0.383039 -0.044147 -0.797057 0.166385 -0.567747 0.299878 -0.128521
14 -0.674990 -0.851708 0.186188 -0.362311 -0.082046 -0.704549 0.086842 -0.547940 0.248102 0.046626
15 -0.671489 -0.868269 0.238151 -0.498427 -0.054102 -0.740561 0.175928 -0.518757 0.236450 -0.194701
11 -0.730962 -0.877403 0.217039 -0.449896 -0.006504 -0.808749 0.073798 -0.420963 0.262073 -0.151781
3 -0.593105 -0.819251 0.214970 -0.312588 -0.136947 -0.717355 0.192651 -0.591686 0.273519 -0.140282
16 -0.766230 -0.705902 0.273921 -0.383723 -0.022497 -0.788211 0.048599 -0.481168 0.238512 -0.024264
9 -0.861134 -0.989304 -0.329223 -0.453076 -0.195384 -0.771759 -0.096097 -0.312536 0.453813 0.237429
6 -0.716154 -0.839833 -0.168647 -0.369750 -0.107883 -0.643090 -0.042653 -0.220864 0.284566 0.163377
12 -0.841824 -0.824836 -0.136513 -0.410385 -0.136651 -0.703789 -0.173276 -0.354729 0.313870 0.241392
20 -0.449192 -0.714929 0.187628 -0.388170 -0.088816 -0.633772 0.246226 -0.349401 0.091981 -0.233890
30 0.636356 -1.470808 -1.375493 0.294152 -1.178227 0.291763 0.987171 -0.693915 0.599729 0.224066
7 0.725378 -1.689492 -1.587086 0.271936 -1.368262 0.322189 1.101637 -0.802763 0.788421 0.212504
23 -0.740486 -0.720074 0.249091 -0.509861 0.025260 -0.820128 0.020936 -0.378705 0.221994 -0.164066
21 -0.761180 -0.709656 0.215834 -0.483414 -0.052886 -0.802378 0.025766 -0.448507 0.225033 -0.037063
8 0.772022 -1.976681 -1.705668 -0.141064 -1.137739 0.453652 1.550586 -0.229780 0.082243 0.117438
32 0.669590 -1.939698 -1.749759 -0.124324 -1.067055 0.398166 1.501944 -0.292061 0.084670 0.125719
24 -0.620166 -0.768605 0.272035 -0.414605 -0.008053 -0.762871 0.139402 -0.418553 0.183505 -0.136095
22 -0.552216 -0.804261 0.172535 -0.478293 -0.045006 -0.757048 0.135240 -0.405997 0.147123 -0.193535
28 -0.737842 -0.858790 0.273052 -0.410495 -0.062258 -0.749934 0.115761 -0.530770 0.208981 -0.086210
34 -0.598221 -0.793311 0.116568 -0.314269 -0.052710 -0.683512 0.189645 -0.453021 0.185809 -0.042344
25 -0.613279 -0.762621 0.115942 -0.455639 -0.082601 -0.680962 0.107452 -0.388675 0.208060 -0.131735
33 -0.632436 -0.798778 -0.125240 -0.358370 -0.072818 -0.648818 -0.029892 -0.218044 0.288289 0.071637
31 -0.580738 -0.689008 0.246056 -0.258911 -0.106085 -0.764001 0.043224 -0.585144 0.271689 -0.042353
10 0.803625 -1.656488 -1.120181 -0.931443 -0.537502 0.233936 1.532472 0.300691 -0.350611 -0.856621
2 0.990813 -1.896604 -1.384472 -0.947246 -0.741974 0.285800 1.736712 0.336204 -0.436861 -0.810299
27 -0.574532 -0.757316 0.147618 -0.463360 -0.021876 -0.674918 0.135865 -0.345892 0.145914 -0.105759
35 -0.636308 -0.781788 -0.256667 -0.357641 -0.183739 -0.582986 0.016076 -0.288073 0.242127 0.156907
19 -0.382502 -0.768233 -0.172109 -0.357258 -0.173055 -0.428184 0.121768 -0.244716 0.208538 0.054525
29 -0.341247 -0.740131 -0.133589 -0.318175 -0.143958 -0.455705 0.231566 -0.342758 0.166305 -0.040741
17 -0.439914 -0.779186 -0.103987 -0.271492 -0.209545 -0.517781 0.182348 -0.292353 0.265225 0.053427
18 -0.269193 -0.720974 -0.214374 -0.287385 -0.172363 -0.386223 0.189066 -0.250346 0.206585 0.018616
26 -0.251624 -0.544075 -0.056687 -0.271165 -0.090196 -0.395492 0.186806 -0.241008 0.073344 -0.064276
