63 10
11 0.102927 -0.746998 -0.327634 -0.687016 -0.815268 -0.628137 -0.270382 0.925738 0.896945 -1.278056
7 0.207850 -0.021003 -0.952421 0.319441 0.151266 -0.537167 -0.029651 0.718011 1.068939 0.219143
4 0.288678 -0.016531 -1.146580 0.024101 -0.057381 -0.411836 -0.145572 0.842943 1.136297 0.266762
8 0.505553 -0.686322 -0.701231 -0.417648 -0.159738 -0.161241 -0.065458 0.704487 0.303519 0.519098
1 0.346153 -0.766299 -0.370819 -0.550502 -0.085317 -0.141037 -0.097156 0.694789 0.191911 0.284281
10 0.023661 -0.715787 -0.369001 -0.693452 -0.836299 -0.657354 -0.096408 0.725356 0.945018 -1.084684
12 0.621676 -0.873947 -0.799065 -0.572954 -0.014821 -0.175170 -0.212524 0.922387 0.267442 0.653301
2 0.329771 -0.583375 -0.466915 -0.353654 0.023720 -0.057790 -0.013226 0.764316 0.308327 0.308277
6 0.557189 -0.754834 -0.633484 -0.495422 -0.127926 -0.169879 -0.102638 0.781836 0.227958 0.383287
9 0.520561 -0.795067 -0.603146 -0.679167 -0.189949 -0.033938 -0.160604 0.772515 0.169925 0.401906
34 -0.949489 -2.001351 1.399635 0.152319 1.356179 -1.616992 0.579414 0.955534 0.404794 0.162481
33 -0.920471 -2.227658 1.515425 -0.023018 1.161595 -1.718860 0.542656 0.954159 0.353176 0.091404
20 -0.068662 -0.584226 -0.393432 -0.604286 -0.869824 -0.600477 -0.042833 0.888817 1.034826 -1.164366
21 -0.065208 -0.663924 -0.294103 -0.665792 -0.774956 -0.671448 -0.155346 0.907352 0.983106 -1.170003
38 -0.007766 -0.769601 -0.309517 -0.630319 -0.910137 -0.764171 -0.060309 0.745803 1.048305 -1.117712
3 0.088008 -0.514966 -0.511732 -0.421327 -0.353438 -0.399992 0.087621 0.432820 0.566168 0.146966
14 0.159950 -0.741901 -0.563021 -0.706238 -0.554893 -0.456010 0.008314 0.420879 0.584033 0.177515
13 -0.823643 -1.950289 1.264826 -0.044827 1.027272 -1.551640 0.539550 0.717036 0.325531 0.241459
15 0.349058 -0.631886 -0.761978 -0.480721 -0.114216 -0.030501 -0.031036 0.680496 0.432601 0.520061
27 0.132141 -0.492389 -0.541864 -0.605897 -0.718178 -0.505262 -0.172807 0.818667 0.897439 -0.879211
50 0.198167 -0.096969 -1.167873 0.076296 -0.138189 -0.268797 0.035308 0.758415 1.037661 0.377435
53 0.144542 0.018773 -1.124223 0.151431 0.045995 -0.314359 -0.049151 0.756032 1.104779 0.332596
37 0.245682 -0.029572 -1.240534 -0.008209 -0.182592 -0.265401 -0.108494 0.767955 1.208145 0.430831
25 0.206776 -0.231376 -1.060697 -0.068804 -0.113150 -0.335639 -0.059299 0.755294 1.025052 0.315069
62 0.097266 -0.038091 -1.150804 0.160046 0.076425 -0.365315 -0.001937 0.860608 1.256265 0.407278
43 -0.017038 -0.817239 -0.235887 -0.857189 -0.994696 -0.819434 -0.091472 0.789561 0.888021 -1.314320
52 0.159520 -0.577738 -0.414674 -0.649140 -0.708101 -0.540659 -0.115604 0.730341 0.737629 -0.755275
45 0.318565 -0.219396 -1.051015 -0.102522 -0.155187 -0.328396 0.019509 0.669600 0.927386 0.417812
39 0.183653 0.033006 -1.258636 0.055167 -0.153490 -0.254570 0.012220 0.744432 1.134052 0.373822
18 0.357481 -0.124678 -1.261585 -0.132655 -0.163602 -0.294438 -0.170729 0.918364 1.121878 0.301798
29 0.188806 -0.225845 -0.995654 -0.118551 -0.182604 -0.380420 -0.019604 0.628275 0.927143 0.272430
41 -0.866521 -0.727371 -0.115720 0.570721 1.380519 -0.318345 0.635361 1.093069 1.202093 0.908280
17 0.211023 -0.081906 -1.033598 0.058032 -0.210090 -0.347473 0.005384 0.712635 1.063840 0.293196
59 -0.785349 -0.588417 -0.347651 0.536398 1.305204 -0.131611 0.656619 1.110867 1.261797 1.165147
61 -0.805739 -1.587721 1.121237 0.107700 1.149748 -1.266810 0.426475 0.752530 0.329300 0.191879
46 -1.043870 -0.655315 -0.112164 0.761789 1.438994 -0.341122 0.775993 1.054745 1.292795 1.076389
32 0.154648 -0.213576 -1.028705 -0.039516 -0.105993 -0.253138 -0.021655 0.826029 0.976299 0.169600
44 0.355476 -0.737797 -0.577325 -0.449300 -0.028684 -0.215799 -0.039112 0.738254 0.374051 0.444457
35 -1.086312 -2.636371 0.811197 -0.442349 0.450943 -1.644355 1.156185 0.035111 0.166345 1.435976
55 -1.080442 -2.678672 0.797637 -0.353168 0.495352 -1.698585 1.366986 -0.090849 0.272460 1.851617
30 0.290176 -0.369582 -0.892032 -0.164517 -0.125234 -0.125129 0.028391 0.622931 0.671014 0.555696
31 0.411479 -0.734725 -0.666642 -0.475750 -0.119426 -0.314244 -0.037094 0.640302 0.377536 0.629460
60 0.244154 -0.579692 -0.613342 -0.270030 0.034228 -0.168217 0.033190 0.756576 0.545341 0.447571
47 0.401752 -0.860356 -0.661400 -0.496394 -0.033451 -0.243996 -0.053602 0.662626 0.219805 0.767679
23 0.401791 -0.717972 -0.659036 -0.532308 -0.253392 -0.226608 -0.047688 0.630884 0.330266 0.448505
36 0.396110 -0.601796 -0.695999 -0.488650 -0.192546 -0.104098 0.046321 0.631425 0.375243 0.598825
57 0.375015 -0.737651 -0.638272 -0.598028 -0.232133 -0.195186 -0.096826 0.693630 0.374363 0.305845
28 0.279280 -0.767513 -0.541805 -0.355012 0.077652 -0.199196 0.006977 0.736143 0.368507 0.592514
58 0.244296 -0.593934 -0.452035 -0.371746 -0.093339 -0.203575 -0.013709 0.575190 0.307812 0.335277
22 0.317156 -0.647960 -0.676889 -0.345028 -0.073342 -0.208284 0.010369 0.637416 0.420825 0.529472
56 0.399011 -0.727220 -0.717056 -0.521077 -0.069579 -0.184795 -0.039734 0.724283 0.306253 0.565374
49 0.405322 -0.825607 -0.441502 -0.509480 -0.164028 -0.263813 -0.027651 0.596139 0.270206 0.350642
51 0.116789 -0.711062 -0.533063 -0.566964 -0.446651 -0.447164 0.049702 0.452246 0.606982 0.156450
16 0.267936 -0.651076 -0.535551 -0.565749 -0.305815 -0.309858 -0.011530 0.524715 0.409940 0.301221
54 0.024328 -0.634851 -0.370669 -0.414426 -0.301458 -0.374133 0.052569 0.316027 0.470911 0.233777
63 0.246997 -0.589556 -0.581906 -0.578326 -0.428174 -0.322413 0.045317 0.511642 0.563328 0.223697
26 0.177950 -0.594833 -0.564970 -0.619493 -0.571279 -0.479548 0.054330 0.411452 0.586373 -0.011103
19 0.126312 -0.770483 -0.388988 -0.534110 -0.251758 -0.418615 0.077091 0.464829 0.547688 0.312033
24 0.159007 -0.602100 -0.342003 -0.488274 -0.418176 -0.451596 -0.012147 0.501130 0.547174 -0.095932
48 -0.388678 -0.726440 -0.099492 0.045306 0.491135 -0.352777 0.338811 0.558103 0.557134 0.576685
40 0.176621 -0.620210 -0.649135 -0.553142 -0.435327 -0.408575 -0.021954 0.488017 0.547845 0.188438
42 -0.554071 -0.889439 0.244104 0.187766 1.027793 -0.552610 0.427315 0.797866 0.595473 0.713620
5 -0.416691 -1.020740 0.441177 -0.074474 0.406222 -0.670946 0.429782 0.098383 0.117382 0.359482
