6 10
3 -0.100566 -0.077878 0.132707 0.005780 0.111354 -0.110106 0.093875 0.143751 -0.059143 -0.091280
2 -0.054645 -0.144018 0.129306 -0.022153 0.137866 -0.165200 0.123245 0.250047 -0.062267 -0.119759
6 -0.041578 -0.103634 0.096257 0.045825 0.104272 -0.089270 0.096886 0.172864 -0.017343 -0.069187
1 -0.112095 -0.150874 0.142037 -0.037445 0.126198 -0.160817 0.072166 0.185294 0.026187 -0.075234
4 -0.127970 -0.148517 0.187910 0.011718 0.249698 -0.273305 0.103366 0.361693 -0.011221 -0.193493
5 -0.051072 -0.134544 0.039270 -0.003049 0.137394 -0.123555 0.116035 0.101651 0.032790 -0.109720
