31 10
1 -0.089599 -0.759501 0.104263 -0.813666 -0.643849 -0.298741 0.956238 -1.190299 1.018441 0.485482
5 -0.016693 -0.687534 0.169396 -0.627690 -0.566141 -0.200112 1.010900 -1.184301 0.719921 0.399564
8 0.066048 -0.640387 0.197278 -0.558641 -0.666140 -0.049701 1.135097 -1.246581 0.695180 0.467463
15 0.043214 -0.591637 0.090664 -0.671669 -0.636515 -0.159269 1.060923 -1.271011 0.871837 0.422661
16 -0.125766 -0.656788 0.145770 -0.625633 -0.605091 -0.223705 0.835508 -0.964284 0.764225 0.425838
7 -0.129333 -0.730276 0.171494 -0.607670 -0.646353 -0.175919 0.841235 -0.927192 0.730347 0.415937
10 -0.095305 -0.744609 0.218040 -0.729199 -0.592779 -0.147954 0.962389 -1.173568 0.778165 0.420989
13 -0.076399 -0.689672 0.174859 -0.678586 -0.620539 -0.248827 0.871608 -1.051936 0.772534 0.465613
22 -0.018914 -0.777966 1.182168 0.866169 -0.412917 -0.760308 1.001141 0.025267 -1.351584 0.092784
17 0.064617 -0.772087 1.229319 1.062528 -0.586955 -0.488442 1.420943 -0.132357 -1.322652 0.199342
20 -1.139287 -1.501747 1.124143 0.043405 -0.294246 -1.354308 -0.120090 0.808044 -0.658605 0.137728
11 -1.055718 -1.498620 1.249142 0.274167 -0.222489 -1.484884 -0.114921 0.862194 -0.780471 0.074870
18 -0.830977 -1.324433 0.948604 0.145827 -0.318004 -1.459849 0.020314 0.675707 -0.500224 0.202485
28 -1.162522 -0.900630 1.577428 -0.848745 0.374278 1.196148 -0.406663 -0.520834 -1.329064 0.052776
14 -1.156906 -0.983774 1.551369 -0.897614 0.314572 0.920142 -0.392807 -0.480906 -1.219856 0.116889
3 0.022036 -0.487247 0.940167 0.467853 -0.394766 0.054580 1.213173 -0.539148 -0.865954 0.143009
6 -0.117023 -0.737259 1.290574 0.665989 -0.381920 0.211273 1.279550 -0.383484 -1.320658 0.135041
26 -0.049510 -0.530980 1.297912 -0.025119 0.083447 -0.803372 0.443050 -0.366840 -1.292931 -0.049388
24 -0.022237 -0.461801 1.172378 0.032824 0.002236 -0.559946 0.505051 -0.411235 -0.999554 0.035704
21 -0.208530 -0.696424 0.195372 -0.648860 -0.635004 -0.248336 0.794906 -0.943945 0.712127 0.465746
31 -0.068283 -0.719169 0.240790 -0.725682 -0.630588 -0.269286 0.936429 -1.235246 0.765215 0.466398
25 -0.049122 -0.616484 0.151725 -0.634570 -0.595245 -0.218038 0.873922 -1.129365 0.713489 0.393060
4 -1.194588 -1.331308 1.688336 -0.532994 -0.004969 -0.302911 -0.104308 -0.040947 -1.245426 0.107040
9 -0.994927 -1.119259 1.561718 -0.678344 0.032821 0.108968 0.035752 -0.400784 -1.182869 0.120858
2 -0.913663 -1.089297 1.472863 -0.571768 0.017135 -0.031685 0.000193 -0.225051 -1.198742 0.094220
12 -0.594676 -0.809550 1.045959 -0.215184 -0.091642 -0.269009 0.147934 -0.177613 -0.846075 0.113561
30 -0.035142 -0.496169 0.364659 -0.101352 -0.362611 -0.072130 0.664375 -0.564228 -0.037989 0.221948
29 -0.022577 -0.439391 0.167414 -0.369979 -0.374617 -0.168809 0.686324 -0.780082 0.366845 0.284124
27 0.000375 -0.476310 0.151852 -0.447443 -0.347423 -0.113828 0.628998 -0.682026 0.333046 0.268046
19 -0.048254 -0.439335 0.537506 -0.052416 -0.253278 -0.008320 0.553313 -0.445134 -0.227145 0.147755
23 -0.218275 -0.403759 0.498361 0.022019 -0.143587 -0.085308 0.287679 -0.103625 -0.367429 0.066434
