6 10
3 -0.103474 -0.012392 0.060689 0.044892 0.175957 -0.133751 0.076739 0.088909 -0.018486 -0.163114
4 -0.053446 0.031180 0.014555 0.056007 0.174676 -0.148726 -0.001970 0.131303 0.031699 -0.157313
5 -0.047105 -0.057212 -0.033992 0.033954 0.182904 -0.133741 0.081532 0.041422 0.072918 -0.163480
2 0.008410 -0.020511 -0.002401 0.009853 0.077192 -0.068044 0.051282 0.079691 -0.029354 -0.087557
1 -0.081946 -0.061668 0.056258 -0.012836 0.115835 -0.125405 0.018780 0.092278 0.056176 -0.081399
6 -0.016865 -0.025076 0.019941 0.066270 0.090906 -0.052377 0.052109 0.080203 0.007878 -0.071213
