43 10
39 -0.556429 -0.587454 -0.701200 -0.323462 0.291935 -0.736676 0.474078 0.935323 1.597416 1.228625
36 -0.439582 -0.585662 -0.632574 -0.382109 0.269122 -0.762546 0.468887 0.947020 1.542460 1.199051
17 -0.782764 -0.602378 -0.569571 -0.320840 0.381500 -0.826376 0.450875 0.887280 1.655160 1.035375
9 -0.526398 -0.570128 -0.694971 -0.394861 0.196932 -0.762313 0.464698 0.886844 1.551121 1.204299
30 -0.654616 -0.480815 -0.661368 -0.383579 0.265395 -0.819657 0.413933 0.817242 1.660276 1.136751
22 -0.805178 -1.873794 0.367581 0.338883 0.705541 0.063408 0.574791 0.196426 -0.725793 -0.743758
8 -0.196503 -1.105841 0.886487 1.028083 0.648177 -0.671213 1.160751 0.028797 -0.493806 0.397722
1 -0.766369 -1.792847 0.321008 0.382648 0.776782 0.255253 0.389666 0.153711 -0.611793 -0.947781
19 -0.999546 -1.938462 0.409836 0.297830 0.846407 0.264986 0.437099 0.157671 -0.558899 -1.009892
10 -0.857670 -1.762366 0.238488 0.273792 0.760128 0.238687 0.493179 0.243897 -0.536282 -0.887576
23 -0.880323 -1.865028 0.303460 0.345353 0.744070 0.057517 0.640967 0.301522 -0.560782 -0.686830
5 -0.208369 -1.018296 0.846087 1.133800 0.872029 -0.790301 1.137776 -0.083059 -0.286709 0.304276
7 -0.481495 -0.498807 -0.627169 -0.391571 0.164698 -0.807172 0.471816 0.822812 1.535703 1.199906
18 -0.619567 -0.552565 -0.549819 -0.357638 0.300057 -0.802726 0.398909 0.754817 1.412422 1.103666
41 -1.990151 -0.029198 -0.417208 -0.706728 0.655499 -0.742500 0.067960 -0.272927 1.484050 -0.095047
42 -0.624349 -0.521747 -0.571697 -0.421974 0.328869 -0.867282 0.485084 0.890088 1.537836 1.211887
35 -1.946828 -0.072564 -0.411234 -0.709258 0.631879 -0.781679 0.125333 -0.202982 1.383004 0.049070
31 -0.294005 -0.849268 0.943022 1.153586 0.857990 -0.902933 1.089636 -0.134590 -0.329604 0.356686
20 -0.432295 -1.255082 0.748448 0.438783 0.326467 -0.677175 1.094372 0.190105 -0.746234 0.209284
3 -0.630156 -1.479454 0.573251 0.202397 0.364546 -0.342219 0.882300 0.290549 -0.781033 -0.102711
37 -0.795635 -1.627122 0.378104 0.422653 0.720524 0.122144 0.510375 0.155631 -0.520980 -0.653610
32 -0.886709 -1.852187 0.183600 0.399779 0.844855 0.370537 0.389559 0.150854 -0.612166 -1.020851
12 -0.568124 -1.219314 0.836864 0.372151 0.345277 -0.694853 1.029667 0.035603 -0.802856 0.206700
24 -0.281719 -0.797536 0.867090 0.840925 0.604592 -0.676123 0.966459 0.003843 -0.418235 0.292568
16 -0.505097 -1.410243 0.729872 0.360435 0.334085 -0.528135 1.071815 0.214316 -0.798076 0.144246
40 -0.381576 -1.035716 0.836004 1.009633 0.867816 -0.593134 0.923529 -0.015268 -0.448934 0.001569
4 -2.210671 -0.353897 0.127779 -0.464611 1.523960 -0.625941 -0.088270 0.527421 1.357630 -0.861058
15 -2.206364 -0.313155 0.269305 -0.514383 1.558259 -0.551183 -0.064820 0.517049 1.359561 -0.908901
6 -0.436585 -1.363325 0.662111 0.292797 0.225364 -0.606922 1.125730 0.352443 -0.733694 0.373665
29 -0.548094 -0.440190 -0.535409 -0.391484 0.251840 -0.816434 0.412840 0.676038 1.363331 1.077819
33 -0.560562 -1.312966 0.663674 0.342158 0.408130 -0.506318 0.867191 0.186816 -0.688310 -0.019058
11 -0.718610 -0.254382 -0.437922 -0.420113 0.275538 -0.776085 0.202657 0.625492 1.426364 0.832211
26 -0.474177 -1.543480 0.703992 0.350887 0.396244 -0.428979 1.044861 0.240989 -0.937630 -0.034877
38 -0.463341 -1.477721 0.668509 0.370618 0.319491 -0.555249 0.998236 0.215607 -0.686805 0.118229
14 -0.805045 -0.367963 -0.366372 -0.466499 0.383293 -0.656159 0.218965 0.506179 1.263387 0.700312
27 -0.298437 -1.219276 0.591469 0.381694 0.302118 -0.580547 1.049766 0.309624 -0.636610 0.388240
13 -1.171162 -0.449833 -0.200105 -0.523082 0.536153 -0.900520 0.410067 0.340753 1.216267 0.540090
43 -1.417939 -0.318816 -0.286888 -0.563637 0.697807 -0.748978 0.218689 0.278311 1.289801 0.152333
25 -1.739458 -0.480968 -0.241948 -0.491120 0.784592 -0.664886 0.176751 0.076612 1.240886 -0.133127
28 -0.356651 -1.051087 0.540700 0.375171 0.331646 -0.306437 0.735742 0.130859 -0.548345 0.072292
21 -0.618520 -0.384916 -0.390133 -0.333926 0.223877 -0.610402 0.293595 0.497189 1.092473 0.743421
2 -1.115746 -0.299410 -0.216068 -0.462415 0.486845 -0.736528 0.284357 0.293057 1.060792 0.352282
34 -0.420122 -1.203017 0.500409 0.372865 0.405076 -0.313276 0.777175 0.188003 -0.578564 -0.011093
