61 10
1 -0.528362 -0.484245 0.418507 -0.589445 -0.921431 -1.189434 0.655339 0.031872 1.450778 0.661943
17 -0.471083 -0.708424 0.501851 -0.527421 -0.803082 -1.061963 0.949010 -0.002436 1.251345 0.694740
9 -0.366732 -0.620535 0.445042 -0.645932 -1.120638 -1.162322 0.737005 0.055006 1.681911 0.590368
15 -1.351073 -2.036753 0.773700 -0.486532 0.596829 -0.153070 1.737807 -0.133792 -0.405162 0.716478
8 -1.311427 -2.023098 0.767964 -0.477409 0.785499 -0.157254 1.643622 -0.140037 -0.364520 0.691881
2 -0.481302 -1.723577 -0.075847 -0.598279 -0.526208 0.579682 0.892830 0.205530 1.599074 -0.728210
7 -0.465440 -1.904067 -0.144290 -0.558660 -0.513016 0.723146 0.675111 0.302770 1.580896 -1.005765
3 -0.509245 -1.669380 0.013756 -0.490495 -0.519994 0.501301 0.722993 0.214866 1.331132 -0.850181
10 -0.664199 -2.080589 -0.233927 -0.561404 -0.155488 0.843058 0.524942 0.363190 1.500854 -1.090125
5 -0.336003 -1.632861 -0.014842 -0.691087 -0.344190 0.562330 0.723639 -0.042770 1.331327 -0.924732
47 -2.187160 -1.052569 -0.157745 0.725919 -0.446233 -0.907339 -2.188409 0.757280 0.315876 0.356456
48 -1.946312 -1.081727 -0.324678 0.720964 -0.660052 -0.979950 -2.239545 0.990860 0.626398 0.252304
12 -2.036938 -1.180685 0.442471 -1.216350 0.217376 0.508137 -0.241807 -1.650638 0.205767 -0.294964
45 -1.546985 0.137118 -0.691851 -0.450841 1.923900 -1.389582 -0.824037 0.032988 0.961270 0.506218
43 -1.544636 0.076314 -0.758603 -0.607720 1.802228 -1.348452 -1.076243 -0.041841 1.038366 0.128430
51 -1.307144 -0.122622 -0.713340 -0.456835 1.668001 -1.393064 -1.134005 0.245763 1.062757 0.191096
34 -1.542989 -2.201335 0.723552 -0.390242 1.036086 -0.103577 1.698950 -0.117164 -0.670881 0.652664
22 -0.189586 -1.020774 -1.082007 -0.988938 1.521162 -1.435986 -0.817509 1.080185 1.078880 -0.262563
56 -1.424180 -1.804603 0.677811 -0.397912 0.883654 -0.361649 1.603652 -0.146181 -0.518958 0.830083
46 -1.494203 -0.510509 -1.115859 0.472391 1.630227 -0.126130 -1.040117 1.488049 1.719746 0.954106
53 -0.053229 -1.074310 -1.002349 -1.045029 1.491447 -1.396622 -0.865300 1.108295 0.822139 -0.463342
4 -0.051006 -0.816369 -0.791393 -0.868861 1.151862 -1.503296 -0.655353 1.046173 0.785017 -0.170483
13 -1.375810 -0.605500 -1.185693 0.180636 1.824713 -0.095625 -0.938867 1.359491 1.709921 0.923797
18 -0.470259 -0.584124 0.404159 -0.600011 -0.914460 -1.106125 0.701574 -0.012876 1.520332 0.649771
6 -2.019950 -0.654345 0.262386 1.059719 0.427446 -0.674163 -1.226328 0.715727 -0.009294 1.168162
39 -2.093310 -1.159905 0.359753 -1.080130 0.424442 0.654107 -0.386739 -1.467736 0.174204 -0.442315
41 -2.065521 -1.175195 0.402726 -1.132840 0.337698 0.383403 -0.402682 -1.496157 0.271617 -0.369975
59 -1.893013 -0.463057 0.033664 0.842553 0.519545 -0.509769 -1.297572 0.719543 0.379166 1.115594
25 -0.482569 -0.413719 0.354106 -0.433142 -0.677544 -1.207005 0.793238 -0.004737 1.179929 0.823641
27 -0.123450 -2.231444 -0.721449 -0.496119 0.754938 -1.121017 -0.254949 1.938866 -0.163786 -0.179317
26 0.078162 -2.121803 -0.746432 -0.492047 0.778558 -1.111051 -0.227491 1.920994 -0.187753 -0.324482
60 -0.560346 -0.757586 0.421881 -0.425218 -0.738036 -0.502246 0.954133 -0.118465 1.052440 0.493948
19 -0.403482 -0.689921 0.421634 -0.483910 -0.787020 -0.842081 0.633989 -0.043528 1.218576 0.396295
30 -0.670793 -0.743113 0.479760 -0.538498 -0.939206 -0.725935 0.787895 -0.336969 1.218362 0.467405
52 -0.453002 -0.687544 0.450629 -0.497464 -0.940263 -0.794058 0.791497 -0.035304 1.266050 0.367466
54 -0.429408 -0.593109 0.385981 -0.417516 -0.945698 -0.812898 0.815979 -0.065062 1.393945 0.458817
61 -0.608433 -0.533759 0.437537 -0.529542 -0.892248 -1.082455 0.717103 -0.071779 1.460638 0.648830
36 -0.472527 -0.627825 0.372202 -0.307070 -0.910348 -0.844609 0.747198 0.149523 1.319503 0.569834
42 -0.434337 -0.512803 0.361944 -0.560723 -0.810467 -1.109290 0.539138 0.047945 1.278143 0.524628
31 -0.514705 -0.536779 0.476763 -0.430867 -1.053943 -0.970839 0.674197 -0.127275 1.382607 0.585140
35 -0.386262 -0.625079 0.338522 -0.614653 -0.936899 -1.053380 0.725881 0.024483 1.525114 0.551678
11 -1.870145 -0.984956 0.842951 0.358365 -0.246186 -1.196479 -2.107558 0.269295 0.646486 0.224043
57 -1.553683 -1.218668 0.543066 0.245778 -0.052249 -0.987377 -1.914918 0.500792 0.410414 0.131497
24 -1.737375 -1.020886 0.416204 0.361119 -0.245705 -1.046647 -2.046638 0.473649 0.611797 0.178428
16 -1.298262 -0.135064 -0.456396 -0.069865 1.108198 -0.802401 -1.061710 0.251823 0.654886 0.309236
14 -0.823533 -1.174896 0.478620 -0.414263 0.048232 0.032491 0.507502 -0.246784 0.117256 0.038439
50 -1.350314 -0.515864 -0.054642 0.461650 0.134410 -0.650646 -1.070937 0.412489 0.116208 0.453707
49 -0.959361 -0.964233 0.301930 -0.488597 0.256601 0.327354 0.206169 -0.600836 0.173465 -0.199549
37 -0.359773 -0.800863 0.200585 -0.327964 -0.187447 -0.092011 0.645792 0.052703 0.647936 0.077115
40 -1.251519 -0.894172 0.352077 -0.588953 0.437802 0.104762 0.113858 -0.692369 -0.135587 -0.027436
23 -0.961045 -0.521462 -0.211472 0.120381 0.342445 -0.520134 -0.875289 0.445918 0.250895 0.159307
55 -0.906011 -0.781683 0.311754 -0.401433 0.074097 0.150383 0.197014 -0.533958 0.211615 -0.015418
44 -0.663559 -0.927365 0.193158 -0.319948 0.088190 -0.098617 0.502502 -0.048900 0.342352 0.150491
28 -0.675065 -0.913793 0.310839 -0.293277 0.221035 -0.000140 0.447802 -0.123724 0.037093 0.123539
29 -0.500671 -0.740832 0.235844 -0.250259 -0.112887 -0.262218 0.549824 -0.045059 0.321940 0.221424
38 -0.687909 -0.830576 0.289828 -0.308915 0.307046 -0.118126 0.471875 -0.257597 0.011996 0.162902
32 -0.240211 -0.646817 0.028566 -0.293433 -0.332216 -0.208399 0.318610 0.117037 0.642755 0.001982
33 -0.600394 -0.828504 0.188080 -0.217409 0.086896 -0.112940 0.353253 0.012123 0.311942 0.099035
20 -0.509100 -0.799143 0.198450 -0.324815 -0.140740 -0.088884 0.432024 -0.076456 0.358088 -0.028724
58 -0.516847 -0.800168 0.246168 -0.215018 0.175251 -0.056369 0.565541 -0.018337 -0.069764 0.198921
21 -0.550281 -0.822571 0.105064 -0.352393 0.043218 0.192855 0.328464 -0.104466 0.321939 -0.105372
