73 10
8 -0.459239 -1.786144 -0.399649 0.062228 -0.463804 -0.690668 0.503729 1.656100 0.968849 -0.438471
4 -0.455521 -1.675045 -0.185922 -0.090409 -0.380854 -0.705802 0.433411 1.490652 0.951388 -0.441327
5 -0.592668 -1.820659 -0.455260 -0.092741 -0.439319 -0.699505 0.464919 1.410641 0.856199 -0.294568
6 -0.590356 -1.883333 -0.389051 -0.055870 -0.405384 -0.711417 0.296356 1.495559 0.808729 -0.226721
9 -0.432046 -1.623614 -0.159909 -0.247902 -0.360885 -0.648515 0.388471 1.276045 0.843923 -0.288338
12 -0.728554 -1.315261 0.628706 -1.357166 -0.407073 -0.527580 0.765270 -0.234403 -0.094346 0.637642
1 -0.781224 -1.410247 0.981009 -1.631876 -0.312558 -0.571318 0.836380 -0.390192 -0.219988 0.800458
11 -1.019451 -1.281330 0.785147 -1.470346 -0.335773 -0.559590 0.714559 -0.334921 -0.065072 0.798035
23 -0.462949 -1.769964 -0.146885 -0.164114 -0.464457 -0.674887 0.460827 1.363143 0.700741 -0.363242
13 0.340282 -1.018772 1.237995 -0.942453 -0.192755 -0.389893 1.350908 0.179929 0.142566 -0.390340
2 0.225595 -1.072093 1.084414 -0.863120 -0.185591 -0.415597 0.932442 0.148365 -0.035133 -0.227110
44 1.277736 1.085645 -0.203591 -1.599598 0.614992 0.658926 2.247819 0.000392 1.380971 0.897596
63 0.957011 0.986813 -0.323018 -1.349479 0.441030 0.639036 2.181792 0.139866 1.276901 0.920082
45 1.113942 0.852486 -0.460933 -1.451890 0.555445 0.555332 2.100629 0.222161 1.268674 1.013264
29 1.241557 0.990210 -0.331867 -1.509318 0.601020 0.571338 2.250192 0.021982 1.100222 0.941383
16 0.948214 1.037434 -0.588754 -1.379624 0.387663 0.624818 2.305140 0.109066 1.144789 1.156228
3 -0.351686 -1.460550 -0.011284 -0.174052 -0.293514 -0.561176 0.366136 1.161957 0.709092 -0.348770
70 1.340116 -1.127865 -1.890573 -1.183045 1.073101 -0.140954 0.021375 1.491271 0.322415 1.754840
27 1.472679 -1.249879 -1.773673 -1.392380 1.202278 -0.122918 -0.132145 1.346088 0.164358 1.745342
50 0.246969 0.292776 -1.617190 -0.389975 -0.485602 0.299568 2.669359 0.695281 -0.152890 1.218929
58 0.471229 0.458127 -1.593846 -0.407625 -0.295901 0.394128 2.406267 0.774807 -0.026938 1.132253
55 -0.672804 -1.293610 0.782045 -1.329754 -0.383263 -0.551363 0.834886 -0.288812 -0.211786 0.660601
69 0.240024 0.259191 -1.558467 -0.520507 -0.350338 0.327453 2.401414 0.749949 0.122026 1.277940
35 -0.778227 -1.224106 0.548296 -1.215707 -0.374277 -0.483727 0.633208 -0.228187 -0.118846 0.660219
72 -0.792598 -1.470025 0.810111 -1.591266 -0.372404 -0.517965 0.735694 -0.329910 -0.235787 0.893859
18 -1.027968 -1.396305 0.753829 -1.612432 -0.459877 -0.572246 0.790222 -0.403134 -0.173548 1.028484
56 2.178633 -0.719772 -1.569799 -1.516502 1.515761 0.015365 0.449029 1.069204 0.130793 1.266865
25 2.333205 -0.667752 -1.492931 -1.484995 1.365353 0.051743 0.765820 0.915840 -0.218930 1.167292
7 0.109015 -1.494928 0.192832 -0.538351 -0.116965 -0.482734 0.249383 0.901127 0.781216 -0.277228
48 -0.327271 -1.631377 -0.263735 -0.074234 -0.384437 -0.603705 0.329285 1.350711 0.702391 -0.373525
26 0.366812 0.268999 -1.505352 -0.435248 -0.184996 0.254854 2.039773 0.741253 0.146525 1.064963
14 0.446355 -1.115849 1.002692 -0.758360 -0.048983 -0.411200 1.028907 0.315614 -0.227003 -0.342389
43 0.356338 0.405160 -1.395545 -0.902915 -0.044923 0.432257 2.275374 0.537931 0.613740 1.370736
28 0.781516 0.327808 -1.402012 -0.965499 0.228510 0.599122 2.198618 0.586737 0.720590 1.223671
71 0.336483 -1.012172 1.007980 -0.757651 -0.092008 -0.402157 0.863798 0.215362 0.103319 -0.342995
38 0.370670 -1.022429 0.885808 -0.648259 -0.123144 -0.381617 0.906122 0.311315 0.111407 -0.405878
68 0.051307 -1.041845 1.107488 -0.877407 -0.141318 -0.411710 0.991446 0.078846 -0.061458 -0.243844
40 0.267121 -1.035595 1.130094 -0.935946 -0.069685 -0.385452 1.100644 0.185373 -0.003325 -0.311285
34 0.433989 -0.947391 1.152132 -0.808939 0.024084 -0.377641 1.084244 0.120926 -0.001003 -0.422298
49 0.366362 -0.986844 1.044244 -0.825963 -0.034975 -0.390785 1.012655 0.153956 0.088768 -0.299108
10 0.118969 -1.391377 0.315182 -0.536549 -0.022383 -0.463110 0.343150 0.755641 0.487696 -0.247238
59 0.276867 -0.977107 0.898536 -0.715276 -0.065527 -0.336850 0.843086 0.216883 -0.046395 -0.296233
61 0.216021 -0.956958 1.086919 -0.877362 -0.130755 -0.387252 1.019529 0.080775 0.053234 -0.288699
46 0.361618 -1.011506 1.060936 -0.863763 -0.040390 -0.319977 1.081298 0.161011 -0.114473 -0.237514
73 0.212535 -0.965947 0.970595 -0.908262 -0.002349 -0.369424 0.878689 0.082849 -0.237338 -0.172143
19 1.430987 -0.144953 -1.210875 -1.114987 0.794951 0.391101 0.999442 0.548536 0.634910 1.072416
65 0.293003 -1.045190 1.050995 -0.784008 -0.049346 -0.422360 0.995369 0.175505 -0.109011 -0.386248
47 0.328256 -0.983226 1.157467 -0.879015 -0.076564 -0.389627 0.995409 0.108966 -0.107156 -0.331820
52 0.234289 -1.008437 1.061381 -0.826982 -0.183693 -0.442551 1.018671 0.104238 -0.235198 -0.308195
24 0.167333 -1.079224 1.093045 -0.644436 -0.195602 -0.449326 0.933066 0.266740 -0.002075 -0.374664
51 0.353401 -1.041365 1.090733 -0.717441 -0.099987 -0.417847 0.982033 0.205055 -0.037112 -0.439965
30 0.261663 -1.052483 1.123756 -0.750357 -0.192511 -0.385651 1.040331 0.089868 -0.089117 -0.340730
41 1.335171 -0.032927 -1.045502 -1.116987 0.826869 0.386162 1.314510 0.483704 0.598982 0.912621
64 0.088138 -0.999933 0.988683 -0.670129 -0.145656 -0.406543 0.776424 0.208675 -0.000054 -0.312966
54 0.336370 -1.089013 0.988612 -0.633451 -0.110865 -0.421880 0.926115 0.313541 0.017956 -0.453100
36 0.060138 -1.326287 0.057723 -0.372474 -0.118008 -0.505306 0.333206 0.970299 0.718086 -0.241123
62 0.196974 -0.994469 0.996048 -0.855085 -0.146242 -0.418426 0.817251 0.069546 -0.150746 -0.252008
66 0.004414 -1.205383 0.087915 -0.450389 -0.163459 -0.435916 0.376870 0.788891 0.606817 -0.137112
32 0.003899 -1.350598 0.181685 -0.420498 -0.095885 -0.462528 0.292197 0.771559 0.568537 -0.292249
37 -0.107635 -1.245668 0.061586 -0.301103 -0.107182 -0.410173 0.175446 0.872053 0.654786 -0.199312
67 -0.035994 -1.036194 0.200801 -0.340426 -0.099499 -0.386990 0.440268 0.623377 0.487189 -0.192311
33 0.966688 -0.815721 -1.395616 -0.814125 0.810697 -0.116590 -0.034043 1.018806 0.116579 1.276760
53 -0.005994 -1.062743 0.141966 -0.357990 -0.120992 -0.364279 0.404010 0.695012 0.383001 -0.240438
42 -0.113938 -1.017673 0.200258 -0.466898 -0.117522 -0.407691 0.402112 0.575925 0.299678 -0.047581
17 0.015988 -1.071976 0.083110 -0.295015 -0.133019 -0.411869 0.304931 0.726197 0.454752 -0.117575
22 0.083241 -1.016336 0.223459 -0.392862 -0.116821 -0.383727 0.473681 0.608961 0.429470 -0.225258
21 -0.195174 -1.077638 0.037579 -0.428400 -0.189879 -0.411724 0.247919 0.646175 0.502205 -0.019990
15 0.193767 -1.173546 0.136827 -0.435376 0.042563 -0.356960 0.339408 0.690853 0.263837 -0.202299
20 -0.004591 -1.040356 0.169448 -0.431719 -0.104799 -0.418362 0.387238 0.587555 0.286848 -0.105453
57 -0.081078 -1.035904 0.301258 -0.497080 -0.126728 -0.366964 0.373432 0.496654 0.414144 -0.162585
31 -0.025224 -1.059650 0.142748 -0.457022 -0.077318 -0.415999 0.307101 0.561216 0.407617 -0.020033
39 -0.013155 -0.923746 0.227833 -0.459221 -0.032148 -0.308707 0.446138 0.567335 0.366231 -0.127855
60 0.966238 -0.199818 -0.878916 -0.702185 0.590349 0.162975 0.419133 0.590802 0.307002 0.769417
