72 10
4 -0.236612 -0.860567 1.143637 -0.272016 0.002803 -0.503667 0.161165 0.401884 1.390859 -0.559528
5 -0.278373 -1.152992 1.229079 -0.058499 -0.097008 -0.731671 0.351944 0.301020 1.686549 -0.425829
3 -0.391412 -1.060501 1.102935 -0.051099 -0.022883 -0.755974 0.283287 0.339095 1.371046 -0.329970
17 -0.462694 -1.075365 1.276811 -0.028250 0.072653 -0.923773 0.313997 0.380375 1.548674 -0.333700
11 -0.568825 -1.349786 0.383293 -1.181681 0.221218 -0.173005 -0.375993 0.537947 0.534773 -0.591585
6 -0.582615 -1.192170 0.418707 -1.223566 0.282667 -0.109125 -0.290579 0.458161 0.423084 -0.614911
8 -0.547065 -1.278534 0.233555 -1.276909 0.244113 -0.099612 -0.404945 0.552106 0.350498 -0.508055
2 -0.563437 -1.337216 0.268867 -1.551875 0.167525 0.025791 -0.314038 0.512234 0.435256 -0.627868
1 -0.583899 -1.244379 0.187015 -1.452264 0.247063 0.065635 -0.344177 0.576554 0.406840 -0.561975
12 -0.633135 -1.284785 0.307350 -1.307359 0.215630 -0.144513 -0.346849 0.425704 0.457955 -0.502935
14 -0.611471 -1.380987 0.252989 -1.550890 0.288300 0.059412 -0.433101 0.632066 0.457940 -0.592513
9 0.125280 1.053408 -0.584309 -0.132011 1.491542 0.313949 1.747300 1.388187 1.590123 0.091742
27 0.039121 0.940491 -0.686669 -0.164757 1.400288 0.252857 1.670204 1.310885 1.551910 0.326924
10 0.161691 0.855710 -0.685213 -0.195379 1.341525 0.438558 1.592271 1.358792 1.393668 0.054226
20 0.036130 0.906536 -0.651379 -0.275556 1.340267 0.286071 1.567376 1.294943 1.459462 0.139695
13 0.178894 0.856863 -0.743011 -0.221473 1.406543 0.395726 1.567846 1.416378 1.405895 0.152469
39 -0.106035 0.895908 -0.731597 -0.237161 1.466248 0.246180 1.555569 1.271451 1.423276 0.266658
68 -0.055082 0.851986 -0.631125 -0.118916 1.464799 0.200435 1.578476 1.327163 1.424269 0.172242
67 0.028248 0.991241 -0.540998 -0.285063 1.587145 0.307074 1.592508 1.342743 1.491609 0.066641
29 -0.553306 0.891056 -1.110700 -1.467462 0.915809 0.228175 1.032749 0.034006 2.382149 1.069427
7 0.739626 -0.878362 0.545172 -1.317074 -0.744012 1.151211 -0.076632 0.808697 1.737470 -0.688394
45 0.115416 0.999633 -0.603675 -0.307677 1.334181 0.417378 1.549297 1.245948 1.469560 0.141535
15 -0.573787 0.877816 -1.022249 -1.613502 0.671049 0.421254 0.946184 -0.131405 2.321656 1.098115
25 -0.454866 0.966400 -1.159198 -1.534497 0.768521 0.478685 1.066278 0.093119 2.379992 0.974472
71 -0.253510 0.982826 -1.084782 -1.219395 0.754438 0.387178 0.931470 0.142663 2.269967 1.017086
30 -0.658049 -1.529819 -1.550055 0.600937 1.840823 -1.208057 0.201208 2.259911 0.449103 0.693643
70 -0.671792 -1.558817 -1.485696 0.556858 1.721276 -1.264043 0.033955 2.137203 0.445382 0.863856
19 -0.513660 -1.236490 0.384888 -1.143791 0.278171 -0.143373 -0.283860 0.529287 0.411108 -0.607623
37 -0.363917 -0.902087 1.155426 -0.032314 0.091884 -0.613907 0.201139 0.382860 1.196901 -0.493338
56 -0.376148 -0.975226 1.292213 0.021186 0.201672 -0.811590 0.360209 0.460127 1.395257 -0.513457
31 -0.256560 -0.925738 1.023272 -0.403852 -0.019781 -0.457131 0.125245 0.378578 1.318999 -0.458050
54 -0.389370 -0.978978 1.417762 0.170542 0.156428 -0.860450 0.384323 0.393587 1.540381 -0.515272
28 -0.398233 -1.090053 1.286501 0.082333 0.196914 -0.771637 0.363627 0.486312 1.332793 -0.490292
38 -0.284129 -0.994181 1.074229 0.034430 0.153882 -0.730664 0.299925 0.473393 1.343238 -0.457991
36 -0.266339 -1.151275 1.321931 0.038459 0.122183 -0.823206 0.345476 0.503637 1.351910 -0.458050
55 -0.317900 -1.044027 1.195648 0.039952 0.124097 -0.766360 0.349519 0.448413 1.315135 -0.454978
32 -0.310771 -1.165951 1.043462 -0.124335 0.028828 -0.653519 0.235450 0.404433 1.206416 -0.423426
58 -1.023020 -1.079399 -0.917555 1.236198 1.933973 -1.464049 0.267964 2.464816 0.736957 0.629647
66 -0.278434 -0.971267 1.236511 0.072174 0.216554 -0.775639 0.358820 0.562055 1.298971 -0.510826
40 -1.015300 -0.997409 -0.919903 1.106668 1.909809 -1.369929 0.239440 2.300675 0.731224 0.548932
33 -0.169681 -0.917669 1.283752 -0.105192 0.014216 -0.526551 0.268833 0.440682 1.565659 -0.497583
18 -0.774123 0.246636 -1.666539 -1.024316 0.889979 -0.093987 0.703301 0.543990 1.358844 1.379876
21 -0.830085 0.012968 -1.700680 -0.964356 0.713666 -0.159382 0.746180 0.634471 1.350939 1.424298
42 -0.537780 -1.223832 0.035510 -1.340226 0.232502 -0.056421 -0.404235 0.567766 0.356336 -0.436919
22 -0.512001 -1.399878 0.053222 -1.440092 0.164299 0.005213 -0.366615 0.550065 0.465524 -0.488170
47 -0.601540 -1.474294 0.036538 -1.342604 0.282498 -0.096232 -0.437301 0.729664 0.290914 -0.573194
64 -0.447196 -1.207483 0.292927 -1.231542 0.114769 -0.009216 -0.303768 0.560733 0.538149 -0.588833
34 -0.949538 0.069496 -1.609421 -1.009454 0.847460 -0.197799 0.750690 0.467898 1.303065 1.414769
57 -0.534667 -1.033377 0.413956 -1.224225 0.271959 -0.095701 -0.292371 0.374324 0.422380 -0.623227
43 -0.576724 -1.291239 0.427784 -1.328642 0.091287 -0.129427 -0.315574 0.380103 0.520247 -0.619665
49 -0.437331 -1.140210 0.403197 -0.997604 0.323063 -0.118533 -0.228067 0.541914 0.444151 -0.673411
65 -0.584410 -1.228296 0.266352 -1.255887 0.184961 -0.114130 -0.322198 0.405049 0.458644 -0.558811
35 -0.506103 -1.238907 0.239489 -1.161969 0.300562 -0.041529 -0.271816 0.657543 0.332066 -0.659379
59 -0.467629 -1.210057 0.288064 -1.034667 0.183628 -0.076874 -0.281989 0.549699 0.373024 -0.521824
52 -0.462832 -1.101355 0.290764 -1.097972 0.171906 -0.086150 -0.236516 0.560558 0.401668 -0.621924
26 -0.419773 -1.119367 0.532522 -0.885277 0.193681 -0.238196 -0.169963 0.386869 0.507649 -0.542417
41 -0.518414 -1.337680 0.183159 -1.086858 0.250096 -0.088895 -0.298749 0.592273 0.394291 -0.565391
44 -0.493197 -1.217085 0.296671 -1.246343 0.302338 -0.059781 -0.310683 0.560623 0.365851 -0.652015
63 0.465739 -0.609717 0.704370 -1.382355 -0.539849 0.961666 0.003891 0.478128 1.640559 -0.521864
51 -0.413921 -1.212378 0.266542 -1.151715 0.189904 0.021416 -0.301373 0.559851 0.447226 -0.605229
61 0.474987 -0.486147 0.611492 -1.402025 -0.563696 1.052166 -0.005562 0.446171 1.559623 -0.611517
46 -0.527352 -1.191476 0.440304 -0.893046 0.235781 -0.125412 -0.170565 0.471206 0.486766 -0.498091
24 -0.515981 -1.108762 0.335774 -1.113040 0.244457 -0.138988 -0.311942 0.444379 0.415460 -0.533978
48 -0.555971 -1.201726 0.328985 -0.978206 0.208446 -0.226720 -0.245330 0.435630 0.465960 -0.486990
62 -0.395892 -1.118151 0.137302 -1.322939 0.181652 0.063372 -0.314761 0.603072 0.444183 -0.640094
23 0.524976 -0.524755 0.979334 -1.093686 -0.640244 0.869770 0.049645 0.497228 1.984067 -0.605522
53 -0.424004 -1.006602 0.253387 -1.221900 0.267774 0.034151 -0.274720 0.536500 0.428176 -0.628382
16 -0.362567 -1.854360 0.279855 -0.247454 0.118722 -0.346613 -0.005673 0.845137 0.876404 -0.229549
60 -0.282569 0.212560 -1.662041 -0.280619 0.852941 0.113947 1.093859 1.082594 1.006343 0.850969
72 -0.309440 -2.214898 0.259013 -0.115700 0.094400 -0.289612 0.064773 0.840902 1.085624 -0.053418
69 -0.394585 0.139830 -1.664624 -0.357966 0.834987 0.142948 1.108347 1.047740 1.065346 0.854333
50 -0.305442 0.097637 -1.460417 -0.400919 0.776756 0.179701 1.108706 1.106238 1.049465 0.687099
