41 10
5 -0.068154 -1.202456 0.140243 0.288268 0.118789 -0.466190 0.404799 -0.105504 0.041128 0.155641
1 -0.076473 -1.140664 0.001134 0.257456 0.022924 -0.319065 0.452770 0.055414 0.064696 0.110841
4 -0.100649 -1.191996 0.149318 0.301898 0.134152 -0.469153 0.379423 0.059024 0.043856 0.092161
6 -0.116497 -1.094410 0.108716 0.257117 0.110759 -0.325176 0.430193 0.056823 0.058520 0.061039
12 -0.105057 -1.056015 0.128308 0.231732 0.040236 -0.390354 0.308372 -0.064512 -0.029802 0.167837
10 -0.074552 -1.290530 0.227207 0.344614 0.114547 -0.459542 0.418577 -0.074363 0.009615 0.169450
11 -0.099616 -1.144168 0.145324 0.313044 0.061384 -0.388403 0.361943 0.023498 0.030251 0.120185
3 -0.105757 -1.148732 0.122205 0.311540 0.058099 -0.349753 0.452663 0.005940 -0.025174 0.122025
8 -0.009898 -1.025182 0.029475 0.311627 -0.051909 -0.263056 0.402131 -0.005934 -0.035346 0.197486
2 0.143508 -0.928575 -1.154310 0.125874 -0.221890 0.523325 1.029365 0.559618 0.266328 -0.478603
9 0.252842 -0.719328 -1.454503 0.191517 -0.397076 0.720327 1.030406 0.495377 0.293528 -0.412890
13 0.036105 -0.968191 -0.042920 0.243380 -0.041932 -0.243497 0.424365 -0.022434 0.018299 0.159934
33 0.323478 -0.748075 -1.333631 0.332264 -0.421072 0.624565 0.955059 0.394930 0.192040 -0.265277
15 0.284204 -0.642572 -1.293176 0.230085 -0.439503 0.728758 0.942766 0.290654 0.165651 -0.272586
41 0.272296 -0.701077 -1.306333 0.283699 -0.397895 0.669194 0.966358 0.339070 0.191939 -0.315042
39 -0.066401 -1.023094 -0.038621 0.286759 0.053038 -0.236846 0.464265 0.048713 0.009189 0.081467
31 -0.070413 -1.077678 0.257988 0.311744 0.084454 -0.505931 0.336537 -0.116449 -0.058384 0.189239
28 -0.050613 -1.055881 -0.045569 0.298714 -0.044114 -0.195971 0.454614 0.003563 -0.029959 0.115503
17 -0.081104 -1.161534 0.184698 0.333964 0.012131 -0.485871 0.396532 -0.033245 0.020389 0.234316
34 -0.103600 -1.062523 0.234292 0.305019 0.124095 -0.452052 0.362953 -0.077189 -0.053063 0.168809
19 0.047916 -1.085042 0.203674 0.342537 -0.033110 -0.431382 0.303327 -0.189093 -0.071954 0.306463
27 0.013495 -1.123218 0.052855 0.299486 -0.000475 -0.352037 0.405708 -0.035206 -0.076166 0.230919
29 -0.068644 -1.077826 0.101057 0.269802 0.070431 -0.417700 0.355092 -0.083821 -0.012835 0.188924
16 -0.090305 -1.107276 0.205450 0.282762 0.069801 -0.439060 0.391227 -0.056159 -0.002231 0.166428
37 -0.035618 -1.088991 -0.040470 0.341249 -0.031605 -0.225766 0.441456 -0.006345 0.043096 0.142195
35 -0.119479 -1.095494 0.011678 0.253842 0.034115 -0.310700 0.430798 -0.003176 0.005344 0.106912
18 -0.019742 -1.065678 -0.005598 0.287466 0.028685 -0.348745 0.358286 -0.006554 0.024415 0.209165
40 0.006103 -1.137343 -0.113180 0.406444 -0.072278 -0.266178 0.444109 -0.020303 -0.060585 0.177361
20 -0.094223 -0.971512 0.146654 0.239304 0.040167 -0.412017 0.350321 -0.009931 -0.034121 0.115860
24 0.015393 -1.127024 0.147917 0.433858 -0.001878 -0.434175 0.389793 -0.123503 -0.066733 0.300586
22 0.093334 -0.993985 -0.149666 0.340805 -0.096748 -0.256584 0.431198 -0.065007 -0.065803 0.148677
23 -0.095502 -1.051228 0.142620 0.264891 0.098702 -0.378975 0.343544 0.028816 0.043259 0.110050
38 -0.056848 -1.093249 0.105925 0.232723 0.050562 -0.345188 0.359912 0.009998 0.090925 0.027794
26 -0.024203 -1.142781 0.165968 0.294131 0.062427 -0.446113 0.405666 -0.053967 -0.057282 0.156528
14 -0.051618 -1.108138 0.076689 0.259577 0.029343 -0.295050 0.391002 -0.031636 -0.028258 0.165706
25 -0.065155 -1.049531 0.052274 0.279746 -0.026308 -0.372980 0.351024 -0.091538 0.008688 0.167541
30 0.813134 -1.545606 -1.226140 1.209558 -1.051380 0.161289 1.018198 -0.465604 -0.439254 0.862694
32 0.842686 -1.557544 -1.469085 1.241790 -1.138502 0.286193 1.118921 -0.474114 -0.483990 0.883424
36 0.215887 -0.661502 -0.564430 0.225457 -0.241998 0.137375 0.582433 0.122134 0.036882 0.041126
21 -0.026708 -0.844232 -0.172138 0.226583 -0.103643 -0.151804 0.429517 0.001420 0.028844 0.116516
7 0.266649 -0.845362 -0.378900 0.453482 -0.349941 -0.046334 0.447355 -0.147704 -0.098963 0.325770
