72 10
15 -0.318897 -1.951295 -1.133680 -0.649514 -0.341348 0.440509 0.317948 -0.659311 0.020641 0.522705
12 -0.394114 -2.105349 -1.010243 -0.600234 -0.491742 0.310479 0.309533 -0.611031 0.263354 0.515808
2 0.474183 -1.620100 -0.748577 -0.669196 -0.709056 0.025942 1.212075 0.917957 -0.293127 -0.148526
14 0.204783 -1.762881 -0.462809 -0.647516 -0.756111 0.206386 1.086934 0.769015 -0.216684 -0.061896
8 0.341712 -1.721855 -0.697182 -0.402309 -0.609062 0.176816 1.080435 0.844567 -0.092383 -0.085943
6 -0.290817 -1.249512 -0.499269 -0.060245 0.075925 1.298008 1.118336 1.797234 0.648085 0.193537
13 -1.253064 0.140250 0.273357 -1.999692 0.709766 -0.555183 2.242671 -0.947248 1.513657 0.508100
11 -0.136835 -1.979617 -0.423910 -0.326310 -0.214061 -0.117017 0.663658 0.651746 0.786978 -0.520498
43 -1.322440 0.091317 0.292918 -1.981885 0.666730 -0.472360 2.103192 -1.014167 1.446993 0.446393
44 0.356532 1.109744 -0.878588 -2.114349 0.505548 -0.352970 -0.136825 0.927553 0.956015 1.719093
63 0.172268 1.136854 -0.644828 -1.965853 0.616338 -0.199201 0.170255 0.871584 1.010652 1.573411
42 0.160332 1.075156 -0.744654 -1.901765 0.579116 -0.346218 -0.031075 0.853247 1.090603 1.645699
58 0.226603 1.075575 -0.688734 -1.881311 0.507035 -0.304856 -0.036828 0.877913 1.123981 1.566308
69 0.228218 1.161951 -0.741218 -1.889593 0.619508 -0.234433 -0.047285 1.053964 1.210471 1.637241
57 0.390870 -1.687035 -0.676451 -0.692307 -0.756337 -0.039915 1.052561 0.586847 -0.355861 -0.200244
62 0.112688 1.017504 -0.718394 -1.858379 0.522954 -0.305287 0.093300 0.567084 0.936370 1.494607
48 0.274150 -1.590965 -0.750709 -0.402431 -0.568421 0.172040 1.174890 0.831800 -0.103241 -0.163327
50 0.162876 -1.622053 -0.650374 -0.303296 -0.558178 -0.018183 1.086980 0.771544 -0.031919 -0.109883
4 0.447825 -1.269237 -1.437100 0.119178 0.402623 -0.098252 0.426180 0.724374 0.598972 -0.109391
60 -0.142046 -0.960804 -0.543945 0.029373 0.231622 1.238360 1.032017 1.781186 0.841890 0.087096
7 0.518061 -1.231808 -1.290713 0.073873 0.294614 0.113775 0.604156 0.725668 0.694768 -0.208373
39 -0.368335 -1.165883 -0.516013 -0.010193 0.195392 1.102200 1.130825 1.549626 0.777044 0.063744
9 0.467488 -1.313061 -1.394903 0.156099 0.273357 0.012791 0.310210 0.700352 0.729722 -0.060816
49 -0.341131 -1.936578 -1.072570 -0.457954 -0.271786 0.478350 0.267254 -0.816500 0.319853 0.512982
55 0.104452 0.798956 -0.810229 -1.531322 0.335786 -1.084386 -0.099419 0.781268 0.980333 1.855241
5 0.721286 -1.186698 -1.483774 0.095765 0.422859 -0.147377 0.446660 0.928053 0.785275 -0.154041
34 -0.349265 -1.948865 -1.264682 -0.710717 -0.302201 0.406856 0.234264 -0.830260 0.075961 0.766888
45 -0.320527 -1.795075 -0.986412 -0.417538 -0.214953 0.445697 0.323800 -0.649816 0.390411 0.395021
21 -0.347293 -1.832459 -1.243426 -0.495882 -0.265695 0.390544 0.249720 -0.725538 0.308165 0.672809
30 -0.258385 -1.760680 -1.128465 -0.426176 -0.286132 0.663436 0.365112 -0.598306 0.078787 0.531552
61 -1.318348 0.114365 0.434588 -1.724499 0.644657 -0.515566 2.063199 -0.888351 1.616643 0.311685
23 -0.226462 -1.757582 -1.142892 -0.438666 -0.251882 0.288741 0.314209 -0.691349 0.246953 0.439659
22 0.021831 -1.755551 -0.419934 -0.251826 -0.047741 0.061516 0.727559 0.781142 0.875410 -0.624156
19 -0.258490 -1.745530 -1.135978 -0.716108 -0.244771 0.489219 0.275769 -0.736245 0.177037 0.670992
38 0.020606 -1.767603 -0.335024 -0.345860 -0.127647 -0.079919 0.666936 0.720387 0.872149 -0.618758
66 0.261687 1.062042 -0.825116 -1.842350 0.565221 -0.613073 0.159526 0.943961 0.822156 1.615905
56 0.041753 0.741780 -1.023033 -1.578031 0.366480 -0.909074 -0.218292 0.474001 0.589947 1.838128
24 0.150289 0.821734 -0.813008 -1.749259 0.434913 -0.755218 -0.188557 0.685697 0.987005 1.758476
16 0.255091 1.107922 -0.765656 -1.869288 0.468477 -0.846817 0.236546 1.113755 1.046171 1.689415
1 0.223001 0.900227 -0.708158 -1.604885 0.507697 -0.483250 -0.028853 0.972215 0.961003 1.488806
18 0.209400 -1.531238 -0.554631 -0.300820 -0.444735 0.031296 0.835869 0.774640 0.152857 -0.202738
46 -1.161541 0.066107 0.356654 -1.624455 0.579722 -0.693473 1.838142 -0.669468 1.457580 0.396468
71 0.341980 0.791936 -0.866487 -1.522207 0.398447 -0.649136 -0.165147 0.719686 0.837759 1.483089
40 -1.000814 0.181693 0.138857 -1.482671 0.615245 -0.742474 1.690592 -0.348564 1.372256 0.365746
3 0.177080 -1.119457 -1.065260 -0.079966 0.164306 0.244249 0.758541 0.859269 0.453711 0.099579
25 -0.912683 0.307608 0.167408 -1.462276 0.571145 -0.581669 1.701871 -0.402487 1.301419 0.304950
17 0.151066 -1.117874 -0.955491 0.015156 0.114163 0.064980 0.760354 0.780776 0.624067 0.072587
33 0.474374 -1.064492 -1.305414 0.050941 0.418473 0.142435 0.398307 0.781765 0.550719 0.014906
27 0.465884 -1.347103 -1.288240 -0.064920 0.269930 -0.066737 0.257446 0.558528 0.571304 -0.043317
53 0.392348 -1.072593 -1.317897 0.096369 0.499553 0.065131 0.333981 0.619722 0.627330 -0.054491
20 0.503238 -1.090154 -1.306996 -0.043404 0.259593 -0.005047 0.405882 0.936126 0.479974 0.020683
70 0.511454 -1.222202 -1.309071 0.045775 0.376108 0.143294 0.405741 0.857318 0.569425 -0.043905
29 0.054398 -1.518059 -0.704437 -0.166420 -0.254993 0.008401 0.583655 0.507139 0.324378 -0.056931
67 0.567313 -1.218431 -1.300737 0.062536 0.358673 0.057050 0.341167 0.873461 0.663816 -0.069764
35 0.221919 -1.469572 -0.739670 -0.315078 -0.332801 0.019553 0.783843 0.619308 0.147561 -0.146281
10 -1.046499 -0.026831 0.367709 -1.517575 0.471585 -0.714930 1.648311 -0.656944 1.483167 0.269832
32 0.083262 -1.393442 -0.590765 -0.309575 -0.277573 0.012335 0.718861 0.655317 0.242179 -0.108077
64 0.001538 -1.242817 -0.654819 -0.018069 0.034919 0.287830 0.744213 0.735728 0.557234 -0.150901
47 0.004906 -1.138669 -0.647009 -0.020379 0.014572 0.378485 0.743879 0.832230 0.416060 -0.085884
54 -0.800308 -0.182650 0.430087 -1.677237 0.033819 -1.814736 0.517513 -0.351853 1.685346 0.686181
36 -0.537679 -0.022330 0.361975 -1.692636 0.059124 -1.831325 0.317932 -0.105490 1.592296 0.867878
68 0.067461 -1.301879 -0.648823 -0.245036 -0.182668 0.136361 0.723761 0.431562 0.231165 -0.098873
65 0.043182 -1.221340 -0.657133 -0.153405 -0.045758 0.233433 0.652150 0.798514 0.346337 -0.102666
52 -0.021626 -1.097309 -0.589258 -0.179507 0.015208 0.393794 0.806311 0.829879 0.553498 -0.105337
31 0.171359 -1.095338 -0.782355 0.041432 0.111041 0.452651 0.638137 0.880808 0.418928 -0.036844
72 0.123722 -1.226018 -0.745129 -0.165805 0.007425 0.244250 0.679893 0.759547 0.436136 -0.092726
28 0.275372 -0.981049 -1.023122 -0.085624 0.214457 0.159692 0.497521 0.841910 0.445298 0.138684
41 -0.441193 0.612009 -0.022336 -1.257684 0.492313 -0.684176 0.865228 0.258727 0.966366 0.691253
26 0.329961 -0.873805 -1.028059 -0.104007 0.314027 0.003370 0.464903 0.770106 0.584050 0.089789
37 0.076497 -1.080499 -0.768195 -0.056843 0.123485 0.157989 0.599463 0.798451 0.601256 0.015497
59 0.118671 -0.909432 -0.787320 -0.130559 0.150129 0.312896 0.636316 0.729811 0.383819 0.077391
51 -0.097975 0.470877 -0.387430 -1.146021 0.275928 -0.682540 0.145860 0.247080 0.719665 1.033788
