43 10
16 -0.665157 -0.555586 1.480648 1.108088 0.430116 -1.397291 0.914604 0.572316 1.088829 0.498325
2 -0.650888 0.023775 0.396753 -0.776490 0.357900 -1.043296 -0.324577 1.689049 0.340741 0.423383
1 -0.539422 0.033755 0.340810 -0.757405 0.307869 -1.015425 -0.316216 1.640735 0.351034 0.316929
4 -0.420724 0.210361 0.334508 -0.745259 0.236493 -0.998807 -0.384616 1.621346 0.144730 0.397868
8 -0.515406 0.062285 0.258081 -0.980868 0.355945 -0.980650 -0.402957 1.704536 0.252771 0.478323
24 -0.484916 -0.307848 1.672286 1.335829 0.244733 -1.339717 1.040393 0.701521 1.168802 0.424180
26 1.847372 -0.583515 0.350220 -1.316191 0.333645 -1.334363 0.861945 0.135818 -1.500190 0.893903
17 0.539949 -0.576197 1.262016 0.549745 -1.113104 -1.829592 -0.064413 -0.678468 -1.811147 0.716892
31 0.744742 -0.506127 1.267424 0.463091 -0.972095 -1.781421 0.126318 -0.658464 -1.746628 0.577090
20 1.722521 -0.544415 0.736702 -0.143494 -1.091479 -1.652647 1.378891 0.304349 -0.229764 -0.895249
38 1.819694 -0.543615 0.887523 -0.037187 -1.386114 -1.790984 1.242756 0.190669 -0.317615 -0.968321
5 -0.462065 -1.600440 0.147841 -0.647720 1.196699 -1.547989 0.354125 0.076095 1.043897 -0.107210
13 1.996814 -0.773290 0.377304 -1.427607 0.396872 -1.406887 1.018076 0.086432 -1.555491 0.999078
27 1.769017 -0.761793 0.443069 -1.028262 0.104777 -1.371906 0.871553 -0.036259 -1.579703 0.813185
21 -0.586132 0.012389 0.252609 -1.035541 0.388349 -1.070199 -0.425341 1.673500 0.264979 0.452015
37 -0.276859 -1.241593 0.194311 -0.615133 1.100118 -1.186014 0.427102 0.290396 1.111056 -0.131469
42 -0.473800 0.193564 0.285098 -0.962137 0.341320 -0.971018 -0.367724 1.797179 0.268140 0.417550
23 -0.528260 0.232313 0.290790 -1.012582 0.336358 -1.033805 -0.442435 1.975950 0.211948 0.504763
6 -1.217243 -1.494132 0.687872 0.154443 0.626206 -1.104973 -0.373811 0.617903 0.155733 0.057844
22 -1.143704 -1.484581 0.650898 0.192305 0.643544 -1.101770 -0.414517 0.494130 -0.058538 0.193570
7 -0.667026 -0.304529 1.297999 0.872156 0.237820 -1.076869 0.593256 0.587175 0.847158 0.490483
32 -0.740122 -0.526031 1.095827 0.823232 0.269962 -1.050251 0.511245 0.469738 0.736799 0.322894
14 -0.605192 -0.361075 0.801867 -0.179592 0.304192 -0.916625 -0.001295 0.768917 0.288312 0.339202
15 -0.724329 -0.461881 0.860432 -0.063348 0.385674 -0.966716 0.111281 0.752223 0.429967 0.325127
39 -0.529975 -0.290288 1.076258 0.725588 0.252989 -0.919970 0.562023 0.547317 0.722510 0.252187
11 -0.592337 -0.553047 0.767469 -0.011458 0.400305 -0.968679 0.046743 0.615699 0.293107 0.321184
30 -0.500538 -0.332136 1.229317 1.053772 0.190114 -1.048516 0.744012 0.581878 0.895406 0.384661
40 0.783986 -0.543507 0.808158 0.189636 -0.590124 -1.252010 0.403277 -0.335184 -1.068265 0.163133
10 0.770115 -0.556463 0.679870 -0.011635 -0.385856 -1.181055 0.416027 -0.236965 -0.995044 0.299453
25 -0.693632 -0.495005 0.795034 0.087167 0.250889 -0.932019 0.054861 0.564248 0.383446 0.286395
41 -0.629227 -0.561910 0.634350 0.024980 0.425806 -0.873514 0.088893 0.522163 0.404561 0.195325
3 0.732354 -0.207775 0.437669 -0.209529 -0.400041 -0.814113 0.414046 0.081290 -0.632480 0.017861
18 0.869438 -0.442156 0.480373 -0.314219 -0.173343 -1.012838 0.328141 -0.135446 -1.019856 0.527947
28 0.634724 -0.542223 0.640625 0.012908 -0.319010 -0.967623 0.293003 -0.401497 -1.082282 0.409577
12 0.705242 -0.292968 0.327905 -0.431943 -0.138989 -0.754312 0.332792 0.060677 -0.679136 0.298516
36 -0.534275 -0.453169 0.674085 0.155378 0.257993 -0.836412 0.102820 0.522608 0.303564 0.295134
29 -0.516273 -0.423670 0.689776 0.280111 0.230678 -0.844356 0.147587 0.417202 0.311636 0.261556
43 -0.263645 -0.282420 0.500422 -0.163423 0.269748 -0.824894 0.218140 0.611143 0.323163 0.175344
33 -0.309140 -0.436535 0.479951 0.015482 0.349330 -0.799532 0.184399 0.538474 0.454428 0.114566
35 -0.515545 -0.273432 0.726695 0.378904 0.163371 -0.780315 0.278493 0.472812 0.440551 0.288389
19 -0.391593 -0.435909 0.589779 -0.136676 0.295684 -0.812994 0.009133 0.533113 0.221927 0.288735
9 0.604169 -0.400797 0.476077 -0.105950 -0.270478 -0.938326 0.401904 0.017678 -0.498014 0.134158
34 0.610697 -0.382145 0.456417 -0.197332 -0.088877 -0.823374 0.410884 -0.010612 -0.679953 0.279030
