85 10
5 -1.319785 -1.237562 -0.422093 -2.215821 1.311543 0.002185 0.262900 -0.231689 0.273067 0.131855
14 -1.206557 -1.077786 -0.245099 -2.223548 1.178690 -0.087181 0.146292 -0.209046 0.204463 0.074991
7 -0.686623 -0.702631 -0.128290 -1.632570 -1.416986 -0.539085 -0.049661 0.601449 -1.155757 -0.119340
22 -0.853691 -0.987455 -0.155537 -1.741130 -1.375021 -0.641301 -0.140372 0.687859 -1.319189 0.025895
20 -0.858598 -0.900075 -0.073245 -1.570121 -1.458348 -0.698951 0.040723 0.605963 -1.086934 -0.117942
21 -0.857654 -0.758027 -0.209524 -1.768250 -1.405138 -0.524605 -0.117779 0.637388 -1.174680 -0.102117
2 1.794998 -1.035567 -0.072896 -1.135810 0.314013 1.595728 0.837460 -0.882513 -1.476824 -0.648908
10 1.637783 -0.995353 -0.066086 -1.082042 0.286090 1.647270 0.722891 -0.959526 -1.768024 -0.451444
16 0.096542 -1.971370 0.618147 -1.100050 0.503025 -1.546485 0.351036 1.123824 -0.677492 0.554386
8 -0.608071 -2.483334 -0.124600 -0.893872 -0.482632 0.506560 -0.101553 -0.795382 0.615432 0.832663
1 0.692419 0.212362 0.512277 -1.615162 -0.025005 -0.179738 2.056405 -1.714314 -0.716899 -1.088883
24 -1.310835 -1.013408 1.362490 -0.650330 0.125899 0.286700 1.334718 -1.988658 -1.918691 1.215507
26 0.645423 -0.011688 0.624416 -1.869740 0.027618 -0.220667 2.198824 -1.680862 -0.719708 -1.451093
39 -1.290173 -0.964281 1.233208 -0.575668 0.290775 0.544006 1.256024 -1.973593 -1.708698 1.091963
25 -1.383760 -0.741421 1.274373 -0.640238 0.137434 0.107744 1.434425 -2.106593 -1.843462 1.250583
18 0.034427 -1.096957 -0.919581 -1.589531 0.811018 -0.540197 0.220708 1.211713 -0.346168 1.744182
33 -0.062351 -2.287853 0.859524 -1.102791 0.655879 -1.822538 0.370374 1.218341 -0.754487 0.595479
44 0.828016 0.360090 -2.168635 -1.697026 -1.148546 1.150918 1.601387 -0.627810 -0.157051 1.361549
6 3.233428 -1.548418 -0.942250 -0.630587 -0.106271 -0.987835 1.587538 -0.778278 -0.349425 1.253010
23 0.850976 0.358659 -1.976093 -1.694093 -1.193928 1.153634 1.663212 -0.657900 -0.095302 1.037373
71 2.908276 -1.175733 -0.842976 -0.560114 -0.221958 -1.065518 1.464499 -0.877860 -0.427399 1.227744
27 -0.139530 -1.096794 -1.086714 -1.786455 0.851378 -0.869332 0.233006 1.493703 -0.399576 1.727189
73 1.700707 -0.776275 -0.370378 -1.383967 0.196108 1.699828 0.829041 -0.775900 -1.427796 -0.738487
72 1.546685 -0.697968 -0.277754 -1.203969 0.207468 1.668615 0.848676 -0.888099 -1.431504 -0.536970
34 2.697283 -1.136263 -0.652595 -0.364088 -0.461384 -0.998611 1.464980 -1.020119 -0.622960 1.366462
70 -1.323197 -1.097777 -0.406620 -2.240162 1.225252 0.050400 0.338691 -0.097890 0.123486 0.043658
83 -1.180350 -0.861871 0.965724 -0.481283 0.135715 0.516970 1.200350 -1.907795 -1.692480 1.285485
28 -0.681796 -0.808684 -0.131205 -1.640714 -1.276960 -0.725225 -0.070605 0.700466 -1.107085 0.085941
82 0.514790 0.166095 0.551184 -1.550408 -0.039748 0.072933 1.983544 -1.799163 -0.486831 -1.269489
58 -1.406221 -1.131892 -0.585425 -2.494360 1.302249 0.268735 0.289183 -0.230896 0.209941 0.273754
43 -0.690331 -0.810003 -0.250040 -1.560213 -1.300216 -0.495991 -0.196312 0.785390 -1.112970 0.104321
40 -0.833251 -0.681282 -0.152698 -1.673212 -1.373574 -0.521371 -0.154146 0.643770 -1.303055 -0.057173
42 -1.387765 -1.034928 -0.438434 -2.451414 1.309469 0.076613 0.345355 -0.129980 0.207988 0.139343
29 -0.703366 -0.619903 -0.325971 -1.656928 -1.330797 -0.469825 -0.206513 0.648826 -1.098190 0.082502
81 -0.700840 -0.832622 -0.106864 -1.516956 -1.376517 -0.608948 -0.151328 0.655007 -1.053408 0.032802
68 -1.336730 -1.313893 -0.542703 -2.275490 1.157257 0.175703 0.295447 -0.244772 0.236746 0.179186
85 -0.517140 -2.561469 -0.142071 -0.889074 -0.299784 0.347088 -0.008343 -0.842787 0.774645 1.008390
74 -1.309005 -1.206194 -0.289271 -2.223053 1.191507 -0.103636 0.278279 0.021118 0.164269 0.041952
57 -0.697587 -0.655448 -0.220152 -1.659222 -1.267365 -0.692085 -0.116139 0.773618 -1.138415 0.076699
79 1.717575 -0.073186 0.413824 -0.592821 -0.509380 -0.744350 1.092977 -1.379498 -2.153291 1.077435
35 -0.552092 -2.772683 -0.169366 -0.888159 -0.343577 0.528658 0.031049 -0.913870 0.987224 1.016111
77 -0.697102 -0.840331 -0.070588 -1.472461 -1.137689 -0.502502 -0.182878 0.703147 -0.900166 -0.123242
76 0.433711 0.036235 0.642577 -1.552631 -0.015218 0.020487 2.099118 -1.823812 -0.578054 -1.385942
67 -0.848271 -0.667753 -0.177827 -1.581700 -1.447654 -0.491143 -0.144813 0.545773 -1.183274 -0.006789
12 0.444482 -1.436557 -0.004031 -1.488273 -0.019793 -0.406720 -0.524303 0.132139 0.583354 0.391158
11 1.282325 0.098827 0.175355 -0.514335 -0.605556 -0.314478 1.080019 -1.472512 -1.959669 0.772199
9 0.632023 -1.515000 0.028222 -1.414267 0.046944 -0.304537 -0.576797 0.153046 0.384949 0.613011
31 1.643352 -0.754760 0.418085 -0.037676 -0.853211 -0.785329 1.018860 -1.508463 -1.708391 1.146881
19 0.427143 -1.304560 0.001892 -1.525866 0.127862 -0.246735 -0.500199 0.225412 0.339499 0.543636
48 0.439790 -1.395139 -0.085524 -1.383829 -0.045162 -0.388705 -0.453057 0.168840 0.419232 0.792671
51 1.815872 -0.667392 0.234335 -0.224476 -0.559092 -0.630405 0.819988 -1.182170 -1.556379 1.227579
4 0.390221 -1.333937 -0.184638 -1.397265 0.094358 -0.203289 -0.220307 0.167141 0.242542 0.652179
78 1.638081 -0.347776 0.179646 -0.251318 -0.516971 -0.748238 1.139943 -1.308432 -1.440863 0.896542
13 0.130332 0.432389 -0.504288 -1.521105 -0.469046 1.245503 1.369305 -0.982865 -0.608157 0.284220
52 0.195440 0.511003 -0.744966 -1.480321 -0.672666 0.987648 1.479624 -0.815779 -0.527400 0.178281
45 -0.361893 -0.998398 -0.549633 -1.290916 0.764336 -0.244300 0.137710 0.280782 0.248537 0.896894
3 1.488838 -0.632786 0.197823 -0.224060 -0.566847 -0.570441 0.870563 -1.125515 -1.321965 1.020972
84 0.002379 -1.150230 -0.126230 -0.928249 0.311114 -0.620580 0.039926 0.552399 0.025165 0.820572
46 0.354429 -1.191195 -0.176473 -1.360199 0.098201 -0.294746 -0.242055 0.268612 0.178245 0.514236
36 0.260083 -1.053381 -0.130158 -1.053617 0.104662 -0.251107 -0.186571 0.207474 0.285844 0.623959
66 0.284444 -1.115505 -0.066541 -1.196644 0.207971 -0.259927 -0.139066 0.123079 0.162695 0.597719
32 1.043121 -0.331328 0.060766 -0.383515 -0.021039 0.650603 0.618680 -0.866637 -1.214308 0.159561
53 0.429494 -0.082275 -0.108879 -0.569837 -0.049566 0.971931 1.019426 -1.026328 -0.702791 -0.041540
54 0.290589 -1.167993 -0.139760 -1.038974 -0.176245 -0.346113 -0.150220 0.244609 0.067644 0.573654
47 0.421461 -1.024253 -0.312121 -1.244194 -0.090544 -0.227722 -0.245318 0.319499 0.129737 0.641936
59 -0.036442 -0.176542 0.182549 -0.414947 -0.110712 0.729505 0.933064 -1.121988 -0.672878 0.227654
15 1.409910 -0.488046 -0.234523 -0.094966 -0.350660 -0.355224 0.768649 -0.757658 -0.535575 1.029801
64 0.105374 -1.219383 -0.205811 -1.027361 -0.018317 -0.313569 -0.049766 0.347044 0.135499 0.635257
49 0.321075 -1.176793 -0.297693 -1.277111 0.175466 -0.233377 -0.139282 0.177670 0.325305 0.747582
56 -0.025731 -0.843808 -0.108835 -0.892437 -0.301475 -0.603021 0.006286 0.483082 -0.375557 0.339891
75 -0.134120 -0.756379 0.032975 -0.904308 -0.256949 -0.461785 -0.029518 0.375811 -0.358106 0.204322
50 1.019189 -0.019637 0.242302 -0.551181 -0.134821 -0.539877 1.233863 -1.085684 -0.712426 0.065333
69 0.270795 -1.054479 -0.246405 -1.048386 0.073671 -0.308339 -0.083436 0.343954 0.055835 0.580092
30 0.369795 0.174379 -0.330163 -0.609780 -0.243470 0.413519 1.102411 -0.866450 -0.242313 0.219224
55 -0.049429 -0.996611 -0.023505 -0.795942 -0.113748 -0.641229 -0.008477 0.450204 -0.079262 0.569416
60 -0.175451 -0.775491 -0.159981 -0.969593 -0.268955 -0.468954 0.023522 0.484312 -0.339022 0.508867
41 0.003948 -0.813101 -0.098592 -0.902498 -0.246431 -0.638749 -0.017262 0.588441 -0.332873 0.443695
63 0.053141 -1.021422 -0.022500 -0.803897 0.074727 -0.233376 -0.014206 0.122946 0.058236 0.560567
65 -0.033928 -0.906498 -0.097362 -0.869555 -0.157870 -0.519805 0.077179 0.350236 -0.178577 0.376336
37 -0.290495 -0.733930 -0.114647 -1.008079 -0.009220 -0.341406 0.027932 0.307697 -0.091985 0.325296
62 0.356012 -0.152103 0.092567 -0.329386 -0.216674 0.210471 0.803423 -0.923672 -0.622518 0.285432
61 -0.231519 -0.700840 -0.111931 -0.926088 -0.231319 -0.563994 0.050907 0.362652 -0.250003 0.377263
38 0.235151 -1.028468 -0.200447 -1.052062 0.138810 -0.216656 0.046272 0.120153 0.072976 0.548479
80 -0.055490 -0.884775 -0.176236 -0.947215 -0.109752 -0.263437 -0.026013 0.380802 -0.167599 0.388704
17 0.952431 -0.336074 -0.124848 -0.223315 -0.215640 -0.065130 0.629602 -0.610005 -0.553949 0.564418
