6 10
3 -0.080346 -0.092555 0.169935 0.033678 0.094274 -0.085306 0.136114 0.197408 -0.125349 -0.079662
6 -0.015247 -0.095534 0.109258 0.066014 0.067406 -0.046104 0.113704 0.183494 -0.068119 -0.041944
2 0.012237 -0.084523 0.090810 0.010000 0.047566 -0.058233 0.107539 0.187933 -0.112544 -0.053713
4 -0.031853 -0.038453 0.108131 0.043970 0.099486 -0.103171 0.049744 0.221101 -0.062680 -0.081817
1 -0.079773 -0.139875 0.154720 -0.014817 0.091090 -0.119961 0.089581 0.207103 -0.031553 -0.052040
5 -0.009481 -0.086550 0.002530 0.006332 0.071083 -0.051475 0.088326 0.038501 0.014519 -0.060123
