158 10
10 0.271748 -0.718627 0.250236 -1.737201 0.609505 2.258464 0.072856 0.127838 1.216628 -1.120392
15 0.219580 -0.714855 0.004141 -1.578445 0.714388 2.199778 -0.009455 0.091328 0.982396 -0.944902
116 -2.639496 -1.046749 1.177523 -0.564652 -0.360671 1.980139 0.236054 0.228724 -0.710186 1.027121
103 -2.593596 -1.115304 1.445621 -0.747790 -0.726904 1.964763 0.367297 -0.054181 -0.757869 0.684994
27 -0.029403 -1.131396 -1.219140 -0.772284 1.345330 1.506672 -0.515859 1.251203 0.319782 -0.968122
9 -0.634982 -0.735824 -1.355613 -0.798774 1.167001 0.590348 1.700812 1.714331 0.990675 -0.039627
18 -0.617053 -0.939728 -1.292699 -0.826451 1.227566 0.711596 1.609819 1.830491 1.065149 0.079843
17 0.090113 -1.212355 -1.039106 -0.684697 1.406365 1.564889 -0.466604 1.288028 0.227608 -0.976871
7 0.220846 -2.086021 -1.660150 -1.931816 -0.286455 0.401138 -0.047583 -0.364742 1.003579 -0.660992
12 0.155543 -2.040645 -1.749830 -1.851484 -0.080452 0.503341 -0.030088 -0.279011 1.059967 -0.745720
5 0.409188 -2.299533 -1.787041 -2.111296 -0.238456 0.338060 -0.145967 -0.308646 1.096002 -0.773227
16 -1.914682 -0.068637 -2.273899 -2.162302 0.911548 0.932214 -0.210160 -0.444027 0.696995 -0.589324
34 -0.031298 -0.890150 0.531654 -1.906221 0.927295 0.430220 -0.045369 0.777829 -2.883946 -0.954614
111 0.067665 -0.906332 0.435959 -1.940485 0.846660 0.432574 -0.255097 1.040088 -2.966377 -0.885709
35 -3.332276 -0.957911 -0.334770 -0.125987 0.314453 2.225353 1.220029 0.652174 -0.945817 0.426462
95 -3.078318 -0.928074 -0.360810 -0.104292 0.250359 2.029700 1.085654 0.629079 -0.977715 0.357378
79 0.428044 0.257724 -0.645840 -3.155804 0.256071 -0.208300 0.136007 0.788302 -1.396080 0.708478
102 -1.078090 -0.279262 1.236917 -2.600444 -0.993143 -1.514345 0.760376 1.622678 0.897398 0.788580
82 0.418804 0.216268 -0.604798 -3.109535 0.126465 -0.282912 0.157713 0.694772 -1.369674 0.710486
53 0.393396 0.373632 -0.552775 -3.093325 0.366217 -0.061306 0.328013 0.729629 -1.367559 0.648122
85 0.287740 0.372526 -0.628883 -3.221931 0.376057 -0.265885 0.102807 0.884088 -1.338822 0.530915
43 -1.173597 -0.188797 1.170786 -2.787817 -0.829917 -1.489732 0.773665 1.527704 1.044360 0.625776
132 -1.116286 -0.109428 1.128191 -2.725912 -1.002409 -1.447703 0.848725 1.609316 1.080024 0.705955
97 -1.225509 -0.272938 0.949494 -2.565407 -0.682391 -1.490443 0.830425 1.537469 0.910148 0.815406
2 -1.279935 -0.095487 1.219502 -2.667646 -0.846170 -1.387869 0.894591 1.608462 0.921151 0.895140
73 0.323903 0.293500 -0.517378 -3.032483 0.414599 -0.276938 0.249580 0.793118 -1.310108 0.880189
44 0.258667 0.333151 -0.525229 -2.867262 0.297745 -0.163708 0.263863 0.978010 -1.312479 0.722613
58 0.267960 0.428171 -0.686460 -2.992211 0.342569 -0.325361 0.336199 0.898961 -1.332331 0.741989
21 -1.205600 -0.217667 1.240879 -2.555853 -0.936025 -1.404838 0.856153 1.649957 0.916837 0.649433
24 -1.085381 -0.219508 1.034556 -2.763208 -0.710756 -1.607851 0.796917 1.761316 1.040013 0.752085
135 -3.144908 -1.562568 -0.589374 -0.831514 -1.727884 0.588171 -1.491562 0.337142 0.468701 0.432293
51 -1.282811 -1.283993 0.974198 -1.692473 0.307823 -1.497904 -0.639382 0.896463 -0.968676 -0.750392
146 -3.050305 -1.642042 -0.735819 -1.002025 -1.662837 0.490574 -1.572468 0.444034 0.211504 0.245351
138 -2.996987 -1.490633 -0.630616 -0.952674 -1.848010 0.715652 -1.479138 0.518517 0.566697 0.444210
74 -1.381088 -1.067389 1.108549 -1.798135 0.287881 -1.472992 -0.733083 0.924594 -0.967592 -0.516889
126 0.045344 -1.383322 -1.375782 -0.693191 1.464361 1.627001 -0.462752 1.182564 0.134973 -0.973984
62 0.275858 -0.604087 0.018338 -1.507170 0.512175 2.107676 -0.040950 0.206314 1.083097 -0.877119
105 0.224775 -2.034937 -1.906225 -2.061963 -0.547594 0.299439 0.197172 -0.248683 1.153735 -0.653459
29 -1.078897 -0.978851 1.078417 -2.120469 0.456423 -1.075976 -0.716801 0.104188 -1.153476 -0.433612
56 0.048470 -1.174151 -1.227447 -0.703116 1.414242 1.498378 -0.454370 1.224346 0.225403 -0.943283
134 0.260712 -0.583570 0.194013 -1.598674 0.613537 2.261914 -0.133687 0.216572 1.091332 -1.028244
120 -2.698193 -1.089511 1.324082 -0.559257 -0.753500 1.911662 0.076855 0.448931 -0.618071 0.687012
40 0.074221 -1.136958 -1.327405 -0.819225 1.550593 1.459515 -0.503577 1.206375 0.336468 -0.928851
110 0.321633 -0.645319 0.163305 -1.660277 0.472515 2.358489 -0.187507 0.192935 1.144709 -0.893083
157 0.201165 -0.557036 0.227032 -1.542709 0.652299 2.172468 -0.079134 0.282200 1.194886 -0.915754
72 0.365427 -2.054085 -1.703710 -1.935093 -0.400964 0.352299 -0.253383 -0.208034 1.176063 -0.549955
140 0.327524 -0.583109 0.143922 -1.614815 0.664430 2.284633 -0.059705 0.153354 1.185918 -0.801147
155 0.327951 -0.560510 0.188547 -1.588534 0.608504 2.259772 -0.106197 0.155587 1.077709 -0.870746
84 0.364147 -0.644075 0.220950 -1.694558 0.589450 2.338146 -0.286972 0.002627 1.131688 -0.916641
144 0.402749 -2.088528 -1.680689 -2.043571 -0.396468 0.468681 -0.162244 -0.171387 1.088883 -0.516487
49 -0.903996 -0.996329 1.122159 -2.098786 0.595231 -0.751708 -0.993015 0.165918 -1.222275 -0.276305
77 -0.768364 -1.777104 1.227243 -1.814024 0.754539 -0.334174 0.990636 0.493209 -2.144694 2.091770
1 -1.669629 -0.741870 0.720855 -2.156725 -0.182477 -2.096941 0.243145 1.254428 0.574764 0.481197
13 -0.052358 -1.256526 0.767872 -1.341470 -1.051673 -0.171949 1.685895 2.373859 -1.420466 -0.484647
70 0.295614 -1.286056 0.790905 -2.143267 1.116691 0.376270 -0.298947 0.638153 -2.702392 0.606627
124 -0.675197 -2.192743 1.802086 -1.810338 1.095340 -0.189111 1.380731 0.771588 -2.165248 2.081888
19 1.009238 -1.954021 -0.963859 -0.807693 -0.579544 1.765996 0.659644 1.580730 0.603379 0.199020
66 -1.432818 -2.880477 0.581953 0.050194 -0.819191 2.009847 -0.072338 1.318972 -1.251976 1.672103
46 -1.430697 -3.124011 0.489982 -0.058771 -1.009877 2.068246 -0.043537 1.388885 -1.009232 1.853001
113 0.285041 -1.252697 0.990768 -2.350296 1.096772 0.413839 -0.140748 0.732274 -2.893529 0.504172
148 -2.155664 -1.077508 1.224396 -0.571454 -0.448740 2.032779 0.001526 0.203806 -0.476655 0.810574
98 -0.720340 -0.908720 -1.474252 -0.788429 1.332279 0.513388 1.823247 1.691720 1.022534 -0.095848
75 -0.539847 -0.880018 -1.254840 -0.827988 1.297216 0.520518 1.824738 1.633997 0.992829 0.054449
158 -0.722390 -1.130790 -1.480963 -0.765584 1.115578 0.464630 1.622713 1.715908 1.161835 0.137801
60 0.015081 -1.460504 1.233861 -1.441657 -0.935722 -0.232452 1.655787 2.163723 -1.520945 -0.696727
99 1.213017 -2.159202 -0.903962 -0.874710 -0.483876 1.900412 0.517237 1.535558 0.598966 0.353432
67 -0.646561 -0.916392 -1.187572 -0.784490 1.405499 0.599712 1.652067 1.557655 1.050898 -0.046321
118 -0.695367 -1.149754 -1.349089 -0.724765 1.113029 0.196270 1.631983 1.605202 1.147417 -0.120433
96 -0.531294 -0.800356 -1.184020 -0.744623 1.195017 0.618615 1.476372 1.479399 1.161267 -0.179189
8 0.014975 -1.286456 -0.817041 -0.749786 0.377660 1.095754 0.014901 0.756210 0.707327 -0.308565
154 0.254825 0.411312 -0.650258 -2.993354 0.414119 -0.249061 0.315968 0.812435 -1.309507 0.635166
108 -2.354015 -0.893747 1.096198 -0.666029 -0.406154 1.816514 0.170488 0.123577 -0.887622 0.616568
61 -2.022544 0.904277 1.404873 -2.971841 0.076249 0.563920 -0.636272 -0.071091 -1.181497 -0.220808
156 0.373713 0.334514 -0.513307 -2.900490 0.344095 -0.105501 0.362235 0.968356 -1.193928 0.556783
131 0.537292 0.325934 -0.596727 -2.962715 0.467438 -0.235051 0.465025 0.915658 -1.289023 0.775374
68 -2.191339 0.902785 1.600527 -3.037097 -0.127214 0.586125 -0.563473 0.041278 -1.214391 -0.208978
28 -1.691625 -0.008759 -1.946366 -1.819228 1.173872 0.979161 -0.094699 -0.072926 0.639150 -0.712966
137 -2.421719 -1.047585 1.440206 -0.478875 -0.693770 2.060472 -0.185232 0.445300 -0.468991 0.461540
63 -2.917476 -1.430338 -0.464323 -0.851441 -1.578481 0.738764 -1.629699 0.111222 0.375408 0.207721
78 -1.743892 -1.091484 0.895238 -1.816714 0.245127 -2.027381 0.063226 1.047771 0.171861 0.637114
133 -2.407264 -0.890844 0.851301 -0.415814 -0.576963 1.744656 0.351025 0.307140 -0.513136 0.666449
91 -2.182362 -0.621246 1.244187 -0.765129 -0.198696 1.462420 -0.153201 0.034322 -0.665676 0.748521
6 -0.026408 -1.322926 -0.643134 -0.707868 0.285980 1.068516 0.187527 0.430290 1.096387 -0.219972
59 -2.586345 -1.038655 0.474324 -0.308441 -0.346264 1.636213 0.592851 0.013234 -0.611022 0.565669
23 -2.376898 -0.894869 1.180431 -0.508841 -0.490495 1.703292 0.229041 0.201967 -0.510619 0.687658
26 -2.461965 -0.724446 -0.238898 -0.023562 -0.310566 1.812433 0.622112 0.614440 -0.707719 0.378988
127 -1.767654 -1.120842 0.887529 -2.047121 -0.144703 -1.989736 0.038507 1.117347 0.211164 0.604865
31 -0.769061 -0.495137 1.040474 -2.294897 -1.244768 -1.071772 1.253415 2.779601 -0.128183 -0.844216
20 -2.719075 -0.998198 -0.146005 -0.010731 -0.072308 1.701113 0.739314 0.494914 -0.955540 0.415648
153 -0.085744 -1.119644 1.277550 -1.338534 -0.920628 -0.215767 1.726626 2.149417 -0.895654 -0.262539
94 -1.892388 0.049903 -2.068530 -2.156978 0.977262 0.899924 -0.384124 -0.356352 0.522089 -0.752215
107 -1.021156 -0.537502 0.923779 -2.039026 -0.994698 -1.010786 1.442092 3.123405 -0.314894 -0.801286
14 -0.064018 -1.021313 -0.758911 -0.930786 0.498056 0.784976 0.031746 0.150166 0.956201 -0.398819
129 -0.953478 -1.228183 1.000768 -2.057165 0.531952 -0.860681 -0.731097 -0.171970 -1.322409 -0.436039
123 -1.503235 -0.101441 -1.908998 -1.818609 1.078882 0.854035 -0.146146 -0.320242 0.660879 -0.664580
125 -1.699652 0.065643 -1.789421 -1.818169 1.053543 0.872457 -0.270440 -0.250513 0.592819 -0.836493
122 -1.513343 -0.087983 -1.971305 -1.721831 0.981092 0.811344 -0.138533 -0.276991 0.473384 -0.617748
92 0.128028 -1.602662 -0.655763 -0.686141 0.651478 1.252744 -0.066219 0.645133 0.719514 0.165199
48 -1.204276 -0.579699 1.352227 -2.093586 0.534995 -0.524047 -0.551258 0.044532 -1.158019 -0.594898
130 -1.656360 -0.031286 -1.932854 -1.783127 1.027119 0.778909 -0.315464 -0.196038 0.718692 -0.709084
80 -1.421008 -0.037212 -1.988009 -1.707746 0.868294 0.988259 -0.393641 -0.132720 0.705203 -0.642782
64 -0.016576 -1.195744 0.802107 -1.350936 -0.618210 -0.476382 1.190850 1.827909 -1.640267 -0.831305
112 0.165806 -1.618757 -0.473427 -0.714774 0.366461 1.021564 0.268261 0.634967 0.922515 0.240765
101 -0.806875 -0.490938 0.726294 -1.685966 0.436214 -0.496310 -0.595142 0.297274 -1.210765 -0.440446
11 -0.606064 -0.848303 0.768562 -1.119142 -0.282919 -0.779353 0.006384 1.570956 -1.257311 -0.800752
115 -2.276191 -0.862331 1.252949 -0.527300 -0.505971 1.721920 -0.004622 0.425669 -0.522902 0.549901
81 -0.236658 -0.783290 0.807369 -1.321375 -0.098263 -0.161784 0.072708 1.545234 -1.866981 -0.668388
4 -0.040837 -1.191829 -0.811680 -0.735655 0.304168 0.585762 0.244363 0.310302 0.720406 -0.330223
93 -0.915738 -0.490117 1.124581 -1.954209 0.536011 -0.387557 -0.839143 0.057015 -1.170413 -0.267485
55 0.285300 -0.403078 0.412125 -1.867636 0.524699 0.075489 -0.082154 0.346707 -1.559164 0.355112
3 -0.427506 -0.712928 0.807266 -1.102488 -0.275595 -0.629871 0.513202 1.732130 -1.300707 -0.318012
142 -0.231799 -0.920461 0.831859 -1.088885 -0.001585 -0.323483 0.387992 1.149952 -1.583373 -0.705775
143 0.067375 -1.015271 -0.886885 -0.690761 0.655895 0.871162 -0.105915 0.616512 0.543804 -0.700752
71 0.077651 -0.340467 -0.106642 -1.222688 0.535179 1.626888 -0.098709 0.065712 0.695648 -0.740450
151 0.015699 -1.006374 -0.896907 -0.713265 0.771756 0.883065 0.102216 0.564763 0.513639 -0.516845
83 0.224950 -0.829905 -0.139684 -1.158541 0.420035 1.412421 0.068119 0.171498 0.726225 -0.493409
141 0.028228 -0.443954 -0.165880 -1.121269 0.402707 1.259166 0.014537 0.078606 0.780050 -0.599389
47 0.122327 -1.043946 -1.049020 -0.799218 0.726155 0.946785 -0.328940 0.521491 0.509190 -0.570126
54 0.116121 -0.948339 -0.576866 -0.780623 0.679728 1.256307 -0.290856 0.580608 0.477910 -0.728647
36 0.199799 -0.745922 -0.055341 -1.130412 0.428400 1.525010 -0.188485 0.118168 0.749825 -0.564622
89 -0.784634 -0.350164 0.866908 -0.938198 -0.026118 0.625524 0.140158 -0.323513 -1.241276 0.571745
87 0.293989 -0.487053 -0.107463 -1.159214 0.419724 1.452137 -0.044831 0.122745 0.662093 -0.658136
147 0.087972 -0.568923 -0.369683 -1.047031 0.476589 1.241412 -0.065162 0.192326 0.595008 -0.663184
149 0.118800 -0.743200 -0.219895 -1.048557 0.478000 1.489005 -0.120201 0.237698 0.714995 -0.627847
39 0.064636 -0.551302 -0.259250 -1.060963 0.461568 1.318996 -0.084825 0.149312 0.684436 -0.711792
150 0.143867 -0.677124 -0.053103 -0.983558 0.494473 1.400833 -0.072215 0.206654 0.722152 -0.706654
45 -0.160826 -0.527525 0.760085 -0.981790 -0.798508 -0.291394 0.884707 1.652844 -0.454151 -0.055536
128 -1.722879 -1.012137 0.416447 -0.239244 -0.347852 1.051847 0.115451 0.102704 -0.459859 0.520889
57 0.049706 -0.720932 -0.590342 -0.885108 0.316180 0.903380 -0.101912 0.233725 0.617435 -0.564313
139 -1.664835 -0.626145 0.815386 -0.361941 -0.532663 1.332406 -0.074235 0.295214 -0.405233 0.497109
25 -1.540136 -0.359526 0.448142 -0.267886 -0.487488 0.936680 0.215225 0.320366 -0.327486 0.543679
76 -0.143514 -0.688915 -0.704455 -0.689701 0.550722 0.781138 -0.010069 0.231777 0.544857 -0.486947
69 -1.807709 -0.247338 -0.023536 -0.258322 -0.249217 0.916985 0.268826 0.296715 -0.607608 0.737105
104 0.209662 -0.794105 -0.520070 -0.834659 0.318511 0.858659 0.004939 0.143542 0.580522 -0.512345
106 -1.575450 -0.817434 0.142222 -0.037236 -0.060303 1.164695 0.431982 0.458871 -0.582339 0.485717
37 -0.201458 -0.581374 -0.767537 -0.801163 0.441715 0.828627 -0.081029 0.387930 0.701568 -0.468082
86 -0.005978 -0.679057 -0.470690 -0.497690 0.393702 0.622503 0.706895 0.785009 0.505199 -0.162433
33 -0.044723 -0.686677 -0.568208 -0.553511 0.284833 0.612359 0.404111 0.639937 0.492258 -0.133038
152 0.042905 -0.797449 -0.404783 -0.800106 0.195105 0.918240 0.005739 0.173787 0.524645 -0.480440
41 0.121305 -0.816011 -0.501473 -0.682583 0.535224 0.702847 0.121197 0.312703 0.547936 -0.386952
88 0.094874 -0.744225 -0.615475 -0.819044 0.081050 0.852356 0.138743 0.449285 0.553513 -0.173552
38 0.022172 -0.700513 -0.496229 -0.795899 0.404578 0.748698 0.190043 0.223212 0.758507 -0.315412
65 -0.042318 -0.687674 -0.645263 -0.708841 0.167302 0.590363 0.258353 0.669122 0.546123 -0.208018
117 -0.139768 -0.816415 -0.559633 -0.612250 0.436603 0.470535 0.349511 0.567677 0.701926 -0.238832
90 -0.036611 -0.743507 -0.655376 -0.491297 0.299582 0.500896 0.555003 0.511446 0.686199 -0.159881
22 -1.555139 -0.767703 0.220185 -0.177778 -0.580742 0.678562 -0.161492 0.278245 -0.301927 0.443244
32 -0.030686 -0.791774 -0.477756 -0.583472 0.447135 0.762690 -0.002661 0.387764 0.366518 -0.355799
136 -0.114592 -0.828463 -0.785856 -0.487755 0.469802 0.758056 -0.130316 0.371824 0.304066 -0.476856
121 -0.157429 -0.794560 -0.624744 -0.613228 0.418406 0.505284 0.400032 0.548599 0.477868 -0.019680
52 -1.395021 -0.648489 0.610576 -0.329241 -0.460352 0.969929 0.070730 -0.013500 -0.445884 0.343091
42 -0.125372 -1.126610 -0.485553 -0.636365 0.476645 0.495526 0.304155 0.587838 0.671407 -0.264564
30 -0.285785 -0.881256 -0.654963 -0.436422 0.673980 0.832392 -0.080693 0.470448 0.296821 -0.553729
114 -0.204560 -0.764519 0.475211 -0.853140 0.362196 -0.039115 0.081775 0.256490 -1.043872 0.635464
50 -0.299360 -0.361323 0.749878 -0.897859 -0.536569 -0.350154 0.523967 1.127334 -0.254589 -0.109791
109 -0.436887 -0.498980 0.402876 -0.871849 -0.122915 -0.448526 -0.109865 0.687813 -0.728152 -0.182289
145 -0.042680 -0.705184 0.455124 -0.785150 0.234205 -0.057352 0.283948 0.341091 -0.985883 0.505501
100 -0.128980 -0.698741 -0.376307 -0.582256 0.272849 0.479980 0.143194 0.467142 0.505436 -0.071507
119 -1.166301 -0.689560 0.260970 -0.144398 0.039812 0.653059 0.187966 0.145917 -0.302799 0.361264
