227 10
21 0.788887 0.868013 0.333662 -0.238536 -1.229303 0.265517 -1.353730 1.367812 1.462178 1.308754
15 1.457247 0.218272 1.107950 -0.948985 -0.464960 0.474154 0.971866 0.916128 1.421028 0.648507
14 1.407670 0.291503 1.203143 -0.830103 -0.373542 0.340993 1.045613 0.914052 1.443302 0.757002
24 1.531499 0.211022 1.148632 -0.856115 -0.443419 0.493018 1.130688 0.981916 1.490453 0.712449
13 0.827356 0.734651 0.174975 -0.241080 -1.135417 0.272519 -1.538716 1.345777 1.454719 1.325475
23 1.525451 1.021144 0.423201 -1.673298 -0.111815 -0.836844 -0.708629 2.355516 -0.412715 0.056309
20 0.450092 -0.586979 0.313711 -1.417199 0.291411 -2.037841 -0.065070 2.133970 -0.466530 0.902687
1 0.591293 -0.562073 0.444711 -1.146706 0.145787 -2.065426 -0.088759 1.851157 -0.590781 1.072109
25 -0.587242 -0.650589 0.996297 -2.407849 -0.699548 -0.103221 -0.426956 1.843589 0.851698 0.624519
19 0.145461 -2.110815 0.656773 -0.960340 -0.735120 -0.885947 -0.074147 0.724375 1.534679 1.383518
5 0.001907 -2.214379 0.689365 -1.141069 -0.581932 -0.941186 -0.052778 1.038083 1.647056 1.422923
47 -1.653385 0.952574 1.621357 0.887598 -0.121124 0.271916 -0.258016 3.201912 0.419157 -0.087948
220 0.714784 -3.203996 1.927434 -1.097008 1.924513 0.522133 -1.456101 0.484717 1.804754 -1.308455
49 1.236438 1.064531 1.492680 -0.340475 0.892935 -1.966456 -0.689031 1.183897 2.251035 -2.748487
92 1.035333 1.135419 1.384281 -0.399880 0.819908 -1.916525 -0.460701 1.094108 2.398634 -2.599669
98 1.174367 1.033249 1.810172 0.705539 0.764936 -2.323477 -0.573649 0.650953 1.397790 -1.437475
94 0.928571 1.006034 1.174577 -0.294317 1.002536 -1.938225 -0.363674 1.264634 2.408154 -2.661311
204 -1.304240 0.532802 3.089939 0.175656 1.351359 0.910209 0.145917 2.006318 0.408604 -0.566812
86 1.198899 1.096958 1.722140 0.574876 0.718000 -2.427192 -0.754761 0.775755 1.425905 -1.356759
8 1.139421 -0.800028 1.819275 -0.986601 -1.890089 -1.395188 -0.857516 0.700679 0.282835 0.778641
12 -0.085782 0.396795 1.536163 -1.093427 0.165278 -1.031747 -0.232873 0.501800 1.322624 2.061490
82 -1.716094 0.886730 1.291523 1.276999 -0.443381 0.252926 0.030388 3.441680 0.670924 0.034988
91 1.449225 -0.850944 2.050403 -1.139717 -2.140527 -1.814326 -1.249272 0.878260 0.177920 0.670523
115 0.681875 -2.028806 3.270548 0.827616 1.210321 1.091468 -1.388111 0.118509 0.881980 0.246891
41 -1.130577 0.457074 1.931816 0.541280 0.599106 1.128859 -0.201359 2.551305 0.393619 -0.558161
176 0.957100 -3.042478 2.036522 -1.216554 1.677889 0.531835 -1.378393 0.479531 1.803200 -1.406359
131 -1.275324 0.555901 2.320399 0.290710 0.883400 0.887087 0.199964 2.331784 0.350687 -0.710610
153 1.006190 -2.887611 1.801413 -1.183017 1.870708 0.559307 -1.175777 0.619432 1.646262 -1.539404
68 -1.422419 0.384138 1.493994 0.924994 0.087771 0.769470 -0.387892 3.191700 0.278480 -0.457775
127 0.113085 -1.222078 2.295802 2.135046 1.672582 -0.659331 1.505594 1.783695 0.392593 1.769422
174 0.546052 -2.517187 3.373308 0.812112 1.129741 0.949482 -1.488163 0.224751 0.556493 -0.036937
59 -1.014694 0.615763 2.989929 0.098991 1.160567 1.010987 0.170760 1.938240 0.351398 -0.631111
46 -0.149712 -1.324318 2.088464 2.161625 1.477960 -0.694666 1.502302 2.032897 0.395843 1.746982
64 1.153497 -1.873388 0.728315 2.078185 1.813188 0.172022 1.586590 2.289649 1.150680 0.805549
111 1.031819 -2.860260 1.981927 -1.126899 1.721559 0.836917 -1.202885 0.616947 1.568799 -1.315621
4 1.092931 -0.426559 -0.195357 -1.736464 -0.231477 -0.574055 -0.532681 1.083173 1.060651 0.138817
173 0.285921 -0.572945 0.334586 2.302739 1.416841 -1.071492 0.822654 2.104526 2.324069 3.109912
44 0.437219 -0.529452 0.404692 2.371649 1.650747 -0.936072 0.748033 2.202812 2.316160 2.995723
7 1.056722 -1.960436 0.806927 2.180645 1.939565 -0.085424 1.494718 2.156940 1.242418 0.741158
16 0.509366 -0.624668 0.397347 2.249361 1.545070 -0.960578 0.800120 2.086529 2.353208 3.234138
110 1.988737 0.413777 1.170886 1.092997 0.309432 -2.909454 0.822500 1.173774 1.903074 -1.075881
6 0.991704 -0.463377 -0.364855 -1.678606 -0.269760 -0.493791 -0.571899 1.133350 1.080087 0.249458
10 0.966659 -0.503654 -0.290234 -1.835467 -0.088288 -0.637535 -0.577642 1.242758 1.033466 0.125914
130 1.215020 0.865427 1.669843 0.795208 0.402926 -2.688390 -0.567221 0.733881 1.281362 -1.187434
67 1.177181 0.820560 1.670613 0.583708 0.636876 -2.615128 -0.612747 0.535431 1.632825 -1.166804
113 0.290034 -0.136100 2.394337 1.288958 -1.779938 0.458099 0.317544 3.452675 -0.580660 -1.413840
87 1.287610 -1.665061 2.586277 0.665041 0.920967 1.630821 -1.419855 1.118893 0.241564 -0.484718
213 0.211025 0.083047 2.315118 1.236599 -1.910810 0.384640 0.132019 3.488417 -0.429172 -1.366462
177 1.692276 0.518961 0.887752 1.102661 0.447752 -3.143491 0.908829 1.288945 1.999245 -0.747609
26 1.472460 0.192836 1.037072 -0.907735 -0.305522 0.422298 1.067107 0.961482 1.405960 0.790429
158 -1.460380 0.171610 1.510373 1.099480 -0.176111 0.586021 -0.379910 3.148809 0.225047 -0.103166
57 -1.342007 0.245590 1.660429 0.977876 0.280695 0.713488 -0.053803 2.948353 0.189859 -0.418063
72 1.073616 -1.083605 1.081180 0.719549 1.949921 0.993027 -3.919920 1.347701 0.410704 0.182441
63 1.044623 -0.702833 1.056176 0.758441 2.018393 0.860095 -3.841089 1.566761 0.307171 0.348262
78 0.443559 -0.737608 0.526619 -1.398482 0.496167 -2.174265 -0.015252 2.243231 -0.799462 0.717577
208 0.419304 -0.811671 0.413091 -1.447714 0.537402 -2.245424 -0.091290 2.210300 -0.758204 0.791001
36 0.583918 -0.736924 0.413789 -1.234638 0.390569 -2.133146 -0.036316 2.081134 -0.694798 0.781269
45 0.539502 -0.879259 0.376541 -1.580523 0.493506 -2.085498 -0.078490 2.166184 -0.574397 0.697165
192 -1.232607 0.405077 1.437547 1.373293 -0.243174 0.412088 -0.304948 3.188369 0.234900 -0.150098
217 -0.900871 -0.715176 1.108850 -2.552011 -0.646508 -0.304175 -0.348681 2.138789 0.743798 0.588224
85 -0.904971 -1.681828 2.173480 0.882024 -0.262047 -0.654511 -2.136892 3.124080 -1.228801 -0.978482
183 -0.595327 -0.728099 1.051898 -2.545258 -0.704488 -0.123638 -0.412525 2.163408 0.678725 0.511871
144 1.527075 -1.698375 2.390069 0.289617 0.762787 1.629009 -1.340755 0.956659 0.103780 -0.568502
42 -1.223120 -1.433391 2.132754 0.758773 -0.415598 -0.748677 -2.402577 3.339583 -1.018936 -0.963652
108 -0.368219 -1.889246 -0.061161 1.321476 2.995403 -0.714334 0.291429 2.882015 1.146746 0.344073
188 -0.671528 -0.713173 0.892564 -2.544945 -0.657305 -0.191892 -0.360344 2.012412 0.785418 0.481639
200 0.024632 -2.307372 0.744612 -0.887673 -0.521970 -1.056627 0.149293 0.925026 1.602760 1.448629
32 -0.044602 -2.471299 0.737336 -0.996107 -0.365868 -0.971591 0.209944 1.013987 1.796861 1.544790
96 0.077109 -2.455183 0.773142 -1.114021 -0.477022 -1.166269 0.265730 0.946979 1.526161 1.489160
97 -0.213813 0.369337 2.194602 -1.321630 -0.107368 -1.565121 -0.329289 0.712253 1.226806 2.583027
165 0.609059 -2.671211 0.551725 1.613323 2.008287 0.629873 -1.752930 0.889868 3.338378 0.173385
189 1.015752 -2.709383 0.735688 1.605902 2.092682 0.561949 -1.465696 0.662500 3.113437 0.305295
148 0.193398 -2.338188 0.842853 -0.875429 -0.753055 -0.966439 0.162127 0.921482 1.441876 1.494978
226 -0.003990 -2.020393 -0.212947 1.198423 3.053585 -0.750069 0.243880 2.931946 0.856337 0.451555
102 1.500763 0.338360 1.210633 1.122542 0.694832 -2.566420 -0.368111 0.675869 1.457245 -1.080631
190 0.102163 -2.299047 0.629253 -1.034972 -0.698972 -0.996119 0.087115 0.993423 1.439273 1.581955
123 -0.192542 0.515734 2.004403 -1.164543 0.011296 -1.407990 -0.449668 0.665312 1.188195 2.511986
39 1.424181 0.160256 1.007726 -1.004731 -0.515552 0.376262 0.775752 0.843886 1.133942 0.675384
167 1.605709 0.230806 1.018007 -0.863127 -0.481433 0.415328 0.994966 0.925242 1.377763 0.848635
198 0.093359 -2.268109 0.700395 -0.947273 -0.579784 -0.922351 0.097921 0.817562 1.522594 1.330143
99 1.331456 0.199388 1.109697 -0.880825 -0.469353 0.423515 0.904856 0.808714 1.302789 0.653125
209 1.547844 0.128757 1.064141 -0.918544 -0.393629 0.448340 0.988472 0.938865 1.495241 0.595273
193 1.503650 0.343822 0.979745 -1.041879 -0.341827 0.426388 1.021017 0.979702 1.161162 0.668164
60 1.501011 0.226868 1.120322 -0.958015 -0.448620 0.395537 1.151809 0.829165 1.476375 0.801917
206 1.456999 0.097116 0.920903 -0.912861 -0.445664 0.449239 0.910240 0.886995 1.477659 0.730749
215 1.562278 0.288020 1.127139 -0.741944 -0.503252 0.442097 1.088607 0.925633 1.445369 0.765251
160 1.436424 0.224239 1.073199 -0.857965 -0.413224 0.393554 0.923156 0.869727 1.275310 0.727594
119 1.249030 0.809055 0.184485 -1.540018 0.033436 -0.694459 -0.746651 1.906361 -0.170292 0.030252
135 1.391115 0.110518 1.022643 -0.808645 -0.448571 0.422712 0.942464 0.835678 1.329937 0.780375
163 1.546025 0.109463 1.108017 -0.844184 -0.453521 0.248728 1.000674 0.834659 1.332498 0.664847
150 -1.249427 0.444086 1.690415 0.234694 0.815529 0.891456 -0.349076 2.554318 0.205656 -0.645193
203 0.712923 0.859438 0.138038 -0.072848 -1.241130 0.344835 -1.420689 1.546695 1.667499 1.368597
93 1.556346 0.152223 1.002925 -0.770933 -0.500104 0.366840 1.016995 0.853193 1.406628 0.612647
172 0.820249 0.581678 -0.016403 -0.191641 -1.077541 0.192082 -0.977310 1.361925 1.176651 1.199707
22 0.637285 -1.227001 2.172383 0.824455 0.379317 1.245380 -1.184529 0.895118 0.126437 -0.353681
74 1.543198 0.021508 1.018553 -0.861480 -0.500884 0.573358 1.073787 0.879592 1.557665 0.594368
33 1.450090 0.176195 0.750353 -0.734687 -0.501281 0.409615 1.104633 0.944690 1.508250 0.704334
145 0.608127 0.645096 0.137633 -0.207595 -1.214265 0.327325 -1.336637 1.499127 1.506366 1.278435
53 0.700552 0.583993 0.135622 -0.206170 -1.302719 0.240339 -1.199705 1.331739 1.422738 1.250429
128 1.446322 0.821220 0.306185 -1.724580 0.152741 -0.719881 -0.724662 2.151476 -0.196281 0.033538
31 0.648752 0.642853 -0.036481 -0.275774 -1.138557 0.086878 -1.229270 1.382290 1.316415 1.227015
146 1.542577 0.899528 0.383746 -1.621528 0.193089 -0.722766 -0.845253 2.070246 -0.349898 -0.036800
205 0.576573 0.465264 0.090566 -0.161856 -1.083702 0.209756 -0.989683 1.176668 1.351804 1.249042
170 0.774548 0.781224 0.012723 0.002877 -1.176109 0.207724 -1.346579 1.449984 1.606760 1.283195
37 0.715440 0.634494 0.104044 -0.067934 -1.090841 0.219849 -1.032885 1.271550 1.495776 1.263355
194 0.740071 0.626080 -0.074630 -0.016450 -1.143937 0.166698 -1.237889 1.532756 1.467666 1.363431
211 1.493368 0.228596 0.924770 -0.895138 -0.377430 0.409755 0.988342 0.871023 1.300815 0.650636
210 1.319517 0.179675 0.822018 -0.902941 -0.434010 0.376122 0.895982 0.973743 1.438666 0.860304
219 1.352898 0.159838 0.984207 -0.840976 -0.332577 0.398355 1.017060 0.942613 1.401815 0.742848
104 1.453529 0.178569 0.885725 -0.759278 -0.445706 0.588957 0.844621 0.880686 1.424378 0.705602
182 0.752078 0.605124 -0.021409 -0.185337 -1.192022 0.252218 -1.351583 1.360600 1.408915 1.196597
212 1.519598 0.887675 0.380803 -1.636903 0.108429 -0.745136 -1.014238 2.106669 -0.326896 -0.026970
61 0.773432 0.604301 0.020981 -0.081651 -1.109142 0.310186 -1.140729 1.245728 1.562860 1.163355
151 0.756491 0.744351 0.212002 -0.111666 -1.259164 0.212824 -1.136094 1.300255 1.479145 1.404753
43 0.715888 0.637777 0.112286 -0.178190 -1.146503 0.299631 -1.295709 1.207157 1.365589 1.164547
105 0.843636 0.695455 0.237580 -0.251590 -1.252445 0.083769 -1.264509 1.270522 1.421519 1.250992
95 1.251371 -1.035668 -0.262467 1.916899 0.032849 -1.812011 -0.265042 2.344666 0.642392 -2.174297
77 1.478448 1.025159 0.399009 -1.702883 -0.004027 -0.753769 -0.835697 2.106554 -0.253068 -0.126328
69 0.821493 0.687826 -0.132895 -0.112846 -1.169757 0.224661 -1.363207 1.477048 1.596431 1.130655
122 1.423805 0.175884 1.086544 -0.768523 -0.427986 0.275995 0.983534 0.737444 1.325129 0.694309
34 1.626963 0.850907 0.431380 -1.808228 0.103853 -0.704758 -0.899623 2.023784 -0.362814 -0.116068
29 1.458479 0.158711 1.029910 -0.864460 -0.507620 0.476027 0.984616 0.863272 1.325918 0.653677
125 0.627758 -0.224408 -0.040850 1.810221 2.772249 -1.089902 -0.802990 2.754986 0.001908 1.284780
159 1.575666 0.997226 0.361129 -1.622919 -0.080870 -0.751558 -0.778717 2.216912 -0.301001 -0.091690
27 0.680967 0.770106 0.036016 -0.050670 -1.277791 0.240101 -1.200301 1.321292 1.570268 1.375482
124 1.138060 0.416348 1.067916 0.781215 0.717514 -2.108696 -0.507982 0.759391 1.385645 -1.464725
9 0.918853 -0.108539 0.012035 1.734869 2.708664 -1.099359 -1.022577 2.708938 -0.046706 1.500476
84 1.495543 1.014287 0.315378 -1.544563 -0.015408 -0.632113 -0.753875 2.022229 -0.297029 -0.086861
55 1.387376 0.991277 0.337330 -1.566495 0.080148 -0.740115 -0.896534 2.036781 -0.287200 -0.076876
3 -1.244667 0.293537 1.385170 0.298677 0.025665 0.785470 -0.177848 2.834837 0.420567 -1.208811
221 1.238309 0.872966 1.674016 0.761329 0.453739 -2.300911 -0.587816 0.565080 1.441802 -1.363199
54 0.724563 0.716562 0.043415 -0.204359 -1.160777 0.273561 -1.184432 1.395173 1.472942 1.275209
157 -1.284718 0.232931 1.479345 0.740305 0.228918 0.669154 -0.516114 3.046900 0.310024 -1.065486
155 0.785626 -0.660324 2.056608 1.179920 0.181875 2.227039 -2.485652 1.814200 0.778890 -0.527365
202 -1.525034 0.486656 1.303423 0.848372 -0.029678 0.264857 -0.374210 2.957762 0.585071 -0.538068
201 1.416284 -0.609156 -0.463300 2.182028 -0.190205 -1.670635 -0.324364 2.701308 0.628389 -1.852842
207 0.432247 -0.938252 0.343207 1.549208 2.069260 -0.150983 0.730280 2.093841 0.744408 1.060540
196 0.155121 -1.219834 0.496014 1.720046 2.015351 -0.174584 0.634600 2.066926 0.583884 1.160317
133 1.164852 0.403261 1.002876 0.931368 0.639242 -2.494085 -0.488082 0.817069 1.691787 -1.208789
197 -1.090513 0.277798 1.336246 0.984196 -0.631670 0.271241 -0.313107 3.011890 -0.059057 -0.277615
11 0.684305 -1.291709 0.304467 1.818934 1.883292 -0.164674 0.598891 2.234867 0.328107 0.949771
129 1.025514 -0.438310 -0.196066 -1.938790 -0.091540 -0.662411 -0.448466 1.236841 1.109102 0.279706
79 1.191888 0.355874 0.932221 1.058555 0.309902 -2.308946 -0.332094 0.732795 1.340041 -1.062740
58 0.975285 -0.406168 -0.230159 -1.790361 0.150268 -0.600703 -0.550540 0.951827 1.092291 0.256117
143 1.098527 -0.517546 -0.310218 -1.765488 -0.181130 -0.699622 -0.525770 1.129186 0.968686 0.169176
126 1.147616 -0.526936 -0.448596 -1.861130 0.112374 -0.742782 -0.629304 1.346205 1.156124 0.089419
140 -0.032342 -0.365414 1.691763 0.936774 0.260903 1.140425 -1.036823 1.282535 0.295165 -0.670770
65 0.749188 -1.001421 1.593559 1.191319 0.611627 1.953592 -2.079382 1.512163 0.674289 -0.472669
70 0.926506 -0.431286 -0.323380 -1.642613 -0.027118 -0.598424 -0.577567 1.089297 1.068231 0.343363
175 0.026031 -0.678390 1.431650 0.998119 0.440368 1.654778 -1.738234 1.612805 0.858258 -0.760307
178 1.047714 -0.312222 -0.422998 -1.797132 -0.040079 -0.477311 -0.463362 1.299041 0.972060 0.050443
169 0.124265 -1.296987 1.260501 1.940023 1.556186 -0.305766 1.057996 1.688274 0.524229 1.454493
90 1.028660 -0.357887 -0.397439 -1.726332 -0.138552 -0.572380 -0.601670 1.163463 1.093654 0.234552
199 1.237395 0.513878 1.168598 0.939330 0.727982 -2.246368 -0.358276 0.697282 1.285015 -1.138482
224 0.741805 -1.161899 1.500705 0.936141 0.646241 1.783153 -1.768809 1.445173 0.511634 -0.559180
103 0.998418 -0.437667 -0.205496 -1.845365 -0.043789 -0.487407 -0.421754 0.986876 1.181117 0.154718
89 0.405873 -2.154460 1.544878 -0.898259 1.286074 0.741600 -1.279295 0.692176 0.861576 -0.971521
76 1.156514 0.354692 0.682987 0.968137 0.552241 -1.872394 -0.368245 0.855523 1.244223 -1.446181
17 -1.165493 0.138424 1.180509 0.743603 -0.143015 0.570284 -0.591309 2.745979 0.134663 -0.510454
121 -0.971592 0.347416 1.900643 0.208573 0.828708 0.765305 -0.354821 1.521122 0.274021 -0.646994
107 0.507623 -1.901621 1.491068 -0.422146 0.978933 0.611330 -1.387928 0.612772 0.799232 -1.041354
218 0.488043 -2.342985 1.397305 -0.903104 1.249105 0.490317 -1.086205 0.475230 1.029939 -0.980840
83 0.029485 -0.462234 1.711085 0.734181 0.318742 1.243708 -1.293761 1.166390 0.383825 -0.842306
18 1.268350 -0.168355 0.096203 0.900334 0.514320 -1.455213 -0.574010 0.923271 1.021998 -1.388091
136 0.345898 -1.189745 0.506502 1.672684 1.338316 -0.071384 0.681304 1.683285 0.481403 0.957342
186 0.920047 0.245471 0.771459 0.748955 0.710300 -1.812537 -0.523946 0.621298 1.192325 -1.074237
109 0.860142 0.486227 0.576262 0.318900 0.695054 -1.497812 -0.398227 0.747784 1.361289 -1.600621
116 -0.370569 -0.536691 0.460304 -1.605184 -0.315357 -0.418694 -0.388994 1.274794 0.382941 0.312596
117 0.422958 -0.692246 0.072345 1.253997 1.709889 -0.257865 0.122718 1.660209 0.274041 1.032630
52 -1.150169 0.218601 1.267372 0.555230 -0.244832 0.364008 -0.828518 2.614747 0.087459 -0.679521
48 -0.286983 -0.909155 1.503344 0.580964 0.184831 -0.056615 -1.409366 1.276007 -0.427349 -0.579285
2 1.109275 -0.957489 1.012369 0.820993 0.683819 1.439449 -1.479903 0.925212 0.731272 -0.229235
138 -0.246533 -0.535460 0.350918 -1.594342 -0.423041 -0.311183 -0.203559 1.148466 0.465731 0.424846
166 1.027564 0.217178 0.624249 0.713152 0.737677 -1.588677 -0.380646 0.624288 1.180525 -1.172534
149 0.451298 -0.408338 0.932655 0.638744 0.690997 0.843053 -1.964564 1.078213 0.067937 -0.311098
56 -0.117105 -0.521671 0.376487 -1.630022 -0.281348 -0.267969 -0.155082 1.129893 0.477680 0.436077
66 0.399156 0.086994 0.488392 -0.773422 -0.415150 -0.076554 0.017643 0.659060 0.758300 0.690898
187 1.039596 0.225218 0.202252 0.982288 0.357943 -1.590571 -0.240784 1.115370 0.833591 -1.161945
114 0.502414 0.186478 0.419941 -0.629695 -0.356265 -0.161606 -0.187863 0.631690 0.698972 0.849182
101 0.466729 0.027484 0.570024 -0.850285 -0.400260 -0.154548 -0.090457 0.579079 0.630509 0.680517
179 0.421388 -0.162551 0.387473 -0.920817 -0.380921 -0.228458 -0.096353 0.550483 0.672235 0.584521
227 0.157246 -0.202488 0.499943 -1.066679 -0.451391 0.037759 0.163728 0.711697 0.705809 0.511305
156 0.361602 0.160891 0.695377 -0.794102 -0.232011 -0.346876 0.191273 0.569093 0.632033 0.966635
195 0.443629 0.196089 0.555964 -0.934905 -0.213272 -0.238401 -0.039369 0.584522 0.777536 0.817645
118 0.392390 0.369015 0.458515 -0.941926 -0.207150 -0.006231 -0.031943 0.670956 0.715701 0.760798
185 -0.257316 -0.334382 1.144964 0.737428 -0.039431 0.749883 -1.227571 1.317444 0.295486 -0.628781
71 -0.077980 -0.628075 1.443311 0.499847 0.126203 0.401958 -1.024917 0.987303 -0.174518 -0.505978
147 0.102338 -0.115214 0.234374 -0.986906 -0.323508 -0.415341 -0.220314 0.964052 0.282540 0.510484
81 0.576638 -0.275796 0.542246 -1.012813 -0.599455 -0.574415 -0.234756 0.673750 0.413958 0.264740
191 0.515340 0.106759 0.484036 -0.959733 -0.448551 0.058835 -0.072783 0.713074 0.702814 0.554728
162 0.292587 -0.114246 0.270628 -0.814341 -0.275752 -0.573947 -0.339283 0.670623 0.359766 0.813853
152 0.909284 -0.003313 0.242598 0.612019 0.459421 -1.179064 -0.269728 0.768285 0.944594 -1.348718
154 0.888057 -0.975722 0.784338 0.751832 0.744025 0.897088 -1.393670 0.602278 0.897671 -0.106468
216 0.480315 -0.088391 0.231894 -0.844059 -0.420137 -0.463990 -0.061217 0.806623 0.408079 0.496314
223 0.534353 -0.092283 0.297329 -0.947243 -0.199965 -0.563948 -0.199298 0.867908 0.159071 0.366546
50 0.620779 -0.456992 0.588970 -1.100383 -0.632250 -0.765443 -0.397571 0.644766 0.189237 0.201765
75 0.175106 -0.235270 0.105275 -0.803600 -0.131695 -0.643010 -0.200521 0.944086 -0.007863 0.432890
40 0.240576 -0.328484 0.198629 -0.934666 -0.163074 -0.468178 -0.211643 0.865581 0.118858 0.280108
142 0.206047 0.069497 0.427560 -0.771915 -0.287745 -0.071408 -0.170210 0.703887 0.398514 0.574230
225 0.531268 -0.402347 0.641837 -0.788181 -0.658498 -0.682670 -0.406405 0.518850 0.319311 0.457429
28 0.557798 -0.127113 0.227007 -0.884745 -0.470818 -0.309986 -0.161516 0.639810 0.556071 0.490290
51 0.216662 -0.253158 0.558150 -0.844965 -0.212780 -0.670892 -0.276722 0.507328 0.400937 0.606018
80 -0.009976 -0.545870 0.899844 0.741064 0.640989 0.709184 -0.709079 0.518522 0.492486 -0.265223
38 0.506396 0.017482 0.340618 -0.762713 -0.235504 -0.249839 -0.072893 0.614496 0.665557 0.764623
35 0.393700 -0.371946 0.118671 -0.762984 -0.175465 -0.851160 -0.325718 0.658674 0.124488 0.449461
171 0.277787 -1.288681 1.040767 0.308392 0.561830 0.584070 -0.906209 0.294399 0.513808 -0.296532
73 0.299730 -0.421004 0.674562 -0.809835 -0.777466 -0.652359 -0.416190 0.541819 0.162918 0.413927
106 0.537239 -0.415820 0.763148 -0.711351 -0.701121 -0.719593 -0.141270 0.493573 0.099021 0.321269
112 0.256253 -0.355636 0.245498 -0.746002 -0.284140 -0.316041 -0.112366 0.568294 0.431620 0.327902
134 0.684128 0.047770 0.121511 0.846595 0.243409 -1.068157 -0.235694 0.896170 0.596347 -1.016162
132 0.296050 -0.741127 0.168842 0.991981 1.149913 -0.080944 0.287467 1.188668 0.291461 0.777426
88 0.518614 0.117025 0.142740 -0.594975 -0.145731 -0.281460 -0.208996 0.745662 0.331508 0.485548
141 0.432015 -0.320975 0.601025 -0.862014 -0.633050 -0.514199 -0.384637 0.498092 0.327527 0.358191
139 0.234074 -0.355082 0.199587 -0.838357 -0.343204 -0.248067 -0.045281 0.710475 0.304318 0.379800
100 0.641382 0.176611 0.250519 0.485285 0.310308 -1.102775 -0.287630 0.655797 0.776636 -1.010931
30 0.517609 -0.397735 0.361184 -0.456252 -0.518428 -0.470418 -0.308104 0.490897 0.337894 0.582884
161 0.110067 -0.098561 0.377226 -1.012318 -0.191119 -0.214623 -0.329123 0.694470 0.471083 0.330216
168 0.306464 -1.400017 0.793705 -0.303733 0.913307 0.238393 -0.834232 0.335601 0.541276 -0.498451
164 0.328488 -0.404048 0.183776 -0.581782 -0.274359 -0.266616 -0.141626 0.477463 0.588159 0.380731
214 0.541839 0.202923 0.333752 0.476081 0.298864 -0.946965 -0.356502 0.552732 0.664313 -0.692813
184 0.592036 -0.109306 0.127732 -0.697001 -0.180622 -0.641729 -0.291485 0.767033 0.021400 0.043997
62 0.245797 -0.431174 0.302273 -0.497432 -0.181267 -0.423899 -0.168929 0.521999 0.198778 0.309202
137 0.382255 -0.092422 0.293172 -0.530879 -0.235525 -0.409333 -0.305473 0.563304 0.275555 0.224013
222 0.326488 -0.345782 0.316037 -0.541912 -0.400803 -0.512305 -0.439623 0.595503 0.331862 0.361743
120 0.398484 -0.299496 0.283219 -0.565242 -0.249799 -0.302764 -0.049406 0.501845 0.322986 0.297280
181 -0.174692 -0.244718 0.720449 0.358626 0.170641 0.213437 -0.483079 0.859071 0.214978 -0.319025
180 0.415523 -0.008613 0.268144 -0.289026 -0.107298 -0.057358 0.029014 0.418108 0.470603 0.256871
