100 10
21 -1.281127 0.332611 -0.104027 -1.281088 1.305732 -1.331704 0.305530 -1.469772 0.601420 0.780732
24 -1.144040 0.351704 -0.162798 -1.186115 1.124604 -1.111092 0.316403 -1.434055 0.585022 0.763316
26 0.429116 -0.682340 -0.275361 -1.759574 0.563582 0.832063 -1.158575 -1.259457 0.480721 0.874120
5 0.858596 -0.754076 -0.783353 -0.579600 1.963624 0.095793 1.232885 -1.446375 1.699678 0.017839
82 -0.217285 -0.492322 1.823129 -0.974614 -0.554007 0.749258 1.574888 0.697809 1.029151 1.993574
91 -0.532716 -0.580960 1.836493 -0.850113 -0.398813 0.582468 1.762812 0.617005 1.090851 1.923787
52 -0.466394 -0.712700 2.167203 -1.018405 -0.517351 0.615186 1.448140 0.561860 1.093876 2.099652
19 0.641925 -0.767246 -0.101230 -1.737097 0.731839 0.642739 -1.024024 -1.292098 0.321116 0.898873
12 0.454238 -0.820526 -0.328327 -1.802400 0.463112 0.717356 -1.018657 -1.198082 0.391668 0.884044
79 1.008956 -0.308132 1.431373 -0.966411 0.932313 0.133213 1.402638 1.399699 -0.071235 2.243348
60 1.034043 -0.034698 1.143315 -0.999996 0.922986 -0.038852 1.243602 1.476870 0.128909 2.079940
1 -1.002764 -1.745577 -0.795391 -1.344709 1.258892 -0.567419 -0.144313 -0.196903 0.439820 0.517179
13 -0.886478 -0.007577 -0.894067 -2.227139 -0.121156 0.604825 0.383427 -0.853478 0.180657 0.736959
23 -0.825948 0.278602 -0.984837 -2.323656 -0.148544 0.587629 0.311924 -1.050977 0.200068 0.751572
62 0.789612 0.050833 0.355714 -1.417590 0.542429 -0.424368 0.764389 2.194653 1.088309 1.599964
29 -1.337905 0.522619 -0.305907 -1.361967 1.294060 -1.149990 0.327766 -1.444812 0.651999 0.654249
72 -1.314863 -0.782394 0.501436 0.035262 -0.053977 2.206112 -0.481285 0.516806 2.601418 1.405099
69 -1.448971 -0.842436 0.474983 -0.125164 -0.439800 2.358114 -0.313616 0.600711 2.515944 1.437172
17 -1.443032 -0.602131 0.497201 0.011599 -0.138355 2.262726 -0.407568 0.514423 2.650170 1.468045
87 -1.136108 -0.906785 0.342269 0.132523 -0.050326 2.247908 -0.293438 0.679622 2.480686 1.335695
95 0.753100 0.264009 0.154699 -1.629169 0.230311 -0.406229 0.690981 2.220664 1.340406 1.614487
46 -0.044924 -0.030276 1.006626 1.012016 3.143569 1.355412 -0.581249 0.525463 1.893121 1.458523
75 0.541887 1.478333 0.248116 -0.547533 1.489490 2.136070 1.550031 1.836472 0.947698 1.839472
86 0.076988 0.009231 1.046651 1.039787 3.033628 1.253197 -0.435026 0.685640 2.017947 1.567090
3 -0.155325 -1.004900 -1.150883 -0.765756 1.523517 0.899043 1.586621 -0.942392 0.491078 -0.055863
31 1.062865 -0.993093 -0.517532 -0.396637 1.774866 0.125365 1.580082 -1.540562 1.780725 0.036867
39 0.868041 -0.826106 -0.645537 -0.454106 1.709019 0.085048 1.304356 -1.395456 1.602617 0.003745
55 0.992926 -0.736438 -0.581639 -0.484490 1.485326 0.013569 1.152848 -1.365288 1.709714 0.008095
89 -1.299952 0.558788 -0.224086 -1.340153 1.233263 -1.338521 0.238707 -1.323099 0.612703 0.597438
36 -0.991196 0.402211 -0.172636 -1.179566 1.271209 -0.904954 0.105912 -1.342114 0.505885 0.563337
35 0.023778 -1.124226 -1.198981 -0.765377 1.938470 0.827866 1.671555 -0.908603 0.323973 0.090656
65 -1.173065 0.196910 -0.194664 -1.308681 1.252390 -1.038837 -0.003716 -1.325184 0.520200 0.633259
81 -1.174332 0.494067 -0.163294 -1.330400 1.235213 -1.250373 0.155447 -1.376514 0.523075 0.628152
84 -1.067846 0.494617 -0.181282 -1.329947 1.335796 -0.997538 0.085734 -1.522288 0.559038 0.605644
2 0.594928 0.234175 0.749355 -1.144616 0.943837 -0.401958 0.955518 1.785501 0.391959 1.910101
58 0.463175 -0.627862 -0.377458 -1.744568 0.553663 0.925448 -0.972289 -1.124687 0.370154 0.832465
53 0.452606 -0.740504 -0.381268 -1.732026 0.576698 0.655250 -0.960109 -1.204363 0.531422 0.728115
48 0.391948 -0.828276 -0.285524 -1.655585 0.622107 0.760407 -0.878002 -1.247222 0.307335 0.739472
44 0.598626 -0.745568 -0.361586 -1.672788 0.592336 0.860583 -0.925405 -1.075086 0.381011 0.809749
16 0.459109 1.662606 0.216295 -0.460675 1.769660 1.694133 1.158985 1.490518 0.945896 1.563673
77 0.484821 -0.829191 -0.269078 -1.815182 0.533166 0.691754 -1.014464 -1.336612 0.592036 0.852357
74 0.681736 -0.925610 -0.056188 -1.593030 0.621433 0.741628 -1.172609 -1.141357 0.453929 0.922988
71 0.536366 -1.029628 -0.329841 -1.718574 0.482581 0.813355 -1.012751 -1.000609 0.374063 0.912965
34 0.509038 -0.634938 -0.247868 -1.622716 0.510448 0.535819 -0.927213 -1.233274 0.435959 0.779178
27 0.566422 1.319126 0.343971 -0.543882 1.600176 1.473120 1.320394 1.659013 0.561883 1.761139
22 -0.139674 -0.370102 1.612188 -0.751466 -0.350391 0.386818 1.171070 0.801426 1.007896 1.672914
28 -0.259498 -0.490725 -0.769064 -0.757276 1.304795 0.667849 0.739842 -0.852367 0.687796 -0.192005
14 -0.158852 -0.425154 -0.770783 -0.714257 1.385222 0.665646 1.067092 -0.805394 0.637435 -0.163729
18 0.421377 0.433973 0.105744 -1.350669 0.575840 -0.367554 0.156960 2.111198 1.013363 1.564832
76 -0.850543 -1.567255 -0.694062 -1.224577 1.502529 -0.642252 0.027880 -0.204966 0.144117 0.596519
54 -0.890312 -1.590667 -0.694154 -1.272738 1.438912 -0.509114 -0.079486 -0.199898 0.085797 0.621960
40 -1.689327 -1.004140 0.878591 -0.796008 1.171162 -1.115477 -0.207289 2.134377 0.432967 2.237091
85 -0.384489 0.077161 -0.999008 -2.048584 -0.170395 0.611324 0.555455 -0.897541 0.407568 0.443777
59 -0.817568 -1.662966 -0.874000 -1.373811 1.423713 -0.361730 -0.196773 -0.166959 0.066973 0.504993
83 -0.854487 -1.465350 -0.856490 -1.244209 1.196367 -0.468396 0.129540 -0.060704 0.100936 0.594443
42 -1.764385 -1.214319 0.645455 -0.567627 1.418325 -0.917936 -0.042041 2.089616 0.604121 2.088426
32 -0.839817 -1.514455 -0.785417 -1.127013 1.448197 -0.497201 -0.085956 -0.286869 0.132254 0.528329
56 -0.704316 -0.052539 -1.018562 -2.218771 -0.130656 0.621215 0.235114 -0.674375 0.331147 0.655376
96 -0.693032 0.128150 -1.098609 -2.434507 -0.040029 0.684190 0.545817 -0.755101 0.201467 0.578092
88 -0.797581 0.177686 -0.923553 -2.179658 -0.055527 0.516568 0.398712 -0.755875 0.181578 0.581009
90 -0.813372 0.107646 -1.110473 -2.354062 -0.224633 0.614620 0.327436 -0.741903 0.409239 0.535823
93 -0.581840 0.111574 -1.113724 -2.205185 0.020398 0.666089 0.473896 -0.726377 0.292692 0.472899
51 -0.773334 0.245383 -0.929284 -2.257154 -0.123556 0.592177 0.343445 -0.945392 0.266871 0.616994
4 -1.157731 -0.036811 1.589676 0.059790 0.021581 0.408952 0.450110 0.149169 1.735457 1.205208
68 -0.652676 0.035337 -0.795606 -2.143338 -0.196842 0.581023 0.213083 -0.896636 0.277028 0.619549
25 -0.339493 -0.404717 -0.497448 -0.756047 0.994313 0.144783 0.147517 -0.920349 0.425946 0.182101
63 -1.507157 0.987637 1.563255 -0.070023 1.176871 0.988984 -0.655471 -0.166568 1.975284 1.406869
97 -1.307695 1.060365 1.606343 0.106730 0.927265 1.106735 -0.603049 -0.092802 1.979772 1.386332
37 -1.478472 0.862739 1.593640 -0.059638 1.113779 1.078533 -0.654439 -0.158049 1.914188 1.363751
33 0.758946 -0.003686 0.724331 -1.261695 0.898111 -0.463434 1.073923 1.396893 0.379415 2.036013
61 0.635315 0.698800 -0.286243 -1.389770 0.041882 0.437528 0.875992 1.971794 1.451179 1.027187
50 -1.081596 0.102255 1.558360 0.221713 0.341093 0.691443 -0.077257 0.017824 1.778561 1.331714
78 0.189034 -0.614898 -0.891739 -0.879424 1.278833 0.575197 0.831790 -0.915256 0.927036 -0.220937
10 -0.111400 -0.542993 -0.647259 -0.751192 1.155341 0.366627 0.328399 -0.712013 0.679592 0.039891
8 -0.106329 -0.284271 1.235583 -0.825325 -0.129344 0.022040 1.020021 1.052499 0.677328 1.570249
57 0.688843 0.133202 0.840624 -0.846869 0.892251 -0.238996 0.999865 1.107166 0.582865 1.593314
38 0.735798 1.131802 -0.260479 -1.221673 0.260833 0.322072 1.135687 1.557652 1.444136 0.768135
15 0.488788 0.295494 -0.054564 -1.248823 0.536638 0.077586 0.432019 2.056142 1.054783 1.282085
11 -0.553552 -0.400561 1.103206 0.123414 0.191962 0.472803 0.064410 0.422702 1.316651 1.060275
99 -0.723444 -0.207712 -0.435952 -0.898006 1.038639 -0.528599 0.206921 -0.844052 0.372631 0.298050
94 -0.736689 -0.696470 0.528251 -0.696551 0.735574 -0.711101 0.198632 1.852150 0.483317 1.581523
20 0.499368 1.060014 -0.006442 -0.587265 0.812767 0.898349 0.801726 1.414805 0.955172 1.052521
30 -0.564589 -0.241067 -0.524288 -0.747522 1.130759 -0.491203 -0.003326 -0.824665 0.338836 0.221707
98 -0.337148 -0.572700 -0.644689 -0.651401 1.193701 -0.027347 0.285377 -0.540413 0.292863 0.123137
80 -0.386541 0.289140 0.924676 0.468421 1.266863 0.811059 -0.278049 0.470142 1.514856 1.039648
67 -0.835508 0.062446 -0.396265 -0.981400 0.860051 -0.612159 0.174534 -0.910205 0.404137 0.341237
43 -0.444700 -0.628569 -0.687262 -0.816029 1.192879 -0.067620 0.134997 -0.559705 0.338153 0.143896
64 -0.738768 0.255771 0.920569 -0.038360 0.419296 0.824562 -0.288091 0.198236 1.568796 0.977153
6 0.661770 0.808171 -0.164247 -1.076856 0.450967 0.604917 0.585542 1.242143 0.991835 0.926826
47 -0.381500 -0.245818 -0.598495 -0.578209 1.277353 -0.095620 0.377004 -0.668512 0.591116 0.036998
9 -0.838725 0.246569 1.009676 0.211419 0.643517 0.644802 -0.080404 0.147925 1.313842 0.948968
7 0.500827 0.604137 -0.108831 -0.959341 0.343931 0.597817 0.559250 1.237769 0.957527 0.960852
73 -0.025410 -0.561412 -0.479030 -0.697035 0.848937 0.262537 0.014528 -0.671047 0.460809 0.102094
45 -0.222961 -0.442616 -0.676936 -0.769693 0.995232 0.201329 0.414284 -0.599291 0.682761 0.059027
41 -0.327717 -0.109754 -0.513026 -0.767677 0.849770 0.153452 0.369809 -0.606758 0.596897 0.080518
66 -0.186921 -0.262884 -0.380562 -0.913837 0.495777 -0.069939 0.114379 -0.736481 0.194884 0.231220
49 -0.035998 -0.506897 -0.200821 -0.782104 0.499668 0.210009 -0.425450 -0.680985 0.330882 0.370592
100 0.075973 -0.500224 -0.575473 -0.639643 0.968845 0.378682 0.817471 -0.638101 0.696347 -0.031650
92 -0.156874 -0.223719 -0.502713 -0.695884 0.894736 0.094512 0.328572 -0.599816 0.582645 0.090719
70 0.041210 -0.241265 -0.371735 -0.668247 0.622379 0.253023 0.384040 -0.702340 0.693246 0.144558
