111 10
14 -1.260527 -1.511700 0.602140 -1.523066 0.346084 -0.119782 0.710998 -1.198966 0.010425 -0.587007
1 -1.426544 -0.170355 0.044788 -1.173412 1.094405 -0.464117 0.007897 0.804922 -0.575916 -0.209696
2 -1.077532 -0.214533 -0.119297 -1.044165 1.128717 -0.409317 0.062895 0.734060 -0.322099 -0.221091
4 -1.365892 -0.216621 -0.017009 -1.128332 1.152082 -0.643690 0.027890 0.929180 -0.557452 -0.329237
3 -1.262582 -0.276239 -0.281807 -0.989001 1.237018 -0.545641 0.024710 0.889977 -0.262729 -0.137381
15 -0.900825 -0.490327 0.651170 -1.888286 0.709455 0.910303 0.446069 -1.024563 0.267635 -0.628286
19 -0.383440 -0.805587 -0.453043 -0.710736 1.110999 -0.029768 0.087005 0.037119 1.036330 -0.403440
9 -0.421331 -0.766653 -0.506679 -0.701871 1.078624 -0.175832 0.183075 0.183063 1.010705 -0.449924
16 -0.456331 -0.750856 -0.489062 -0.760106 1.217897 -0.012207 0.069428 0.157091 1.060323 -0.383870
86 0.867721 -1.735014 1.896907 -1.107857 0.511414 -1.895159 -0.133148 0.478057 -0.293282 1.930219
8 -0.350295 -0.667102 -0.490954 -0.803533 1.269295 -0.101693 0.196916 0.151804 1.113241 -0.418533
11 -0.451502 -0.634735 -0.472891 -0.735221 1.162125 -0.208828 0.079428 0.204525 0.938413 -0.397166
13 -0.288378 -0.575117 -0.502493 -0.728632 1.214577 -0.155951 0.081361 0.357713 0.944073 -0.408255
7 -0.239339 -0.675607 -0.534974 -0.852782 1.265666 -0.091521 0.052309 0.224332 1.158325 -0.461387
5 -0.411957 -0.586179 -0.493048 -0.702264 1.202294 -0.072958 0.021275 0.344093 0.895825 -0.396750
109 1.155346 -1.766454 1.801840 -0.861073 0.613041 -1.592336 -0.225934 0.771870 -0.195783 1.575780
96 1.046794 -1.840587 1.898340 -0.799014 0.473669 -1.718722 -0.038441 0.574419 -0.213738 1.641335
17 0.784847 -1.766919 1.950158 -0.840297 0.512270 -1.617003 0.016813 0.645948 -0.277533 1.929929
36 0.990042 -1.635836 1.784878 -0.939323 0.526288 -1.551860 -0.090106 0.595559 -0.176910 1.830267
80 0.953821 -2.230050 2.421390 -0.392803 1.175807 2.317294 -0.392949 0.197497 0.659378 0.372075
84 0.910248 -2.345234 2.430743 -0.414714 1.197083 2.048528 -0.176957 -0.062624 0.954790 0.391274
24 1.632748 -1.152787 2.029795 -0.630280 1.097492 0.193522 -0.970347 2.083618 -0.373025 0.269375
88 1.600374 -1.215745 1.934172 -0.819802 0.954219 -0.006554 -0.901750 1.916690 -0.394628 0.263061
85 1.652043 -1.233013 2.003955 -0.772200 0.921142 0.346253 -1.005604 2.052588 -0.450450 0.177669
106 1.559019 -1.118548 1.846970 -0.835807 0.844072 0.047917 -1.006370 1.784623 -0.445170 0.420790
63 1.516861 -1.056951 1.992442 -0.869946 0.925964 0.337961 -0.935088 1.804519 -0.404779 0.317011
10 1.574909 -1.270118 1.971408 -0.744061 0.844783 0.099773 -0.771285 1.818302 -0.351419 0.350219
102 1.530935 -1.087490 1.863368 -0.910077 0.971500 0.238791 -1.118166 2.074079 -0.454863 0.139044
60 1.435813 -0.985966 1.803282 -0.804990 0.873452 0.119494 -1.017308 1.889376 -0.461646 0.493878
82 -1.059140 -1.240628 0.310669 -1.509440 0.299409 0.052502 0.375012 -1.082295 0.136898 -0.449679
22 -1.272671 -0.350920 -0.102747 -1.064131 1.076865 -0.497476 -0.049411 0.864844 -0.551442 -0.306695
105 -1.293731 -1.386973 0.671760 -1.547946 0.249576 0.182617 0.444312 -1.140286 -0.081396 -0.424918
66 -1.113017 -0.231577 -0.232722 -1.062340 1.108042 -0.400671 -0.087016 0.867472 -0.329676 -0.243803
25 -1.173089 -0.227366 -0.247121 -1.053534 1.168975 -0.604968 -0.129744 0.912530 -0.328088 -0.181028
54 -1.186399 -1.489565 0.499276 -1.408945 0.207539 0.047408 0.531144 -1.166568 0.063458 -0.609311
108 -1.110335 -0.225161 -0.173151 -0.886636 1.149067 -0.366147 -0.088828 0.923124 -0.376908 -0.044222
41 -1.308819 -0.308448 -0.071709 -0.956465 1.085049 -0.474588 0.003743 0.876152 -0.572630 -0.181311
103 -1.171070 -0.202718 -0.199008 -1.005235 1.134125 -0.451752 -0.011975 0.777481 -0.262122 -0.253655
100 -1.112176 -0.279779 -0.192187 -1.010428 1.106061 -0.618921 0.024659 0.805227 -0.276983 -0.226390
81 -1.214116 -0.167081 -0.098942 -1.127685 1.017518 -0.528744 -0.083707 0.733087 -0.482382 -0.229915
48 -0.975851 -1.252221 0.442144 -1.351057 0.181470 0.056177 0.482390 -1.228585 0.127426 -0.404776
42 -1.255010 -0.219931 -0.187062 -1.144484 1.083782 -0.550856 -0.119987 0.868752 -0.453131 -0.247643
71 -1.131438 -1.552802 0.508869 -1.530352 0.230319 0.059573 0.386430 -1.274925 0.157438 -0.448667
35 -1.093324 -0.310389 -0.244256 -1.021550 1.007992 -0.463123 0.012457 0.535000 -0.221239 -0.213946
50 -1.234331 -0.237443 -0.203828 -1.064647 1.031055 -0.533292 -0.081366 0.870985 -0.481145 -0.244321
99 -1.026329 -0.265337 -0.260326 -0.927298 1.096008 -0.368114 -0.024414 0.651752 -0.209895 -0.333884
73 -1.191641 -0.242278 -0.163917 -0.997894 1.079435 -0.515530 -0.014914 0.760395 -0.442425 -0.194953
44 -1.032807 -0.287866 -0.173198 -1.022787 1.066579 -0.402814 0.035473 0.657747 -0.214959 -0.267368
30 -1.091977 -0.271020 -0.181077 -0.990028 1.082316 -0.367841 -0.032686 0.804212 -0.370480 -0.248786
51 -1.180236 -0.313334 -0.098363 -0.981491 1.079081 -0.422288 -0.060022 0.836907 -0.489495 -0.206649
90 -1.141266 -0.201261 -0.160519 -1.130896 1.151269 -0.297854 -0.138141 0.833947 -0.386896 -0.274446
47 -1.087403 -1.453490 0.598467 -1.456597 0.223299 0.005168 0.631740 -1.274028 0.071505 -0.378122
61 -0.944891 -0.450147 0.631895 -1.776350 0.749364 1.071550 0.383808 -1.043238 0.383148 -0.574519
57 -1.010054 -0.214744 -0.229016 -1.018794 1.159262 -0.402961 -0.044393 0.809487 -0.166371 -0.288129
56 -1.150086 -0.274397 -0.163529 -1.028162 1.145007 -0.631557 0.054685 0.817753 -0.420091 -0.246125
27 -1.021969 -1.294101 0.429224 -1.342299 0.214226 0.084349 0.608625 -1.111721 0.057014 -0.486121
95 -1.060176 -0.288534 -0.157850 -0.912251 1.162249 -0.471497 0.092254 0.764814 -0.183252 -0.298965
94 -1.255242 -0.327116 -0.093404 -1.028279 0.959209 -0.458865 -0.050342 0.870794 -0.598995 -0.303611
26 -0.752543 -0.664940 0.682524 -1.756706 0.843285 0.938913 0.471392 -1.088132 0.455179 -0.532387
59 -0.852251 -0.680377 0.663880 -1.808486 0.816172 0.956811 0.494800 -1.087012 0.471389 -0.512952
6 1.176656 -2.686814 2.170384 0.194728 0.299194 -0.014683 0.987819 1.053113 0.000623 0.023999
20 1.094742 -2.835199 2.288743 0.166164 0.460283 0.326799 1.015002 0.964500 0.179189 -0.210226
45 -0.233303 -0.704969 -0.474675 -0.674132 1.177212 -0.128492 0.247719 0.166710 1.023485 -0.605489
101 -0.387396 -0.774709 -0.602984 -0.584523 1.336517 -0.233963 0.196458 0.333153 0.996584 -0.625776
72 -0.160452 -0.885834 -0.483890 -0.710325 1.196950 0.005721 0.179279 0.117400 1.114607 -0.604560
29 -0.197580 -0.757586 -0.580250 -0.637010 1.315895 -0.233719 0.123023 0.315828 1.059548 -0.607291
46 -0.270322 -0.754295 -0.567511 -0.595255 1.250134 -0.135102 0.120315 0.253038 1.042950 -0.519517
28 -0.201741 -0.750970 -0.398055 -0.588982 1.178739 -0.089771 0.310604 0.127712 1.071545 -0.564301
65 -0.366471 -0.742767 -0.369207 -0.609178 1.186735 -0.040466 0.280489 0.079964 0.963819 -0.516665
43 -0.213614 -0.723786 -0.532212 -0.518865 1.269830 -0.241292 0.265569 0.234667 1.138282 -0.451841
70 -0.246386 -0.686782 -0.500101 -0.526003 1.196449 -0.157708 0.189862 0.340531 0.957017 -0.493474
98 -0.391937 -0.703577 -0.459001 -0.595997 1.187826 -0.152760 0.250290 0.288224 0.825103 -0.572586
23 -0.161146 -0.793099 -0.539797 -0.596132 1.281899 -0.245964 0.274091 0.249173 1.169638 -0.498485
49 -0.237487 -0.683912 -0.436523 -0.604711 1.180397 -0.141086 0.229706 0.101494 1.103413 -0.462830
31 -0.392902 -0.613987 -0.346407 -0.631650 1.202632 0.039892 0.166402 0.189157 0.837780 -0.533052
74 -0.390843 -0.861915 -0.513631 -0.664273 1.080783 -0.243209 0.229699 0.183847 0.918390 -0.577712
38 -0.293113 -0.695544 -0.440684 -0.620100 1.049072 -0.279709 0.124103 0.256261 0.811821 -0.556383
83 -0.202112 -0.794005 -0.418086 -0.573357 1.234275 -0.162465 0.249607 0.204977 1.047614 -0.568535
34 -0.312675 -0.658674 -0.460575 -0.530925 1.261454 -0.301523 0.200350 0.423690 0.880251 -0.408652
62 -0.312625 -0.619010 -0.550725 -0.648185 1.125409 -0.301414 0.221983 0.257205 0.909239 -0.517243
40 -0.280472 -0.695308 -0.446196 -0.529632 1.152900 -0.195946 0.308356 0.155172 1.000106 -0.545577
89 -0.371572 -0.716184 -0.433096 -0.599645 1.190331 -0.102695 0.229651 0.246986 0.876578 -0.567235
53 -0.136751 -0.773057 -0.566421 -0.672930 1.241236 -0.167537 0.131779 0.201656 1.042638 -0.584852
37 -0.319588 -0.705217 -0.404641 -0.652115 1.078688 -0.099669 0.178841 0.032619 0.995981 -0.551792
110 -0.259689 -0.738452 -0.451079 -0.602617 1.266978 -0.067963 0.265109 0.262363 1.010419 -0.716460
97 -0.315253 -0.679167 -0.556695 -0.606389 1.311053 -0.267357 0.166044 0.295437 1.068757 -0.475775
75 -0.308149 -0.695038 -0.572994 -0.694782 1.170717 -0.139357 0.285581 0.095252 1.012380 -0.593144
12 0.770678 -2.043075 2.011123 -0.418984 0.762541 1.802341 -0.298935 -0.014334 0.653876 0.293803
64 -0.160584 -0.786811 -0.517156 -0.618098 1.264539 -0.275342 0.301856 0.251307 1.148104 -0.535903
91 1.037114 -1.457975 1.766279 -0.655162 0.138407 -0.053996 -0.241465 0.483476 -0.028268 0.726697
58 0.763532 -1.433843 1.802007 -0.580497 0.223449 -0.144468 -0.088266 0.420054 -0.105963 1.059889
21 -0.833013 -0.468828 0.131655 -0.913893 0.569076 -0.024993 0.243693 -0.256564 0.102660 -0.174719
92 0.541582 -1.168325 1.418998 -0.632492 0.264835 -0.950161 0.076262 0.390234 -0.281695 1.303990
52 0.694215 -1.912730 1.687100 -0.158643 0.557577 1.213384 0.257678 0.004782 0.654357 0.010162
93 -0.805025 -0.594756 0.147293 -0.894433 0.421189 -0.026902 0.336572 -0.335978 0.081607 -0.267542
18 0.865561 -1.021314 1.281001 -0.431774 0.342965 -0.886160 -0.186409 0.658395 -0.189152 1.058565
67 -0.738991 -0.562932 0.191528 -0.835639 0.552995 0.060883 0.286114 -0.249110 0.065908 -0.338790
104 -0.941597 -0.728027 0.227539 -1.046476 0.399500 0.023098 0.417240 -0.585140 0.024318 -0.355776
55 -0.769424 -0.542513 0.027184 -0.928410 0.586184 -0.058482 0.225127 -0.342278 0.208815 -0.236003
77 -0.702324 -0.733728 0.176934 -0.842294 0.452908 0.044129 0.305448 -0.400551 0.150608 -0.229293
107 0.471170 -1.543266 1.360956 -0.326689 0.687181 1.499538 -0.094772 0.120151 0.543867 -0.138289
68 -0.682044 -0.434385 0.062971 -0.739398 0.627156 -0.139685 0.201874 0.011860 0.004218 -0.286040
78 -0.637108 -0.731650 0.382052 -1.022304 0.467514 0.267191 0.394477 -0.751707 0.293659 -0.267543
39 -0.690650 -0.672369 0.264168 -0.822625 0.457648 0.165763 0.397246 -0.595908 0.243283 -0.282406
33 -0.727973 -0.536602 -0.024756 -0.610570 0.534442 -0.168052 0.244839 -0.075012 0.104264 -0.265051
87 -0.617666 -0.543914 -0.009033 -0.690616 0.595110 -0.072360 0.198787 -0.119738 0.288647 -0.267904
79 -0.392427 -0.624823 0.176417 -0.923350 0.691469 0.485637 0.218701 -0.370888 0.459504 -0.429648
76 -0.635047 -0.592139 0.352504 -0.926336 0.440442 0.186625 0.284975 -0.553396 0.161105 -0.183373
69 0.439552 -1.547482 1.214118 -0.251718 0.679957 1.032066 0.143398 -0.008418 0.569950 -0.057330
111 -0.300924 -0.511387 0.083464 -0.735677 0.591132 0.176397 0.118745 -0.209558 0.349745 -0.326381
32 -0.478552 -0.445223 -0.125507 -0.720899 0.773542 0.106893 0.158264 0.009240 0.380857 -0.317495
