11 10
1 -0.032921 -0.458382 -0.257612 0.075563 0.342158 0.003518 0.392243 0.458584 0.589140 -0.464624
4 0.010609 -0.373670 -0.330058 0.124563 0.359116 0.020691 0.384856 0.495777 0.577689 -0.517805
6 0.034565 -0.404181 -0.269145 0.153652 0.306807 0.070951 0.411673 0.420289 0.512654 -0.425625
8 0.026480 -0.449739 -0.276126 0.118943 0.279707 0.072890 0.430085 0.416583 0.535877 -0.415838
5 0.023168 -0.444967 -0.343784 0.108727 0.347162 0.032382 0.435642 0.357470 0.585432 -0.475467
10 0.027076 -0.364741 -0.310518 0.104810 0.303487 0.100158 0.396160 0.375668 0.533478 -0.453401
2 0.065986 -0.410894 -0.343612 0.079469 0.291870 0.059487 0.429280 0.469962 0.499268 -0.482023
11 -0.015528 -0.403225 -0.265696 0.105692 0.303499 0.027286 0.325207 0.437244 0.517044 -0.465096
9 -0.003139 -0.402451 -0.414506 0.077671 0.325935 0.053424 0.426092 0.496722 0.640017 -0.517086
3 -0.042058 -0.443930 -0.382571 0.105737 0.382025 0.060254 0.524132 0.538507 0.621855 -0.600426
7 0.054464 -0.149275 -0.164623 0.026020 0.076772 0.051871 0.161924 0.176678 0.249681 -0.187573
