6 10
3 -0.088297 -0.098330 0.104007 0.018957 0.189378 -0.162605 0.165086 0.175540 -0.085936 -0.186317
5 -0.029975 -0.128627 -0.001649 0.006292 0.172684 -0.138845 0.150651 0.092309 0.017451 -0.162657
4 -0.042763 -0.064678 0.058189 0.030767 0.203809 -0.190670 0.096527 0.225588 -0.031283 -0.194266
2 0.006571 -0.093552 0.033286 -0.008771 0.111257 -0.110865 0.124107 0.153531 -0.068735 -0.124194
1 -0.069359 -0.102955 0.074019 -0.030170 0.103107 -0.121878 0.059501 0.116349 0.021063 -0.075479
6 0.002124 -0.047017 0.027452 0.047117 0.053816 -0.028395 0.065597 0.080369 -0.016260 -0.040881
