45 10
6 -0.234879 -0.935464 0.553096 0.155844 0.453180 -0.505859 0.064461 0.370967 0.482510 -0.072558
14 -0.281793 -0.873752 0.543032 0.040268 0.474126 -0.492328 0.067952 0.333149 0.459948 -0.038906
8 -0.148927 -1.004851 0.525497 0.096959 0.336435 -0.519489 -0.002197 0.351268 0.500992 -0.009244
12 -0.146630 -1.131767 0.530470 0.081362 0.327923 -0.823480 -0.162284 0.364995 0.492034 0.072143
4 -0.087904 -1.052368 0.542509 0.151722 0.381112 -0.714760 -0.209672 0.396889 0.519962 -0.044217
1 -0.190312 -0.946017 0.434848 -0.006810 0.373090 -0.614501 0.085455 0.479410 0.527026 -0.050356
9 -0.170273 -0.756049 0.344743 0.025212 0.363683 -0.576699 0.085732 0.458215 0.480345 -0.028801
3 -0.873704 -0.178102 0.633211 0.076775 0.959747 0.426274 0.913284 0.263720 0.344656 -0.491610
10 -0.721602 -0.304753 0.600053 0.097513 0.926769 0.220311 0.719192 0.238364 0.422461 -0.381190
13 -0.772445 -0.232246 0.649880 0.061148 0.928469 0.357383 0.833122 0.184155 0.405849 -0.386716
11 -0.736294 -0.430025 0.054983 -0.204868 0.484486 0.192975 1.008464 0.698777 0.714530 -0.529971
39 -0.620738 -0.258745 0.473529 0.042344 0.764994 0.291034 0.713688 0.311017 0.336077 -0.377913
42 -0.725014 1.425601 -0.982318 -0.911551 1.182497 -1.737762 1.924442 2.025736 0.300474 0.468003
20 -0.660213 1.149544 -0.874381 -0.810541 1.025120 -1.499541 2.010637 1.928132 0.253023 0.260851
34 -0.189233 -0.794729 0.397336 0.064465 0.427569 -0.449961 0.249618 0.436048 0.439410 -0.093996
26 -0.114287 -0.953468 0.515530 0.081636 0.412230 -0.604798 0.015513 0.356144 0.459296 -0.059746
37 -0.237647 -1.013679 0.614985 0.155225 0.452256 -0.500348 -0.023714 0.359917 0.572424 -0.063701
21 -0.208403 -0.773799 0.424211 0.023311 0.339547 -0.539980 0.053079 0.352751 0.485559 0.006398
33 -0.108102 -0.837689 0.340057 0.085659 0.335306 -0.593698 0.041209 0.465223 0.472959 -0.037231
27 -0.128371 -0.975147 0.457992 0.048950 0.382612 -0.496713 0.039959 0.393739 0.452455 -0.052372
24 -0.168676 -0.779100 0.473407 0.089369 0.461729 -0.617314 0.119485 0.449610 0.469979 0.010504
22 -0.173315 -0.832225 0.412345 0.056110 0.418734 -0.555690 0.124439 0.407856 0.442694 -0.078691
45 -0.069267 -0.954580 0.388198 0.056920 0.334957 -0.585466 0.032657 0.479753 0.550148 -0.037848
36 -0.132436 -0.911919 0.495370 0.030998 0.417147 -0.675467 0.085753 0.451487 0.507554 0.022269
25 -0.253168 -0.679301 0.341188 0.007206 0.369786 -0.407429 0.201862 0.351638 0.468978 -0.073665
23 -0.198478 -0.876014 0.488432 0.114583 0.416229 -0.452077 0.049678 0.364709 0.507474 -0.071916
32 -0.241526 -0.844995 0.433365 0.087031 0.422865 -0.438530 0.118757 0.314271 0.429646 -0.047411
19 -0.171478 -0.820314 0.505720 0.064295 0.416228 -0.584238 0.013069 0.335376 0.480724 0.007181
31 -0.117570 -1.002491 0.494013 0.098030 0.352848 -0.692274 0.022769 0.424433 0.502456 -0.020174
44 -0.145490 -0.772663 0.335782 0.014406 0.385352 -0.555379 0.116535 0.448440 0.502127 -0.016264
41 -0.225435 -0.800520 0.434399 0.067078 0.428203 -0.579796 0.082612 0.369261 0.461848 -0.041260
43 -0.128670 -0.922983 0.460989 0.085901 0.325199 -0.636498 -0.067314 0.332632 0.487513 0.010499
15 -0.612567 -0.390555 0.059873 -0.287334 0.509834 0.132308 1.049623 0.675241 0.626429 -0.422604
16 -0.237841 -0.728133 0.422270 0.044671 0.408253 -0.447558 0.184074 0.362418 0.456820 -0.070806
30 0.005387 -1.075377 0.408143 0.124677 0.245291 -0.743179 -0.074670 0.405219 0.502987 0.060147
28 -0.192575 -0.910283 0.497831 0.066093 0.399689 -0.569239 0.040381 0.397450 0.451771 -0.017596
40 -0.214184 -0.810706 0.447240 0.093192 0.435425 -0.668923 -0.062525 0.410630 0.442332 0.000651
18 -0.137814 -1.000521 0.436564 0.065199 0.381208 -0.498989 -0.002627 0.420534 0.593481 -0.041855
38 -0.158329 -0.835237 0.481914 0.082165 0.385463 -0.638514 -0.029508 0.326405 0.491085 -0.020463
35 -0.542398 -0.534171 0.084786 -0.190940 0.416112 0.048145 0.868162 0.595452 0.578708 -0.366393
17 -0.535209 -0.323531 0.006559 -0.210109 0.448219 -0.033184 1.044487 0.785172 0.638993 -0.328602
29 -0.389445 -0.418163 0.030904 -0.212370 0.452946 -0.085134 0.806013 0.627413 0.533355 -0.281815
7 -0.019708 -0.640035 -0.185961 -0.380703 0.332427 -0.190255 1.094660 1.195453 0.743467 -0.384982
2 -0.248346 -0.301377 -0.252275 -0.530290 0.662758 -0.440980 1.569510 1.539981 0.642946 -0.334056
5 -0.332911 0.126224 -0.304492 -0.354770 0.546421 -0.422148 1.042766 0.860463 0.376458 -0.119466
