101 10
13 0.100039 -0.889689 0.859900 -1.712141 -0.976295 -0.156539 0.407146 -0.596278 0.670988 1.080634
2 -0.162344 -1.299925 -0.276376 -1.451174 1.017671 -0.483847 -0.936972 1.567216 -0.789445 0.504015
19 0.023276 -0.776747 -0.025648 -0.540499 0.452088 0.259344 1.529428 -0.601556 -0.581336 0.855521
8 -0.149700 -0.710777 -0.007722 -0.413255 0.504982 0.273495 1.322325 -0.358359 -0.567812 0.711613
6 -0.073069 -0.755187 -0.112769 -0.490713 0.558249 0.227943 1.400587 -0.325625 -0.639537 0.780902
7 0.146951 -0.856606 -0.042729 -0.597517 0.613371 0.288507 1.190586 -0.358687 -0.731851 0.681877
15 -0.161620 -0.817652 -0.068360 -0.684236 0.576488 0.278414 1.329990 -0.315861 -0.732280 0.824083
16 -0.118823 -0.805111 0.022426 -0.573784 0.638475 0.503550 1.368654 -0.163664 -0.791654 0.717188
11 -0.209113 -2.995324 0.734563 0.227390 1.403731 -1.294274 -0.257916 -0.651738 1.928713 -0.347595
86 -0.376360 -2.844961 0.588511 0.261514 1.423597 -1.284593 -0.044095 -0.903414 2.067740 -0.143617
14 -1.034622 -0.516325 0.258472 -1.222650 0.524202 0.275337 -0.158852 0.351498 -0.025502 0.781148
47 0.025081 -1.335455 -0.336409 -1.480801 0.943947 -0.096459 -0.938379 1.754607 -0.785755 0.510124
10 -1.127929 -0.318187 0.201267 -1.111813 0.436132 0.501659 0.184753 0.267216 -0.050583 0.814115
42 -0.111112 -1.251976 -0.153183 -1.490440 0.834522 -0.202596 -0.714083 1.727427 -0.759841 0.545029
75 1.695600 -1.977597 0.120794 -0.651488 1.998084 -0.289206 -0.512280 -1.265675 -0.640960 -0.121427
31 1.816745 -2.072623 0.255709 -0.897650 2.039286 -0.236887 -0.668974 -1.125601 -0.993593 0.002989
18 -1.115658 -0.239483 0.077191 -1.082849 0.603433 0.321643 0.051037 0.138422 -0.045174 0.885864
40 -0.209622 -1.213633 -0.235511 -1.530680 1.030497 -0.189711 -0.963198 1.570766 -0.781080 0.520041
12 -1.046655 -0.421866 0.276195 -1.008712 0.484758 0.420251 -0.066908 0.245992 0.024664 0.653754
22 -0.068517 -0.834562 -0.069554 -0.478617 0.577655 0.371867 1.576728 -0.542810 -0.664212 0.824004
3 -0.815731 -0.400457 0.246713 -1.055664 0.495950 0.348172 -0.057227 0.305925 -0.224655 0.605381
56 0.074770 -0.829718 -0.118661 -0.555040 0.521721 0.119307 1.191645 -0.194850 -0.738455 0.756521
32 -0.284311 -0.950943 1.042866 -1.683416 -0.844283 -0.306570 0.342941 -0.661816 0.565421 0.977423
79 -0.037851 -0.811845 -0.039946 -0.460617 0.670076 0.234226 1.460290 -0.441066 -0.792396 0.770093
44 1.154955 -2.537302 -0.829001 -0.374636 0.840432 -0.030483 -0.207208 -0.571777 2.508723 0.293711
29 -0.136894 -0.721303 0.012664 -0.549435 0.622696 0.519784 1.361580 -0.369393 -0.699457 0.727615
72 0.055160 -0.930827 1.145717 -1.657550 -0.990577 -0.364222 0.111468 -0.599873 0.387580 0.796276
4 -0.983373 -0.456228 0.203783 -1.132022 0.612289 0.307518 -0.037586 0.413170 -0.172767 0.742011
83 -0.118590 -0.684735 -0.025536 -0.564709 0.611392 0.370163 1.208121 -0.404505 -0.713051 0.793830
49 -0.023655 -0.800522 0.105593 -0.406970 0.564431 0.430242 1.618551 -0.511327 -0.746335 0.736003
98 0.040994 -0.722312 -0.192323 -0.469836 0.538226 0.300189 1.357029 -0.244574 -0.662323 0.734023
76 -0.001150 -0.771850 -0.120857 -0.512822 0.448356 0.318440 1.418547 -0.266595 -0.643201 0.762121
53 -0.277707 -0.895712 1.122954 -1.871652 -1.047364 -0.462776 0.073493 -0.567125 0.649742 0.991866
92 -0.073964 -0.826245 0.015259 -0.570546 0.584737 0.559107 1.433612 -0.354115 -0.700007 0.762132
52 -0.324011 -0.810408 1.002193 -1.614725 -0.880716 -0.215529 0.473889 -0.601411 0.531714 0.910722
61 -0.328823 -0.933423 0.978829 -1.724013 -1.003526 -0.405593 0.321580 -0.501087 0.707228 1.020113
5 -0.177246 -2.587747 0.600442 0.150881 1.315348 -1.039378 -0.207294 -0.763639 1.788969 -0.326696
73 -0.191122 -0.650379 -0.190735 -0.518629 0.611413 0.473888 1.452111 -0.203958 -0.658349 0.751256
93 -0.205139 -0.874410 0.939273 -1.776567 -0.974154 -0.168083 0.340516 -0.430536 0.613236 1.068231
78 -0.120524 -0.707045 0.025222 -0.521190 0.622595 0.382076 1.437411 -0.347070 -0.826803 0.769123
67 -0.335805 -0.839058 1.056726 -1.552918 -0.797589 -0.243957 0.231738 -0.506566 0.699160 0.863356
85 -0.166705 -0.804274 0.003209 -0.413517 0.619444 0.479757 1.534675 -0.356611 -0.837981 0.768091
27 -0.020011 -0.971966 0.946507 -1.631991 -0.981189 -0.396244 0.359330 -0.691582 0.701315 0.949511
82 0.011085 -0.880134 -0.197829 -0.509179 0.690289 0.390863 1.601053 -0.267990 -0.955038 0.867627
77 1.100306 -2.515883 -0.931213 -0.376115 0.794464 -0.029435 -0.188143 -0.077425 2.122370 0.373597
38 0.128277 -2.270118 0.026083 0.090442 1.069614 -0.329802 -0.165727 -0.417131 1.904907 -0.120315
9 -0.485150 -2.313308 0.364272 0.149309 1.737009 1.122972 -0.344818 0.199562 1.921189 -0.630748
21 -1.044789 -0.437658 0.135798 -1.209928 0.557340 0.426504 0.038788 0.290097 -0.049388 0.847750
45 -0.978976 -0.376317 0.177431 -1.248953 0.519635 0.483356 -0.019020 0.401002 -0.042542 0.822966
28 -0.543664 -2.312056 0.388019 -0.043619 1.806149 1.012070 -0.624921 -0.038010 2.000552 -0.511985
58 -1.018279 -0.409152 0.182960 -1.181370 0.542766 0.450686 -0.104107 0.347736 -0.012188 0.755594
69 -0.976727 -0.430868 0.135015 -1.243468 0.535899 0.472920 -0.044243 0.328590 -0.086035 0.802895
46 1.204237 -2.191296 0.981547 -0.227427 1.461510 0.525200 -0.601982 -0.786918 0.055246 -0.498615
59 -0.454397 -2.221295 0.299446 0.051617 1.621748 0.805558 -0.352021 -0.187137 2.065202 -0.426021
71 -0.826382 -0.385505 0.236474 -1.115688 0.458040 0.469497 0.001800 0.298211 -0.162522 0.719748
41 -0.990464 -0.424662 0.136411 -1.134054 0.452781 0.424213 0.035479 0.456724 -0.046538 0.735681
43 -0.888736 -0.287687 0.166012 -0.917449 0.460733 0.263461 0.242928 0.164997 -0.136869 0.693069
39 1.025579 -2.113044 0.900447 -0.120897 1.530123 0.775083 -0.641406 -0.223739 0.223782 -0.713053
33 -0.977707 -0.423812 0.219539 -1.167342 0.445915 0.429471 0.002379 0.406929 0.024359 0.809273
62 -1.029822 -0.386887 0.244149 -1.082659 0.558673 0.509467 0.070905 0.382547 -0.156761 0.707026
63 -0.809952 -0.440423 0.085939 -1.030459 0.512688 0.399024 0.129652 0.568031 -0.224636 0.748907
24 -0.807190 -0.517940 0.309884 -0.953299 0.427962 0.473659 -0.002840 0.455352 0.035928 0.591550
26 -0.895434 -0.425363 0.356747 -1.040153 0.538135 0.484964 0.054361 0.221943 -0.118372 0.655756
48 -0.932523 -0.428081 0.122412 -1.074487 0.574681 0.474937 -0.074238 0.464685 -0.152271 0.658066
37 -0.813339 -0.426455 0.242176 -1.036825 0.495124 0.482285 0.056104 0.394527 -0.250078 0.681046
65 0.569029 -2.151364 -0.458642 -0.074610 0.882546 0.075826 -0.145939 -0.225803 2.023342 -0.049221
64 -0.786152 -0.434301 0.349142 -1.126275 0.264251 0.297837 -0.032305 0.485744 -0.187727 0.629407
84 -0.754705 -0.396612 0.144616 -0.932856 0.396785 0.354877 0.212739 0.225356 -0.135133 0.755323
17 0.173413 -1.989979 0.202846 0.031278 1.229237 0.062535 -0.405276 -0.221068 1.407678 -0.290017
20 -0.357068 -0.442994 0.029494 -0.703287 0.311069 0.181523 0.295782 0.124500 -0.209010 0.534448
70 -0.478820 -0.460076 0.217141 -0.776260 0.281861 0.297352 0.591814 0.092678 -0.383926 0.693515
23 -0.338275 -0.449024 0.124359 -0.647422 0.294219 0.261915 0.447619 0.026220 -0.254820 0.514521
55 -0.434755 -0.666405 0.019145 -0.951571 0.605772 0.167310 -0.103699 0.671226 -0.376719 0.550974
94 -0.485827 -0.595538 0.111132 -0.896609 0.443065 0.251765 0.175102 0.365953 -0.434793 0.582527
34 -0.503468 -0.461428 0.219758 -0.722483 0.359578 0.231883 0.568446 -0.097399 -0.321254 0.634706
50 -0.340023 -0.511560 0.142442 -0.680550 0.236842 0.344729 0.561997 0.008394 -0.275690 0.602555
97 -0.336856 -0.545121 0.081211 -0.648970 0.562177 0.160994 0.419827 -0.057285 -0.222352 0.550359
89 -0.260762 -0.519684 0.059474 -0.748349 0.386060 0.247065 0.238299 0.268584 -0.336577 0.485776
35 -0.285489 -0.620265 -0.096558 -0.550381 0.437002 0.196007 0.584470 0.048968 -0.343471 0.568903
91 -0.171688 -0.598314 0.156444 -0.646538 0.083558 0.121520 0.815516 -0.254188 -0.234953 0.728397
100 0.811706 -1.024775 0.324611 -0.692702 0.812840 -0.132555 -0.767401 -0.491326 -0.018414 -0.019169
80 -0.331773 -0.571355 -0.058552 -0.622926 0.424729 0.315629 0.884977 0.044488 -0.507700 0.700999
60 -0.335446 -0.487712 0.164148 -0.823752 0.185264 0.171843 0.442328 0.045062 -0.277748 0.645191
101 0.161269 -1.096837 0.051406 -0.309563 0.828855 -0.093598 -0.370005 -0.343639 0.555997 0.010821
95 -0.411812 -0.590548 0.077983 -0.940484 0.544006 0.103430 -0.092813 0.748536 -0.498557 0.525223
74 -0.448362 -0.490100 0.109706 -0.898583 0.272236 0.298266 0.264835 0.018076 -0.116891 0.599834
57 -0.381181 -0.578610 -0.011074 -0.718838 0.349204 0.294841 0.551979 0.040495 -0.122710 0.642733
87 -0.312144 -0.419448 0.074106 -0.551815 0.379868 0.324638 0.521275 0.096739 -0.472829 0.505728
36 -0.273350 -0.546584 0.146599 -0.871893 0.282164 0.199346 0.348546 0.224885 -0.265287 0.617688
88 -0.405877 -0.589681 0.272770 -1.050950 0.018559 0.046163 -0.163424 0.391638 -0.014246 0.557909
81 -0.325313 -0.550702 0.266756 -0.649984 0.300840 0.270968 0.477054 0.035034 -0.252557 0.482921
1 0.015933 -1.917267 0.280272 0.206482 0.903757 -0.501176 -0.201783 -0.450147 1.589805 -0.267729
30 -0.374699 -0.591748 0.165569 -0.861286 0.206978 0.164601 -0.103529 0.402185 -0.074995 0.488306
66 -0.348102 -0.467166 0.120536 -0.823357 0.200752 0.084904 0.103343 0.290565 -0.209281 0.530241
54 -0.484342 -0.549723 0.295724 -0.881546 0.213294 0.198305 0.020062 0.166238 -0.081064 0.494851
96 -0.420928 -0.501022 0.169739 -0.903180 0.297258 0.139492 -0.031368 0.329038 -0.138461 0.492311
90 -0.550656 -0.577395 0.112280 -0.941382 0.426458 0.320956 0.202289 0.292607 -0.080301 0.560271
51 -0.295304 -0.615426 0.070788 -0.670616 0.425861 0.176240 0.149749 0.082044 -0.059158 0.496492
25 -0.278504 -0.645912 0.060314 -0.749233 0.405839 0.186029 0.057960 0.237992 -0.173120 0.425755
99 -0.272434 -0.503120 0.118673 -0.611739 0.301434 0.235226 0.293376 0.049177 -0.057799 0.486228
68 -0.329544 -0.526171 0.175199 -0.691629 0.442823 0.146303 0.107328 0.098814 -0.191434 0.404779
